3.532297752822640051e-31 3.366808366729696114e-31 -3.423316966261295283e-31 -3.463586816632895044e-31 -3.304603791771752468e-31 -3.494959115164250746e-31 -3.262827192741268699e-31 2.749134750838708071e-31 3.445733173333735977e-31 3.207418150625428697e-31 3.409804893797463253e-31 5.881364403654185545e-32 -4.656696890697735188e-31 3.392280859114274755e-31 3.420923894861891270e-31 3.361575536077575618e-31 3.521867121250053565e-31 -7.762054860202850252e-32 3.473073526241771233e-31 -3.301738641841058224e-31 -3.477181643899024964e-31 -3.549004583833136895e-31 -3.376970985590295118e-31 -3.460519246574989203e-31 -3.568794031229230105e-31 -3.458978643678801513e-31 -2.445906814188162594e-31 3.374937615462242725e-31 -3.557620487226923933e-31 -3.454435358012873371e-31
1.233370520481633327e-31 3.528259459529825165e-31 3.614511592620280675e-31 -1.578392571028489825e-31 2.284090847941538305e-31 3.879889551569829152e-31 1.179504902448422988e-31 3.978885218917549081e-31 -1.401360183058776270e-31 3.485501087617534621e-31 2.614129224646768350e-31 -1.684832526550532218e-31 -6.273678002527843656e-32 -3.352441474773946116e-31 -3.010004453853982910e-31 1.867745795207974595e-31 -5.023918034510435503e-31 2.819735881944575316e-31 2.171051549584544507e-31 2.112588808244138367e-31 -4.393173156537173788e-31 3.462842493609954372e-31 2.153266084957733132e-31 1.746212609770809112e-31 7.513093972906320925e-32 -3.468073678569983715e-31 -7.801818307608115772e-32 -5.064754238060261442e-31 1.567217028685787255e-31 5.707562039061661472e-31
4.271329939365386963e-02 3.438850889008541648e-31 -3.393200095696617784e-31 1.737422049045562744e-01 -3.482682252164262776e-31 -6.715554744005203247e-02 3.866385002269842384e-31 1.597646463198348401e-31 8.910482376813888550e-02 -3.638696918690708912e-31 1.992873251438140869e-01 3.271911413084423336e-31 8.323504463744573201e-32 3.376462936931869725e-31 -3.456720754129742063e-31 -1.069130301475524902e-01 -3.526919395969887757e-31 -2.990538972700976323e-31 -3.500901004008787245e-31 -3.463321390008479372e-31 2.514868676662445068e-01 3.376097358188763994e-31 3.619083325249498716e-31 4.828199744224548340e-02 3.564239931015274399e-31 -3.536336986510935596e-31 -3.440967954334372588e-31 8.391707390546798706e-02 3.420372117813615288e-31 2.378485649824142456e-01
2.542331255972385406e-02 3.429182918170768662e-31 3.463595750389961293e-31 7.239902764558792114e-02 3.541723101626403317e-31 2.573474869132041931e-02 -3.544207626486301304e-31 1.465161431993441829e-31 1.351559720933437347e-02 3.535395885733667272e-31 1.383866369724273682e-01 -2.305735930719839578e-31 -1.555162334118104697e-31 3.512759626118752646e-31 -3.537687864618900568e-31 8.385078981518745422e-03 3.654758873500344648e-31 2.052317921493297384e-31 -3.211773592294095436e-31 -3.428912554470079536e-31 3.225952014327049255e-02 3.544889413209778231e-31 -3.609677959849699429e-31 8.206999860703945160e-03 -3.532336073938476858e-31 -3.578076910117673709e-31 -3.432671080107398718e-31 3.158793225884437561e-02 3.671302075697207029e-31 5.982268229126930237e-02
3.504721360648959680e-31 -3.395320922604371355e-31 -3.356112778730434284e-31 3.499211818626655618e-31 3.547164229877489521e-31 -3.475512912118597644e-31 -3.256994154673618343e-31 3.435806358639911923e-31 -3.582765486885363485e-31 3.058521102393211512e-31 -3.517021733535964096e-31 5.619179440009775648e-31 4.638364351000051121e-31 -3.385845967939003389e-31 -3.556590048878993116e-31 -3.421752618379220983e-31 3.460046697845958643e-31 -2.334238788766120536e-32 -3.401138679245461020e-31 -3.574398318096210443e-31 -3.433246131943820981e-31 -3.458464482449751844e-31 3.466095086478679641e-31 3.411552853897135994e-31 -3.429686264851790766e-31 3.387037213914126695e-31 -3.361722472871428404e-31 3.397695421193032376e-31 -3.556444992876101646e-31 -3.520570786079966747e-31
-3.403518820207005988e-31 3.347677196170063384e-31 -3.551811429244030353e-31 3.408090552836224029e-31 3.540670799083547205e-31 -3.482962960215239138e-31 -3.378465509107930574e-31 3.397004700712489199e-31 3.381545539405955132e-31 3.395639481573444195e-31 3.406960667666213646e-31 3.353886157331106707e-31 -3.453746518323291511e-31 3.440010396636192752e-31 -3.409317533839612332e-31 3.412425776002056625e-31 -3.453521293605673961e-31 3.366281510161657564e-31 -3.352629083672337353e-31 -3.372585921463987657e-31 -3.346007523994155407e-31 3.455373637603699721e-31 -3.458082916983474929e-31 -3.518717736785330493e-31 3.444481506948980405e-31 -3.557445573667521577e-31 -3.500747014248829526e-31 3.421904962447087551e-31 3.587029945291276580e-31 -3.372528557339667529e-31
-3.659487652174832546e-31 3.419651069578820897e-31 3.585538478058953262e-31 -3.499462669121121094e-31 -3.510386067925572283e-31 3.584435394160141627e-31 -3.694800442869014721e-31 -2.785877647960100640e-31 3.627108895380302801e-31 -3.523099039329715323e-31 -3.417680235750232250e-31 5.426043837378712495e-31 3.764005556883845418e-31 3.588059678342596904e-31 3.559233500575122276e-31 3.472450044038095092e-31 3.383804134251625075e-31 2.174646211309359062e-31 3.464054193186781986e-31 -3.522198845755855615e-31 3.451634625172604189e-31 3.484039713040592353e-31 -3.554689744711453806e-31 -3.434285268949947883e-31 3.569613820989493568e-31 3.365941086997659430e-31 3.528076787707707381e-31 3.573235283985506872e-31 -3.606648710907630394e-31 -3.585321246702921303e-31
3.459099014300325715e-31 -3.403013592735022569e-31 3.372960669063029802e-31 3.431453503058816993e-31 3.344468801888929033e-31 -3.516260953592111912e-31 -3.410299776919159436e-31 3.466236851097388809e-31 -3.420792004395729009e-31 -3.441272172272365396e-31 -3.422989003337415865e-31 3.405785408414261523e-31 -3.395565425429342391e-31 3.423800094439483243e-31 3.477463527444352148e-31 -3.498075115589410466e-31 -3.466130821506944639e-31 3.337704066998816933e-31 3.346662509446433586e-31 -3.424789625584005445e-31 -3.389518212290972215e-31 3.499054772581385761e-31 3.672194040810610981e-31 -3.550427167096502027e-31 -3.419631556372597247e-31 -3.451948011966533411e-31 3.529741993005082234e-31 3.621631091705470942e-31 -3.504516354434176273e-31 -3.490466140656537799e-31
3.407117713711483503e-31 3.343280142001377536e-31 3.439275242469188494e-31 3.646305893623581579e-31 -8.533476260539441190e-33 3.505283717146393062e-31 -4.100998569591562904e-32 -3.876912494576936626e-31 3.371812446181146591e-31 -3.308522419739653645e-31 -3.467983400603840564e-31 3.463906080898578377e-31 5.300542888309781462e-31 -3.450809193039456779e-31 7.143499153351005165e-32 -3.430149409626014747e-31 3.413601505451749077e-31 5.181500340303138242e-32 3.654953065167100490e-31 -2.299715989050408479e-31 3.430769365346638421e-31 3.384362258969395497e-31 5.581761574032140921e-31 -3.525203174217687217e-31 -3.521647774004190126e-31 3.355153575340163297e-31 -4.893221870608610289e-31 -3.444688629053595292e-31 3.913334481740554711e-31 -3.514565420540485844e-31
3.494888820602071574e-31 3.479014004493086745e-31 3.485901931191165021e-31 3.490951149625687075e-31 3.415269531935565903e-31 3.539216242373839707e-31 -3.412365590691294524e-31 -8.464164705511143535e-32 3.403833617594156197e-31 -3.446722939577128343e-31 -3.565831080168547447e-31 -2.864215412685339853e-31 -1.709729731999818432e-31 -3.468589250392254371e-31 -3.537764741949444346e-31 3.433981051011955075e-31 3.496310933667696377e-31 3.933989328077723290e-31 -3.459768810981424254e-31 -3.508206466300277598e-31 3.458156267830966240e-31 3.526233142367877706e-31 -2.723421752309951189e-31 3.587157603977775880e-31 3.475577564307892870e-31 3.608523859496062107e-31 -3.416935912727291578e-31 -3.492057524908681012e-31 3.675321561080408759e-31 -3.385251402896357476e-31
3.416442440198816381e-31 -3.412892212160462909e-31 -3.586380132014142019e-31 3.509424748645469817e-31 3.393187165258758739e-31 3.488791061206616039e-31 -3.462213369033394283e-31 3.560446140547430548e-31 -3.375031890109178672e-31 -3.352524229576244005e-31 -3.472351537611496184e-31 -3.384970929944251278e-31 -3.363110026403139033e-31 -3.392203041388250319e-31 3.455485309567027839e-31 -3.405885795631821746e-31 3.456646227787899930e-31 -3.291824287387352887e-31 3.483547180907597815e-31 -3.545155780229674561e-31 -3.485663305837948097e-31 3.492933033101173452e-31 3.517791917434622859e-31 3.434041706520457505e-31 3.621427731182778686e-31 -3.398191009611339052e-31 -3.368520826899974022e-31 -3.442144624179545698e-31 3.362301521388643463e-31 -3.421757790554364601e-31
-3.411273791538250783e-31 3.337581815586331415e-31 -3.633246386484816129e-31 -3.250580187297791614e-31 -2.533465391700121995e-31 2.090534183234010608e-31 -4.182444165056223622e-31 -3.524417003595857271e-31 -3.804037957396579077e-31 2.882132062481702995e-31 3.462666874753941522e-31 1.545611442517673611e-31 5.040934020535198608e-31 3.375812888555865000e-31 -9.956068046238616994e-32 2.614185648375607820e-31 -3.585955308355754845e-31 1.575777448746215482e-31 3.360426842997952079e-32 -2.980510595295241223e-31 -3.399220037366048883e-31 -3.729446022969670165e-31 1.881154189070064100e-31 -2.621768292235022068e-31 -2.298275303174040684e-31 3.459528304837246014e-31 1.684158262990900554e-31 -9.026017503615198529e-32 -8.698875662539829682e-32 -3.086022027829569092e-31
3.555857010601820338e-31 -3.484059226246816003e-31 -2.517085348119153747e-31 3.406657625222571660e-31 2.956570183472806810e-32 2.951864268163442406e-31 -2.968112068629943146e-32 -1.070220720795130988e-31 2.586232157614183659e-31 -3.385112694562960446e-31 -3.427461994441164833e-31 1.321007914889815362e-32 6.781855965331826768e-32 3.492709689174517217e-31 -3.274619281870977558e-31 3.390475299791411721e-31 -3.240655958691539369e-31 -5.293548226724648523e-31 3.125114267960515086e-31 -1.076134280225812670e-31 3.456484244666356618e-31 1.823597518775271779e-31 2.859985278714470770e-31 3.230219919844939101e-31 -3.354338722656173288e-31 -3.925664477085199850e-31 -1.156109038384007000e-31 3.218175569627543779e-31 -3.589109394797881207e-31 3.534159265676602226e-31
3.558543485391189593e-31 -3.417505557289700058e-31 -3.484045590512346465e-31 3.587272332226416136e-31 -1.398061275712628602e-31 -3.384083666808250615e-31 -4.239375237257508322e-31 -3.083370347672984176e-31 -2.209402758076732130e-31 -3.346323731974526602e-31 3.481391089169319575e-31 -5.077001008404868363e-31 -1.613725227577200896e-31 -3.451043586613010743e-31 -2.739497813051796793e-31 3.540752378391494272e-31 -3.514052199706916834e-31 5.121841063263030095e-32 -3.437861357864019446e-31 3.796657733664376427e-31 3.576445323958732374e-31 3.049508352106586869e-31 3.263614303758579302e-31 -3.428637958989727450e-31 3.599796754336687280e-31 3.431109788510636556e-31 -2.148989989157746897e-32 -3.407991341113014627e-31 2.794900977695882684e-31 3.548572707208644786e-31
3.480516756471177958e-31 -3.530988722313564352e-31 -3.603237896499284445e-31 3.423697591332091540e-31 3.586532476082008588e-31 3.059496292506653681e-31 1.055722526120394140e-31 4.991572661755469111e-31 -4.133357871954586540e-31 -3.407532663217323771e-31 3.610579093819039795e-31 -3.636716445808443522e-31 -1.175169914381460557e-31 -3.480979666146531774e-31 -1.332149661769931791e-31 3.355907537416780713e-31 -3.333226844115405004e-31 -3.114548924735324366e-31 3.183665171377232897e-31 -2.443203882477881826e-31 3.505739338756771781e-31 -2.380187099698237521e-32 3.018144987332297416e-31 3.190156251182473569e-31 -3.310514647565427258e-31 -3.483077453365009229e-31 5.616811524189479232e-31 3.334410802025553212e-31 5.626513114165685735e-31 3.486072142773164088e-31
1.254079937934875488e-01 -3.492006273354985160e-31 -3.405196720843369721e-31 1.543631702661514282e-01 -3.601261890495552179e-31 3.825486078858375549e-02 3.499489000194579514e-31 1.146946647666522680e-31 2.175177261233329773e-02 3.458508445938472598e-31 2.313595414161682129e-01 1.349339503409181512e-31 -3.112153737446088872e-31 -3.455391505117832220e-31 -3.397732096616778031e-31 1.269478946924209595e-01 3.582086051150588203e-31 -2.958518036386836882e-31 -3.503407628162480691e-31 -3.433286098751748939e-31 1.677431613206863403e-01 3.504513768346604464e-31 -3.493759875827541849e-31 7.682648301124572754e-02 3.388734862855584242e-31 3.424080802490459605e-31 3.466541774331992110e-31 -5.956594645977020264e-02 -3.467473706253324020e-31 4.943275824189186096e-02
3.640017469044422669e-31 3.371346715319350801e-31 -3.565758669716536794e-31 3.590865348259139540e-31 3.717452924305970695e-31 -3.462136256603980341e-31 -1.016154563425670367e-31 -2.751892930783477486e-31 -3.627655265154565001e-31 3.472606149687884292e-31 3.417964705383131244e-31 2.703432470874218190e-31 -7.050054405426738242e-32 -3.391707923167683972e-31 3.047383058320300173e-31 -3.505454398926132458e-31 -3.591404665067296805e-31 -4.767514504731674863e-31 3.421838664565701174e-31 -1.680849951689946308e-31 -3.469644844319292785e-31 3.491409122224767438e-31 2.966830192040371441e-31 -3.618028436619070795e-31 -3.653001979643605657e-31 3.439300633147166255e-31 3.110338539069549096e-31 -3.497834844544102391e-31 2.258247134440969985e-31 -3.600304097698502179e-31
3.412937116044664320e-31 -3.371348361011441952e-31 3.551461367026355476e-31 3.497909135787074359e-31 3.425280747123778997e-31 -3.394877761234111352e-31 -2.744748276119179623e-31 -3.552534828467526389e-31 3.467310547637429886e-31 -3.370332498793461331e-31 -3.485168657815122078e-31 3.410838623529576372e-31 3.407044833061732522e-31 3.436508128767352829e-31 -3.413045026426069806e-31 3.504810463120752009e-31 -3.188213394119434492e-31 -3.398792157422349570e-31 -3.484415401035115156e-31 3.409704271481032865e-31 -3.377533577186598665e-31 -3.492214806052821034e-31 -3.381593969773209010e-31 -3.510484104154430862e-31 -3.358342221316203834e-31 3.529528288132102742e-31 3.438118085830239034e-31 -3.338463906547188459e-31 3.394682158974134524e-31 3.482385792488985395e-31
1.912133167191634665e-31 -3.565194667527012261e-31 -3.037951361847042467e-31 -1.043988036213875573e-31 3.581313046065487467e-31 3.395948519038275374e-32 3.333959177095967289e-31 5.112912360822489246e-31 -1.215506532832187024e-31 3.388929289621210249e-31 -2.340169921837347011e-31 1.354410115840888531e-31 2.584926888687030591e-31 3.480657815793276632e-31 -1.313944075462136531e-32 6.487080773459174197e-32 1.330154142559975875e-31 -2.996847380684099211e-31 1.592059220999454986e-31 9.151289348835154298e-32 3.601019973758152952e-31 -5.258848573883855253e-31 5.324875621371802814e-31 2.030842580099254849e-31 1.937233615614178052e-31 3.030181344188107146e-31 4.018502669924442472e-31 2.004981939480034688e-31 -5.092966572677736671e-31 -2.006170129169845856e-31
3.474240321934397436e-31 3.448454677854759737e-31 -2.565720016291204906e-31 3.446890094873815272e-31 1.526647309705292728e-31 3.082171813632885772e-31 9.999555459747287521e-32 -3.291588248121707771e-31 2.766851566595431424e-31 -3.426850737378737244e-31 3.519802953170009628e-31 -1.096776313674557285e-31 -2.983050603488498022e-31 -3.503427846665314835e-31 1.053964691868174492e-31 3.244891970134162565e-31 -3.095571273737909027e-31 -5.778184329065843519e-31 3.082753448237672640e-31 -1.375892862849341247e-31 3.474553238530586329e-31 -2.855026103147221703e-31 -2.319626277265766221e-31 3.233679869917149422e-31 -3.455549961756323064e-31 -3.161476540011111398e-31 5.738027561250792862e-31 2.986828172134300525e-31 1.020062376845543980e-31 3.416726674732845210e-31
4.683181643486022949e-02 3.386406913843215784e-31 3.565846126496237972e-31 1.280197054147720337e-01 -3.528583190674041623e-31 9.326639026403427124e-02 -3.657598162555320801e-31 -1.981974723235359319e-32 3.059557080268859863e-02 -3.695592961160339107e-31 7.005131989717483521e-02 2.224326599255901728e-31 -1.685334932836073664e-31 3.377436481353220744e-31 -3.572630844790314051e-31 1.290921568870544434e-01 -3.546363953323449708e-31 -1.730735463400707463e-31 -3.559637870631805143e-31 -3.541152281569644014e-31 2.029701322317123413e-01 -3.431164801646255039e-31 3.845050485099028359e-31 -1.881240122020244598e-02 3.511475516089914379e-31 -3.639221659368915981e-31 -3.403971855729812898e-31 6.456139683723449707e-02 -3.514199606698509948e-31 2.805535122752189636e-02
4.332093999870707400e-31 -3.348807786636684260e-31 3.451604062319482810e-31 1.536019761263268991e-31 -3.232833278885687210e-31 -4.121884106695080356e-31 -3.542249252897831373e-31 -5.427271523678711292e-31 4.576336805491341312e-31 -3.402136673949309142e-31 -3.027631696941173605e-31 4.764275077399678803e-32 1.349050566897749394e-31 -3.473823961835336181e-31 3.138332466836641544e-31 2.683106527856409688e-31 2.921252044279328394e-31 -4.574486224734841784e-32 -4.349563256517147579e-31 -3.032063075544903464e-31 -2.981861238304336032e-31 3.571574075368924815e-31 -3.437849838019381388e-31 5.474548025677822380e-31 3.411406622399893702e-31 3.486457940019103963e-31 -2.909720679796631918e-31 1.214652418636879549e-31 -3.444238884914970685e-31 4.469515872250197415e-31
1.491241157054901123e-02 -3.492998860784819500e-31 3.508331538899205089e-31 1.975546777248382568e-02 3.441433920295038543e-31 -4.134862683713436127e-03 -3.639141960851930230e-31 -1.498740838717901459e-31 7.175656501203775406e-03 -3.584027027422665964e-31 9.688887000083923340e-02 -4.416712666011260260e-31 -9.052723559771530079e-32 -3.455796815569995745e-31 3.565522160253151350e-31 3.703177347779273987e-02 3.673578773155879636e-31 5.101510065619513057e-31 -3.021326110144492690e-31 -3.511711085157819166e-31 1.019849628210067749e-01 3.563961573952999681e-31 -3.587756165701214589e-31 8.014150895178318024e-03 3.519064742717693232e-31 -3.511629740948742263e-31 -3.375838749431583091e-31 9.655221365392208099e-04 3.702400013847080810e-31 -4.173220321536064148e-02
3.630886464026105305e-31 3.479104752656970226e-31 3.453968921854467088e-31 3.582421302139442720e-31 -3.413538734053415167e-31 3.567796976920862641e-31 -3.629145791991407661e-31 -3.666641652019219447e-32 3.628301316849776930e-31 -3.486673290584174606e-31 -3.398444681292246502e-31 5.467076583583995920e-31 3.934698151171269129e-31 3.417334640411090497e-31 -3.539913545622747488e-31 -3.483264121867919808e-31 -3.275761392182236492e-31 -2.510575577953735001e-32 3.109800162656872488e-31 -3.497053140800805569e-31 3.482316673421157044e-31 3.598424482231537342e-31 -3.661317191582452355e-31 3.530425895618390641e-31 3.565758434617666630e-31 3.801825677028331532e-31 -3.117180386389075138e-31 3.466430572566404322e-31 -3.523665392507941501e-31 -3.519546930500400534e-31
-3.410461760040702747e-31 -3.632674861131446333e-31 -3.368091771461923887e-31 -3.357385133815764328e-31 -3.426477870570656414e-31 3.376565440039261429e-31 -3.446981313235439082e-31 -3.406167914276019095e-31 -3.585920748821840669e-31 -3.425514670499592632e-31 3.402707729104938610e-31 -3.379753380718691472e-31 -3.584878320431531465e-31 3.554186162931561538e-31 3.403878991676097937e-31 -3.463396151449191669e-31 -3.461840737324183618e-31 -3.472653874758527677e-31 -3.496584823851437970e-31 3.532207239757626735e-31 -3.505461216793367227e-31 -3.413473376567509447e-31 -3.434463238794662378e-31 3.454564427292593659e-31 -3.460406399117310263e-31 3.418903925369438251e-31 3.490477190303435529e-31 3.522004418990229609e-31 3.474462020168962519e-31 -3.614609158651398925e-31
1.658279299736022949e-01 -3.499090272510780594e-31 -3.573601568025223096e-31 1.152098923921585083e-02 3.589512354261343087e-31 1.258114576339721680e-01 3.637115878788852935e-31 -3.030371068976329864e-31 1.992729492485523224e-02 -3.566917707146447570e-31 1.343086361885070801e-01 1.933742985139411269e-31 -2.759254346606066979e-31 -3.425643269581572590e-31 3.483552353082741433e-31 8.476705849170684814e-02 3.485850209439728841e-31 -1.031183493799803478e-31 -3.526532188130726896e-31 3.497027044826217315e-31 2.376503050327301025e-01 -3.410752577343096181e-31 3.558570286662388342e-31 7.645801454782485962e-02 -3.370093873440244407e-31 -3.584010100304014123e-31 3.516603492645941526e-31 1.571658998727798462e-01 3.740060031660984928e-31 2.130969911813735962e-01
-3.483582445738122483e-31 3.460436021574950985e-31 3.418072145566796401e-31 -3.452542812108049488e-31 -3.522688556702408180e-31 3.538637428955494812e-31 -3.704543880444110498e-31 -1.531357045371297306e-31 3.629678290932330157e-31 3.511028593137731746e-31 3.464871161760603475e-31 5.119674744723899701e-31 1.655612558175532124e-31 3.489073414949683553e-31 3.477479279068653167e-31 3.470028290576531015e-31 3.580118273607311694e-31 -3.298815422489433359e-31 -3.724662466258433948e-31 -3.520543984808767999e-31 -3.599844479407330665e-31 3.634785578787782832e-31 -3.557683963921868337e-31 -3.687532831495620846e-31 3.457418527576390173e-31 -3.470678809150276069e-31 -3.270787640485037230e-31 -3.647394636491313181e-31 -3.572427249168751631e-31 3.568913226356403485e-31
-3.382887483756853855e-31 -3.465634057594287140e-31 -3.472510229348857193e-31 3.474838648558965980e-31 -3.475731083870110261e-31 3.448916882233503060e-31 3.474613423841348430e-31 3.489892029215596194e-31 -3.358966408816490469e-31 3.281166315207317370e-31 -3.466279168894018411e-31 3.311582701732584389e-31 3.332754765584114773e-31 -3.402161124231806246e-31 -3.378483846819803402e-31 -3.434911807438936163e-31 3.515742560583399283e-31 3.399424103185351632e-31 -3.352231061285148926e-31 3.516529671600709887e-31 -3.503095416862902292e-31 -3.411658648388710000e-31 3.437004187383399834e-31 3.429248510755544546e-31 3.355415005283786174e-31 -3.469830337327852542e-31 3.336984429357243528e-31 -3.604964227502902056e-31 3.410898573741468309e-31 3.543182595412384269e-31
-1.582328008565607761e-31 -3.372102087989189203e-31 -2.635793115334682780e-31 5.303235710768645158e-32 -2.974763133216330731e-31 2.002445222670960192e-31 -3.235213419847232178e-31 -4.186809480877437269e-31 1.819995804084352290e-31 -3.459035067407640982e-31 2.149851508967464552e-31 5.672828179335259274e-32 3.047332747162084979e-31 3.464295404627570719e-31 5.206418704650739257e-31 -4.131585226473546531e-31 3.699966270343138346e-31 2.050714782297645948e-31 -5.104114490903194917e-31 -2.525110212953347340e-31 -3.044207695430423928e-32 1.040391846346404949e-31 -3.694132291880007333e-31 -3.192992719051007749e-31 1.074534432414343536e-31 3.558124539204556530e-31 5.463631444740605960e-31 4.529350885695753493e-31 -3.761107022913587821e-31 -1.428657630423006513e-31
-3.460195045233032416e-31 -3.432214518101539342e-31 3.387477083900204395e-31 3.408956186876169561e-31 3.473717932244892011e-31 -3.441436506382610352e-31 3.199887463616320794e-31 -3.408189999658303594e-31 3.542524553674793953e-31 -3.171654910496011422e-31 3.447589984210294862e-31 -3.360276849918787155e-31 3.351681870324444753e-31 3.462310935064512533e-31 3.422829841402314527e-31 -3.383176890466026303e-31 -3.340225267282460575e-31 -3.395610564412413966e-31 3.392930672391409315e-31 3.445279902712058903e-31 3.519280798579374368e-31 -3.460165657874261858e-31 -3.371258318144168965e-31 -3.464116024189635238e-31 3.546009189128371542e-31 -3.437689500589929228e-31 3.413817561313430213e-31 3.398800856080545655e-31 3.458451787110762963e-31 3.459925857026694112e-31
