-1.812713028833832807e-31 4.020157765970400253e-31 5.257904902100563049e-02 4.729321599006652832e-02 3.583831712603569031e-02 2.274324931204319000e-02 -2.577949389319419657e-31 1.931635141372680664e-01 -2.523115836083889008e-02 -6.759776067193156331e-32 1.162777990102767944e-01 3.550024677830780476e-31 -1.987866036435451688e-31 -2.040172243662861180e-31 1.044613867998123169e-02 1.195728406310081482e-02 2.202773652970790863e-02 -2.959188773463416079e-31 -4.772605746984481812e-02 2.926195233123406278e-31 3.499018567355380434e-31 3.391184593082697890e-31 3.459624930472883606e-31 -3.613403571645195587e-31 5.273980477563120396e-31 1.035321205854415894e-01 -3.504883108671632826e-31 8.550076931715011597e-02 -7.644668818835385799e-33 3.352992311426741440e-31
3.447254733221440346e-31 -3.412189031439801016e-31 3.461454704979373579e-31 3.374409113202113025e-31 3.551285983269212790e-31 3.386810578603288158e-31 3.384120107133126106e-31 -3.389606844565024215e-31 -3.417658606654177120e-31 3.471125261904718374e-31 3.437306994728171656e-31 -3.614114980826313235e-31 -3.384961055791704371e-31 3.482804738675618458e-31 -3.352792007189361322e-31 -3.543172486160967197e-31 -3.415614186879226997e-31 -3.460720726306720143e-31 -3.503863719970599739e-31 3.443575435903366586e-31 3.478217254422099399e-31 3.460108058651071566e-31 -2.628517745698573479e-31 -3.479104047360359733e-31 3.448734445510255441e-31 3.527239600631051748e-31 3.386733466173874216e-31 3.595225727004079733e-31 -3.401001616604155141e-31 3.230318661370408173e-31
3.432293511321914599e-31 -3.436447473258850399e-31 3.396816856715227798e-31 -3.504800353869334937e-31 -3.400486750078494980e-31 -3.428295890133638164e-31 -3.399090732987458431e-31 -3.557436875009325492e-31 -3.490889083523963658e-31 3.790158425398679999e-31 -3.475844871723269858e-31 3.396288824652838426e-31 1.077258287924068941e-31 3.495786898286099801e-31 3.545958407772416019e-31 3.523928233044785364e-31 -3.599669330749058144e-31 3.248246125714798880e-31 -3.546560260880037030e-31 3.508447677741066331e-31 3.495001197862010184e-31 3.430007645007305579e-31 3.438679266833321594e-31 -3.633376161061146910e-31 -3.180392124906803320e-31 3.403237877057159461e-31 -3.466463251309357182e-31 -3.413836604321913534e-31 1.560585829953928567e-31 3.333264224835761153e-31
-1.907003309844646202e-32 -1.776291864516260298e-31 -3.188640996813774109e-02 7.130784541368484497e-02 2.113434672355651855e-02 3.695160895586013794e-02 2.700887760703558102e-31 1.652597486972808838e-01 3.227669000625610352e-02 -1.305274804624822160e-31 -3.954305779188871384e-03 -3.396759257492037506e-31 1.972428504224972751e-31 -3.388854293081627787e-31 1.360732465982437134e-01 7.623562961816787720e-02 1.376898288726806641e-01 -5.717565025789418810e-31 5.144705250859260559e-02 5.553459901844003198e-31 -3.521379996391072809e-31 3.410890345281012553e-31 3.504493784942640485e-31 3.594668307582919804e-31 -3.014763795381592188e-31 7.996589690446853638e-02 -3.580978500373243444e-31 8.889167010784149170e-02 -3.432369448256977719e-31 -3.448673319804012682e-31
-3.458158853918538049e-31 3.296919350101557010e-31 3.546753747250182379e-31 3.691253741313713715e-31 3.131829161890152321e-31 3.370097870121037203e-31 2.637612780589755681e-31 -3.528822051126128712e-31 3.343936773145746865e-31 3.369853132197196003e-32 3.501027017003195395e-31 -3.514384629509329376e-31 -1.805041164953191148e-31 -1.593737826932429212e-31 -3.652704109375107290e-31 3.411720009193822923e-31 3.428294009342676848e-31 -1.283418720610548286e-31 -3.415492405664481808e-31 3.154616590078582693e-31 -2.742652839889403813e-31 3.474907532527924166e-31 -3.483792389029179344e-31 2.739204879859571879e-31 1.799335197824864682e-31 3.526757647947214610e-31 -3.263183602628438016e-31 3.680932900913494031e-31 -3.325282383094807656e-31 3.344327507467960194e-31
1.577100585187501048e-31 2.275805963756942823e-31 -1.889050938189029694e-02 6.991241872310638428e-02 7.923221215605735779e-03 3.148871473968029022e-03 -7.530880965675788368e-33 1.124729290604591370e-01 2.046656049787998199e-02 -7.095080541040635142e-32 9.585906751453876495e-03 3.433366502565345183e-31 -9.652193940343424506e-32 5.549182983197971387e-31 9.570600092411041260e-02 2.482498995959758759e-02 -5.738221574574708939e-03 3.259686506934741711e-31 -2.610494941473007202e-02 -2.744712305992044461e-32 -3.672389878169457974e-31 -3.476249947076563218e-31 3.429782185190817864e-31 -3.620190876026843475e-31 -3.897067520716135568e-31 -2.383209392428398132e-02 -3.601474419874180849e-31 3.890322893857955933e-02 -3.368036993425175568e-31 3.469095888457458777e-31
3.708681620559004950e-31 -3.636415284155762852e-31 -3.490367634229938891e-31 3.445708252853498544e-31 3.515190548436253137e-31 3.446252506737929264e-31 -3.428315403339861814e-31 3.404959976281114112e-31 -3.562697917525865722e-31 3.097245647891220293e-31 -3.574001236104502674e-31 -3.662375841794802907e-31 4.220745062390196051e-31 3.701044903959452877e-31 -3.476687701172809438e-31 3.515535438478784396e-31 -3.389896956570807156e-31 3.851971560737799823e-32 3.718167154673530317e-31 -3.579795482858575894e-31 3.490543488184821906e-31 3.532974837568713689e-31 3.494810532678306809e-31 -3.287188842964320278e-31 -2.107304490939451855e-31 3.498782292990865154e-31 3.550133058409926291e-31 3.471031457455522755e-31 -3.414494881158374015e-31 -3.430088283919771988e-31
-3.467588669600834440e-31 1.090294872922993356e-31 -2.284952720399561206e-31 3.044801437627024265e-31 -3.691225529449293980e-31 4.255660065796059964e-31 -2.459130890536043164e-31 3.791686803153619137e-31 -4.191318207009451235e-31 -3.333357088889476113e-31 4.392505005548166400e-31 3.131924553256721549e-32 2.299599144911936744e-31 1.295515615425425365e-31 3.175761147362303836e-31 -2.456043101975303179e-31 -5.256163274588836820e-31 1.071862298656054312e-31 -1.110977813575146587e-31 -4.235660204911169564e-31 5.227029822598057246e-31 -3.428885753198880788e-31 3.321941393050900551e-31 -2.335550934335225914e-32 3.432460196420861200e-31 2.484704710533662687e-31 -9.568552227557840050e-32 5.881782291895902868e-32 -3.384712321187070375e-31 -3.378229940040025788e-31
-2.876181651303123035e-32 2.394742011975401544e-31 -4.054652154445648193e-02 -1.021931692957878113e-02 7.074736524373292923e-03 2.713560499250888824e-02 -3.447181852571689364e-31 3.441083803772926331e-02 3.866818919777870178e-02 -5.624791250040601248e-31 3.997461870312690735e-02 3.461737293821311257e-31 1.331205857355656576e-31 2.206768475236539384e-31 7.246745377779006958e-02 2.753106877207756042e-02 4.495800286531448364e-02 -2.810973041756935492e-31 3.194120153784751892e-02 2.133526478522114787e-31 3.741029344302672986e-31 -3.438892971706301086e-31 3.480087701033127823e-31 3.572036985044278632e-31 -1.502943113472656054e-31 -1.683364063501358032e-02 3.685550477822394141e-31 7.228829711675643921e-02 -3.330084512616786865e-31 -3.405663157001776005e-31
2.446367607973684931e-31 -3.513879402037345957e-31 2.952165664914993240e-31 3.345637713471386715e-31 2.975121658993331529e-31 3.087855093720241367e-31 -2.079486182028372257e-31 3.308570615008037359e-31 -3.038397814601484772e-32 2.640842803966945163e-31 3.519929671461028271e-31 -3.369574540036051120e-31 -3.410299071622548942e-31 1.816508347444332727e-31 3.300720898832116288e-31 3.156650195305505250e-31 3.422955854396722676e-31 -7.527299234388832858e-32 -3.429792059343364772e-31 2.805254967036795557e-31 3.422771771981383906e-31 -3.306095964300686279e-31 3.230074628743177466e-31 -1.292910132196827765e-31 -2.567765376461635687e-31 3.324178828998255693e-31 -3.101885794291656191e-31 2.911861960306089797e-31 -1.158059418610891340e-32 -3.326657241287529404e-31
-3.573101277629513131e-31 4.745827574354484316e-31 1.732205450534820557e-01 -8.044672198593616486e-03 8.861920982599258423e-02 5.600133910775184631e-03 1.268796746380669852e-31 2.354780137538909912e-01 7.762623019516468048e-03 -3.982115477393608727e-31 9.054040908813476562e-02 3.460870484287014902e-31 -2.600858598722595218e-31 1.361461788902036352e-31 2.144623398780822754e-01 7.195945829153060913e-02 1.840053200721740723e-01 -3.019512087262303736e-31 -5.326058715581893921e-02 1.471555886163044909e-31 3.468506495589956482e-31 3.416523079111282790e-31 3.387041210594919491e-31 3.482099912262865414e-31 2.094402735142566757e-31 1.068605557084083557e-01 3.469075434855754469e-31 1.339253187179565430e-01 3.358146383957356841e-31 3.426466820923758685e-31
-1.176436509544471571e-31 -4.104619386065683255e-31 3.017451680764182431e-31 -3.067093747594888290e-31 -3.257513017880071301e-31 4.829106647132840097e-31 4.124234625198984602e-31 2.261521826603490714e-31 -1.837828523584066720e-31 6.984820346427855396e-32 -7.993688373021083650e-32 -3.654485864937366172e-32 -1.451000016450215567e-31 2.394826177370920420e-31 3.281505327778094518e-32 -4.726665135645119714e-31 8.752788535445943076e-32 -3.073655592160048463e-31 -3.713344924198152046e-32 1.179741294362373351e-31 -1.080244043575157551e-31 3.432381908497096435e-31 -3.432958135827869521e-31 -4.176830004036696377e-32 -2.413876709018086740e-31 4.968580932648865825e-31 1.307251986122905248e-31 -2.130207117574262812e-31 -3.335718186842537760e-31 -3.288650452640132710e-31
-2.736600924773630348e-31 4.910575928808669884e-31 1.910330252731060981e-32 1.768590848375718246e-31 -1.084329003993700083e-31 -2.432815098504184614e-31 4.288463411150106719e-31 3.259950875614241643e-32 3.243760204173190866e-31 4.832943460693924043e-31 -1.879426094824920255e-31 -2.994877252152121057e-31 2.411374786841796583e-31 -3.372078578102172757e-31 -2.380074663663581369e-31 4.063557957798239766e-31 6.619060577192097349e-32 4.742213164324575947e-31 2.603255196605051698e-31 -4.731193610082227495e-31 1.134515324708836661e-31 -3.410868481086087258e-31 3.478082072571754836e-31 4.612144244208349505e-31 -3.076450682627433698e-31 4.791726396974431683e-32 -3.453946822560671629e-31 6.569367729005435967e-32 -3.400176654668748060e-31 -3.375307425985011417e-31
-3.539882042374145450e-31 3.470206025322375345e-31 3.383368496045210335e-31 3.381760184674415282e-31 3.488473912830764186e-31 -3.411672754320919867e-31 -3.654204745463367022e-31 -3.489283358240740413e-31 3.394213136728156431e-31 -3.400111767380582670e-31 -3.432664497339034113e-31 -3.478295777444734328e-31 3.409852383769236473e-31 -3.491239145741638535e-31 -3.494838509443856380e-31 3.375082436366264031e-31 -3.379645470337285986e-31 3.339411354993951223e-31 3.400799901773554037e-31 -3.433342757579458573e-31 3.440384909136364733e-31 3.483376264028988254e-31 -3.380741266171122523e-31 -3.398494522252721367e-31 -3.375469409106554728e-31 3.485643557532854282e-31 -3.595903752145634028e-31 -3.361450933676388456e-31 -3.447376044238445206e-31 3.343044808032342914e-31
3.740890165771535627e-31 5.265494113646793973e-32 3.475054469321776952e-31 3.546063026769639202e-31 3.239893768154466198e-31 3.374165785871492811e-31 3.383876779802505893e-31 3.671165718352511644e-31 3.256914456156632592e-31 2.988547685270683368e-31 3.669121063478691357e-31 -3.520090949285961089e-31 -2.941094624020078772e-31 -2.470364854947981602e-31 3.612863549540427828e-31 3.491221983524116530e-31 3.516190423931062574e-31 -2.606140094840839756e-31 -3.476944194040158861e-31 2.803013064210907290e-31 -4.751157265741112568e-31 -3.477804655904960776e-31 -3.436807644727942348e-31 9.693243966315665019e-32 -4.808822786812791033e-31 3.453344499255310289e-31 -3.223040235448986733e-31 3.531924886014559222e-31 -3.333990915443439491e-31 -3.333525654779384029e-31
-2.643573712442775501e-31 -6.167643122359094622e-32 7.894476503133773804e-02 9.165792912244796753e-02 9.729878045618534088e-03 2.033551037311553955e-02 -2.156342588772705223e-31 1.592546999454498291e-01 3.310530632734298706e-02 1.679518821887075150e-31 3.534925729036331177e-02 3.443156254617863358e-31 4.258088637124858810e-31 4.885349349842283265e-31 8.594692684710025787e-03 -9.766697883605957031e-03 -1.795024052262306213e-02 -3.119690772124691216e-31 3.075436316430568695e-02 1.253026784367778372e-31 3.393678286798532290e-31 3.593002632087804623e-31 -3.380272008826274266e-31 -3.524325315036493133e-31 1.619590709288933946e-31 -2.405058406293392181e-02 -3.628909752725762546e-31 5.155075341463088989e-02 -3.399864208270299496e-31 3.485360498493176276e-31
-4.484186218072612186e-33 -2.834162018815606758e-31 -3.496211957043357140e-31 3.577680063224836105e-31 3.543881074155642872e-31 3.647489381335989458e-31 -1.347539233810897179e-31 3.506362820960447922e-31 3.532614666099621740e-31 3.428488436108302855e-31 -3.447872337953362376e-31 3.455115263945388982e-31 2.761734639686302006e-31 -5.226592068501811026e-31 3.540279594563593548e-31 3.637078733167366951e-31 -3.409116759404491886e-31 -2.988054447841078336e-31 -3.783635137048226797e-31 1.959735516224793691e-31 -3.437125733499274859e-31 3.439781645435522735e-31 3.390573336020270300e-31 -3.569296437514771551e-31 2.089737903360763591e-31 -3.503410684447792829e-31 -3.596712962456740091e-31 -3.575272885893222225e-31 3.445399097839232283e-31 -3.451131748689322415e-31
-1.030482899166713394e-31 -7.477359532388498796e-32 3.428087827633542619e-31 -1.197170231552580325e-31 -3.759573590532940147e-32 1.827626760761585333e-31 1.276586629894134069e-31 -5.503862033600888257e-32 -1.113987549310991972e-31 3.171973234366214097e-31 -3.859174049724158143e-31 2.556558448419766162e-31 2.832976650312237563e-31 -8.770844128674573413e-32 -1.572780055701053731e-31 1.045682628870020983e-31 -3.482275942541901052e-32 1.512628011429080881e-31 -2.231196423340977341e-31 7.431123225340430350e-32 -5.616442889161061363e-31 3.353503651469349135e-31 3.285438061678205563e-31 4.939982565686580557e-31 7.379054115323581714e-33 -4.174289995843439578e-31 -5.610899257802583455e-31 3.918850371432353213e-31 3.441919164363057983e-31 -2.686086641134614351e-31
1.043962998184203058e-31 -3.853031856642241527e-31 3.469728774615941496e-31 3.451463002997384135e-31 2.800812773885038132e-31 3.265338048674625105e-31 -1.964402228797558172e-31 3.620690226027072783e-31 3.408703220491872605e-31 -2.440725470188608115e-31 3.596140731806759802e-31 -3.444278616624028478e-31 4.318372689412429002e-31 4.553077533870490873e-31 3.613676051235716193e-31 3.435975629826430333e-31 3.565737275719351828e-31 -3.070139688556739001e-31 -3.372972424006538025e-31 2.192888002843159649e-31 -3.476350099195253277e-31 -3.391376903958492416e-31 -3.355405836427849760e-31 -3.670145859453738227e-31 -3.306684651871578081e-31 3.407709222468817278e-31 -3.512482914748569080e-31 3.489437112901827969e-31 -3.048111864817809991e-31 3.378537214263330734e-31
3.684883737426607739e-31 -3.775269378852294741e-31 3.857188404666749135e-31 3.687701632484398927e-31 -3.820389554014257425e-31 3.773673057523878075e-31 -3.742362119797635296e-31 3.629765747712031336e-31 -3.946424177518461776e-31 3.154181186971038118e-31 3.727585215412318484e-31 3.714813939488374659e-31 -2.352866553870013620e-32 -3.540385859252907883e-31 -3.641347893550683334e-31 3.778680193260640691e-31 3.699335029876746777e-31 -1.900070009064626186e-31 -3.648456813186716200e-31 -3.863784103469212991e-31 3.658716527880693126e-31 -3.422731099876845455e-31 3.374766933682503329e-31 3.331021146515522064e-31 -5.418650448109780635e-31 3.714520065900669087e-31 -3.801952395319350174e-31 -3.784605390085395513e-31 -3.439513867822405418e-31 3.438330380109997539e-31
-1.646219300367546307e-31 2.237401387821227867e-31 2.131778746843338013e-01 1.108132749795913696e-01 -5.448503419756889343e-02 1.678601950407028198e-01 -1.036037462622653949e-31 2.694011032581329346e-01 1.828645318746566772e-01 -2.654732445216261312e-31 1.405107378959655762e-01 -3.644886131546658420e-31 2.855942988740863087e-31 -1.029219830486754846e-31 -4.814077168703079224e-02 8.612018078565597534e-03 1.762667596340179443e-01 -3.324904579210453373e-31 1.591281592845916748e-01 -1.676181593425090676e-31 3.545280382630861723e-31 -3.413994355663793885e-31 -3.365905587068264597e-31 3.607931410343247674e-31 3.302841960838740023e-31 2.258351296186447144e-01 3.635638987686479813e-31 1.181507706642150879e-01 2.931298289199195992e-31 -3.486904157674676104e-31
3.415336300014692609e-31 3.480125551951224300e-31 3.474758244745369736e-31 -3.444990731101756620e-31 3.420557845921045210e-31 -3.707157004385988443e-31 -3.523907779443081056e-31 -3.502350623642221290e-31 3.521533515953290200e-31 1.804258403264978587e-31 -3.501576207963899567e-31 -3.556884392664439017e-31 -3.342940659232860059e-31 -3.540930348236208766e-31 3.407929745209031540e-31 -3.496274258243950722e-31 3.574342834762851631e-31 -5.600554672416477160e-32 3.525337885870291451e-31 3.643565581192944662e-31 3.658113264179851128e-31 3.475749421581983088e-31 -3.419154070567293234e-31 3.432546712805081720e-31 -1.300372993181893221e-31 3.475378905762603903e-31 3.604106351725671951e-31 -3.543673481853287656e-31 3.186364576604461199e-31 3.602550467402923571e-31
2.235884588685644329e-32 2.695440990079587951e-31 3.514174921317142680e-31 -3.523600270120905946e-31 -3.562619629602100958e-31 -3.500653209799633907e-31 -3.563511594715504909e-31 -3.468145618824254039e-31 3.562366898316674166e-31 4.187666181160316552e-31 3.479515000185407204e-31 -3.568837994717950858e-31 4.947929377695879550e-31 -3.643512683947157659e-31 3.399884661872003804e-31 -3.470555147144569564e-31 -3.458076569313980489e-31 1.909703126494897291e-32 -3.627166964801233422e-31 -3.587778735192750377e-31 -3.003916568611074283e-31 3.421999472192893663e-31 2.429125927033563947e-31 -2.834265697417349283e-31 -4.621449457489458733e-31 -3.517466775697185414e-31 -3.592525616480240939e-31 3.573201899945943519e-31 3.389646576274082009e-31 3.341214093130372283e-31
5.257712576143220595e-31 3.625152872780534515e-31 7.452164590358734131e-02 -5.738873407244682312e-02 1.427246443927288055e-02 1.075091492384672165e-02 -3.014808581716358517e-32 9.459460154175758362e-03 2.993573062121868134e-02 -2.548829808161979786e-31 1.493747252970933914e-02 -3.483169612122113696e-31 2.716496679990386929e-31 5.152146130473274243e-31 1.073683053255081177e-01 1.273560430854558945e-02 -1.566568017005920410e-02 2.860215675607231938e-31 -1.878442801535129547e-02 2.567158821376611386e-31 3.522172279583527031e-31 -3.425032952914625658e-31 -3.512191392149565152e-31 -3.531411430082120047e-31 -1.515258532687350996e-31 9.497943334281444550e-03 -3.628367614731163307e-31 4.429339990019798279e-02 -3.346406721875694656e-31 3.446068894520330822e-31
4.252748131190202993e-31 -4.842046018748951509e-31 3.565352418868892612e-31 -3.510533239818295234e-31 3.573342253971431700e-31 3.511214791442901996e-31 -3.521270675416446337e-31 -3.648603514881698822e-31 3.512335507756975965e-31 -1.788511833589668470e-31 -3.614576009710705736e-31 3.513177396811034887e-31 -5.424809098112608764e-31 4.230848377560796071e-32 -3.462478560558939791e-31 -3.678264998934867767e-31 -3.553862901985085409e-31 4.246841977373931492e-31 -3.618031492904382933e-31 -3.515632534312162317e-31 -2.889352654081063978e-31 3.405786819007482509e-31 3.415171965904447653e-31 4.124794630707716340e-31 -1.308916486123669607e-31 3.652977294262238389e-31 -3.490436753297767242e-31 3.464095570587930930e-31 1.629471444604205766e-31 -3.455257733860708644e-31
3.523795402183142446e-31 3.327045624621041087e-31 -3.407374911875443420e-31 -3.478718955411030351e-31 3.713194108272941547e-31 3.559060467806681235e-31 3.393732594637540280e-31 3.549442337929383115e-31 3.471246102723982905e-31 -3.479681685284353805e-31 3.653715739813424950e-31 -3.522020170614530627e-31 3.335280902944031869e-31 2.426320962413631804e-31 3.526655144839822907e-31 -3.500557289460606808e-31 3.419839618872692792e-31 4.390003553569616572e-32 -3.408292972963435626e-31 -3.445739050805490088e-31 3.355875563970438346e-31 -3.377750103246020130e-31 -3.531772777045562818e-31 -2.581570382117692631e-31 -3.357161789889108093e-31 3.612069855754752620e-31 -3.508335300481127720e-31 -3.520687865317308646e-31 3.440114780534545772e-31 3.447683083362879987e-31
-3.711806319642360754e-31 3.622296186409166192e-31 -3.750961331171640658e-31 3.643807968128084218e-31 3.756508489013171033e-31 3.723067085325497940e-31 3.595182233713099308e-31 -3.630489382034397536e-31 3.778364220379139660e-31 -1.568344562867095993e-33 3.591407721352608943e-31 -3.702403070132392948e-31 2.956361004253077984e-31 3.492896357677427796e-31 3.747009319164176127e-31 3.706087304526740161e-31 -3.658963851892106135e-31 -3.589960922905616872e-31 3.764510079059218344e-31 3.729217977065610641e-31 -3.653941434728782829e-31 3.370084234386567664e-31 3.452865602856785289e-31 -2.504579263720755431e-31 -4.805256807150136541e-31 -3.706753809823656398e-31 -3.711035900644831827e-31 -3.849549807276235747e-31 2.410394424553210795e-31 3.435914739219057738e-31
1.637001191217833011e-31 2.982734395508126827e-31 -5.219646729528903961e-03 1.007980406284332275e-01 -1.661592279560863972e-03 6.977016106247901917e-03 -4.159334416316797778e-31 1.643326431512832642e-01 -8.166204206645488739e-03 3.707943175007818389e-31 -5.777876451611518860e-02 3.575496935116488953e-31 5.756353518180112324e-31 -2.539628273482613084e-31 1.500456035137176514e-01 6.682591140270233154e-02 7.252258062362670898e-02 3.267463577559781965e-31 3.533535823225975037e-02 1.633048944111498316e-31 -3.480924888109783456e-31 -3.557633417664782978e-31 -3.386713012572169908e-31 3.789794492347665419e-31 -5.367413470543879096e-31 -3.204845637083053589e-02 -3.593697349249140595e-31 -7.501238025724887848e-03 -3.108816273885234234e-31 -3.377400276127215417e-31
-5.736825265628771826e-31 2.449764786647561342e-31 3.458979113876541841e-31 3.448580220651427557e-31 3.535646266030392419e-31 -3.556347191746113231e-31 3.569915687938784732e-31 -3.478225717981425319e-31 3.439028858853256142e-31 3.940561516993170699e-32 3.588663412241179231e-31 3.463191850531018755e-31 2.792227433344372473e-31 -3.785769129492709578e-31 3.495366071308505422e-31 3.433635925870553652e-31 -3.536463704801954238e-31 -2.631422862437195680e-31 3.496446585715781269e-31 3.589093172975839859e-31 -1.352200304010777713e-31 -3.361100871458713579e-31 -3.482481477729142329e-31 -2.578967132328361593e-31 -1.398585781291965507e-31 -3.519612993282916747e-31 -3.507024859378831034e-31 3.629869191214903697e-31 -3.684891965887063495e-31 -3.405696070843599029e-31
5.043373876609765348e-32 2.950265595846324095e-31 8.357140421867370605e-02 1.769043952226638794e-01 1.102474424988031387e-02 -3.820567205548286438e-02 3.747859201579820641e-31 -3.684453293681144714e-02 4.155052080750465393e-02 1.762811883048205716e-31 1.970683038234710693e-01 -3.407074220420503079e-31 -9.397401425572465811e-32 -1.155605574153549814e-31 1.695153713226318359e-01 1.458636671304702759e-01 1.339831650257110596e-01 2.995850091276861582e-31 -3.129895776510238647e-03 4.845137098693873796e-31 -3.459253004060283434e-31 -3.639616390371922105e-31 -3.273700750585245022e-31 -3.585225796561634533e-31 1.789184451457208983e-31 3.371262922883033752e-02 3.457111488451955391e-31 -1.018888652324676514e-01 -8.898097857370015558e-32 3.452301130469520426e-31
