-3.464588572918665797e-31 -2.833729436894504156e-31 -1.802921295166015625e-01 -6.478580832481384277e-02 -3.559788569007580560e-31 3.498072529501838657e-31 -3.484180067066080534e-31 3.429629841122951296e-31 -3.580779371630214148e-31 3.460889997493238552e-31 3.363897137420449636e-31 -2.435148219691696690e-33 3.410676875506903225e-31 3.695375259606566820e-31 -3.375880597030472364e-31 8.402359485626220703e-02 3.647390404711650221e-31 3.394465162716972730e-31 -3.605967159283023632e-31 -3.512652891231697982e-31 -9.276152402162551880e-02 -1.063627255431933695e-31 -9.654582291841506958e-02 -3.597673106242491736e-31 3.366841515670389302e-31 -1.959005147218704224e-01 -3.464464675814089128e-31 3.486117046657365500e-31 -2.069477317828860808e-31 3.431608433214255370e-31
3.652306557185659192e-31 1.714619435850933902e-31 -1.085243076086044312e-01 1.625243201851844788e-02 3.634054891499311698e-31 3.431833187734132592e-31 -3.582916185261138903e-31 -3.465153750602541153e-31 -3.604993849960542778e-31 3.394253808832694882e-31 -3.486006315089518040e-31 -5.743011657298279361e-31 -3.402552093652889739e-31 3.485731954708036118e-31 3.438902845858847993e-31 2.599542215466499329e-02 -3.429475381165253247e-31 -3.487039574623890831e-31 -6.813304553446550837e-32 3.488635895952307497e-31 -1.602603197097778320e-01 1.083099760163686446e-32 -2.876118198037147522e-02 3.569156788785893863e-31 3.454942466275818106e-31 -1.057620048522949219e-01 -3.504541745112154034e-31 3.677696529866810109e-31 3.798582017916672512e-31 3.456553598833055133e-31
3.570849030453337628e-31 -1.195509022935998268e-31 6.783716380596160889e-04 -2.338418271392583847e-03 3.548877160245507759e-31 3.373337767650773592e-31 3.534524844419707957e-31 3.559187186097699878e-31 3.267768265695515102e-31 3.650630772439126939e-31 3.397680845063082179e-31 3.570814706018293617e-31 3.525787394910045894e-31 3.585240842889325058e-31 -3.509679830919598253e-31 -2.193365246057510376e-03 -3.325752110637396242e-31 -3.511922439042097013e-31 -2.395500911128292413e-31 -3.440103495788777878e-31 -8.218023926019668579e-03 -5.208557634171495491e-31 -2.068329922622069716e-04 -3.634600555976963404e-31 3.449410589860848421e-31 -6.646962370723485947e-03 -3.402081190615950330e-31 3.444902098827704620e-31 2.153390217161179966e-31 3.549947565401366534e-31
-3.772962823837111249e-31 3.793815388324088136e-31 1.597563326358795166e-01 -6.875381222926080227e-05 3.580192799949153827e-31 3.406034613216635848e-31 -3.813717683177860286e-31 -3.580360425443581085e-31 -3.664613983038768542e-31 -3.586759816689457618e-31 -3.600570934916138839e-31 1.339311243552881495e-31 -3.367307246532185092e-31 -3.486331221728085321e-31 -3.513749862559885341e-31 1.057048961520195007e-01 -3.375463531634800616e-31 3.484754883803632633e-31 4.987470186471099328e-31 -3.425557223395092399e-31 3.316536545753479004e-03 -8.602949446040976910e-32 1.502839103341102600e-02 3.773235303427631855e-31 3.368892048015963700e-31 1.344540119171142578e-01 -3.769602320586980493e-31 -3.460816176448006912e-31 -2.127218775835602392e-31 3.428708723749646951e-31
-3.598759968319262023e-31 -2.050463696704310307e-31 -1.319892331957817078e-02 -1.040653213858604431e-01 -3.525954315107862659e-31 3.520380355995133536e-31 3.620491332382913652e-31 3.412428832287368763e-31 3.486165241925749214e-31 -3.457963486757431385e-31 -3.357801023717085253e-31 -2.242763757950808979e-31 3.868494074234087732e-31 -3.482122716853271367e-31 -3.482807794960930596e-31 1.060834079980850220e-01 -3.528175294134306289e-31 3.439789638797108327e-31 -2.294949359457824104e-31 -3.482515802164186340e-31 -8.966913819313049316e-02 -2.473633199441007890e-31 -5.793599039316177368e-02 3.548945574016725616e-31 -3.344519583244884556e-31 -1.095089092850685120e-01 3.473534320027293570e-31 3.395076184680530155e-31 1.060762810797849945e-31 3.336265497012280617e-31
3.493194933242536657e-31 -4.414601007959443102e-31 2.152830213308334351e-01 1.051529422402381897e-01 -3.506836074986088975e-31 -3.336457102591464650e-31 3.549532615895526266e-31 -3.390337061655755020e-31 -3.548360412928886281e-31 3.503463111495839503e-31 3.586453482861633330e-31 -2.637979534827212235e-31 -3.462146600954267577e-31 3.460598239795364460e-31 3.541945740256449058e-31 1.705566197633743286e-01 -3.512257690030951529e-31 -3.503313823713285073e-31 -3.800564371589899217e-31 3.486278324482298318e-31 1.077888906002044678e-01 1.605377336895401339e-31 4.969983175396919250e-02 3.528163304091927902e-31 -3.462047624329928341e-31 9.804917499423027039e-03 3.426359850937833856e-31 -3.487567606686280203e-31 -3.048069782120050553e-31 3.423798448747392092e-31
-3.717712003260891927e-31 -3.535664603742265247e-31 -1.073705181479454041e-01 -8.844440430402755737e-02 -3.496016824981120641e-31 -3.470223657737637679e-31 3.531862349715095476e-31 3.368936951900165112e-31 3.470135025463585679e-31 -3.542303325637969198e-31 3.409511960605238339e-31 3.465447859289116890e-31 3.475803964519861243e-31 3.848495859041288484e-31 -3.430210300233387341e-31 -1.660111993551254272e-01 3.491229741786831957e-31 3.405090926351795715e-31 -3.925801774825375893e-31 3.400407521759249557e-31 -9.562937915325164795e-02 -2.954435779605301242e-31 -4.829805344343185425e-02 -3.548792289553378390e-31 -3.448724336258838370e-31 -1.422982364892959595e-01 -3.616019516773515506e-31 -3.464034915079428500e-31 1.884700067779319530e-31 3.379489364687496787e-31
-3.649450341012031198e-31 -1.687111692547341552e-31 -1.034742407500743866e-02 -4.845036193728446960e-03 -3.471172046579881101e-31 -3.418642025228075046e-31 3.363579048649117125e-31 -3.363539787137799661e-31 3.565396617456483530e-31 3.460750818962101193e-31 3.670016319976277611e-31 -1.858558013812512514e-31 -3.387024753674007979e-31 -3.534798499504579386e-31 -3.483252366924411585e-31 -9.767268784344196320e-03 -3.500209343132763411e-31 -3.489920946376626422e-31 2.524608041766676059e-32 -3.622452056960085227e-31 -7.440449669957160950e-03 1.796167945846009111e-31 -3.565719816833734512e-03 -2.916287461438065545e-31 -3.506068242076131857e-31 -1.002120226621627808e-02 1.378517036438116921e-31 -3.495791600263503090e-31 4.072790290429598012e-31 -3.402925900856451226e-31
-3.507431345325345381e-31 5.686112088345596699e-31 -7.775175850838422775e-03 2.491706982254981995e-02 3.472703010422392048e-31 -3.432092971985664317e-31 -3.665567779155025746e-31 3.584352404258973573e-31 3.434522248611073656e-31 3.497082528159576127e-31 -3.431651691406365630e-31 2.254477559156753074e-31 -3.411251692244455324e-31 -3.520487561079928529e-31 -3.515796398224666944e-31 4.237880185246467590e-02 -3.492804669118063658e-31 -3.539618496540691093e-31 -1.695835741421404241e-31 3.477624805269284966e-31 1.764429919421672821e-02 -8.445195753171924282e-32 1.534448564052581787e-02 -3.585728908143786472e-31 -3.559750953188354247e-31 6.778214871883392334e-02 -3.557018399020432758e-31 -3.507988999845375475e-31 -5.856708762293993311e-31 -3.379936522738549585e-31
-3.491223864315077846e-31 -8.905304225487731591e-33 7.370894402265548706e-02 3.555646399036049843e-03 -3.503219549066349125e-31 3.481889028576327896e-31 -3.591853233711570590e-31 3.431686486039149970e-31 -3.508979706484248498e-31 -3.587377186322509484e-31 -3.429928886885800486e-31 1.768060582874062312e-31 -3.477435785777672742e-31 -3.509264411216017656e-31 -3.444864247909608142e-31 7.538750767707824707e-02 3.486952823140800146e-31 3.426454830881380297e-31 6.098834972786536612e-32 3.495279084726544573e-31 8.592105656862258911e-02 -2.855668628359381165e-31 7.714678067713975906e-03 3.678926332056640386e-31 -3.491039311701998747e-31 -1.370731592178344727e-01 3.662724963616997126e-31 3.506644234308034778e-31 1.837067155893039124e-31 3.409215030732220629e-31
3.328508174692334177e-31 6.321672261377566833e-32 -7.940953969955444336e-02 -2.750633470714092255e-02 3.554976800431924609e-31 -3.378636661085410299e-31 3.600631590424641269e-31 -3.488216949765674434e-31 -3.134487659913972006e-31 -3.657264792357427601e-31 3.421987011952774947e-31 4.740994999528818810e-32 -3.428595170995357518e-31 3.517145865739410930e-31 3.525336710375940629e-31 -5.436426028609275818e-02 -3.575992758633665794e-31 -3.500893715943812147e-31 1.263463528510989134e-31 -3.516023738832115974e-31 -5.694657936692237854e-02 -1.841723641664951452e-31 -2.121365256607532501e-02 3.559806906719453388e-31 -3.422891437306297615e-31 -2.748105907812714577e-03 3.677122183326998339e-31 3.578023307575276213e-31 1.788211142134728129e-31 3.419510950652202881e-31
3.689904273798969729e-31 3.007137188033457187e-31 4.022216890007257462e-03 -1.538267917931079865e-02 3.496996011775355606e-31 -3.356253838052532958e-31 3.717323855026250407e-31 -3.460243005402545965e-31 3.679943604867841994e-31 3.550132353113315797e-31 3.410573432004030864e-31 1.085816356995795523e-31 3.590149707298358931e-31 3.562674642737719441e-31 3.546158947108666301e-31 -7.601184397935867310e-02 3.366437145613706435e-31 3.657621672442337247e-31 -3.933824288670867841e-31 3.402436425008768826e-31 1.454549026675522327e-03 -6.533261244525578584e-32 -1.647062227129936218e-02 3.541926697247965737e-31 -3.488363416361786891e-31 -7.434389740228652954e-02 -3.627163438318180956e-31 -3.426739300514279291e-31 1.821432728378797454e-31 -3.401602059118555166e-31
-3.600630414930290446e-31 -1.765644354235947100e-31 9.169280529022216797e-02 3.732351120561361313e-03 -3.667753963548685037e-31 -3.540907073448062485e-31 -3.643316141291700173e-31 -3.463047499824737779e-31 3.579912091898177465e-31 3.498369224275986202e-31 3.560075389629181198e-31 -1.225155930859217017e-31 -3.487722536841718580e-31 -3.639475095950953266e-31 3.541199536442547070e-31 8.071482181549072266e-02 -3.495965338328554625e-31 -3.372740381421685705e-31 -2.126640197516127663e-31 3.403871233413382510e-31 5.278681218624114990e-02 4.521992761257346302e-31 3.412618488073348999e-02 -3.589345198964656157e-31 3.440431693811527460e-31 1.223844587802886963e-01 3.586775803412628801e-31 3.490659156828942819e-31 -2.733499030280680496e-31 -3.469607933796676965e-31
3.590418660405827070e-31 -2.183676829110116204e-31 -4.978792741894721985e-02 -2.277784224133938551e-04 3.551058407562893595e-31 3.419727711810494510e-31 3.570196866187501423e-31 -3.445999540353632307e-31 3.635240965299291386e-31 3.556865114557085531e-31 -3.480122730764782327e-31 1.444768133149331210e-31 3.219086107551690723e-31 3.577650675866065548e-31 3.618778166916025250e-31 -3.739107027649879456e-02 3.288446857018570290e-31 3.435836686394163138e-31 -1.338285389632918885e-31 3.508438979082870246e-31 -1.307046972215175629e-02 5.563086730379497404e-31 -4.591917619109153748e-03 3.690543742725817053e-31 3.508536310015118332e-31 4.455305263400077820e-02 3.603069565708246693e-31 3.552733251913945191e-31 2.354466049033177507e-31 3.468238482877969000e-31
-2.683618573195627877e-31 -1.133976830746724971e-31 1.473682560026645660e-02 8.072848431766033173e-03 3.592506573471757617e-31 -3.467514378357862471e-31 3.407286984898001913e-31 -3.370020757691623261e-31 -2.309828531851662454e-31 -3.425574855810354733e-31 -3.351857489180457603e-31 -3.741146423540014886e-31 -3.430647113934152903e-31 -3.532197365605079828e-31 3.385985851766751241e-31 1.365406997501850128e-02 3.477565325255133358e-31 -3.374702046394337939e-31 -4.750567637774740108e-31 3.409489156014832386e-31 1.129648741334676743e-02 -2.406528928929966785e-31 6.185861770063638687e-03 -3.092243684329601296e-31 3.376134033612509649e-31 1.512688584625720978e-02 -3.405383624445150465e-31 3.484420808309128939e-31 1.954589437055763880e-31 3.460363140925200003e-31
3.679089490672534520e-31 2.572953538328424935e-31 7.631192356348037720e-02 2.335575036704540253e-02 -3.504816105493635956e-31 -3.449627586118010215e-31 -3.547167991459412153e-31 -3.415232386314079918e-31 -3.541318966668590615e-31 -3.543553816528373948e-31 3.448808971852097574e-31 2.005448845836181301e-31 -3.431713757508089047e-31 -3.551575625077255402e-31 3.684984124644167962e-31 1.461308002471923828e-01 -3.483389429565717464e-31 3.465134472495187668e-31 1.472204171297523400e-31 -3.488534803438136781e-31 -1.460878737270832062e-02 -2.988577777926064418e-31 -2.064119838178157806e-02 3.519754757901625915e-31 3.430151055318105898e-31 1.735275685787200928e-01 -3.520436779723973006e-31 -3.504178517357749947e-31 -2.873942922311981988e-32 -3.404688907283814493e-31
3.625280061269293487e-31 5.646012214457125840e-32 -6.525950133800506592e-02 -3.873818740248680115e-02 3.612688400882155307e-31 -3.464343834994824597e-31 3.586787323257266860e-31 -3.512958754861781942e-31 -3.453542922701729091e-31 -3.600121896074124725e-31 3.460839216137283029e-31 2.767837806355771323e-31 1.202065577776579741e-31 3.554042987719631383e-31 -3.382532014265165196e-31 -7.726201415061950684e-02 -3.038806651536700763e-31 -3.527381365249760916e-31 -8.520768872733464557e-32 -3.402239177056700846e-31 -5.578379333019256592e-02 4.669183932087650184e-31 -2.548670209944248199e-02 3.564684502978755388e-31 -3.557131246478111697e-31 -7.127328217029571533e-02 -3.780428153360313432e-31 3.379596569772291779e-31 4.628481734893817986e-31 3.488019231615866125e-31
3.593201055534223425e-31 1.788465519112246072e-31 -6.070013623684644699e-03 -8.558600395917892456e-02 -3.550320902407187692e-31 3.506960442288405973e-31 3.561671240759857536e-31 -3.498838951818574789e-31 3.485880772292850220e-31 3.442264289504459406e-31 3.425271343168972418e-31 2.650212199239609288e-31 3.480067952728034008e-31 3.607681735343133020e-31 -3.521106106207331216e-31 3.272592276334762573e-02 -3.561185761592967931e-31 3.498795693626464528e-31 -2.792093191889508568e-31 3.507520917994878040e-31 8.432167023420333862e-02 2.118521293133868287e-31 -2.768834121525287628e-02 -3.566359582428677147e-31 3.507354232895931439e-31 1.627986878156661987e-01 -3.622323692976975433e-31 3.456583926587306348e-31 2.549553795132651233e-32 -3.428100052774791171e-31
-3.617358639937972255e-31 -4.098227517983651985e-31 -2.792135439813137054e-02 -3.663371503353118896e-02 3.570860785396845851e-31 3.409610231932967082e-31 3.669084388054945702e-31 3.374508324925322426e-31 -3.530597987991351024e-31 -3.476671244251897926e-31 -3.459792791066181029e-31 -9.516672959878649213e-32 -3.368381648368836663e-31 3.539740983052046776e-31 -3.607117498054738322e-31 1.340919286012649536e-01 3.414719165480510908e-31 3.495382058031676605e-31 2.473804351418487615e-31 -3.419666115906511423e-31 6.519408524036407471e-02 -2.585792522726976123e-31 2.216327004134654999e-02 -3.485424210286990844e-31 -3.524706175206159554e-31 3.069229237735271454e-02 -3.537719838065242935e-31 -3.461410036194042332e-31 4.796663473247885291e-33 -3.455993358225453231e-31
3.486101530131934646e-31 -4.270767519192828003e-31 4.323433153331279755e-03 3.695548046380281448e-03 3.556254327692398271e-31 3.472497769108738477e-31 3.088465410387188299e-31 3.357272286358085388e-31 -3.264751476993564783e-31 -3.762433450739055691e-31 -3.413702597965919794e-31 -5.267710390695834314e-31 3.013046868332781155e-31 3.503919438402828715e-31 -3.290343869801927298e-31 6.462965160608291626e-03 2.577525741155383304e-31 3.496808167778094205e-31 -5.879436005171661582e-32 3.114713023746699157e-31 5.970752332359552383e-03 2.801241829323088267e-31 2.943320432677865028e-03 3.628882951454563798e-31 -3.411319400719062688e-31 2.955908188596367836e-03 3.121699456871376340e-31 3.444778907019738444e-31 -6.044779865063973721e-33 -3.379517341453046357e-31
-3.308373602154839544e-31 -1.346396300653592669e-31 2.718053199350833893e-02 1.507852040231227875e-02 -3.549872098664043743e-31 3.367215793071691118e-31 2.686472203281684062e-31 -3.362034449072136639e-31 3.250257866746796143e-31 3.540853470905664989e-31 -3.440091035548659161e-31 5.744671925519380760e-31 2.867933501316990749e-31 -3.447668977430670120e-31 3.747439079898836756e-31 2.432650886476039886e-02 3.232751699577740144e-31 -3.506788820113185919e-31 -2.453953308118411317e-31 -3.448792514931186062e-31 2.005278132855892181e-02 -3.470953639729498320e-31 1.191222388297319412e-02 -3.561158725222899019e-31 3.579799949737109018e-31 2.304717712104320526e-02 -2.569910418553016197e-31 3.370376932479922414e-31 -2.933577807844310572e-31 3.342074554995174198e-31
-3.545471988210045756e-31 2.337970336808088346e-31 2.019470483064651489e-01 1.040084585547447205e-01 -3.451814946006020328e-31 -3.538020999717923605e-31 -3.482474189664167231e-31 3.480457746654766679e-31 3.557395732707046712e-31 -3.477904808023650835e-31 -3.432078395855714121e-31 1.081717995941653618e-31 3.516695651403045994e-31 3.451921915991945156e-31 3.517920046318862488e-31 1.534402817487716675e-01 -3.527009203738290580e-31 3.623571127582068045e-31 3.058974608113758750e-31 3.478310588673554688e-31 9.817166626453399658e-02 2.416341250474020748e-31 1.883791387081146240e-02 3.522364590459321557e-31 3.484502622715946170e-31 2.194719910621643066e-01 -3.705419388636602937e-31 -3.356223275199411579e-31 -3.588283962664733796e-31 3.357505739536158695e-31
3.661821243560084952e-31 -4.281024412700362955e-31 -1.979750208556652069e-02 -1.076647825539112091e-02 3.633640412191211760e-31 3.405445925645744046e-31 3.424520202278796977e-31 -3.382056409250822498e-31 3.585734550516670419e-31 -3.432069226999777707e-31 3.366376255006333841e-31 2.334686945987371533e-31 3.370935527395433165e-31 3.459109828848353280e-31 -3.579085954468419561e-31 -1.886115781962871552e-02 -3.488100575824943028e-31 3.478221016004022030e-31 3.275716253199164917e-31 -3.548398028748112594e-31 -1.540176849812269211e-02 -5.135115568318560941e-31 -8.053243160247802734e-03 -2.839852822066807616e-31 -3.459857913453216584e-31 -1.881405338644981384e-02 -2.811538219440810848e-31 -3.385874179803423124e-31 4.756251858257576362e-31 -3.339480003864039245e-31
-3.464583400743522179e-31 -5.420327878548404039e-33 2.787877060472965240e-02 8.821014314889907837e-03 -3.577415576995901090e-31 3.470663762822585544e-31 -3.578632213649002158e-31 -3.398813551419534535e-31 3.415311379534455176e-31 3.583566938933754121e-31 -3.349008561071804707e-31 -5.387906098660634199e-31 -3.288621300380232318e-31 3.524042726194555455e-31 -3.569516960254985812e-31 1.493535004556179047e-02 -3.258631148106573461e-31 -3.487091531474197176e-31 1.887368322406251040e-31 -3.479425897713614875e-31 8.750990033149719238e-03 -4.388796085772451918e-31 5.244939122349023819e-03 -3.615726348482420427e-31 -3.371963144556922009e-31 1.473563443869352341e-02 -3.471724058727027247e-31 3.476951011907393631e-31 -4.514292685512284908e-32 3.466912525250241460e-31
-3.599318563234772774e-31 -1.355821649457355934e-31 -2.066770344972610474e-01 -3.017737902700901031e-02 -3.477069971935696846e-31 3.428958868947501934e-31 -3.462969917197583508e-31 3.511419797657685403e-31 3.493527598143819365e-31 3.437451110335582468e-31 3.364348997448905724e-31 1.458610049328003974e-31 3.443741650804572857e-31 3.625651987681893658e-31 3.579982151361486473e-31 -1.824397593736648560e-01 -3.611392300810938653e-31 3.473285820521529738e-31 4.213021594307553294e-31 -3.790893814664554422e-31 -1.251957416534423828e-01 1.280527357155830706e-31 3.814095258712768555e-02 -3.475117946016721356e-31 3.486314999906043973e-31 -2.135965377092361450e-01 -3.406496582496509007e-31 3.371348361011441952e-31 -3.837407420829981846e-31 3.412865881087004489e-31
-3.675394206631289577e-31 1.735927739497724589e-32 4.493036866188049316e-02 2.798092924058437347e-02 -3.648939236068293667e-31 -3.464785115574123284e-31 -3.505957745607154562e-31 -3.466236851097388809e-31 3.531020695759906718e-31 -3.550379677124728807e-31 -3.471275725181623627e-31 5.267337523887753485e-31 3.298417400102244933e-31 3.454783774538457097e-31 3.469426437468910004e-31 3.743460029363632202e-02 -3.717386626424584318e-31 3.516820018705362992e-31 1.897784965596062741e-31 3.481171977022326301e-31 3.924836590886116028e-02 -2.546013088598539421e-31 2.273487113416194916e-02 -3.484640390653862542e-31 3.555692441392705217e-31 3.783090785145759583e-02 3.139446835481221073e-31 -3.355637879012702080e-31 -1.095207146265644613e-31 -3.456855230683476132e-31
-3.467245425250394332e-31 5.168412386201082893e-32 -3.139890357851982117e-02 -2.871781215071678162e-02 -3.561476108697621036e-31 -3.389047779451773135e-31 3.401660598737226116e-31 -3.417938139210802660e-31 3.452386001161649795e-31 -3.427429080599341809e-31 -3.475893772288264065e-31 -7.552529457387707026e-32 -3.502639560153653409e-31 -3.536979276624224894e-31 -3.578529005244999961e-31 -7.905425876379013062e-02 3.426969932505910624e-31 -3.392811007066495607e-31 -3.336222238820170357e-32 3.618473478780292113e-31 -3.025100566446781158e-02 -2.201655074810462433e-32 -2.324848808348178864e-02 3.507275944972166675e-31 3.466380496507059293e-31 -9.057609736919403076e-02 -3.480669100539044526e-31 -3.451445135483251636e-31 3.759772366627664196e-31 3.469004905194705132e-31
3.590564891903069363e-31 5.515005249848943213e-31 8.085303707048296928e-04 -2.801626175642013550e-02 -3.442764344801299208e-31 3.346716111988831082e-31 -3.505460746595626899e-31 3.498794988329854035e-31 -3.493061161985413081e-31 -3.462721182592949512e-31 -3.476987217133398957e-31 4.843146281461321170e-31 3.416272463715687478e-31 3.463513230686533569e-31 3.466673899897024536e-31 8.398478478193283081e-02 3.453297244382407233e-31 -3.448590565001714793e-31 2.697203526309210889e-31 3.432167968525246779e-31 -4.012469947338104248e-02 -1.496488062569268086e-32 -5.295856390148401260e-03 3.670574444694048033e-31 -3.476957124478017907e-31 -8.213265985250473022e-02 3.499107669827172764e-31 -3.439510811537093280e-31 2.294371251336089703e-31 -3.474234444462643324e-31
-3.688691163628921128e-31 -1.005032858724235458e-31 4.014020785689353943e-02 -5.026180879212915897e-04 -3.605569136895835205e-31 3.427133326220674922e-31 -3.660792921101985614e-31 3.387995712007787188e-31 -3.583293283848882692e-31 3.465683193258151512e-31 3.470431250039992895e-31 -2.661848652917269276e-31 -2.243828755832653971e-31 -3.599177268813803935e-31 3.556030513568001707e-31 7.326190918684005737e-02 -2.695203305121851684e-31 -3.132486968528872473e-31 -2.965992534765975479e-31 -3.364179020965776821e-31 2.003993839025497437e-02 2.164723158197457640e-31 4.885219968855381012e-03 -3.577411345216238130e-31 3.466840584995971136e-31 4.644927382469177246e-02 -3.772789085772059715e-31 -3.455508584355174120e-31 2.581361379222116428e-31 3.360073254297224735e-31
-3.669975882970609324e-31 -2.626110803465829763e-31 5.070523172616958618e-02 2.828920073807239532e-02 -3.459040944879395094e-31 3.490784229427870310e-31 -3.723370362868010090e-31 3.458084797774436245e-31 -3.585187475445797727e-31 3.595671709560781709e-31 3.399908406857890414e-31 -3.268944465342947883e-31 3.495367246802856245e-31 -3.641518340231552566e-31 -3.454520228705002740e-31 6.624296307563781738e-02 -3.506083288403822382e-31 -3.389356699367169232e-31 -5.040650491297780273e-31 -3.477254054351035616e-31 1.027985382825136185e-02 -4.116988407822775693e-31 9.019101038575172424e-03 -3.646656190940126620e-31 -3.346169507115698718e-31 1.160947419703006744e-02 3.870903602554403257e-31 3.406265010109397016e-31 1.812765808530184728e-31 -3.405741444925540769e-31
