-1.241018064320087433e-02 -1.849563675932586193e-03 4.434561196831054986e-05 -3.430487588047981262e-03 -1.796964369714260101e-02 -2.285547554492950439e-02 1.046302914619445801e-02 1.085622422397136688e-02 -5.899642128497362137e-03 -1.732615171931684017e-03 1.331112254410982132e-02 1.120635773986577988e-02 -5.676094442605972290e-03 1.350094564259052277e-02 8.025139570236206055e-03 -6.684329360723495483e-03 -1.760093681514263153e-02 -4.001047462224960327e-03 -5.894214846193790436e-03 2.286412380635738373e-02 1.515696872957050800e-03 -8.427288383245468140e-03 -8.773039095103740692e-03 1.661930978298187256e-02 -2.070076152449473739e-04 -3.993783146142959595e-03 -9.299133904278278351e-03 -6.440028548240661621e-03 -7.334869820624589920e-03 6.313261110335588455e-03 -2.199769206345081329e-02 -2.002683700993657112e-03 1.287576393224298954e-03 -1.497559715062379837e-03 -3.117770887911319733e-03 9.193419478833675385e-03 -1.748698949813842773e-02 3.040322335436940193e-03 1.827317290008068085e-03 1.716639031656086445e-03 1.180251035839319229e-02 -3.465891350060701370e-04 -7.124344352632761002e-03 8.431668393313884735e-03 -3.610742278397083282e-04 -1.337338890880346298e-02 -1.002982724457979202e-03 4.758602939546108246e-03 -3.916722722351551056e-03 -2.790281549096107483e-03 1.392696332186460495e-02 3.099342109635472298e-03 -9.017840959131717682e-03 -1.241942285560071468e-03 8.294054307043552399e-03 4.076463636010885239e-03 -2.669088542461395264e-02 -4.116836935281753540e-03 -8.413735777139663696e-03 8.041908964514732361e-03 -8.709128946065902710e-03 2.525562886148691177e-03 -4.850146360695362091e-03 2.450918033719062805e-02 -8.478096686303615570e-03 7.522349711507558823e-03 -4.642873071134090424e-03 1.366003300063312054e-03 -1.210226397961378098e-02 3.135733073577284813e-03 3.424977418035268784e-03 4.384818021208047867e-03 1.256247330456972122e-02 -1.115904003381729126e-02 -1.816070452332496643e-02 -2.822740934789180756e-03 -6.823637988418340683e-03 1.778225763700902462e-03 2.565494552254676819e-02 3.381384012755006552e-04 -1.761835254728794098e-02 -2.458355389535427094e-02 2.924296073615550995e-03 7.085790275596082211e-04 1.310353912413120270e-02 -1.571032218635082245e-03 1.225463231094181538e-03 6.768948864191770554e-03 7.396622095257043839e-04 3.291881002951413393e-04 1.231100177392363548e-03 5.248069064691662788e-04 1.599365263245999813e-03 9.300876408815383911e-03 -2.721951932471711189e-05 -1.144319586455821991e-02 -8.475955575704574585e-03 1.526811975054442883e-03 -1.413813233375549316e-02 -9.029390639625489712e-04 -3.144746297039091587e-04 -9.155066683888435364e-03 8.314440026879310608e-03 -1.628695987164974213e-02 -1.395384687930345535e-02 -1.105228904634714127e-02 1.719207502901554108e-02 5.229691974818706512e-03 7.305372040718793869e-03 -8.027822710573673248e-03 1.273922249674797058e-02 2.187532000243663788e-02 1.668473356403410435e-03 -6.160923745483160019e-03 2.009935118257999420e-02 7.290002424269914627e-03 -4.353890940546989441e-02 -8.615738712251186371e-03 -9.858332574367523193e-03 3.175600990653038025e-02 -5.778340622782707214e-03 -5.106532014906406403e-03 -2.120632119476795197e-02 2.394236065447330475e-02 1.793816871941089630e-02 2.178308321163058281e-03 -1.869096420705318451e-02 -2.444227039813995361e-02 -3.332086140289902687e-03 1.321684103459119797e-02 -8.964880369603633881e-03 -1.100652106106281281e-02 3.524220315739512444e-03 -3.170790150761604309e-03 1.926506520248949528e-03 1.636574603617191315e-02 -2.994881384074687958e-02 1.188232284039258957e-02 -4.197353031486272812e-03 1.425248570740222931e-03 2.376162447035312653e-02 -1.842943392693996429e-02 -3.213781863451004028e-03 9.045939892530441284e-03 2.669935347512364388e-03 5.813490133732557297e-05 -5.229789763689041138e-03 -3.933012019842863083e-03 3.068902296945452690e-04 4.390907008200883865e-03 -6.437380798161029816e-03 1.822863332927227020e-02 1.240443717688322067e-02 3.532795002683997154e-03 1.255339570343494415e-02 6.062965840101242065e-03 -2.944892272353172302e-02 7.553961477242410183e-04 1.255070092156529427e-03 2.314049191772937775e-02 1.125103142112493515e-02 4.690203350037336349e-03 3.565750084817409515e-03 6.474912911653518677e-02 -1.547278650104999542e-02 6.678363308310508728e-03 6.016157567501068115e-03 -3.010158892720937729e-03 -3.618188202381134033e-02 6.814709398895502090e-03 9.568750974722206593e-04 -3.856741823256015778e-03 -1.871336810290813446e-02 -1.412229519337415695e-02 -2.951092459261417389e-02 -2.853850135579705238e-03 -1.927609927952289581e-02 1.654484868049621582e-02 3.787604346871376038e-02 2.695186994969844818e-03 3.806631546467542648e-03 -2.009010314941406250e-02 3.337319474667310715e-03 1.381305418908596039e-02 -1.930922456085681915e-02 -1.623570732772350311e-02 -8.437523618340492249e-03 -4.830621182918548584e-03 -8.258242160081863403e-03 -1.129910722374916077e-02 -1.117903739213943481e-02 -1.931962906382977962e-03 -1.771861314773559570e-02 3.920172341167926788e-03 3.432370256632566452e-03 -2.240933850407600403e-02 -6.290057674050331116e-03 -4.368585068732500076e-03 -8.472017943859100342e-03 -2.939087571576237679e-03 -1.514841988682746887e-02 7.091145962476730347e-04 -3.312119096517562866e-02 6.636353582143783569e-02 8.771366439759731293e-03 2.448770217597484589e-02 5.648852512240409851e-02 4.327612370252609253e-02 -4.212077334523200989e-02 -4.453602433204650879e-02 2.556607499718666077e-02 -4.518512170761823654e-03 -3.621924668550491333e-02 9.229027666151523590e-03 2.259923331439495087e-02 -1.912820735014975071e-03 -1.225928543135523796e-03 4.698593541979789734e-02 -3.736657649278640747e-02 -4.367128759622573853e-02 -2.040101215243339539e-02 2.254083380103111267e-02 -8.090097457170486450e-02 -3.009763546288013458e-02 4.612214490771293640e-02 -2.246445417404174805e-02 -1.711417734622955322e-02 1.118251867592334747e-02 -6.989202648401260376e-02 3.085404820740222931e-02 4.760316014289855957e-02 5.682463943958282471e-02 -1.077439915388822556e-02 1.087437104433774948e-02 -1.231667585670948029e-02 -3.810596838593482971e-02 5.413140170276165009e-03 -8.256627619266510010e-02 -2.316212281584739685e-02 1.842492073774337769e-02 3.441017121076583862e-02 4.644005373120307922e-02 -3.416499868035316467e-02 1.048451289534568787e-02 4.283857718110084534e-02 6.051897071301937103e-03 -3.460597246885299683e-02 2.027960680425167084e-02 1.629329659044742584e-02 -1.506008859723806381e-02 -2.486164495348930359e-02 -3.793499246239662170e-02 -1.975337415933609009e-02 4.330639913678169250e-02 -3.297505155205726624e-02 2.519170753657817841e-02 3.565847501158714294e-02 6.024926528334617615e-02 7.740926742553710938e-02 2.982092835009098053e-02 -1.394586358219385147e-02 -2.349241822957992554e-02 3.702162951231002808e-02 6.163364276289939880e-02 5.808287486433982849e-02 8.927513845264911652e-03 -1.245076730847358704e-01 -3.243541345000267029e-02 -4.904304817318916321e-02 1.976071670651435852e-02 -6.437971442937850952e-02 1.880543492734432220e-02 -2.467402070760726929e-02 6.023830547928810120e-02 -1.854258216917514801e-02 -3.495032433420419693e-03 -1.562578231096267700e-02 -2.978934347629547119e-02 6.791510432958602905e-02 -4.764306172728538513e-02 -4.275068640708923340e-02 -3.021359257400035858e-02 -3.158295899629592896e-02 -6.022578477859497070e-02 -3.297251462936401367e-02 -5.794313177466392517e-02 -3.264492750167846680e-02 4.658163711428642273e-02 1.409199181944131851e-02 1.003352031111717224e-01 2.384419925510883331e-02 2.042865566909313202e-02 4.363591969013214111e-02 -2.617599908262491226e-03 -8.936288650147616863e-04 -8.669394068419933319e-03 -1.291862595826387405e-02 4.879610985517501831e-02 -2.102186903357505798e-02 -1.155244465917348862e-02 -8.347955532371997833e-03 6.897287908941507339e-03 3.185354545712471008e-02 -6.750517990440130234e-03 -1.901658251881599426e-02 -1.183229219168424606e-02 1.036223582923412323e-02 -3.422451438382267952e-03 2.727801166474819183e-02 -1.707947999238967896e-02 2.770031429827213287e-02 1.819136925041675568e-02 -1.106158178299665451e-02 1.549260597676038742e-02 1.216212101280689240e-02 -1.371233910322189331e-02 -6.497237365692853928e-03 1.587301376275718212e-03 -1.635051146149635315e-02 1.633721776306629181e-02 -7.787796203047037125e-03 -6.283606868237257004e-03 -2.362750656902790070e-02 1.044468861073255539e-02 -4.649736452847719193e-03 1.210373360663652420e-02 2.217083238065242767e-02 -3.812183625996112823e-03 -1.393283717334270477e-02 4.491429775953292847e-03 -2.045671455562114716e-02 -1.256129425019025803e-02 2.760149724781513214e-02 -7.190269883722066879e-03 -1.220079697668552399e-02 2.601424977183341980e-02 -2.611871063709259033e-02 1.690995506942272186e-02 5.275653209537267685e-03 3.330226987600326538e-03 1.722823269665241241e-02 -7.950099185109138489e-03 -2.122114039957523346e-02 1.451946329325437546e-02 1.916899718344211578e-02 9.151311591267585754e-03 -2.550381235778331757e-03 5.506585352122783661e-03 1.275158766657114029e-02 -1.475387532263994217e-02 -1.929385005496442318e-03 -1.945388875901699066e-02 -1.321708969771862030e-02 -4.245525225996971130e-03 -7.187736686319112778e-03 -1.973658800125122070e-03 -1.193361356854438782e-02 -1.789151132106781006e-02 -1.703326776623725891e-02 1.134159881621599197e-02 -1.666064001619815826e-02 -1.140257157385349274e-02 -7.017124909907579422e-03 2.537913993000984192e-02 1.438139472156763077e-02 1.581362332217395306e-03 -1.843356341123580933e-02 -3.046413511037826538e-02 -3.739266842603683472e-02 8.076162077486515045e-03 4.058568272739648819e-03 -1.806578598916530609e-02 4.278154112398624420e-03 -1.004527509212493896e-02 -5.253839306533336639e-03 1.048034243285655975e-02 -7.535479031503200531e-03 -1.956370892003178596e-03 2.373524941504001617e-02 -1.375982444733381271e-02 2.598831988871097565e-02 -2.008902467787265778e-02 3.726997412741184235e-03 3.324987739324569702e-02 -2.380188088864088058e-03 -1.601107604801654816e-02 3.459441661834716797e-02 -3.212962672114372253e-02 2.533459803089499474e-03 2.096498012542724609e-02 -3.593996167182922363e-02 1.025013159960508347e-02 -1.618105918169021606e-02 7.926947437226772308e-03 -4.446844104677438736e-03 -2.700200490653514862e-02 2.037934260442852974e-03 -2.090609399601817131e-03 -4.789720475673675537e-02 4.208310565445572138e-04
-1.271220203489065170e-02 -2.579029183834791183e-03 -1.058976486092433333e-04 -4.083479288965463638e-03 -2.157507091760635376e-02 -2.871839888393878937e-02 9.629935957491397858e-03 8.616775274276733398e-03 -1.469145994633436203e-03 -1.833572518080472946e-03 1.296839397400617599e-02 1.365049369633197784e-02 -1.036777393892407417e-03 8.219513110816478729e-03 8.112883195281028748e-03 -3.509744303300976753e-03 -1.499257516115903854e-02 -3.634282853454351425e-03 -3.881599754095077515e-03 1.610528118908405304e-02 1.234816154465079308e-03 -7.832373492419719696e-03 -8.589019998908042908e-03 2.708263508975505829e-02 -1.356359664350748062e-02 -2.918234560638666153e-03 -9.069164283573627472e-03 -1.159850973635911942e-02 -2.127113519236445427e-03 5.488482769578695297e-03 -3.039605915546417236e-02 2.582553774118423462e-03 2.355498494580388069e-03 -1.701491535641252995e-03 -3.018322866410017014e-03 8.939556777477264404e-03 -2.747726254165172577e-02 7.941514253616333008e-03 4.149765882175415754e-04 5.847418215125799179e-03 1.200218033045530319e-02 -7.896526716649532318e-03 -6.699335295706987381e-03 8.250140585005283356e-03 -2.886843576561659575e-04 -2.793280221521854401e-02 -9.079718147404491901e-04 5.200130864977836609e-03 -7.686096942052245140e-04 -3.454385558143258095e-03 2.195219695568084717e-02 3.005345817655324936e-03 -9.658489376306533813e-03 2.769017359241843224e-03 3.808989189565181732e-03 1.168252248317003250e-02 -2.287991531193256378e-02 -6.673541851341724396e-03 -1.203014701604843140e-02 3.788567846640944481e-03 -6.680467631667852402e-03 7.267337758094072342e-03 2.253287704661488533e-03 3.146631270647048950e-02 -1.006164494901895523e-02 1.039933040738105774e-02 3.688281634822487831e-03 1.399933942593634129e-03 -9.448676370084285736e-03 2.923450665548443794e-03 5.356017034500837326e-03 -3.066882025450468063e-03 -9.498913772404193878e-03 -1.960284076631069183e-02 -1.957095041871070862e-02 4.029498901218175888e-03 -1.094845216721296310e-02 1.315294578671455383e-02 2.049031108617782593e-02 -3.051214385777711868e-03 -1.937343925237655640e-02 -1.947333291172981262e-02 3.075671149417757988e-03 -7.932440377771854401e-03 -1.862564473412930965e-03 1.455876859836280346e-03 -1.493948744609951973e-03 5.060683470219373703e-03 -9.434112580493092537e-04 1.186984009109437466e-03 -6.313694175332784653e-04 5.088742473162710667e-04 3.706056624650955200e-03 -1.724347239360213280e-03 2.212890656664967537e-03 -1.209553703665733337e-02 -9.076089598238468170e-03 -1.824932696763426065e-04 -7.693325169384479523e-03 -3.908748272806406021e-03 -2.629243209958076477e-02 -8.149826899170875549e-03 8.614460937678813934e-03 -5.422010552138090134e-03 -2.532719075679779053e-02 -3.009860776364803314e-02 1.512498408555984497e-02 -8.936788886785507202e-03 -1.061925757676362991e-02 -5.776854231953620911e-03 1.528291311115026474e-02 1.910317689180374146e-02 2.020942745730280876e-03 -2.536667510867118835e-03 2.372755855321884155e-02 -3.914061002433300018e-03 -3.492842242121696472e-02 -2.725308947265148163e-02 -3.356799250468611717e-03 6.166902836412191391e-03 -8.908669464290142059e-03 -9.918047115206718445e-03 1.179238315671682358e-03 1.054701022803783417e-02 -4.318263847380876541e-03 1.222746539860963821e-02 -1.370447967201471329e-02 -1.918438076972961426e-02 -1.908876188099384308e-02 2.072261832654476166e-02 -2.899622544646263123e-02 -7.181352935731410980e-03 -4.230405203998088837e-03 -3.712217090651392937e-03 -8.284593932330608368e-03 2.432291209697723389e-02 -3.717872500419616699e-02 4.743533208966255188e-03 -1.669553294777870178e-02 3.377187764272093773e-03 2.365382201969623566e-02 -1.241737604141235352e-02 -8.004866540431976318e-03 8.333031088113784790e-03 3.700568340718746185e-03 -3.166706487536430359e-02 5.239435005933046341e-03 4.644854925572872162e-03 -5.967937177047133446e-04 3.834706265479326248e-03 1.947381650097668171e-03 1.711111888289451599e-02 4.210488405078649521e-03 2.718616044148802757e-03 2.304980531334877014e-03 1.484772656112909317e-02 -4.268126562237739563e-02 1.328971993643790483e-04 -1.369381695985794067e-02 8.018733933568000793e-03 1.542570535093545914e-02 7.233762182295322418e-03 1.051641535013914108e-02 6.565210223197937012e-02 -1.672330312430858612e-02 1.271972339600324631e-02 9.329325519502162933e-03 -4.506972618401050568e-03 -2.354698069393634796e-02 1.280399505048990250e-02 2.794772945344448090e-02 -9.312645532190799713e-03 -1.292812079191207886e-02 -1.946406066417694092e-02 -2.822515927255153656e-02 3.176657482981681824e-03 -2.686437778174877167e-02 1.746365614235401154e-02 1.948205381631851196e-02 1.692211022600531578e-03 -1.149966940283775330e-02 -3.332284092903137207e-02 4.168588202446699142e-03 -1.029524579644203186e-02 -2.040451020002365112e-02 -9.193190373480319977e-03 -2.530887257307767868e-03 2.193428017199039459e-02 -9.266086854040622711e-03 -3.744224784895777702e-03 -1.986299268901348114e-02 -3.987450618296861649e-03 1.028762105852365494e-02 6.852424703538417816e-03 2.015676908195018768e-02 -1.270042732357978821e-02 -1.122554112225770950e-02 -3.131133969873189926e-03 1.268465071916580200e-02 -7.322377059608697891e-03 7.112377882003784180e-02 4.241585731506347656e-02 -3.199241822585463524e-03 -1.693802326917648315e-02 -2.525935135781764984e-02 5.142991617321968079e-02 -3.515788167715072632e-02 -6.233426555991172791e-02 -4.992751032114028931e-02 7.177032995969057083e-03 3.766217827796936035e-02 7.026855647563934326e-02 4.830945399589836597e-04 -5.694542452692985535e-02 9.039266966283321381e-03 -2.371982298791408539e-02 -3.402223810553550720e-02 -1.479993015527725220e-02 -6.405536085367202759e-02 6.095176562666893005e-02 -4.556369781494140625e-02 3.732460737228393555e-02 -2.608603611588478088e-02 -6.401731073856353760e-02 4.733145609498023987e-02 4.694008454680442810e-02 5.568736791610717773e-02 -4.757922887802124023e-02 3.758860006928443909e-02 6.802292168140411377e-02 -4.997392371296882629e-02 -3.534713387489318848e-02 -5.917277187108993530e-03 -4.621457308530807495e-03 5.035292357206344604e-02 4.017290472984313965e-02 -6.601756066083908081e-02 2.201091498136520386e-02 2.815408259630203247e-02 -1.375257410109043121e-02 3.488006070256233215e-02 3.448842093348503113e-02 4.519115388393402100e-02 -6.014676392078399658e-02 -4.269808158278465271e-02 -3.430197015404701233e-02 -2.271001413464546204e-02 -1.792167872190475464e-02 -2.808437682688236237e-02 -1.716788485646247864e-02 -2.239861898124217987e-02 2.481877617537975311e-02 -4.059322923421859741e-02 2.774748206138610840e-02 -5.983827635645866394e-02 1.950095593929290771e-02 -1.910896971821784973e-02 -8.152326196432113647e-02 -5.104966089129447937e-02 1.185668818652629852e-02 3.938876837491989136e-02 7.691457122564315796e-02 1.875966601073741913e-02 1.734498888254165649e-02 2.552970871329307556e-02 -1.608591526746749878e-02 -1.068380102515220642e-02 -2.791717648506164551e-02 2.404594421386718750e-02 1.518933940678834915e-02 -4.919079691171646118e-02 -3.516298905014991760e-02 4.435670748353004456e-02 4.381220415234565735e-02 9.546456858515739441e-03 -2.375655435025691986e-02 4.088297113776206970e-02 2.850537002086639404e-02 -5.326536297798156738e-02 -6.844886392354965210e-02 5.824898555874824524e-02 -7.594604790210723877e-02 2.169951237738132477e-02 -1.603207550942897797e-02 -2.168356813490390778e-02 -5.737437307834625244e-02 4.578781500458717346e-02 -1.345561910420656204e-02 8.987963944673538208e-02 2.264755591750144958e-02 -6.937117129564285278e-02 2.998721087351441383e-03 -4.089475050568580627e-02 2.580589987337589264e-02 5.701454728841781616e-02 -3.533928096294403076e-02 -1.529672089964151382e-02 -4.135240241885185242e-02 -1.392599754035472870e-02 -1.517534628510475159e-02 -4.954266361892223358e-03 3.195248311385512352e-03 2.039743959903717041e-02 -9.066527709364891052e-03 -1.252994127571582794e-02 -1.662503927946090698e-02 4.993832670152187347e-03 -9.286492131650447845e-03 2.245341613888740540e-02 -1.925835572183132172e-02 1.754165627062320709e-02 1.537939812988042831e-02 -1.025267876684665680e-03 4.746609367430210114e-03 2.336707338690757751e-02 -1.492191851139068604e-02 -1.405953522771596909e-02 -2.016054280102252960e-02 -2.108120545744895935e-02 1.081654895097017288e-02 -5.553718656301498413e-03 3.269536246079951525e-04 -1.833928003907203674e-02 1.681170426309108734e-02 -1.269806828349828720e-02 1.290523540228605270e-02 -5.519369617104530334e-03 -2.589903399348258972e-02 -1.914117485284805298e-03 2.876251703128218651e-03 -4.605364426970481873e-02 -4.144075326621532440e-03 2.101467736065387726e-02 -1.356448046863079071e-02 1.304808724671602249e-02 8.571332320570945740e-03 -3.717269003391265869e-02 8.431184105575084686e-03 -3.499103244394063950e-03 8.288327604532241821e-03 2.435949863865971565e-03 -6.366986781358718872e-03 5.218151491135358810e-03 3.162145614624023438e-02 -3.977154847234487534e-03 4.938052035868167877e-03 1.018600631505250931e-02 1.159429084509611130e-04 8.830640465021133423e-03 -1.792811788618564606e-02 1.680955174379050732e-03 -1.907059364020824432e-02 -2.241767197847366333e-02 -3.686361596919596195e-04 2.556868363171815872e-03 1.441225642338395119e-03 -1.557399425655603409e-02 -2.948579192161560059e-02 -3.186890482902526855e-02 7.039018906652927399e-03 -2.492874301970005035e-02 -2.676220424473285675e-02 9.493537247180938721e-03 3.201698139309883118e-02 -1.388972904533147812e-02 1.839707605540752411e-02 -8.863433264195919037e-03 -4.291935637593269348e-02 -4.080891143530607224e-03 -4.578932188451290131e-03 2.454284206032752991e-02 -1.378642488270998001e-02 -4.393407702445983887e-02 -1.452208310365676880e-02 -7.769978605210781097e-03 2.998074144124984741e-02 -1.238970551639795303e-02 1.698020659387111664e-02 4.700907738879323006e-04 -3.155370010063052177e-03 2.347768470644950867e-02 -1.973802037537097931e-02 2.324773743748664856e-02 5.757698672823607922e-04 2.353405347093939781e-03 3.939234185963869095e-03 3.648013621568679810e-02 -4.700751230120658875e-02 1.407863106578588486e-03 3.270636498928070068e-02 -4.675420746207237244e-02 2.100733341649174690e-03 1.228121854364871979e-02 3.018866060301661491e-03 1.220867875963449478e-02 -1.118677016347646713e-02 4.597163293510675430e-03 -1.859498955309391022e-02 -3.037573024630546570e-02 5.710455588996410370e-03
-1.542663294821977615e-02 -2.054152078926563263e-03 -8.747672836761921644e-05 -4.698434844613075256e-03 -2.241748571395874023e-02 -2.867013029754161835e-02 8.719458244740962982e-03 7.629117928445339203e-03 -1.898794900625944138e-03 -3.161191940307617188e-03 1.118389051407575607e-02 1.204163115471601486e-02 -5.837793461978435516e-03 9.873121045529842377e-03 3.549044718965888023e-03 -5.958572030067443848e-03 -1.546212192624807358e-02 -9.489393560215830803e-04 -9.741443209350109100e-03 1.618978194892406464e-02 3.050101688131690025e-03 -9.337722323834896088e-03 -3.485420020297169685e-03 2.822190709412097931e-02 -9.036886505782604218e-03 -7.728818338364362717e-03 -1.123565435409545898e-02 -2.014268189668655396e-02 -4.119009245187044144e-04 5.682465620338916779e-03 -2.941493876278400421e-02 2.227821620181202888e-03 4.776842892169952393e-03 -1.646015211008489132e-03 -5.328278057277202606e-03 9.246817789971828461e-03 -2.637360058724880219e-02 5.079780705273151398e-03 1.657009008340537548e-03 2.479069400578737259e-03 1.625250279903411865e-02 -5.046753212809562683e-03 -7.552177645266056061e-03 1.118765771389007568e-02 -2.598571009002625942e-04 -2.989605627954006195e-02 -4.709052154794335365e-04 6.157785188406705856e-03 3.997908497694879770e-04 -3.269996261224150658e-03 2.232128009200096130e-02 8.207135833799839020e-04 -1.104631181806325912e-02 -3.705264825839549303e-04 4.041192121803760529e-03 1.327457278966903687e-02 -2.537681721150875092e-02 -1.207587774842977524e-02 -1.452188659459352493e-02 1.906627789139747620e-03 -5.199275445193052292e-03 4.134126356802880764e-04 4.826144780963659286e-03 3.037591651082038879e-02 -9.487952105700969696e-03 8.505172096192836761e-03 -3.364960197359323502e-03 1.374388695694506168e-03 -7.882958278059959412e-03 2.532819751650094986e-03 5.322360433638095856e-03 -2.271054312586784363e-03 -1.275630295276641846e-02 -2.067516930401325226e-02 -1.920174807310104370e-02 9.052229113876819611e-03 -1.271571218967437744e-02 9.581902995705604553e-03 2.164133824408054352e-02 -4.203026648610830307e-03 -1.878625713288784027e-02 -2.266808785498142242e-02 6.767614278942346573e-03 -7.477383129298686981e-03 3.740237152669578791e-04 -1.475830329582095146e-03 9.798746323212981224e-04 6.331978831440210342e-03 -5.882351193577051163e-03 1.556491013616323471e-03 1.575192552991211414e-03 5.310678388923406601e-04 3.540976904332637787e-03 -9.982572868466377258e-03 2.719196258112788200e-03 -1.238071545958518982e-02 -9.457728825509548187e-03 -4.309927171561866999e-04 3.426697221584618092e-04 -3.149366937577724457e-03 -2.129994705319404602e-02 -3.313197055831551552e-03 8.182318881154060364e-03 -6.313072517514228821e-03 -3.216337785124778748e-02 -2.709772065281867981e-02 1.384445931762456894e-02 -8.056445047259330750e-03 -1.039346586912870407e-02 -6.526053883135318756e-03 -1.586375571787357330e-02 1.832441426813602448e-02 2.750396495684981346e-03 3.948633559048175812e-03 1.248094905167818069e-02 -7.173473481088876724e-03 -2.926460839807987213e-02 -2.043656632304191589e-02 -2.215097472071647644e-02 7.726008072495460510e-03 -3.330556675791740417e-03 -5.926865153014659882e-03 -6.538481451570987701e-03 1.078349631279706955e-02 6.080423947423696518e-03 -5.876394454389810562e-03 -1.583855785429477692e-02 -2.246464416384696960e-02 -6.311139557510614395e-03 2.187714539468288422e-02 -2.795865200459957123e-02 -5.314976908266544342e-03 -1.957348082214593887e-03 -2.997318282723426819e-03 -7.928444072604179382e-03 1.731096766889095306e-02 -3.679220378398895264e-02 1.096606999635696411e-02 -1.315064821392297745e-02 1.321966643445193768e-03 3.553279861807823181e-02 -1.162941008806228638e-02 -5.339408293366432190e-03 1.202689856290817261e-02 -1.708297291770577431e-03 -3.201441094279289246e-02 3.912795800715684891e-03 6.660350598394870758e-03 -1.186602050438523293e-03 3.884772537276148796e-03 9.054723195731639862e-03 1.757521927356719971e-02 -3.486239002086222172e-04 1.228571403771638870e-03 -1.817979733459651470e-03 2.085741236805915833e-02 -4.242169111967086792e-02 -1.755697652697563171e-02 -1.650637201964855194e-02 9.751041419804096222e-03 2.258522436022758484e-02 -3.129268297925591469e-03 2.345725148916244507e-02 6.444204598665237427e-02 -1.548458449542522430e-02 4.976462107151746750e-03 -5.524171050637960434e-03 -4.117476753890514374e-03 -2.462170831859111786e-02 7.238632533699274063e-03 5.678867921233177185e-03 -6.665596272796392441e-03 -2.037773467600345612e-02 -2.069073542952537537e-02 -2.135921828448772430e-02 1.089117396622896194e-02 -2.885692939162254333e-02 1.543738320469856262e-02 2.620650455355644226e-02 -5.818052217364311218e-03 -7.213759236037731171e-03 -2.973307855427265167e-02 2.605284936726093292e-02 -4.212479107081890106e-03 -2.599977143108844757e-02 -9.970594197511672974e-03 -7.732654921710491180e-04 2.286681905388832092e-02 -2.323964796960353851e-02 2.605312911327928305e-04 -1.653201319277286530e-02 -6.877324543893337250e-03 1.564195193350315094e-02 -8.673861622810363770e-03 1.541964989155530930e-02 -2.952327951788902283e-02 -1.775545626878738403e-02 -5.982413422316312790e-03 1.840938255190849304e-02 -6.537355016916990280e-03 -2.519557997584342957e-02 -2.598588587716221809e-03 -1.052790135145187378e-02 1.845081336796283722e-02 -3.319200873374938965e-02 4.019234329462051392e-02 -1.355462055653333664e-02 4.510869085788726807e-02 4.198247101157903671e-03 -2.389340847730636597e-02 2.269099839031696320e-02 -3.995165601372718811e-02 -4.671605769544839859e-03 1.245554257184267044e-02 -2.470053918659687042e-02 2.673515817150473595e-03 5.599398538470268250e-02 8.160550892353057861e-02 5.342448875308036804e-02 -2.079843543469905853e-02 6.558165699243545532e-02 2.687729150056838989e-02 1.618725806474685669e-02 4.352235794067382812e-02 3.460923582315444946e-02 3.521510586142539978e-02 4.844113439321517944e-02 -5.874718353152275085e-02 6.859575863927602768e-03 -5.815279111266136169e-02 -1.764713972806930542e-02 2.653419040143489838e-02 5.849086120724678040e-02 -1.071608066558837891e-02 3.898036479949951172e-02 -4.588606767356395721e-03 -3.871877118945121765e-02 3.818450868129730225e-02 4.882517829537391663e-02 4.103802610188722610e-03 3.626013547182083130e-02 6.283902376890182495e-02 -7.558704819530248642e-03 -9.993073530495166779e-03 3.430271754041314125e-03 -6.190770491957664490e-02 -2.155109122395515442e-02 -6.029613688588142395e-02 6.587295234203338623e-02 5.261287093162536621e-02 1.256594248116016388e-02 1.393335405737161636e-02 8.079349063336849213e-03 6.183961778879165649e-02 1.968923211097717285e-02 1.409138273447751999e-02 2.958220988512039185e-02 -8.100078254938125610e-02 1.947240903973579407e-02 6.135592982172966003e-02 6.511454284191131592e-02 7.551958411931991577e-02 4.141811747103929520e-03 -1.359930611215531826e-04 2.032900415360927582e-02 6.067382916808128357e-02 -3.857054747641086578e-03 1.531100599095225334e-03 -6.976552307605743408e-02 4.533583670854568481e-02 -5.212696269154548645e-02 6.188150867819786072e-02 -5.594952031970024109e-02 -4.136454313993453979e-02 -2.300944179296493530e-02 -5.125715862959623337e-03 -6.063395366072654724e-02 4.830244928598403931e-02 6.012962386012077332e-02 -8.813507854938507080e-03 -3.599515184760093689e-02 -7.403057999908924103e-03 -4.383810609579086304e-02 9.585979394614696503e-03 7.085826713591814041e-03 -5.016259476542472839e-02 3.696824237704277039e-02 -2.004275284707546234e-02 -4.415789991617202759e-02 -4.383821040391921997e-02 4.352641478180885315e-02 6.921234726905822754e-02 7.179788313806056976e-03 -5.781100131571292877e-03 3.493439406156539917e-02 -1.371389604173600674e-03 3.626697510480880737e-02 2.444830723106861115e-02 1.701763272285461426e-02 1.731477491557598114e-02 -1.251375302672386169e-02 1.751242205500602722e-02 1.791590079665184021e-02 -5.316394381225109100e-03 -6.462504621595144272e-03 -1.527059543877840042e-02 5.406298208981752396e-03 -3.327863058075308800e-03 3.081481903791427612e-02 -3.836249187588691711e-02 1.597240380942821503e-02 1.189024839550256729e-02 7.186564616858959198e-03 1.408054865896701813e-02 2.465535886585712433e-02 -1.603401638567447662e-02 -7.151036057621240616e-03 -2.728737518191337585e-02 -3.622288256883621216e-02 1.393405813723802567e-02 -1.457353215664625168e-02 4.955528856953606009e-05 -1.551510114222764969e-02 2.282478846609592438e-02 -6.466676015406847000e-03 -8.430014364421367645e-03 -1.359134912490844727e-02 -2.366906218230724335e-02 -5.775847472250461578e-03 8.427547290921211243e-03 -4.759385436773300171e-02 -5.580548197031021118e-03 1.957544311881065369e-02 5.844222381711006165e-03 8.620852604508399963e-03 9.842732688412070274e-04 -3.938055410981178284e-02 3.094387007877230644e-03 -1.841836795210838318e-02 4.433482419699430466e-03 1.205721870064735413e-02 -7.931368425488471985e-03 1.701964810490608215e-02 3.262643516063690186e-02 2.150210738182067871e-02 1.124900672584772110e-02 -1.348632853478193283e-02 3.669374622404575348e-03 9.731789119541645050e-03 -3.304843977093696594e-02 8.638916537165641785e-03 -1.696577481925487518e-02 -1.223522424697875977e-02 -1.562080695293843746e-03 -2.601236803457140923e-03 2.079617232084274292e-03 -2.183253876864910126e-02 -4.076955094933509827e-02 -2.726670540869235992e-02 3.243289655074477196e-03 -2.912168204784393311e-02 -1.556986477226018906e-02 5.163252353668212891e-03 2.592769451439380646e-02 -1.723930798470973969e-02 1.886837929487228394e-02 -2.228175103664398193e-02 -2.683584764599800110e-02 -1.023278851062059402e-02 -1.522503909654915333e-03 3.755446523427963257e-03 -1.343867275863885880e-02 -4.395402222871780396e-02 -1.936764828860759735e-02 -2.538996981456875801e-03 3.469851985573768616e-02 -1.681685633957386017e-02 2.006691135466098785e-02 -2.647446235641837120e-04 -3.584057558327913284e-03 4.332294315099716187e-02 -2.336202934384346008e-02 3.463732451200485229e-02 1.098800264298915863e-02 3.357110777869820595e-03 -2.446874789893627167e-02 4.700939171016216278e-03 -5.250952765345573425e-02 -1.439775153994560242e-02 1.807265728712081909e-02 -3.963114693760871887e-02 4.031911958009004593e-03 5.079602357000112534e-03 -1.428076624870300293e-02 6.860851310193538666e-03 -1.209896802902221680e-02 -5.284121143631637096e-04 -1.531432289630174637e-02 -1.979539543390274048e-02 -2.628236077725887299e-03
-1.271735411137342453e-02 -2.459431067109107971e-03 -5.524444859474897385e-04 -3.966912161558866501e-03 -2.278355881571769714e-02 -3.072815202176570892e-02 6.749866064637899399e-03 7.431425619870424271e-03 4.048310220241546631e-04 -3.023371333256363869e-03 1.389584317803382874e-02 1.238609291613101959e-02 -4.933640360832214355e-03 8.575191721320152283e-03 4.361389204859733582e-03 -4.845334216952323914e-03 -1.539232581853866577e-02 -5.802803789265453815e-04 -5.356663372367620468e-03 1.343278586864471436e-02 9.685615659691393375e-04 -7.929092273116111755e-03 -8.877671323716640472e-03 2.560756355524063110e-02 -1.144384872168302536e-02 -7.365038618445396423e-03 -1.169747393578290939e-02 -1.604487001895904541e-02 -4.996638745069503784e-04 9.492267854511737823e-03 -2.935471758246421814e-02 3.734211670234799385e-03 5.221225321292877197e-03 -1.610404811799526215e-03 -3.221529535949230194e-03 8.645394816994667053e-03 -2.806682325899600983e-02 5.937936250120401382e-03 -2.168058417737483978e-04 7.425668649375438690e-03 1.150403451174497604e-02 -9.925900958478450775e-03 -5.085068754851818085e-03 1.046665385365486145e-02 -2.891914919018745422e-04 -2.808297984302043915e-02 -7.731943624094128609e-04 5.853992886841297150e-03 4.357031430117785931e-04 -4.321581218391656876e-03 2.267301641404628754e-02 2.047797664999961853e-03 -8.966190740466117859e-03 9.251018636859953403e-04 3.397916676476597786e-03 1.190320402383804321e-02 -2.390012890100479126e-02 -1.095982640981674194e-02 -1.104180794209241867e-02 2.294713864102959633e-03 -4.637922160327434540e-03 8.549497462809085846e-03 6.191671360284090042e-03 3.050796128809452057e-02 -9.756133891642093658e-03 1.054391451179981232e-02 3.937556175515055656e-04 1.308538485318422318e-03 -8.435701020061969757e-03 2.270722994580864906e-03 1.468284172005951405e-03 -5.986763164401054382e-03 -1.465924922376871109e-02 -1.866582036018371582e-02 -1.587344147264957428e-02 1.284051779657602310e-02 -1.424338482320308685e-02 1.315474230796098709e-02 2.300776913762092590e-02 1.667575212195515633e-03 -1.898022368550300598e-02 -2.005383744835853577e-02 4.983737599104642868e-03 -3.844071878120303154e-03 -6.527537479996681213e-03 5.440794397145509720e-03 -1.340098446235060692e-03 6.469489075243473053e-03 9.305056883022189140e-04 -1.769804861396551132e-03 -5.241293110884726048e-04 4.996206844225525856e-04 1.999815925955772400e-03 -1.006993371993303299e-02 1.600864809006452560e-03 -1.243667770177125931e-02 -1.022673770785331726e-02 -6.265799165703356266e-04 -1.436342950910329819e-02 -3.079974791035056114e-03 -2.746568247675895691e-02 -1.104665454477071762e-02 8.363897912204265594e-03 -7.547343615442514420e-03 -2.714643068611621857e-02 -3.439417481422424316e-02 3.209020709618926048e-03 -8.549020625650882721e-03 -7.876408286392688751e-03 -1.466164831072092056e-02 2.308122115209698677e-03 1.599554531276226044e-02 2.115590265020728111e-03 5.329843610525131226e-03 1.682958379387855530e-02 -3.157454309985041618e-03 -2.598052099347114563e-02 -1.762587763369083405e-02 -1.524335518479347229e-02 1.382836978882551193e-02 -1.054563559591770172e-02 -6.549245212227106094e-03 -4.773220978677272797e-03 1.578936912119388580e-02 1.168861426413059235e-02 4.290880169719457626e-03 -1.981703750789165497e-02 -2.872890420258045197e-02 -1.152771804481744766e-02 1.814668625593185425e-02 -2.988239005208015442e-02 -5.111509934067726135e-03 -6.262402748689055443e-04 -3.102282295003533363e-03 -1.733713317662477493e-03 1.285647507756948471e-02 -4.570275545120239258e-02 1.257058419287204742e-02 -1.908461749553680420e-02 5.225905682891607285e-03 2.832687459886074066e-02 -1.015997584909200668e-02 -1.763696665875613689e-03 1.325532328337430954e-02 4.142246209084987640e-03 -2.994047664105892181e-02 3.760989056900143623e-03 -8.116899058222770691e-03 -1.040702220052480698e-03 5.506638553924858570e-04 3.074548672884702682e-03 1.520431879907846451e-02 4.478612449020147324e-03 -2.221442526206374168e-03 -2.689131768420338631e-03 2.062585204839706421e-02 -3.536448255181312561e-02 -1.230736169964075089e-02 -1.524414774030447006e-02 9.239227510988712311e-03 2.459572069346904755e-02 1.818170654587447643e-03 2.613818459212779999e-02 5.799759924411773682e-02 -1.918334513902664185e-02 1.058156695216894150e-02 1.984084397554397583e-02 -3.867216408252716064e-03 -1.916506700217723846e-02 1.481926813721656799e-02 3.042572876438498497e-03 -1.052033156156539917e-02 -1.956691220402717590e-02 -1.186577323824167252e-02 -3.054460510611534119e-02 1.263535674661397934e-02 -2.552095055580139160e-02 2.530195564031600952e-02 1.565379835665225983e-02 -4.349375958554446697e-04 -2.115610754117369652e-03 -3.322828188538551331e-02 1.102843973785638809e-02 5.270394496619701385e-03 -1.863003894686698914e-02 -1.049407012760639191e-02 -6.312044337391853333e-03 -2.730513177812099457e-02 -3.417667932808399200e-03 -8.429092355072498322e-03 -2.281215414404869080e-02 -5.321234464645385742e-03 1.093748863786458969e-02 -1.716355234384536743e-02 1.700481958687305450e-02 -2.194510214030742645e-02 -4.794877953827381134e-03 -2.639604033902287483e-03 6.323193083517253399e-04 -1.015731040388345718e-02 2.227136306464672089e-02 4.755217209458351135e-02 5.634190142154693604e-02 -3.003518842160701752e-02 -5.358469858765602112e-02 -2.082372084259986877e-02 2.191254682838916779e-02 1.978101907297968864e-03 -6.011091545224189758e-02 -1.337243709713220596e-02 2.147537190467119217e-03 -4.986715037375688553e-03 2.898299368098378181e-03 3.857420012354850769e-02 -4.400764778256416321e-02 2.908316068351268768e-02 -7.283205538988113403e-02 3.694641590118408203e-02 -1.039414852857589722e-02 4.809163883328437805e-02 -3.520706668496131897e-02 -2.324919775128364563e-02 7.985294610261917114e-02 -4.198572412133216858e-02 -5.360453575849533081e-02 2.650691941380500793e-02 -1.879666931927204132e-02 2.680080570280551910e-02 4.536941647529602051e-03 6.449554860591888428e-02 -4.970981925725936890e-02 5.755455046892166138e-02 7.432622462511062622e-02 2.318767132237553596e-03 6.605825573205947876e-02 1.687682978808879852e-02 2.742990478873252869e-02 1.053169486112892628e-03 5.085794255137443542e-02 -7.427738606929779053e-02 -2.705683931708335876e-02 6.722641643136739731e-03 4.660487920045852661e-02 -4.230161663144826889e-03 -4.874423518776893616e-02 -7.813464105129241943e-02 3.715246682986617088e-03 5.877501890063285828e-02 -4.828944802284240723e-03 -7.749138027429580688e-02 8.886400610208511353e-02 -3.250370547175407410e-02 4.226858541369438171e-02 -1.856130547821521759e-02 -4.167861491441726685e-02 -9.082201123237609863e-02 -2.309672767296433449e-03 -3.760689496994018555e-02 3.124752780422568321e-03 6.949917227029800415e-02 3.211614117026329041e-02 8.998760581016540527e-02 4.435064271092414856e-02 4.010463878512382507e-02 -8.382643572986125946e-03 2.273716032505035400e-02 -4.553056135773658752e-02 -1.646310463547706604e-02 8.678585872985422611e-04 9.600189514458179474e-03 6.496343016624450684e-02 2.926785685122013092e-02 -7.742694765329360962e-02 -7.650502771139144897e-02 2.757278271019458771e-02 -2.008642815053462982e-02 7.000059634447097778e-02 -6.335087120532989502e-02 -2.503001876175403595e-02 -1.106032170355319977e-02 2.595386654138565063e-02 -4.289123695343732834e-03 3.065450303256511688e-02 -2.988320775330066681e-02 -1.940918341279029846e-02 -5.509910173714160919e-03 5.314535461366176605e-03 -2.376460656523704529e-02 6.377109885215759277e-02 7.568299770355224609e-02 -4.644074290990829468e-02 4.090999811887741089e-02 -3.639696165919303894e-02 -4.763240739703178406e-02 2.189518697559833527e-02 5.012444406747817993e-02 2.978654764592647552e-02 -1.561541017144918442e-02 -4.957600310444831848e-02 2.955256588757038116e-02 -4.223733674734830856e-03 4.885209724307060242e-02 1.529472786933183670e-02 -9.746353141963481903e-03 -1.987551897764205933e-02 -1.681577414274215698e-02 -4.473476670682430267e-03 -4.384255036711692810e-03 5.857080966234207153e-02 -3.687458485364913940e-02 4.835246875882148743e-02 9.726304560899734497e-03 2.440489083528518677e-02 1.824364066123962402e-02 3.201154619455337524e-02 -2.352052368223667145e-02 5.418350338004529476e-04 -2.887657657265663147e-02 -4.732661694288253784e-02 -4.295120947062969208e-03 -1.088651921600103378e-02 1.364921685308218002e-02 -1.108609046787023544e-02 2.046526409685611725e-02 -8.427781984210014343e-03 9.980405448004603386e-04 -3.877291455864906311e-02 -2.613394521176815033e-02 1.539168320596218109e-02 6.206182762980461121e-03 -3.856329992413520813e-02 -7.694857777096331120e-04 1.947118341922760010e-02 2.203334867954254150e-02 1.160353235900402069e-02 1.358154974877834320e-02 -3.711849078536033630e-02 2.490313723683357239e-03 -1.045403443276882172e-02 9.326133877038955688e-03 4.034854844212532043e-02 -7.478354498744010925e-03 2.866981923580169678e-02 4.563767462968826294e-02 6.804101914167404175e-02 1.808119006454944611e-02 -1.086167898029088974e-02 1.516659092158079147e-02 1.061561796814203262e-02 -9.572140127420425415e-02 1.043830625712871552e-02 -1.794104278087615967e-02 -8.641863241791725159e-03 -9.612634778022766113e-03 4.347475711256265640e-03 -7.774044293910264969e-03 -3.350734245032072067e-03 -4.806284978985786438e-02 -2.997064217925071716e-02 7.226176559925079346e-03 -1.702478155493736267e-02 1.914907945320010185e-03 7.904321886599063873e-03 2.886967919766902924e-02 -2.813453786075115204e-02 2.509462833404541016e-02 -1.530269347131252289e-02 -8.930850028991699219e-02 -8.503475226461887360e-03 -2.317451313138008118e-02 -3.762124851346015930e-02 -1.749485544860363007e-02 -7.570132613182067871e-02 -1.728923991322517395e-02 -3.808849956840276718e-03 4.292348399758338928e-02 -2.390108071267604828e-02 3.155620768666267395e-02 2.316216472536325455e-03 -5.304451100528240204e-03 9.402988106012344360e-02 -2.092488110065460205e-02 2.267092652618885040e-02 3.814435331150889397e-03 1.282744668424129486e-02 -7.837745361030101776e-03 1.647139899432659149e-02 -7.011707872152328491e-02 -1.985115557909011841e-02 1.674878597259521484e-02 -5.643421038985252380e-02 4.057665914297103882e-02 -3.724317997694015503e-02 -2.005540393292903900e-02 2.299408614635467529e-02 -1.069348864257335663e-02 3.830894827842712402e-03 -2.970566973090171814e-02 -1.760000176727771759e-02 8.527386002242565155e-03
-8.360966108739376068e-03 -1.631953782634809613e-04 1.584639248903840780e-04 2.488891186658293009e-04 2.144081145524978638e-02 1.052744966000318527e-02 3.853498725220561028e-03 -8.069263771176338196e-03 9.685641154646873474e-03 -5.144924507476389408e-04 -5.244151107035577297e-04 -1.249741856008768082e-02 2.789029665291309357e-02 1.588764414191246033e-02 1.240337733179330826e-02 6.138145108707249165e-04 1.502052601426839828e-02 9.258423000574111938e-03 -5.404157564043998718e-04 1.157613820396363735e-03 1.699741557240486145e-02 4.836938343942165375e-03 8.616988547146320343e-03 1.580187678337097168e-02 -2.558337897062301636e-02 8.839135989546775818e-03 9.742367081344127655e-03 2.003583125770092010e-02 -2.029439667239785194e-03 2.728639170527458191e-02 3.407173207961022854e-04 -6.534601561725139618e-03 6.779560819268226624e-03 -3.713814658112823963e-04 1.045730803161859512e-02 5.476565565913915634e-03 -1.490797568112611771e-02 2.914932323619723320e-03 3.995893988758325577e-03 8.584204129874706268e-03 -3.314486145973205566e-02 -1.132575981318950653e-02 1.588918827474117279e-02 -5.856849253177642822e-03 -3.791977724176831543e-05 2.574961632490158081e-02 -1.167560112662613392e-03 -2.509062178432941437e-03 -2.238802053034305573e-02 -2.132719091605395079e-04 -3.876172006130218506e-03 2.417754381895065308e-02 4.377777688205242157e-03 2.597367158159613609e-03 -1.347135100513696671e-02 -2.264337614178657532e-02 1.259739417582750320e-02 1.829751953482627869e-02 1.712064445018768311e-02 1.155420858412981033e-02 4.995587281882762909e-03 2.290836302563548088e-03 2.853761613368988037e-02 1.009502564556896687e-03 -3.571081673726439476e-03 -7.250059396028518677e-03 1.370201352983713150e-02 -9.367736056447029114e-04 1.182504813186824322e-03 -1.368383644148707390e-03 -1.299906708300113678e-02 1.418293826282024384e-02 6.179280113428831100e-03 -1.615701802074909210e-02 1.271466538310050964e-02 -3.947171196341514587e-02 1.143657136708498001e-02 8.381303399801254272e-03 -2.817132277414202690e-03 -1.110188104212284088e-02 -1.359368860721588135e-02 5.944584496319293976e-03 -8.436501957476139069e-03 -1.075295172631740570e-02 -3.111426346004009247e-02 -8.698722347617149353e-03 -1.016329880803823471e-02 -4.659789614379405975e-03 9.648938663303852081e-03 -1.878775656223297119e-02 -3.679116955026984215e-03 -1.273653469979763031e-04 2.061037113890051842e-03 1.470768242143094540e-03 -1.593571156263351440e-03 -5.800974555313587189e-03 3.401412628591060638e-03 4.897408070974051952e-04 6.017809268087148666e-03 3.976256120949983597e-03 -2.872402779757976532e-02 -5.090046208351850510e-03 1.585613749921321869e-02 3.148689167574048042e-03 4.431906342506408691e-02 1.410449203103780746e-02 9.262094274163246155e-03 1.262126769870519638e-02 7.389707025140523911e-03 -2.100439555943012238e-02 4.950761795043945312e-03 2.095635235309600830e-02 3.293919935822486877e-02 2.226362377405166626e-02 2.533889561891555786e-02 3.107013367116451263e-02 1.295656897127628326e-02 1.518165785819292068e-02 2.220680704340338707e-03 8.042899426072835922e-04 6.313130259513854980e-03 -1.303419936448335648e-02 4.407415632158517838e-03 -7.278500590473413467e-03 -3.937686979770660400e-02 -1.255578640848398209e-02 1.917717978358268738e-02 9.378030896186828613e-03 -2.141775004565715790e-02 2.150604315102100372e-02 -1.441350113600492477e-02 -5.344283301383256912e-03 -7.786335423588752747e-03 -4.160210955888032913e-03 1.963435672223567963e-02 1.022340636700391769e-02 -4.895748570561408997e-03 -1.844017882831394672e-03 8.738197386264801025e-03 7.273509632796049118e-03 -8.033470250666141510e-03 -9.553242474794387817e-03 1.282200589776039124e-02 -7.689471356570720673e-03 -3.036861307919025421e-04 4.001270607113838196e-02 5.929181352257728577e-03 3.437618538737297058e-02 -2.691051736474037170e-02 1.066976413130760193e-02 9.755061939358711243e-03 1.784288138151168823e-02 -6.845047231763601303e-03 6.936308462172746658e-03 1.227685157209634781e-02 -1.326156873255968094e-02 1.450608391314744949e-02 3.109124675393104553e-02 3.358913585543632507e-02 3.109353967010974884e-02 9.460490196943283081e-03 -2.966721309348940849e-03 9.518260136246681213e-03 -6.366372574120759964e-03 -2.317092381417751312e-03 -5.186321213841438293e-03 -2.304348163306713104e-02 -1.386481919325888157e-03 1.834167912602424622e-02 -4.834094550460577011e-03 1.160486601293087006e-02 1.450850535184144974e-02 2.285970933735370636e-02 8.235285058617591858e-03 3.246918087825179100e-03 -5.791504308581352234e-02 1.941853761672973633e-02 3.032581135630607605e-02 1.251733023673295975e-02 1.631714752875268459e-03 -1.834503374993801117e-02 -3.606027457863092422e-03 7.118571083992719650e-03 -3.633385151624679565e-02 -1.405536103993654251e-02 1.698024757206439972e-02 3.857943462207913399e-03 -5.109589081257581711e-03 1.534567959606647491e-02 3.064431622624397278e-02 2.097157202661037445e-02 -4.198555543553084135e-04 1.359324343502521515e-02 3.006025031208992004e-02 -4.602786619216203690e-03 -1.637028879486024380e-03 -5.317157134413719177e-03 6.720715668052434921e-03 3.156200796365737915e-02 8.509120903909206390e-03 -3.897924721240997314e-02 6.554427556693553925e-03 3.300008177757263184e-02 -4.016535356640815735e-03 4.350466653704643250e-02 1.121652685105800629e-02 -2.095813862979412079e-03 -2.339866571128368378e-02 3.558356687426567078e-02 -2.676163613796234131e-02 -6.670011579990386963e-02 -2.741305343806743622e-02 3.098312392830848694e-02 7.806596159934997559e-02 1.699921209365129471e-03 -3.298292681574821472e-02 -9.410121478140354156e-03 2.425471134483814240e-02 5.247319489717483521e-02 -3.297244757413864136e-02 1.234425138682126999e-02 -5.845234915614128113e-02 -2.272376604378223419e-02 2.000539936125278473e-02 -4.871033132076263428e-02 -2.722282521426677704e-02 8.726771175861358643e-02 4.582554847002029419e-02 -1.089551579207181931e-02 -6.527706049382686615e-03 -3.898887708783149719e-02 1.047086529433727264e-02 2.371569536626338959e-02 1.217786874622106552e-02 -1.108394563198089600e-02 3.317453712224960327e-02 5.894543230533599854e-02 -3.761009126901626587e-02 2.371561480686068535e-03 2.364668296650052071e-03 2.624414302408695221e-02 -8.007164299488067627e-02 1.966829225420951843e-02 7.131090853363275528e-03 -3.201650455594062805e-02 2.642893977463245392e-02 -1.708545908331871033e-02 2.405784092843532562e-02 2.875559777021408081e-02 -7.615600526332855225e-02 2.989852614700794220e-02 2.798496372997760773e-02 3.414448723196983337e-02 4.124915972352027893e-02 8.142322301864624023e-03 6.967077963054180145e-03 -1.865722052752971649e-02 -3.075267188251018524e-02 -6.199824856594204903e-04 -6.645099818706512451e-02 -2.964491257444024086e-03 -7.569929584860801697e-03 2.488040179014205933e-02 2.483942173421382904e-02 4.550277069211006165e-02 1.249357312917709351e-02 5.163382738828659058e-03 1.543004158884286880e-02 4.156703874468803406e-02 -7.473380770534276962e-03 -4.352582246065139771e-02 3.997264802455902100e-02 5.435316637158393860e-02 2.760127559304237366e-02 -4.808134958148002625e-02 -8.139358460903167725e-02 5.938626825809478760e-02 3.012213483452796936e-02 -1.172824297100305557e-02 -3.932404145598411560e-02 -4.579785745590925217e-03 1.117018982768058777e-02 9.357174858450889587e-03 -6.068881135433912277e-03 5.061518773436546326e-02 -3.071736171841621399e-02 1.065870979800820351e-03 -1.749088615179061890e-02 2.767761051654815674e-02 2.050694264471530914e-02 1.678380742669105530e-02 -3.265017643570899963e-02 2.216496691107749939e-02 -5.142065137624740601e-02 3.458834439516067505e-02 5.479857698082923889e-02 6.259860843420028687e-02 -9.230611845850944519e-03 -1.940889470279216766e-02 1.546439249068498611e-02 -2.882168255746364594e-02 -2.487018331885337830e-02 -8.708341047167778015e-03 2.342434972524642944e-02 1.328485202975571156e-03 1.170474383980035782e-02 1.816203817725181580e-03 -3.387916833162307739e-02 -6.014781445264816284e-02 1.052938122302293777e-02 -4.768925253301858902e-03 -1.382015412673354149e-03 1.025333628058433533e-02 -9.977172128856182098e-03 1.333728805184364319e-02 2.340773120522499084e-02 -6.732339039444923401e-03 2.437454462051391602e-02 -4.239909350872039795e-03 -4.188422113656997681e-02 1.496489811688661575e-02 1.497364975512027740e-02 2.936484292149543762e-02 -7.423485629260540009e-03 1.370169594883918762e-02 -3.266533091664314270e-02 6.157519761472940445e-03 -2.734876796603202820e-02 1.397763006389141083e-02 4.393407143652439117e-03 9.933744557201862335e-03 2.903059823438525200e-03 1.635381393134593964e-02 2.125945128500461578e-02 2.057352662086486816e-02 2.025482431054115295e-02 -1.472421176731586456e-02 -7.927727885544300079e-03 3.831148147583007812e-02 1.396402250975370407e-02 1.052838377654552460e-02 1.138907764106988907e-02 2.061311341822147369e-02 -1.447487995028495789e-02 -1.385327661409974098e-03 8.229900151491165161e-03 -1.007743924856185913e-02 1.063956506550312042e-02 -8.818686939775943756e-03 2.320198528468608856e-02 -1.635196991264820099e-02 1.896399259567260742e-02 6.780684925615787506e-04 4.170486237853765488e-03 2.687813714146614075e-02 1.714886724948883057e-02 4.842509701848030090e-02 1.789035275578498840e-02 -2.668414032086730003e-03 3.040092252194881439e-02 5.163983255624771118e-02 -9.609014727175235748e-03 1.852308027446269989e-02 -2.030652016401290894e-02 5.045836791396141052e-03 -1.084213238209486008e-02 1.926259510219097137e-02 2.472573146224021912e-02 2.464372478425502777e-02 -1.979137538000941277e-03 2.111868560314178467e-02 1.606461964547634125e-02 1.379831787198781967e-02 2.607284672558307648e-02 -1.838235184550285339e-02 -2.272047847509384155e-02 -1.611837372183799744e-02 2.729767560958862305e-02 1.101133413612842560e-02 -2.135648764669895172e-02 7.635349407792091370e-03 -1.902096532285213470e-02 2.065955102443695068e-02 -2.423405088484287262e-02 -6.179497763514518738e-02 4.629431758075952530e-03 -1.303519122302532196e-02 -1.068167109042406082e-02 3.348787873983383179e-02 2.444873750209808350e-02 2.752244286239147186e-02 4.746958240866661072e-02 3.105336800217628479e-04 4.132555425167083740e-02 4.240232519805431366e-03 -7.715175888733938336e-05 7.794501725584268570e-03 1.592644676566123962e-02 4.023776575922966003e-02 -2.745352312922477722e-02
7.778097875416278839e-03 -6.436967669287696481e-05 -6.015019607730209827e-05 1.204573549330234528e-03 2.804494230076670647e-03 4.346249625086784363e-03 8.689761161804199219e-04 6.399483885616064072e-03 4.642942454665899277e-03 6.047184433555230498e-05 1.867374521680176258e-03 -7.553995121270418167e-03 9.154383093118667603e-03 8.191668894141912460e-04 5.405406467616558075e-03 4.868762101978063583e-03 -2.900825813412666321e-03 -2.209114143624901772e-03 -1.074939384125173092e-03 8.842055103741586208e-04 -4.608383867889642715e-03 -9.599667973816394806e-04 -5.860553355887532234e-04 -1.656374707818031311e-02 -2.308188192546367645e-02 -5.133374725119210780e-05 3.333855187520384789e-03 4.941286984831094742e-03 5.344213568605482578e-04 -3.416976251173764467e-04 -6.915982812643051147e-03 2.875555539503693581e-03 -9.178037289530038834e-04 -2.663081686478108168e-04 3.930339124053716660e-03 8.054414647631347179e-04 -7.585595012642443180e-04 1.344662532210350037e-02 9.469525539316236973e-04 -1.095520274247974157e-04 -7.187305018305778503e-04 4.247053992003202438e-03 1.075923908501863480e-03 -4.351933603174984455e-04 -3.674071922432631254e-05 3.471493022516369820e-03 -1.568401967233512551e-05 -1.816564355976879597e-03 -4.806939046829938889e-03 -1.886050881694245618e-06 3.076129592955112457e-03 3.238190663978457451e-03 -2.942452905699610710e-03 -1.570152089698240161e-04 -4.182074684649705887e-03 6.369163747876882553e-03 7.110232487320899963e-03 5.133313592523336411e-03 -2.982950070872902870e-03 6.201077252626419067e-03 1.124972011893987656e-03 1.219072937965393066e-02 -4.864399321377277374e-03 -6.576048326678574085e-04 3.463783941697329283e-04 7.334653491852805018e-05 3.307688748463988304e-04 -1.240629644598811865e-04 9.268826688639819622e-04 1.109770266339182854e-03 1.115822931751608849e-03 -2.095217932946980000e-04 -2.416368515696376562e-04 -2.789163729175925255e-03 2.352681709453463554e-03 -3.537020878866314888e-03 -6.497949943877756596e-04 3.774404060095548630e-03 -4.662283230572938919e-03 1.232324074953794479e-02 8.793218876235187054e-04 1.280672149732708931e-03 2.779633970931172371e-03 -3.605472156777977943e-03 1.205067848786711693e-03 -1.260171411558985710e-03 -6.488480721600353718e-04 2.134811365976929665e-04 4.826060496270656586e-03 -9.563737548887729645e-04 2.600694075226783752e-03 -9.408731420990079641e-05 3.901091986335813999e-05 -1.612240914255380630e-03 -2.321095380466431379e-04 -5.343302036635577679e-04 7.612205226905643940e-04 4.199255199637264013e-04 1.808858476579189301e-03 1.845829188823699951e-03 1.088335085660219193e-02 -3.612913496908731759e-05 1.738775521516799927e-03 2.575769089162349701e-03 -4.207878009765408933e-05 3.474312834441661835e-03 9.172135032713413239e-03 1.235974207520484924e-02 2.056041266769170761e-03 -4.553303879220038652e-04 1.046291552484035492e-02 -8.290297351777553558e-03 1.180114690214395523e-02 -1.367153832688927650e-03 5.841970443725585938e-03 1.091747730970382690e-02 -4.982858081348240376e-04 -2.859263215214014053e-03 -3.380249254405498505e-03 1.853522611781954765e-03 -2.287280932068824768e-02 2.037824364379048347e-03 -4.926983732730150223e-03 -3.112458623945713043e-02 -3.674809634685516357e-02 -4.822630435228347778e-03 6.688501220196485519e-03 1.396647095680236816e-02 -6.490087253041565418e-04 -1.079196226783096790e-03 -1.281427219510078430e-02 2.778142457827925682e-03 -3.978970460593700409e-03 -1.730139192659407854e-04 3.233234165236353874e-03 3.844027407467365265e-03 -2.952901646494865417e-03 2.450154349207878113e-02 4.022136330604553223e-03 -5.084925942355766892e-05 5.225377622991800308e-03 1.464120764285326004e-02 -3.754598728846758604e-04 -8.854590123519301414e-04 -4.357302168500609696e-05 6.588395219296216965e-03 -2.672738046385347843e-04 -8.367164060473442078e-03 -5.138104315847158432e-03 2.069764013867825270e-04 4.634888377040624619e-03 8.186406455934047699e-03 1.401028712280094624e-03 -4.161378834396600723e-03 -8.569226600229740143e-03 -4.497416957747191191e-04 1.099885068833827972e-02 7.296044845134019852e-03 -1.028444385156035423e-04 4.439476877450942993e-03 2.699854411184787750e-02 3.952954709529876709e-02 -4.185098689049482346e-03 -3.579918760806322098e-03 2.613820601254701614e-03 -1.107277930714190006e-03 3.889286192134022713e-03 -2.775484463199973106e-04 6.596625316888093948e-03 3.232483519241213799e-03 1.932181417942047119e-02 8.333325968123972416e-04 4.777072463184595108e-03 -1.994046149775385857e-03 -4.110656678676605225e-03 -2.913805097341537476e-02 -2.342531457543373108e-03 4.566203337162733078e-03 -1.434437278658151627e-02 1.902483589947223663e-02 6.928757298737764359e-03 -6.197126931510865688e-04 8.816304616630077362e-03 2.024804271059110761e-04 5.606358870863914490e-03 -1.771055976860225201e-03 2.550101280212402344e-02 4.209724720567464828e-03 2.881179377436637878e-02 1.961554586887359619e-02 1.752172224223613739e-02 -5.254407005850225687e-05 -1.247989945113658905e-03 4.621043335646390915e-03 -2.439139876514673233e-03 -4.112276248633861542e-03 2.648333087563514709e-03 6.767075043171644211e-03 1.916982582770287991e-04 6.968979723751544952e-04 8.462394028902053833e-02 2.007109869737178087e-04 -3.773508220911026001e-02 5.044536292552947998e-02 -1.833895780146121979e-02 -1.436376129277050495e-03 -5.040321033447980881e-03 -6.325165182352066040e-02 -3.848642483353614807e-02 -5.127344280481338501e-03 -7.098398171365261078e-03 2.203531004488468170e-02 -1.714372821152210236e-02 -4.697993770241737366e-02 2.907982468605041504e-02 -8.675879985094070435e-02 3.989438340067863464e-02 7.780915591865777969e-03 -9.727028198540210724e-03 -5.590837821364402771e-02 -4.958684090524911880e-03 5.584265105426311493e-03 -3.572773560881614685e-02 -5.680456012487411499e-02 1.633155718445777893e-02 5.035130307078361511e-02 3.118685074150562286e-02 -6.512400228530168533e-03 -2.155496738851070404e-02 1.256053615361452103e-02 -1.595474220812320709e-02 -8.925609290599822998e-03 3.070946224033832550e-02 1.287949271500110626e-03 -2.015287056565284729e-03 -1.694469526410102844e-02 6.122168153524398804e-03 -2.325226366519927979e-02 3.689232468605041504e-02 4.405464045703411102e-03 -3.864894434809684753e-02 3.045230172574520111e-02 -3.536620875820517540e-03 1.411985605955123901e-02 3.712138859555125237e-04 7.233691867440938950e-03 -3.361631417647004128e-03 -2.301546745002269745e-02 -9.704049676656723022e-03 1.797253452241420746e-02 -1.135601010173559189e-02 6.384129635989665985e-03 9.860039688646793365e-03 -2.824851684272289276e-02 1.331565435975790024e-02 -1.992079988121986389e-02 -9.982027113437652588e-03 -1.290216576308012009e-02 -1.111737918108701706e-03 -1.121464278548955917e-02 2.723237499594688416e-02 -1.106315385550260544e-02 -3.222419694066047668e-02 1.118074171245098114e-02 -1.439119223505258560e-02 -3.409660188481211662e-03 -4.594232514500617981e-02 2.869029995054006577e-04 9.463105234317481518e-04 5.356176756322383881e-03 -1.461826916784048080e-02 -8.909853175282478333e-03 3.745201975107192993e-02 4.717655014246702194e-03 2.897198125720024109e-02 -8.322035521268844604e-02 -2.952011534944176674e-03 -4.962186887860298157e-02 -4.588217660784721375e-02 5.973432213068008423e-02 1.297390740364789963e-02 2.646467089653015137e-02 7.614781707525253296e-02 2.624562242999672890e-03 1.404294557869434357e-02 2.229405945399776101e-04 3.819651436060667038e-03 -2.061193110421299934e-03 -8.753855712711811066e-03 2.465852349996566772e-02 -3.105682507157325745e-02 -7.786594796925783157e-04 -5.563858430832624435e-03 -1.804976724088191986e-02 -3.794764343183487654e-04 -1.912189461290836334e-02 -5.739767220802605152e-04 -2.917856536805629730e-02 -8.822207897901535034e-02 1.663247938267886639e-03 7.445838768035173416e-03 -7.434100378304719925e-03 3.788422793149948120e-02 2.621804550290107727e-02 2.197053655982017517e-02 6.111042574048042297e-03 5.824930034577846527e-03 1.058401167392730713e-02 3.693344769999384880e-03 1.635497808456420898e-02 -3.746697679162025452e-03 -5.928998347371816635e-03 1.932649128139019012e-02 9.109543752856552601e-04 1.404230482876300812e-02 1.286351587623357773e-02 -5.578193347901105881e-03 -1.290285214781761169e-02 2.259697951376438141e-02 -5.937225650995969772e-03 -3.250433655921369791e-04 -2.258868142962455750e-02 -2.282666973769664764e-03 -1.596137695014476776e-02 -2.807832136750221252e-02 2.950463211163878441e-03 -1.026178523898124695e-02 3.932906687259674072e-02 -1.335800532251596451e-02 1.063406351022422314e-03 -2.157452516257762909e-02 3.628788748756051064e-03 -6.638637743890285492e-03 4.596382379531860352e-03 -6.763285491615533829e-03 7.049453444778919220e-03 -2.555229002609848976e-03 4.289961606264114380e-02 -2.994561940431594849e-02 2.559246058808639646e-05 -4.937853664159774780e-03 5.063692573457956314e-03 -9.889543987810611725e-03 1.365916570648550987e-03 -3.871642798185348511e-02 7.538712583482265472e-03 1.115322695113718510e-03 -2.887378446757793427e-02 -7.091130129992961884e-03 2.304689213633537292e-02 -2.874890342354774475e-03 9.309040382504463196e-03 3.363912692293524742e-03 -4.978493787348270416e-03 -1.322572212666273117e-02 6.589258089661598206e-03 1.087624579668045044e-02 7.851560600101947784e-03 -2.757031703367829323e-03 1.569734537042677402e-03 4.344677552580833435e-03 1.436955947428941727e-02 -8.898057043552398682e-03 1.164989359676837921e-02 1.729568839073181152e-02 5.001486279070377350e-03 1.051473955158144236e-04 9.879162535071372986e-03 1.031392253935337067e-02 -1.350421342067420483e-03 8.275249041616916656e-03 1.131844799965620041e-02 -6.443749181926250458e-03 -2.097848057746887207e-02 4.652384959626942873e-04 -1.430294755846261978e-02 -4.432766698300838470e-03 -7.300549652427434921e-03 -8.259174413979053497e-03 2.275880891829729080e-03 -2.037002518773078918e-02 4.617521539330482483e-03 2.537779696285724640e-02 1.385319698601961136e-02 4.463755059987306595e-03 2.749841101467609406e-02 1.727334596216678619e-02 3.453841432929039001e-02 3.412111103534698486e-02 2.796137123368680477e-04 4.524055868387222290e-03 -2.139668940799310803e-04 3.029554709792137146e-02 4.526324570178985596e-03 -1.154405623674392700e-02 -6.985086016356945038e-03 -2.967316424474120140e-03 2.028983552008867264e-03 -3.283515572547912598e-02 2.893759403377771378e-03
-1.493025338277220726e-03 2.513387589715421200e-04 2.769064667518250644e-05 6.046229391358792782e-04 6.713681854307651520e-03 1.225125626660883427e-03 1.462621730752289295e-03 -9.349917992949485779e-03 2.217170968651771545e-02 -3.146680304780602455e-03 2.405098406597971916e-03 1.188338152132928371e-03 -1.436528097838163376e-02 -1.335834525525569916e-02 2.188430633395910263e-03 -2.601398155093193054e-03 6.291335448622703552e-04 1.465689577162265778e-02 -2.729547675698995590e-03 1.336092595010995865e-02 1.362402457743883133e-02 1.904273754917085171e-03 8.834847249090671539e-03 -1.943698734976351261e-03 1.525592058897018433e-02 1.277221366763114929e-03 6.318721920251846313e-03 -1.612649671733379364e-02 5.725834053009748459e-03 6.787137128412723541e-03 9.353303350508213043e-03 -3.593292785808444023e-03 -1.183896139264106750e-02 -1.224047446157783270e-05 2.229851437732577324e-03 1.670983037911355495e-03 1.819946453906595707e-03 -1.466432493180036545e-02 3.606327110901474953e-03 -9.301823563873767853e-03 8.768806234002113342e-03 -1.261778455227613449e-02 3.266677493229508400e-03 6.065747700631618500e-03 5.826118922414025292e-06 -1.459267549216747284e-02 -7.534013711847364902e-04 4.818903282284736633e-03 9.495610371232032776e-03 -6.366913294186815619e-05 -4.183090291917324066e-03 4.807961639016866684e-03 1.049089338630437851e-02 2.102815080434083939e-03 -7.332169916480779648e-04 -1.077874470502138138e-02 2.042611129581928253e-03 -5.127188283950090408e-03 1.092402543872594833e-02 2.359024016186594963e-03 5.955845583230257034e-03 -1.536104734987020493e-02 5.372595973312854767e-03 5.548723042011260986e-03 1.002133125439286232e-03 2.883598441258072853e-03 -2.178866602480411530e-02 3.913693944923579693e-05 1.258291490375995636e-02 2.856396604329347610e-04 -6.908076815307140350e-03 -1.413530018180608749e-02 8.806250058114528656e-03 4.791712854057550430e-03 -2.001483691856265068e-03 7.629572413861751556e-03 4.124997649341821671e-03 5.624643061310052872e-03 1.663419418036937714e-02 -6.689911708235740662e-03 5.444667767733335495e-04 -1.314425747841596603e-02 -8.079119957983493805e-03 -2.086513489484786987e-02 -1.328938174992799759e-02 3.571255598217248917e-03 2.532165963202714920e-03 -1.528083579614758492e-03 -2.990990178659558296e-04 -1.860510744154453278e-02 2.089876215904951096e-03 8.612661076767835766e-06 -1.857986208051443100e-04 3.746378934010863304e-04 1.614618697203695774e-03 -1.907406374812126160e-03 6.464139092713594437e-03 2.291970013175159693e-04 3.025475656613707542e-03 8.726848755031824112e-04 -1.385619305074214935e-02 4.978771903552114964e-04 5.256679141893982887e-04 4.706906154751777649e-03 6.131866946816444397e-03 8.614259422756731510e-04 3.762986510992050171e-03 -1.710377633571624756e-02 1.592545025050640106e-02 -6.047325674444437027e-03 -9.899114957079291344e-04 3.941771108657121658e-03 -1.304171606898307800e-02 -1.406038645654916763e-02 7.243590429425239563e-03 -9.997520595788955688e-03 1.547066308557987213e-02 1.558381877839565277e-02 -6.433120928704738617e-03 1.846301183104515076e-02 1.464235875755548477e-02 1.108195073902606964e-02 1.538799796253442764e-02 -7.713244296610355377e-03 2.667837776243686676e-02 -3.853086847811937332e-03 1.122587174177169800e-02 -2.148909308016300201e-02 9.466717950999736786e-03 7.431725040078163147e-03 1.899633742868900299e-02 1.183810854854527861e-05 -2.327895537018775940e-02 -3.342738491483032703e-04 -5.038877017796039581e-03 -5.832901224493980408e-03 8.995612151920795441e-03 -2.035124413669109344e-02 1.066582277417182922e-02 -5.047273822128772736e-03 4.004636779427528381e-03 -5.245786160230636597e-04 6.238786736503243446e-04 3.386545460671186447e-03 5.525714004761539400e-05 -1.539120916277170181e-02 3.438252955675125122e-03 6.513498956337571144e-04 6.211904808878898621e-03 -1.075543812476098537e-03 -4.885808099061250687e-03 5.309583619236946106e-03 6.707010790705680847e-03 9.443803690373897552e-03 -2.129119820892810822e-03 -1.769818738102912903e-02 -1.277962047606706619e-02 -1.359297242015600204e-02 1.507768593728542328e-02 7.997583452379330993e-05 1.465743687003850937e-02 -2.052830299362540245e-03 1.388171873986721039e-02 1.666615158319473267e-02 3.590419888496398926e-03 8.124926127493381500e-03 -3.126841038465499878e-02 -6.668529385933652520e-05 1.133585441857576370e-02 2.076373202726244926e-03 -1.962733827531337738e-02 -1.287331990897655487e-02 8.748591877520084381e-03 2.125437837094068527e-03 -7.751096505671739578e-03 1.122033316642045975e-02 1.107807457447052002e-02 1.484439056366682053e-02 9.135944768786430359e-03 -1.846422068774700165e-02 -1.605457998812198639e-02 -2.182076871395111084e-02 -1.314161624759435654e-02 -1.724303513765335083e-02 -1.113227941095829010e-02 5.765157751739025116e-03 9.196902625262737274e-03 1.514679845422506332e-02 5.890446249395608902e-03 -2.871211618185043335e-02 1.597008295357227325e-02 -4.223711948725394905e-05 1.623482210561633110e-03 1.293186796829104424e-03 5.829426925629377365e-03 -6.175117101520299911e-03 3.200037172064185143e-03 5.213974043726921082e-03 1.223389524966478348e-02 1.492708921432495117e-03 -1.628687046468257904e-02 6.891613826155662537e-03 4.856955260038375854e-03 1.309706177562475204e-02 1.586178317666053772e-02 1.108921971172094345e-02 3.918069228529930115e-02 -2.431910298764705658e-02 8.652179501950740814e-03 3.118884284049272537e-03 4.710657522082328796e-02 3.708549216389656067e-02 -1.895444653928279877e-02 3.928165882825851440e-02 -2.788758836686611176e-02 7.738855201750993729e-03 1.685732230544090271e-02 -1.507406588643789291e-03 -8.350741118192672729e-03 -5.965148285031318665e-02 2.242833003401756287e-02 1.113306637853384018e-02 -3.305533900856971741e-02 -9.942356497049331665e-03 5.370307713747024536e-02 5.217055976390838623e-02 1.113678235560655594e-02 4.379812162369489670e-03 6.432761251926422119e-02 -3.201257809996604919e-02 3.969416022300720215e-02 -4.993889946490526199e-03 8.298943750560283661e-03 -6.504632183350622654e-04 -8.634571917355060577e-03 6.820282898843288422e-03 -4.226325452327728271e-02 3.466939926147460938e-02 -1.532186288386583328e-02 4.239161685109138489e-02 -1.681254804134368896e-02 5.383028648793697357e-03 -2.224779315292835236e-02 -3.619569167494773865e-02 -1.003637677058577538e-03 2.903589978814125061e-02 3.707572072744369507e-02 -7.101744413375854492e-03 2.384172566235065460e-02 9.857064113020896912e-03 1.423177774995565414e-03 2.103857137262821198e-02 1.832020096480846405e-02 -1.232358743436634541e-03 -1.383480150252580643e-02 2.031335234642028809e-02 -4.608107730746269226e-03 -3.319339826703071594e-02 3.565211221575737000e-02 8.486102335155010223e-03 9.281060099601745605e-02 8.376793935894966125e-03 -1.963208429515361786e-02 2.523650042712688446e-02 -1.291595399379730225e-02 2.677564881742000580e-02 7.453075144439935684e-03 -1.740952255204319954e-03 -9.420743212103843689e-03 2.211956121027469635e-02 2.664273418486118317e-02 8.008093573153018951e-04 5.855590105056762695e-02 1.074377354234457016e-02 3.675022721290588379e-02 -9.757497347891330719e-03 4.176195710897445679e-03 -3.930092602968215942e-02 1.441847626119852066e-02 -4.036532714962959290e-03 -4.775188490748405457e-02 1.608605310320854187e-02 -4.637740552425384521e-02 4.740751348435878754e-03 3.616241365671157837e-02 -7.107249693945050240e-04 5.822756886482238770e-02 2.929883450269699097e-02 -1.833207346498966217e-02 2.514936495572328568e-03 -2.020504325628280640e-02 -7.072309963405132294e-03 -8.183491416275501251e-03 1.308774948120117188e-02 -1.320731453597545624e-02 1.496499311178922653e-02 4.663938283920288086e-02 -2.180654741823673248e-02 -4.875665530562400818e-02 -6.552223348990082741e-04 -7.665644865483045578e-03 4.131105262786149979e-03 1.493721362203359604e-02 -1.238972879946231842e-02 4.247668664902448654e-03 -4.052053205668926239e-03 6.620790343731641769e-03 -3.280730452388525009e-03 2.214739844202995300e-02 1.278313528746366501e-02 1.801681937649846077e-03 -4.633797332644462585e-03 -6.534805521368980408e-03 1.033405680209398270e-02 1.364760287106037140e-02 -8.231742307543754578e-03 -2.850541099905967712e-02 -1.050200778990983963e-02 1.974521437659859657e-03 1.794520393013954163e-02 1.695488579571247101e-02 5.824832711368799210e-03 1.314180158078670502e-02 -2.369751455262303352e-03 1.009359676390886307e-02 4.916613921523094177e-03 2.971905516460537910e-03 -1.427398715168237686e-02 1.893132366240024567e-02 1.115737389773130417e-02 4.343639593571424484e-03 -5.406843032687902451e-03 -5.433423444628715515e-03 -5.880790762603282928e-03 1.457950100302696228e-03 -3.122054738923907280e-03 -3.514017909765243530e-03 -5.972658284008502960e-03 8.796461857855319977e-03 -1.089996844530105591e-02 -1.715734787285327911e-02 -4.441279452294111252e-03 -4.406325519084930420e-03 -1.914371177554130554e-02 -1.592724025249481201e-02 -1.493527833372354507e-02 -7.933364249765872955e-03 -8.517805486917495728e-03 4.142903722822666168e-03 -6.921892520040273666e-03 4.118324723094701767e-03 6.909161340445280075e-03 -1.947011426091194153e-02 9.448738768696784973e-03 -2.208530157804489136e-02 -4.333541728556156158e-03 -6.825093179941177368e-03 4.085465334355831146e-03 1.323959510773420334e-02 2.680277917534112930e-03 -1.669728010892868042e-02 -6.196576636284589767e-03 1.939004659652709961e-02 2.470522560179233551e-02 -3.599786898121237755e-03 -1.303104334510862827e-03 -3.545357659459114075e-02 -7.434794679284095764e-05 1.215484365820884705e-02 1.289432961493730545e-02 1.604109629988670349e-02 -1.316186506301164627e-02 3.676654770970344543e-02 -7.111296989023685455e-03 1.485927728936076164e-03 -7.325116544961929321e-03 4.291930701583623886e-03 9.668868035078048706e-03 2.233045361936092377e-02 -8.862459100782871246e-03 -5.786437541246414185e-03 -1.095107011497020721e-02 3.146838862448930740e-03 -2.071677334606647491e-02 -5.272856447845697403e-03 1.331499218940734863e-02 -5.001902580261230469e-03 1.272061024792492390e-03 -3.221640596166253090e-03 -2.556562609970569611e-02 1.349474675953388214e-02 5.231392104178667068e-03 1.717016100883483887e-02 -1.535371318459510803e-02 2.277071774005889893e-02 -3.890394465997815132e-03 9.031046181917190552e-03 1.626051589846611023e-02 -8.437561802566051483e-03 2.824309747666120529e-03
-6.444217287935316563e-04 2.513719482521992177e-05 -3.792904317378997803e-04 1.180462859338149428e-04 -1.244619925273582339e-04 6.170371198095381260e-04 4.453914007171988487e-04 -2.072451025014743209e-05 1.706463401205837727e-03 6.759168172720819712e-06 -1.806925138225778937e-05 9.016864350996911526e-05 2.030932577326893806e-03 7.405733340419828892e-04 3.368603065609931946e-04 1.087097683921456337e-03 8.040251850616186857e-05 1.376634929329156876e-03 4.274463208275847137e-05 3.320012183394283056e-04 2.214247127994894981e-03 4.655327356886118650e-04 -3.576292365323752165e-04 -5.073652937426231802e-05 -1.820938312448561192e-03 -1.681165886111557484e-04 -1.809217246773187071e-05 2.056191908195614815e-03 -1.038479385897517204e-04 -5.037079245084896684e-05 -1.011858228594064713e-03 3.726544673554599285e-05 1.848689164035022259e-03 3.618841292336583138e-04 6.539933965541422367e-04 3.239505458623170853e-04 -6.250284612178802490e-03 1.474860124289989471e-03 -3.321184485685080290e-04 1.512831950094550848e-04 -3.093469887971878052e-03 9.107224177569150925e-04 5.479440005728974938e-05 -4.328980285208672285e-04 -4.451152108231326565e-06 7.173717604018747807e-04 -1.618591631995514035e-04 1.086863921955227852e-04 1.118328771553933620e-03 -4.096895863767713308e-04 2.108077984303236008e-03 7.942118681967258453e-04 -7.399374735541641712e-04 5.009779706597328186e-04 8.770606364123523235e-04 -1.883051590994000435e-04 -2.567220653872936964e-04 -1.280330587178468704e-03 5.548365297727286816e-04 -3.093675244599580765e-03 2.814457402564585209e-04 -7.197456900030374527e-03 -1.649399520829319954e-03 -8.772858418524265289e-04 -3.624774108175188303e-04 1.572069550093146972e-06 -1.222487306222319603e-03 6.775180227123200893e-04 8.563999290345236659e-05 1.738283317536115646e-04 -2.027524460572749376e-04 -1.713779871352016926e-03 8.590957149863243103e-04 -7.940937648527324200e-04 3.387923934496939182e-04 -1.364134484902024269e-03 6.515270215459167957e-04 3.903442062437534332e-03 -3.890559775754809380e-03 1.927590710693039000e-05 2.474240318406373262e-04 3.440733125898987055e-04 -1.392247970215976238e-03 -1.223389757797122002e-03 2.106112893670797348e-03 -3.214064054191112518e-04 1.190981129184365273e-03 8.602560410508885980e-05 5.189144285395741463e-04 1.410479540936648846e-03 -4.376909346319735050e-04 1.042701915139332414e-04 6.943354383111000061e-04 -1.671690260991454124e-03 -2.391284506302326918e-04 -4.312862802180461586e-05 4.740571603178977966e-04 9.102324111154302955e-05 -3.683409653604030609e-03 2.086851745843887329e-03 6.402411381714046001e-04 1.778036676114425063e-05 -3.744361747521907091e-04 8.707092638360336423e-05 -3.677479224279522896e-03 2.056030323728919029e-03 5.396584747359156609e-04 -1.484247855842113495e-03 3.248324617743492126e-03 -1.179615283035673201e-04 -9.980702772736549377e-03 -2.287362702190876007e-03 2.584185916930437088e-03 1.962809357792139053e-03 2.368033892707899213e-04 1.531271846033632755e-03 -1.580187305808067322e-02 4.035533871501684189e-03 2.886618021875619888e-03 2.241829177364706993e-03 1.220176834613084793e-02 2.455784706398844719e-03 4.375409800559282303e-03 -1.188809401355683804e-04 -5.737705156207084656e-03 3.045709163416177034e-04 5.824164021760225296e-03 9.891230612993240356e-03 9.743187110871076584e-04 -2.365260006627067924e-04 -3.079988760873675346e-03 1.974483348021749407e-05 1.500997599214315414e-02 3.445240145083516836e-04 1.191022153943777084e-02 5.797211197204887867e-04 -1.817850023508071899e-02 9.834274649620056152e-03 6.412159651517868042e-03 -3.531046968419104815e-05 -1.065283268690109253e-02 8.553080260753631592e-04 7.883226498961448669e-05 -1.038785092532634735e-03 -4.872040517511777580e-05 -3.600326599553227425e-03 8.501586271449923515e-04 1.266951905563473701e-03 3.458781633526086807e-03 -4.376326396595686674e-04 9.781396947801113129e-04 8.676521829329431057e-04 -1.177502679638564587e-03 6.237606285139918327e-04 4.447869723662734032e-04 8.617508225142955780e-03 1.916322158649563789e-03 -2.456493210047483444e-03 4.534584004431962967e-03 -5.543373525142669678e-03 7.047647144645452499e-03 -2.706893952563405037e-03 -6.382847204804420471e-03 -2.881616586819291115e-03 -4.184544668532907963e-04 -1.436211634427309036e-03 -1.567546464502811432e-02 9.376953239552676678e-04 -3.178681014105677605e-03 2.081565035041421652e-04 -4.062456428073346615e-04 2.350365743041038513e-03 2.019773609936237335e-02 2.147689694538712502e-03 6.467608734965324402e-03 -7.435604929924011230e-03 3.226093249395489693e-03 1.210739929229021072e-02 -4.713061731308698654e-03 3.704445669427514076e-03 8.765680715441703796e-03 2.797820779960602522e-04 -5.380710586905479431e-03 -6.481712218374013901e-03 1.649189274758100510e-03 -7.329749059863388538e-04 -3.040743758901953697e-03 -1.039637601934373379e-03 1.292964536696672440e-02 1.456856541335582733e-02 -7.922234944999217987e-03 2.049536269623786211e-04 6.797720561735332012e-04 -8.573438972234725952e-03 -6.307957664830610156e-05 7.121017461031442508e-06 6.747415289282798767e-03 2.616690289869438857e-05 -1.903809793293476105e-02 3.537373384460806847e-03 -1.046276092529296875e-02 9.399426169693470001e-03 1.102955266833305359e-02 -2.784398756921291351e-02 -2.681364305317401886e-02 -1.361492089927196503e-03 2.307462878525257111e-02 -1.485446840524673462e-02 -6.120760738849639893e-02 1.543722022324800491e-02 -4.029768332839012146e-02 -9.407104551792144775e-02 2.621809206902980804e-02 2.359475009143352509e-02 -1.630939426831901073e-03 7.266090810298919678e-02 4.854704439640045166e-02 1.247040834277868271e-02 3.548021987080574036e-02 2.056242339313030243e-02 -6.908790208399295807e-03 -8.532162755727767944e-03 3.196500614285469055e-02 -2.855808660387992859e-02 1.813764870166778564e-02 8.154219016432762146e-03 1.574167050421237946e-02 1.197508722543716431e-02 -1.809818856418132782e-02 -1.679873652756214142e-02 2.442668005824089050e-02 5.144164338707923889e-02 -6.611891090869903564e-03 -9.208036353811621666e-04 6.446254998445510864e-02 3.152288123965263367e-02 1.671702414751052856e-02 -3.070874698460102081e-02 -2.707981131970882416e-02 -6.329467985779047012e-03 2.239639684557914734e-02 -2.391158603131771088e-03 -8.441126556135714054e-04 1.613772101700305939e-02 -5.428430158644914627e-04 3.791800886392593384e-02 2.206297358497977257e-03 -5.323641747236251831e-02 2.251120284199714661e-02 -4.802727326750755310e-02 -2.547245286405086517e-02 1.559169776737689972e-02 -4.839762672781944275e-02 3.045806661248207092e-02 1.489627826958894730e-02 -3.560812678188085556e-03 -5.960335489362478256e-03 -2.050735615193843842e-02 -3.792865946888923645e-02 2.897612191736698151e-02 -5.734305456280708313e-02 -2.219812385737895966e-02 -2.874888293445110321e-02 3.172324225306510925e-02 2.383406274020671844e-02 1.339817512780427933e-02 -1.433202438056468964e-02 -3.945630160160362720e-04 -2.398404292762279510e-02 2.414183691143989563e-02 9.669005870819091797e-02 -3.929205611348152161e-02 7.036232203245162964e-02 -2.847338654100894928e-02 -4.265827685594558716e-02 -1.173259969800710678e-02 -1.338860020041465759e-02 5.538749392144382000e-04 3.572902409359812737e-03 -1.878271438181400299e-02 -3.464503586292266846e-02 6.874628015793859959e-04 1.874813437461853027e-02 1.994712837040424347e-02 3.162202239036560059e-02 2.491642720997333527e-03 -1.046353764832019806e-02 -3.942877985537052155e-03 -1.956548914313316345e-02 -5.476537719368934631e-02 6.671608984470367432e-02 -1.903630420565605164e-02 2.129871770739555359e-02 5.066052451729774475e-02 2.013072930276393890e-02 4.603005480021238327e-03 5.225033685564994812e-02 -2.907549729570746422e-03 2.285538986325263977e-02 1.815839298069477081e-02 -8.302594651468098164e-04 -5.879535805433988571e-03 7.347967475652694702e-03 7.811760995537042618e-03 9.761083638295531273e-04 4.892803728580474854e-03 -4.156782757490873337e-03 -5.870231427252292633e-03 3.701893845573067665e-03 -3.397460328415036201e-03 1.050117425620555878e-02 -1.038516173139214516e-03 2.756597474217414856e-03 4.613840486854314804e-03 -6.585636292584240437e-04 -1.241658232174813747e-03 -4.000060434918850660e-04 6.354107754305005074e-04 3.794802818447351456e-03 1.257759984582662582e-02 3.049175068736076355e-02 7.280534133315086365e-03 2.825065981596708298e-03 5.885424343432532623e-07 -1.919148955494165421e-03 1.111270952969789505e-02 -1.770892739295959473e-02 6.723368074744939804e-03 -1.182215660810470581e-02 -1.094831313821487129e-04 9.676173329353332520e-03 6.402230792446061969e-05 9.011908434331417084e-03 5.722003988921642303e-03 9.061181917786598206e-03 -7.037111790850758553e-04 6.495973560959100723e-03 6.586438044905662537e-03 2.862623659893870354e-03 8.310387784149497747e-05 -1.129019353538751602e-02 -2.762816613540053368e-03 9.368656319566071033e-04 7.423874340020120144e-04 -8.207475766539573669e-03 5.869187414646148682e-03 1.335429027676582336e-02 8.537848480045795441e-03 6.662623491138219833e-03 1.317495759576559067e-02 -2.045969304163008928e-04 -3.495025215670466423e-03 7.708277553319931030e-03 4.599167034029960632e-03 1.629465376026928425e-03 4.146663472056388855e-03 5.365251097828149796e-03 -5.106942728161811829e-03 -8.020265959203243256e-03 -3.749307477846741676e-03 -8.437930955551564693e-05 -2.885030955076217651e-02 -7.047212682664394379e-03 -1.520005287602543831e-03 -2.004503272473812103e-03 -2.319753170013427734e-03 -1.563193835318088531e-02 -4.128521773964166641e-03 -5.640311632305383682e-03 -8.633954450488090515e-03 2.039011754095554352e-02 1.583757926709949970e-03 4.468574654310941696e-03 1.187704037874937057e-03 7.563093095086514950e-04 -5.102445371448993683e-03 4.772633314132690430e-03 8.943500928580760956e-03 -6.376080680638551712e-03 -2.126011531800031662e-03 -1.955291256308555603e-03 5.413132603280246258e-04 -9.478666819632053375e-03 -4.282141104340553284e-03 5.246330983936786652e-04 1.622149022296071053e-03 3.001498756930232048e-03 -1.250075642019510269e-02 -5.488830618560314178e-03 6.360378582030534744e-03 -3.783764783293008804e-03 5.405096337199211121e-03 5.879727192223072052e-03 5.506767774932086468e-04 -4.540604073554277420e-03 5.615219473838806152e-03 -6.953396368771791458e-04 -2.941006096079945564e-03 -2.582692832220345736e-04 2.334726043045520782e-03
2.571791643276810646e-03 -2.091264905175194144e-04 1.042576914187520742e-04 3.728493902599439025e-05 -3.003193298354744911e-03 -1.338201458565890789e-03 -6.969505338929593563e-04 -6.400929414667189121e-04 5.749078467488288879e-03 -2.243810304207727313e-04 6.181644857861101627e-04 7.910719141364097595e-04 2.919849008321762085e-03 -3.496895951684564352e-04 2.530153724364936352e-04 -8.461136021651327610e-04 2.740945783443748951e-04 1.305318786762654781e-03 4.114345938432961702e-04 7.674815715290606022e-04 -3.629513375926762819e-04 -7.347740465775132179e-04 8.340245112776756287e-04 -4.078099154867231846e-04 -1.719346502795815468e-03 -2.451958425808697939e-05 -1.143649918958544731e-03 -6.141401827335357666e-04 1.243216800503432751e-03 -8.485447615385055542e-04 2.373114228248596191e-03 5.822011735290288925e-05 -1.340079470537602901e-04 -7.245316519401967525e-04 3.976947918999940157e-04 -3.782792773563414812e-04 -4.513638094067573547e-03 1.703561283648014069e-03 2.311544230906292796e-04 -2.420619857730343938e-04 -3.081191563978791237e-03 3.446536138653755188e-03 -7.296015974134206772e-05 -1.215612282976508141e-03 8.928513125283643603e-05 -2.683851635083556175e-03 4.853013670071959496e-04 5.337713446351699531e-05 8.927551680244505405e-04 2.441357792122289538e-04 -1.133677316829562187e-03 5.338015762390568852e-05 2.666324689926113933e-06 -2.214906853623688221e-04 -1.107676886022090912e-03 3.578876843675971031e-03 -5.664287018589675426e-04 -4.046577378176152706e-04 1.440935593564063311e-04 -8.150678477250039577e-04 3.514930140227079391e-04 1.362774893641471863e-02 1.582537195645272732e-03 3.310794127173721790e-04 1.733446988509967923e-04 -9.632785804569721222e-04 7.099937065504491329e-04 -1.602721895324066281e-04 -4.743763929582200944e-05 -3.013910900335758924e-04 2.083022554870694876e-04 -3.199064638465642929e-03 2.427778905257582664e-03 1.927615143358707428e-03 -1.280773780308663845e-03 -2.413266774965450168e-04 -6.998216122156009078e-05 2.352418610826134682e-03 -4.712503869086503983e-04 2.027895301580429077e-03 1.585439895279705524e-05 2.025270834565162659e-03 1.444116234779357910e-03 -2.239164896309375763e-03 -6.335019716061651707e-04 1.355647400487214327e-04 -1.625725271878764033e-04 -3.141104825772345066e-04 2.265195129439234734e-03 8.637876599095761776e-04 -6.189135601744055748e-04 -2.070862828986719251e-04 7.398149136861320585e-06 -6.347612012177705765e-03 1.001837154035456479e-04 -2.936006349045783281e-04 -5.037597729824483395e-04 -4.586641443893313408e-04 7.008700049482285976e-04 2.229229081422090530e-03 6.539138499647378922e-03 -3.625877143349498510e-04 7.691228529438376427e-05 -3.330548934172838926e-04 -9.062320925295352936e-03 -2.073150826618075371e-03 -9.164832299575209618e-04 8.263671770691871643e-03 1.762118376791477203e-02 -3.727868897840380669e-04 -4.944330547004938126e-03 3.881528275087475777e-03 4.353133961558341980e-03 -2.807356184348464012e-03 8.815554901957511902e-04 -1.278665498830378056e-03 -7.573973271064460278e-04 5.148133728653192520e-03 3.768815891817212105e-03 2.086424734443426132e-03 8.480651886202394962e-04 1.055203261785209179e-03 6.150684319436550140e-03 -1.445442903786897659e-03 -4.830350168049335480e-03 -1.277994248084723949e-03 -1.617541420273482800e-03 2.192350948462262750e-04 1.475188042968511581e-02 -6.562526687048375607e-04 -2.278687898069620132e-03 8.142238948494195938e-05 -4.104557447135448456e-03 -9.151054546236991882e-04 2.660457510501146317e-03 -3.459749976173043251e-03 -1.865429803729057312e-03 5.509358830749988556e-03 -3.325338708236813545e-03 -1.902074291137978435e-04 -5.558185279369354248e-03 1.021969132125377655e-02 1.467832626076415181e-04 3.390757599845528603e-03 -3.061142706428654492e-05 -8.144834078848361969e-03 -1.216249656863510609e-03 4.105764674022793770e-04 -3.340315015520900488e-04 -1.433024135621963069e-05 -1.330979750491678715e-03 6.943983025848865509e-04 5.339774070307612419e-04 -6.466037302743643522e-05 -1.869494677521288395e-03 1.020774897187948227e-02 -4.498825874179601669e-03 -5.734882317483425140e-03 4.383590072393417358e-03 2.299826359376311302e-03 -1.507125515490770340e-02 2.236842177808284760e-02 8.724120445549488068e-03 4.167864972259849310e-04 1.140200947702396661e-05 -2.041985513642430305e-03 4.623911809176206589e-03 -3.281536337453871965e-04 3.202076768502593040e-03 -5.504483124241232872e-04 1.759839709848165512e-03 -8.360957726836204529e-03 1.851510256528854370e-02 1.638088840991258621e-03 -1.176413614302873611e-02 4.527909186435863376e-05 3.624854842200875282e-03 5.324406083673238754e-03 6.478774012066423893e-04 -2.835631370544433594e-03 -2.983229467645287514e-03 3.920498304069042206e-03 -7.884275983087718487e-04 -6.485227029770612717e-03 -1.349857775494456291e-03 3.499528160318732262e-03 2.793823136016726494e-03 -4.422128666192293167e-03 2.425122819840908051e-02 -7.066641934216022491e-03 -4.494620021432638168e-03 -2.876978833228349686e-04 -1.940166694112122059e-04 -1.265111379325389862e-02 4.252567305229604244e-04 3.064132295548915863e-03 -4.943710751831531525e-03 -6.999402539804577827e-04 1.823386177420616150e-03 1.979938708245754242e-03 3.189346566796302795e-02 -4.005443770438432693e-03 -2.287253178656101227e-02 -6.135893054306507111e-03 -3.203242085874080658e-03 -1.985998265445232391e-02 -2.767315506935119629e-02 -6.392349023371934891e-03 -4.878607392311096191e-02 -3.369536949321627617e-03 -7.737144082784652710e-02 1.928700879216194153e-02 -7.434192113578319550e-03 4.060243815183639526e-02 6.237391382455825806e-03 3.515368327498435974e-02 8.472043275833129883e-02 -3.047067439183592796e-03 -1.611063815653324127e-02 2.340830676257610321e-02 2.017501683440059423e-04 3.394732018932700157e-03 -7.138664834201335907e-03 7.801509927958250046e-03 -2.773970365524291992e-02 -2.117740362882614136e-02 -1.233079005032777786e-02 -1.276804413646459579e-02 -2.135535469278693199e-03 2.437715604901313782e-02 1.345542352646589279e-02 8.399153128266334534e-03 -2.600908093154430389e-02 4.895052406936883926e-03 1.194619014859199524e-02 -2.774391695857048035e-02 7.209263276308774948e-03 -2.024503611028194427e-02 1.260578166693449020e-02 4.170859232544898987e-03 1.050813775509595871e-02 1.856554485857486725e-02 5.008511361666023731e-04 6.738817784935235977e-03 -6.393969990313053131e-03 -7.126429583877325058e-03 -3.416856005787849426e-02 -3.836863115429878235e-02 8.810721337795257568e-03 -3.882913663983345032e-02 -3.705970197916030884e-02 -2.546413615345954895e-02 -3.039757162332534790e-02 9.287099353969097137e-03 9.965569712221622467e-03 -5.268038064241409302e-02 2.611890994012355804e-02 -2.998756989836692810e-02 2.903399989008903503e-02 2.011325024068355560e-02 -4.671348631381988525e-02 -3.381610661745071411e-02 2.888791076838970184e-02 9.942359291017055511e-03 -1.560418866574764252e-03 -8.635059930384159088e-03 -2.841190062463283539e-02 5.913652712479233742e-04 2.672031521797180176e-03 1.721144188195466995e-03 -9.753334335982799530e-03 4.045880213379859924e-02 -6.189968064427375793e-02 3.400627523660659790e-02 -2.942818775773048401e-02 -1.904148980975151062e-02 1.439808052964508533e-03 1.326963771134614944e-02 1.789427176117897034e-02 2.863464318215847015e-02 -1.431927643716335297e-02 -1.716814003884792328e-02 8.921813964843750000e-02 5.745970411226153374e-04 1.235665846616029739e-02 -1.197524275630712509e-02 3.316579386591911316e-02 5.319675430655479431e-03 -1.307689491659402847e-02 -4.411237314343452454e-02 1.292142644524574280e-02 -1.092407968826591969e-03 3.846246050670742989e-03 6.867718417197465897e-03 3.519799560308456421e-03 3.149259462952613831e-02 -2.551827207207679749e-02 7.540312595665454865e-03 3.451231494545936584e-02 -2.167828846722841263e-03 3.026310354471206665e-03 2.433228073641657829e-03 2.108340896666049957e-02 1.482535153627395630e-02 -6.690816022455692291e-03 -2.388849243288859725e-04 -9.395540691912174225e-04 1.194217125885188580e-03 2.106630429625511169e-02 1.354609848931431770e-03 6.730120512656867504e-04 -6.741256453096866608e-03 1.088227797299623489e-02 -2.248495630919933319e-02 2.057920442894101143e-03 5.049353931099176407e-03 6.007172167301177979e-03 -6.654906319454312325e-04 8.321844041347503662e-03 3.066925704479217529e-02 1.119922008365392685e-02 5.396632477641105652e-03 1.541866688057780266e-03 -6.606797105632722378e-04 -1.915728440508246422e-03 2.105881273746490479e-02 -3.424057736992835999e-03 1.384529005736112595e-02 -1.335229165852069855e-02 -3.803385188803076744e-04 1.070267986506223679e-02 2.590674375824164599e-05 -5.442924448288977146e-04 -5.457251332700252533e-03 4.608229268342256546e-03 3.375301603227853775e-03 7.970379665493965149e-03 1.056567300111055374e-02 -1.476557808928191662e-03 -2.304243535036221147e-04 -7.026601117104291916e-03 6.386720109730958939e-03 -3.540673060342669487e-04 -2.729554427787661552e-03 -4.852642491459846497e-02 -1.132975332438945770e-02 1.260097417980432510e-02 -1.748336479067802429e-02 3.100725822150707245e-03 3.199412673711776733e-02 -1.254254253581166267e-03 -4.662990570068359375e-03 -4.136249423027038574e-03 6.123395171016454697e-03 -2.703970298171043396e-03 -1.839686650782823563e-03 -5.377859808504581451e-03 -3.608796978369355202e-03 -7.168713025748729706e-03 1.071906415745615959e-03 1.520415674895048141e-02 6.736676208674907684e-03 1.083399262279272079e-02 5.261091864667832851e-04 3.882753080688416958e-04 3.465676913037896156e-03 1.738487184047698975e-02 1.937053725123405457e-02 1.109001226723194122e-02 2.880311571061611176e-03 3.781655430793762207e-02 3.046232042834162712e-03 7.715127430856227875e-03 1.156958751380443573e-03 -4.689405672252178192e-03 -1.562485005706548691e-03 4.146605264395475388e-03 1.615555374883115292e-03 -2.825584728270769119e-03 1.300034491578117013e-04 -2.208386175334453583e-02 3.599409712478518486e-03 -4.998559132218360901e-03 -8.851408958435058594e-03 -9.791982593014836311e-04 1.711754314601421356e-02 -1.365562318824231625e-03 1.080171484500169754e-02 2.118584141135215759e-02 -1.167641207575798035e-02 7.587153813801705837e-04 -7.394344545900821686e-03 2.654111199080944061e-02 -3.977875225245952606e-03 -1.462478074245154858e-03 6.030961871147155762e-03 -7.807176560163497925e-03 -3.916628484148532152e-04 -1.218310440890491009e-03 1.118399784900248051e-03
