8.599147200584411621e-02 -1.708216816186904907e-01 -4.652234166860580444e-02 -5.599281564354896545e-02 1.043807491660118103e-01 -6.701160222291946411e-02 -2.462149709463119507e-01 1.866211742162704468e-02 -1.029984280467033386e-01 -7.657170761376619339e-03 -1.260017156600952148e-01 -5.835499987006187439e-02 -1.175098046660423279e-01 9.518524259328842163e-02 -5.431765317916870117e-02 9.590402245521545410e-02 -2.430947422981262207e-01 -1.446723341941833496e-01 -1.402683854103088379e-01 1.142882332205772400e-01 -1.244753301143646240e-01 -1.116112694144248962e-01 -9.782291203737258911e-02 9.874501079320907593e-02 8.123369514942169189e-02 -8.499996364116668701e-02 -1.841533184051513672e-01 -8.047077804803848267e-03 4.030843451619148254e-02 -1.363377273082733154e-01 -1.973752379417419434e-01 -9.296922385692596436e-02 4.285337403416633606e-03 6.387607753276824951e-02 -5.575799942016601562e-02 -1.419133413583040237e-02 1.859608478844165802e-02 1.149706989526748657e-01 -1.059583649039268494e-01 -1.874900236725807190e-02 -1.351753175258636475e-01 -3.608797490596771240e-02 5.067831277847290039e-02 7.774489372968673706e-02 1.417418420314788818e-01 -1.107595637440681458e-01 1.071459501981735229e-01 -4.433596134185791016e-02 5.907304584980010986e-02 4.677613079547882080e-02 -1.494131535291671753e-01 3.578480705618858337e-02 3.145857155323028564e-02 3.948249295353889465e-02 1.293226629495620728e-01 1.171073243021965027e-01 5.457555502653121948e-02 -8.030115813016891479e-02 -3.269255626946687698e-03 8.605440706014633179e-02 1.334956288337707520e-01 1.051813140511512756e-01 4.493307322263717651e-02 -8.332403004169464111e-02 2.586830407381057739e-02 -5.946617107838392258e-03 1.315025687217712402e-01 8.279632031917572021e-02 2.418518438935279846e-02 -2.016097009181976318e-01 1.567207649350166321e-02 3.746732696890830994e-02 -1.054305881261825562e-01 -1.241178438067436218e-01 -1.307854987680912018e-02 1.303350273519754410e-02 1.530469059944152832e-01 -1.571910083293914795e-02 -1.655971407890319824e-01 3.983709961175918579e-02 -9.947045706212520599e-03 -1.496738344430923462e-01 -1.853007525205612183e-01 7.317584007978439331e-02 3.287725895643234253e-02 -7.907745242118835449e-02 1.034817546606063843e-01 1.077840402722358704e-01 -1.793866977095603943e-02 9.436509758234024048e-02 -1.975918263196945190e-01 6.134611740708351135e-02 -1.715638637542724609e-01 -1.257504373788833618e-01 -1.178777962923049927e-01 1.086750999093055725e-01 -3.522009029984474182e-02 1.219615340232849121e-01 -1.454284191131591797e-01 5.017936229705810547e-02 -1.134962737560272217e-01 -1.199176907539367676e-01 1.467430889606475830e-01 1.342567801475524902e-01 1.324469596147537231e-01 -4.457378387451171875e-02 -3.253401219844818115e-01 -2.312755584716796875e-02 -8.437704294919967651e-02 -1.231545209884643555e-01 3.339829295873641968e-02 -1.022375747561454773e-01 -5.971002246951684356e-05 -1.344975382089614868e-01 -1.295252740383148193e-01 -2.570717968046665192e-02 -3.954345881938934326e-01 3.872016444802284241e-02 -5.067042261362075806e-02 -1.142932549118995667e-01
-5.746938660740852356e-02 -2.268238738179206848e-02 -1.345531344413757324e-01 -4.843679443001747131e-02 -8.465277031064033508e-03 -5.120677128434181213e-02 -1.031064465641975403e-01 1.214429289102554321e-01 -2.423861473798751831e-01 8.545979112386703491e-02 -1.857180744409561157e-01 -5.807163566350936890e-02 -1.165341511368751526e-01 -1.552488803863525391e-01 -1.868681516498327255e-03 3.809664025902748108e-02 -3.990519046783447266e-01 -1.106796488165855408e-01 1.518523693084716797e-01 5.364965181797742844e-04 -1.777978241443634033e-02 -2.383351922035217285e-01 5.814986769109964371e-03 1.179271563887596130e-01 -1.472780704498291016e-01 -1.818894594907760620e-01 -1.178256347775459290e-01 9.203553944826126099e-02 5.254620686173439026e-02 -3.472759574651718140e-02 7.403154857456684113e-03 -7.814413867890834808e-03 -5.803761631250381470e-02 1.064885035157203674e-01 -6.720983982086181641e-02 -1.805223077535629272e-01 -1.365527361631393433e-01 -7.461594790220260620e-02 8.289882540702819824e-02 6.064435932785272598e-03 -1.094265431165695190e-01 -1.578130871057510376e-01 -4.066673293709754944e-02 3.249332681298255920e-02 6.001982837915420532e-02 -6.976532936096191406e-02 -1.423463374376296997e-01 4.189972952008247375e-02 -2.111864276230335236e-02 -1.123044267296791077e-02 -4.584416002035140991e-02 -1.219284832477569580e-01 -2.126788944005966187e-01 -7.260795682668685913e-02 7.569208741188049316e-02 -6.313177943229675293e-02 6.709504127502441406e-02 -1.419927924871444702e-01 8.439715206623077393e-02 -8.436418138444423676e-04 2.064713090658187866e-01 1.540088653564453125e-02 8.907673507928848267e-02 -9.044522792100906372e-02 -7.468228042125701904e-02 -2.678379416465759277e-01 1.274815201759338379e-01 5.253066122531890869e-02 -1.739328652620315552e-01 1.819643564522266388e-02 1.052264682948589325e-02 9.910352528095245361e-02 -1.638923138380050659e-01 8.689933270215988159e-02 -3.851700201630592346e-02 -1.977794431149959564e-02 -1.261400282382965088e-01 -1.452176868915557861e-01 -3.159189224243164062e-02 2.371423412114381790e-03 1.340441554784774780e-01 -5.477444082498550415e-02 1.048314198851585388e-01 8.674371987581253052e-02 3.846272081136703491e-02 1.237243711948394775e-01 1.654401570558547974e-01 -5.730363726615905762e-02 6.829009205102920532e-02 1.131526939570903778e-02 -7.537155598402023315e-02 -1.225562468171119690e-01 1.091444641351699829e-01 -9.803789108991622925e-02 -1.405628323554992676e-01 -1.203790158033370972e-01 1.454790122807025909e-03 3.280264139175415039e-02 -2.121647149324417114e-01 -1.735310815274715424e-02 -2.978103160858154297e-01 2.298119105398654938e-02 5.116555094718933105e-02 1.607711017131805420e-01 -1.052445359528064728e-02 -1.476104706525802612e-01 -1.431102007627487183e-01 -1.637266017496585846e-02 1.597736496478319168e-03 3.840320929884910583e-02 -1.075509712100028992e-01 -6.002531945705413818e-02 5.006722360849380493e-02 1.821905560791492462e-02 1.152495760470628738e-02 -3.359927237033843994e-01 -3.170424401760101318e-01 -4.012671113014221191e-02 -2.058021575212478638e-01 -1.170406267046928406e-01
-1.284350603818893433e-01 -7.739118486642837524e-02 1.557305604219436646e-01 1.317481696605682373e-01 1.069668028503656387e-02 5.644493177533149719e-02 3.350834175944328308e-02 -5.019064620137214661e-02 1.420430243015289307e-01 6.579039990901947021e-02 1.814078092575073242e-01 1.745688915252685547e-01 1.974811777472496033e-02 1.004839763045310974e-01 3.991942852735519409e-02 -9.581585228443145752e-02 3.071364387869834900e-02 -1.793951541185379028e-01 -4.050430282950401306e-02 1.326547414064407349e-01 1.874304860830307007e-01 5.259992927312850952e-02 -3.036565892398357391e-02 2.446430772542953491e-01 1.685671741142868996e-03 6.596988439559936523e-02 7.584051694720983505e-03 1.454986184835433960e-01 -5.770818889141082764e-02 1.645277887582778931e-01 -1.157425791025161743e-01 1.213695779442787170e-01 -1.190393343567848206e-01 -3.416434302926063538e-02 -2.866870462894439697e-01 9.204258024692535400e-02 5.725498124957084656e-02 -4.721973091363906860e-02 1.441152542829513550e-01 1.233924776315689087e-01 9.249290823936462402e-02 9.233883768320083618e-02 -5.187437683343887329e-02 1.381552368402481079e-01 2.016046084463596344e-02 6.554266810417175293e-02 -1.158408969640731812e-01 -1.358821839094161987e-01 4.094192013144493103e-02 -2.008380927145481110e-02 2.582375518977642059e-02 -7.152329385280609131e-02 -3.211168199777603149e-02 -8.272846788167953491e-02 8.210067451000213623e-02 9.678223729133605957e-02 6.489331275224685669e-02 -5.931689962744712830e-02 8.453059196472167969e-02 -2.195989899337291718e-02 5.846677720546722412e-02 -3.734739869832992554e-02 3.304417803883552551e-02 9.036829695105552673e-03 -3.602562844753265381e-02 4.569090530276298523e-02 -6.259480118751525879e-02 -2.886358462274074554e-02 -6.762035936117172241e-02 1.457278728485107422e-01 5.107796564698219299e-02 1.807895861566066742e-02 1.267468333244323730e-01 -9.082894027233123779e-02 8.923869580030441284e-02 2.710275724530220032e-02 3.637611493468284607e-02 -1.860950887203216553e-01 1.436075866222381592e-01 8.317833393812179565e-02 -1.159156672656536102e-02 -1.183869540691375732e-01 5.435663461685180664e-02 2.574811279773712158e-01 -7.492949254810810089e-03 -2.762553654611110687e-02 8.255093358457088470e-03 9.115539491176605225e-02 -1.024979725480079651e-02 1.591006666421890259e-01 9.770103543996810913e-02 1.286128312349319458e-01 1.000556275248527527e-01 -3.355550114065408707e-03 -7.364118099212646484e-02 1.354136597365140915e-02 1.237310320138931274e-01 -1.221517845988273621e-01 3.281548991799354553e-02 -9.223666787147521973e-02 6.937744468450546265e-02 6.064265221357345581e-02 2.629687450826168060e-02 -7.284474372863769531e-02 -1.442734748125076294e-01 1.982875019311904907e-01 -3.736537694931030273e-02 -3.629710897803306580e-02 2.751192264258861542e-02 -6.765470653772354126e-02 7.449534535408020020e-02 -6.103386403992772102e-04 -1.023555770516395569e-01 -2.892736718058586121e-02 3.582963719964027405e-02 -1.014150027185678482e-02 1.151855811476707458e-01 1.318382918834686279e-01 -4.209375008940696716e-02 1.467742919921875000e-01
-2.842220850288867950e-02 2.166992425918579102e-01 4.739449545741081238e-02 1.503906100988388062e-01 8.151268213987350464e-02 1.011746600270271301e-01 -2.310685366392135620e-01 -4.180478677153587341e-02 1.475216299295425415e-01 -1.005284264683723450e-01 2.231801748275756836e-01 -4.867748543620109558e-02 4.889069870114326477e-02 -2.553638070821762085e-02 5.450429022312164307e-02 1.661990396678447723e-02 1.171377003192901611e-01 1.318834424018859863e-01 9.667034447193145752e-02 -1.245971303433179855e-02 -1.213422790169715881e-02 1.723586618900299072e-01 4.956118762493133545e-02 9.526076167821884155e-02 4.706787690520286560e-02 1.069402024149894714e-01 5.681723728775978088e-02 1.781942844390869141e-01 8.602441102266311646e-02 2.453440725803375244e-01 -6.594919413328170776e-02 1.421263664960861206e-01 -4.529946669936180115e-02 2.391698211431503296e-02 8.142503909766674042e-03 5.581846460700035095e-02 -3.958323225378990173e-02 -1.431902647018432617e-01 -2.005797438323497772e-02 2.507863193750381470e-02 1.009551063179969788e-01 -1.722967997193336487e-02 -8.646703511476516724e-02 7.599844783544540405e-02 -3.874807059764862061e-02 -1.625012308359146118e-01 -5.081752315163612366e-02 -1.299430336803197861e-02 2.169032394886016846e-01 -1.093575172126293182e-02 1.731707900762557983e-01 2.716229856014251709e-02 5.067347735166549683e-02 -1.328532956540584564e-02 -1.996983401477336884e-02 1.674412935972213745e-02 -5.739258229732513428e-02 1.190302297472953796e-01 6.639319658279418945e-02 -7.572676986455917358e-02 2.660755254328250885e-02 -1.143846809864044189e-01 2.150995284318923950e-02 6.840843707323074341e-02 -3.453781455755233765e-02 1.789046451449394226e-02 9.206845611333847046e-02 -6.101589277386665344e-02 -6.249689310789108276e-02 1.373188495635986328e-01 -6.310503929853439331e-02 1.242322102189064026e-02 4.398812726140022278e-02 -1.242653355002403259e-01 -6.452065706253051758e-02 1.963433027267456055e-01 -1.386179178953170776e-01 -7.587397471070289612e-03 -2.130117267370223999e-02 -1.672244048677384853e-03 9.304776042699813843e-02 1.924560517072677612e-01 -3.639484196901321411e-02 -2.261001318693161011e-01 -2.120419740676879883e-01 -1.899262666702270508e-01 -1.890734210610389709e-02 4.322936013340950012e-02 4.777924343943595886e-02 -4.558441787958145142e-02 1.462793648242950439e-01 6.674240529537200928e-02 -9.774482995271682739e-02 -7.213377207517623901e-02 -8.717762678861618042e-02 4.236258193850517273e-02 -3.677438199520111084e-02 1.061089485883712769e-01 2.112283408641815186e-01 5.356037244200706482e-02 3.647248744964599609e-01 5.313852429389953613e-02 -2.181995511054992676e-01 1.008647382259368896e-01 1.109147295355796814e-01 -2.021108008921146393e-02 1.972031146287918091e-01 1.516704708337783813e-01 6.446210294961929321e-02 -4.076962918043136597e-02 5.672321096062660217e-02 2.825986780226230621e-02 6.758584082126617432e-02 -8.686967939138412476e-02 -2.056177705526351929e-02 3.070685565471649170e-01 2.542935311794281006e-01 -3.294252976775169373e-02 2.325877733528614044e-02 7.631498575210571289e-02
-2.735510841012001038e-02 -7.493932545185089111e-02 -3.389375284314155579e-02 -3.799331933259963989e-02 -1.542258113622665405e-01 -9.137703478336334229e-02 1.083660423755645752e-01 -1.594954915344715118e-02 -1.986100375652313232e-01 7.102316617965698242e-02 -3.163862824440002441e-01 -2.391492873430252075e-01 -4.597188159823417664e-02 -1.517138928174972534e-01 -1.399134006351232529e-02 -8.756140619516372681e-02 -2.061735391616821289e-01 -7.037772983312606812e-02 -6.559415161609649658e-02 -1.434566378593444824e-01 8.222287148237228394e-02 -1.044838875532150269e-01 4.336515814065933228e-02 5.576059222221374512e-02 2.209514845162630081e-03 -2.506992220878601074e-01 -2.265654057264328003e-01 -2.402946799993515015e-01 7.510507851839065552e-02 -1.034724935889244080e-01 -1.004022136330604553e-01 4.391002934426069260e-03 -1.106698215007781982e-01 -1.778373420238494873e-01 -1.191940382122993469e-01 9.892856329679489136e-02 -8.026995509862899780e-02 1.026601418852806091e-01 -3.084311634302139282e-02 -1.754654645919799805e-01 8.136088959872722626e-03 5.810910090804100037e-02 -1.349924057722091675e-01 5.964321643114089966e-02 -9.332227706909179688e-02 -1.039611548185348511e-01 -5.066264793276786804e-02 -7.090319693088531494e-02 -7.313316222280263901e-03 -4.948093090206384659e-03 -6.754166632890701294e-02 -2.184043973684310913e-01 -1.718794852495193481e-01 3.239265084266662598e-02 -1.157630831003189087e-01 1.567154936492443085e-02 5.898002535104751587e-02 -6.008567754179239273e-03 9.030057489871978760e-02 -7.829763740301132202e-02 3.104322254657745361e-01 -3.014855645596981049e-02 7.913967967033386230e-02 -1.685555279254913330e-01 1.288938969373703003e-01 -5.401358380913734436e-02 -1.857390254735946655e-02 -4.167966544628143311e-03 1.161224469542503357e-01 -9.611378610134124756e-02 -9.965748339891433716e-02 -1.580547541379928589e-01 -1.531770974397659302e-01 -1.205776333808898926e-01 5.197621136903762817e-02 -4.623250290751457214e-02 -1.420366950333118439e-02 2.799372188746929169e-02 -1.044710502028465271e-01 8.301680535078048706e-02 1.190245267935097218e-03 -2.110812366008758545e-01 -6.610484421253204346e-02 -1.209578663110733032e-01 1.197512000799179077e-01 1.073665618896484375e-01 6.506468355655670166e-02 -4.511774703860282898e-02 -3.641629591584205627e-02 -6.233684346079826355e-02 4.434264451265335083e-02 1.022592931985855103e-01 -1.277928203344345093e-01 3.973938524723052979e-03 2.824303507804870605e-02 -5.360816791653633118e-02 -2.050256729125976562e-01 -5.920878145843744278e-03 -1.680050641298294067e-01 -3.253133594989776611e-02 -2.337317764759063721e-01 -6.607633829116821289e-02 -3.920716792345046997e-02 1.711065918207168579e-01 -1.881001293659210205e-01 1.320333313196897507e-02 -2.782849371433258057e-01 -2.735755033791065216e-02 7.656911760568618774e-02 -8.139593899250030518e-02 -3.911706805229187012e-02 -5.926533415913581848e-02 -1.352393329143524170e-01 -1.570697575807571411e-01 -3.611325286328792572e-03 -7.444046437740325928e-02 -1.854190230369567871e-01 -2.663564123213291168e-02 -9.074744582176208496e-02 2.156606875360012054e-02
-2.745565958321094513e-02 1.077190190553665161e-01 5.826777219772338867e-02 -7.842573523521423340e-02 2.653938718140125275e-02 6.666218489408493042e-02 9.812485426664352417e-02 3.219318017363548279e-02 1.999066174030303955e-01 -9.205348789691925049e-02 2.371979653835296631e-01 -3.880954533815383911e-02 1.398459374904632568e-01 3.516786545515060425e-02 2.330822497606277466e-01 7.984005659818649292e-02 3.583740592002868652e-01 7.471746299415826797e-03 -1.337017267942428589e-01 -8.975625783205032349e-02 1.165918707847595215e-01 2.330773621797561646e-01 5.708630755543708801e-02 -1.388627588748931885e-01 1.354258358478546143e-01 3.743869066238403320e-01 2.317653447389602661e-01 -6.833069026470184326e-02 9.454212337732315063e-02 1.001954376697540283e-01 3.134308755397796631e-02 3.912232443690299988e-02 -8.700426667928695679e-02 7.913689315319061279e-02 1.821853667497634888e-01 -1.046161726117134094e-01 -1.408164761960506439e-02 -1.658105403184890747e-01 -8.714760839939117432e-02 -1.009871363639831543e-01 -1.457602232694625854e-01 3.652059286832809448e-02 4.947015270590782166e-02 1.186256669461727142e-02 -6.435079127550125122e-02 -1.024343520402908325e-01 -1.327682435512542725e-01 1.310201436281204224e-01 4.978571087121963501e-02 -9.184594452381134033e-02 9.985932707786560059e-02 3.843572139739990234e-01 4.072196781635284424e-02 3.835925459861755371e-02 2.347222715616226196e-01 1.732247620820999146e-01 -3.440401703119277954e-02 -4.696943238377571106e-02 1.823706328868865967e-01 5.866980552673339844e-02 -7.069553714245557785e-03 6.554380059242248535e-02 1.595476828515529633e-02 2.497847564518451691e-02 -1.860283315181732178e-01 1.100618094205856323e-01 -4.714591428637504578e-02 1.394569873809814453e-02 7.489679753780364990e-02 6.017782539129257202e-02 5.158192361705005169e-04 -2.524216473102569580e-02 1.102845221757888794e-01 -6.522419303655624390e-02 1.051881834864616394e-01 9.621681272983551025e-02 -1.232257708907127380e-01 7.826527208089828491e-02 -1.126903370022773743e-01 -1.042289808392524719e-01 6.410371512174606323e-02 1.195582151412963867e-01 -2.451111376285552979e-02 1.404177993535995483e-01 -1.345867812633514404e-01 -4.031911492347717285e-02 2.183086238801479340e-02 -2.142387181520462036e-01 1.378680318593978882e-01 1.499771326780319214e-01 1.809565424919128418e-01 1.397837549448013306e-01 7.536759972572326660e-02 -6.713247299194335938e-02 5.958899483084678650e-02 1.360623631626367569e-02 -7.529578171670436859e-03 -2.166334912180900574e-02 1.425128728151321411e-01 -1.214795932173728943e-01 2.626500129699707031e-01 1.377409845590591431e-01 -1.408073902130126953e-01 -1.368326991796493530e-01 -1.357268840074539185e-01 8.647619932889938354e-02 3.588633239269256592e-01 -1.600743271410465240e-02 1.744158938527107239e-02 1.279484480619430542e-02 7.998920627869665623e-04 2.849601022899150848e-02 3.628404065966606140e-02 3.698349744081497192e-02 2.197867445647716522e-02 1.830707490444183350e-01 2.667814493179321289e-01 -3.639627620577812195e-02 -4.200953245162963867e-02 5.644704774022102356e-02
-5.453185364603996277e-02 -1.041502133011817932e-01 5.645461753010749817e-02 -8.320698887109756470e-02 -1.023896262049674988e-01 3.259955346584320068e-02 -8.061186410486698151e-03 1.327820867300033569e-02 -1.195931807160377502e-01 7.226466387510299683e-02 -1.601966172456741333e-01 6.931988988071680069e-03 -3.471267968416213989e-02 9.354528971016407013e-03 2.188062518835067749e-01 4.147743806242942810e-03 -2.910041809082031250e-01 -1.527092009782791138e-01 -1.276217699050903320e-01 3.680646792054176331e-02 -5.012871325016021729e-02 3.052942082285881042e-02 -5.469387024641036987e-02 -7.869501411914825439e-02 -2.436235398054122925e-01 -1.041248142719268799e-01 -2.310460805892944336e-01 3.535566153004765511e-03 1.329760700464248657e-01 -5.027199536561965942e-02 -2.765902318060398102e-02 -1.553887426853179932e-01 -9.385135769844055176e-02 -3.978026658296585083e-02 -1.813312917947769165e-01 -2.471937537193298340e-01 3.962374106049537659e-02 1.444018352776765823e-02 1.050505563616752625e-01 -4.972215369343757629e-02 -4.028001800179481506e-02 -7.935091108083724976e-02 3.706876933574676514e-02 2.043494954705238342e-02 3.234602883458137512e-02 -6.223985180258750916e-02 1.383355259895324707e-01 -9.459161013364791870e-02 -4.297653213143348694e-02 1.612240225076675415e-01 6.887526065111160278e-02 -1.935970783233642578e-01 1.386121064424514771e-01 -1.736301183700561523e-02 -6.632272899150848389e-02 -8.079576655291020870e-04 -9.135340899229049683e-02 1.478904485702514648e-01 8.782143890857696533e-02 -1.977664828300476074e-01 8.633030205965042114e-02 5.687328800559043884e-02 -2.845375984907150269e-02 4.795032087713479996e-03 9.874065220355987549e-02 -2.606240808963775635e-01 -6.143395230174064636e-02 1.118793189525604248e-01 -5.135869234800338745e-02 -1.060195490717887878e-01 4.741061851382255554e-02 -3.555274382233619690e-02 -1.382424533367156982e-01 8.688077330589294434e-02 -5.020013451576232910e-02 -7.480609416961669922e-02 -4.213383421301841736e-02 -3.127019479870796204e-02 -4.156192764639854431e-02 2.036968618631362915e-02 -1.251955777406692505e-01 -1.191837862133979797e-01 2.477739751338958740e-01 -1.601180136203765869e-01 1.268337368965148926e-01 9.750416129827499390e-02 2.916489355266094208e-02 -1.379780769348144531e-01 3.682023147121071815e-03 -1.234958413988351822e-02 -5.020271241664886475e-02 -1.260067075490951538e-01 -9.481956809759140015e-02 1.382836513221263885e-02 -7.933478057384490967e-02 9.922344237565994263e-02 6.360480934381484985e-02 8.200385421514511108e-02 -7.841930538415908813e-02 2.905721776187419891e-02 -2.193591445684432983e-01 -6.016848608851432800e-03 -1.238783076405525208e-01 -5.013710260391235352e-02 -8.055000798776745796e-04 -7.862955331802368164e-02 -3.959283232688903809e-01 -2.587897181510925293e-01 -6.368964165449142456e-02 9.600600227713584900e-03 1.019082218408584595e-01 -1.189323663711547852e-01 -4.321600869297981262e-02 -1.495491564273834229e-01 -2.065112739801406860e-01 -1.137921810150146484e-01 -2.951134443283081055e-01 2.410542778670787811e-02 7.273007184267044067e-02 -2.437740564346313477e-01
1.417478322982788086e-01 6.040358915925025940e-03 -2.157121151685714722e-01 7.576272636651992798e-02 3.935655113309621811e-03 6.516715884208679199e-02 -4.692953079938888550e-02 3.037320636212825775e-02 5.046791583299636841e-02 -1.426610350608825684e-01 1.364911794662475586e-01 6.526677310466766357e-02 9.783818386495113373e-03 -1.022568196058273315e-01 2.747886255383491516e-02 6.458213180303573608e-02 -1.456301752477884293e-02 2.030831092270091176e-04 -3.506305441260337830e-02 -2.143448293209075928e-01 -1.161833181977272034e-01 -7.207760936580598354e-04 2.846861025318503380e-03 1.944885775446891785e-02 2.509202435612678528e-02 -7.183994352817535400e-02 -9.285110235214233398e-02 1.163363680243492126e-01 1.224381942301988602e-02 -3.946344181895256042e-02 1.237039454281330109e-02 -1.289377510547637939e-01 -6.642366945743560791e-02 -7.242445717565715313e-04 -3.342523425817489624e-02 -1.926095597445964813e-02 -4.032805562019348145e-02 -3.224801644682884216e-02 1.835242100059986115e-02 -2.231259196996688843e-01 9.132584556937217712e-03 -1.090259999036788940e-01 4.315758123993873596e-02 -4.236913082422688603e-05 1.223269570618867874e-02 1.244478672742843628e-02 -2.333336323499679565e-01 -1.663058698177337646e-01 -4.973131045699119568e-02 9.110192954540252686e-02 -2.043875008821487427e-01 8.681252598762512207e-03 -3.155197948217391968e-02 -8.108980208635330200e-02 -7.099266350269317627e-02 -3.736858442425727844e-02 1.192177366465330124e-02 -1.425058692693710327e-01 8.405189961194992065e-02 1.404736340045928955e-01 2.098646014928817749e-02 -4.839606210589408875e-02 1.684294431470334530e-03 -1.646786332130432129e-01 1.278508454561233521e-01 -1.069088354706764221e-01 2.827129699289798737e-02 -1.518264263868331909e-01 5.567676573991775513e-02 7.080463320016860962e-02 1.611050367355346680e-01 1.905720978975296021e-01 -7.308641076087951660e-02 1.144311577081680298e-02 -2.001539468765258789e-01 -4.544589295983314514e-02 1.331812888383865356e-01 6.737074255943298340e-02 -5.233509466052055359e-02 -8.747445791959762573e-02 -6.386101245880126953e-02 1.315352469682693481e-01 1.135225370526313782e-01 -1.552504673600196838e-02 6.592748686671257019e-03 2.930342406034469604e-02 -5.511984601616859436e-02 -2.667162800207734108e-03 1.008087769150733948e-01 -1.496842056512832642e-01 9.460036456584930420e-02 7.488114386796951294e-02 -9.258530288934707642e-02 1.830063015222549438e-01 2.059599757194519043e-02 1.469770912081003189e-03 -5.791538953781127930e-02 7.785926014184951782e-02 -1.450271308422088623e-01 -6.365855783224105835e-02 -6.121312081813812256e-02 -3.620313480496406555e-02 4.544500634074211121e-02 3.079886361956596375e-02 -1.753955483436584473e-01 4.389363527297973633e-02 -2.447734922170639038e-01 1.688030362129211426e-02 -8.835567533969879150e-02 9.242306649684906006e-02 6.468699779361486435e-03 -1.032353937625885010e-01 4.877830669283866882e-02 -3.811055421829223633e-02 -9.594198316335678101e-02 -1.376039534807205200e-01 -4.444402828812599182e-02 3.625196218490600586e-02 1.030188724398612976e-01 -1.125774309039115906e-01
-2.162105888128280640e-01 1.952774524688720703e-01 -3.109342791140079498e-02 -8.153883367776870728e-02 1.302549242973327637e-01 7.407229393720626831e-03 3.356109187006950378e-02 1.388560980558395386e-01 -1.448779106140136719e-01 -6.778649985790252686e-02 -1.582435667514801025e-01 -1.240409240126609802e-01 -9.038574248552322388e-02 -7.832836359739303589e-02 -9.918355941772460938e-02 -1.854673624038696289e-01 -8.671635389328002930e-02 -1.348243355751037598e-01 -1.113727539777755737e-01 -2.533683180809020996e-01 -1.373321712017059326e-01 9.209880977869033813e-02 7.555349171161651611e-02 -1.768588460981845856e-02 4.316507279872894287e-02 -2.209029905498027802e-02 9.297230094671249390e-02 1.056257039308547974e-01 -1.361534148454666138e-01 1.060148584656417370e-03 -9.645879268646240234e-02 -3.519676253199577332e-02 7.030460983514785767e-03 -1.089825630187988281e-01 -5.393920093774795532e-02 -4.699208587408065796e-02 -1.061818227171897888e-01 -2.843476086854934692e-02 -1.125335600227117538e-02 -1.962758749723434448e-01 -1.263707727193832397e-01 -1.917026191949844360e-02 -7.626472413539886475e-02 -2.110349535942077637e-01 1.384885609149932861e-02 1.917223185300827026e-01 6.900689005851745605e-02 -3.104708902537822723e-02 9.747027605772018433e-02 -2.560363113880157471e-01 -6.871693581342697144e-02 -4.906092211604118347e-02 3.015837259590625763e-02 -2.140499800443649292e-01 -3.312351554632186890e-02 -8.317205356433987617e-04 -3.596850112080574036e-02 -9.220472536981105804e-03 -1.630118340253829956e-01 -2.835394255816936493e-02 3.778187558054924011e-02 1.043006479740142822e-01 3.093681670725345612e-02 -1.323961466550827026e-01 7.635195739567279816e-03 -2.516967356204986572e-01 1.628116704523563385e-02 -2.212167158722877502e-02 2.258217483758926392e-01 -1.446964740753173828e-01 2.745689824223518372e-03 3.211782127618789673e-02 3.732934966683387756e-02 1.013947725296020508e-01 -2.165183238685131073e-02 -6.774480454623699188e-03 2.196340262889862061e-01 6.618689745664596558e-02 -1.144479662179946899e-01 2.073679352179169655e-03 -1.255410909652709961e-01 1.444828063249588013e-01 -2.921864017844200134e-02 -2.610679902136325836e-02 -9.202317148447036743e-02 -5.051932111382484436e-02 9.321018005721271038e-04 1.024306789040565491e-01 -1.467637121677398682e-01 7.465218007564544678e-02 -1.897964254021644592e-02 3.681372478604316711e-02 4.575853049755096436e-02 -1.350037604570388794e-01 1.976532675325870514e-02 -2.205707691609859467e-02 -6.214556843042373657e-02 -8.063004165887832642e-02 -4.180959612131118774e-02 -1.209345757961273193e-01 1.418306119740009308e-02 -1.215524002909660339e-01 -2.131699621677398682e-01 -8.812852948904037476e-02 1.791416555643081665e-01 -2.280514687299728394e-02 -3.989066556096076965e-02 -1.208587363362312317e-01 -4.433773085474967957e-02 -9.364157915115356445e-02 -8.890934986993670464e-04 -1.225714609026908875e-01 2.257110178470611572e-02 5.150179564952850342e-02 -2.511750534176826477e-02 -7.483303546905517578e-02 6.643252074718475342e-02 -9.667003899812698364e-02 -8.904151618480682373e-02 1.965495347976684570e-01
1.235365401953458786e-02 1.097136214375495911e-01 1.407106965780258179e-01 1.823136508464813232e-01 -5.409787967801094055e-02 -1.385913789272308350e-01 4.965197294950485229e-02 -1.603152304887771606e-01 -4.106277972459793091e-02 -1.724006840959191322e-03 3.996644914150238037e-01 -5.414760112762451172e-02 1.761538721621036530e-02 2.862526103854179382e-02 1.927580386400222778e-01 -3.184203803539276123e-02 3.187705874443054199e-01 -5.961517244577407837e-02 -7.107958942651748657e-02 -1.057728752493858337e-01 5.036971718072891235e-02 -4.213733132928609848e-03 -5.662928521633148193e-02 1.172753423452377319e-01 -1.103619020432233810e-02 1.043530479073524475e-01 2.471046894788742065e-01 1.097201835364103317e-03 5.093105882406234741e-02 1.034653335809707642e-01 -4.154842346906661987e-03 1.267063319683074951e-01 5.058720707893371582e-02 8.048642426729202271e-02 1.539099663496017456e-01 6.379614770412445068e-02 6.844465434551239014e-02 -6.949293613433837891e-02 1.260944455862045288e-01 2.555009443312883377e-03 1.500459760427474976e-01 -6.754834949970245361e-02 2.055211961269378662e-01 -1.919585280120372772e-02 -1.240758150815963745e-01 6.980237085372209549e-03 4.286178201436996460e-02 -9.635549783706665039e-02 -6.503003835678100586e-02 -7.576048374176025391e-02 -4.692405834794044495e-02 1.348264962434768677e-01 -7.598134875297546387e-02 3.261165320873260498e-02 1.746636778116226196e-01 7.365102320909500122e-02 -5.537031963467597961e-02 1.765229403972625732e-01 1.374835371971130371e-01 -4.975150153040885925e-02 -6.583370268344879150e-02 -6.868047267198562622e-02 6.281784176826477051e-02 1.479640007019042969e-01 -6.661736220121383667e-02 -2.998383529484272003e-02 -1.821092218160629272e-01 -1.007738560438156128e-01 3.920969553291797638e-03 2.757741138339042664e-02 3.928238153457641602e-02 -9.807133674621582031e-02 8.853986859321594238e-02 5.531832948327064514e-02 -3.089738488197326660e-01 -2.516128681600093842e-02 6.107696518301963806e-02 1.718590855598449707e-01 1.425526291131973267e-02 -2.672712691128253937e-02 3.943232353776693344e-03 2.349375188350677490e-01 -5.960386991500854492e-02 2.484439499676227570e-02 8.072859793901443481e-02 -2.682638913393020630e-02 5.556294694542884827e-03 1.645098207518458366e-03 1.575754955410957336e-02 1.841634325683116913e-02 -5.930031090974807739e-02 4.147450998425483704e-02 6.110115349292755127e-02 -6.954168528318405151e-02 -7.767704781144857407e-03 1.485201157629489899e-02 -5.268696323037147522e-02 -1.413318910636007786e-03 -1.339615322649478912e-02 3.109636716544628143e-02 3.184478282928466797e-01 1.513160183094441891e-03 8.112085051834583282e-03 -1.733116805553436279e-01 1.171280890703201294e-01 -2.506479620933532715e-02 2.208269685506820679e-01 6.008334457874298096e-02 6.877958029508590698e-02 -3.387487307190895081e-02 -1.560525596141815186e-01 5.482197273522615433e-03 1.428326219320297241e-01 7.583902031183242798e-02 2.352144271135330200e-01 3.658998012542724609e-01 1.737372130155563354e-01 -2.087582051753997803e-01 -7.317424565553665161e-02 5.160508304834365845e-02
1.221178621053695679e-01 8.627930283546447754e-02 4.648790135979652405e-02 1.396971289068460464e-02 1.137416139245033264e-01 -1.229232922196388245e-01 -4.418614134192466736e-02 -1.275664381682872772e-02 1.336691379547119141e-01 1.976386159658432007e-01 -1.153018027544021606e-01 2.501552104949951172e-01 1.922252029180526733e-01 1.082536056637763977e-01 1.842234432697296143e-01 1.513447016477584839e-01 -1.004324108362197876e-02 4.784839600324630737e-02 2.150180041790008545e-01 1.298244595527648926e-01 1.354507952928543091e-01 9.690514951944351196e-02 -2.069225162267684937e-01 1.042337641119956970e-01 2.011436223983764648e-02 1.275084018707275391e-01 1.070292666554450989e-01 4.379952698945999146e-02 1.480498462915420532e-01 1.315234750509262085e-01 1.856504082679748535e-01 1.799352467060089111e-02 -1.220252811908721924e-01 7.619357109069824219e-02 7.769270986318588257e-02 1.692738980054855347e-01 9.990490227937698364e-02 2.197224274277687073e-02 3.448748588562011719e-01 1.376082152128219604e-01 -5.447695404291152954e-02 1.131520271301269531e-01 5.198336020112037659e-02 7.027395814657211304e-02 1.292870342731475830e-01 7.449581287801265717e-03 8.210776001214981079e-02 -8.488520234823226929e-02 1.141451224684715271e-01 1.714294403791427612e-01 -7.028186693787574768e-03 -3.782327054068446159e-03 -2.716503441333770752e-01 1.751425117254257202e-02 1.467296183109283447e-01 -7.714461535215377808e-02 -7.622025907039642334e-02 3.265876322984695435e-02 9.181393310427665710e-03 4.495673626661300659e-02 -1.433779895305633545e-01 -1.188497897237539291e-02 1.907171159982681274e-01 -2.656953409314155579e-03 -1.160113960504531860e-01 6.566851586103439331e-02 -7.604793459177017212e-02 8.154053986072540283e-02 -2.308338880538940430e-02 1.630371361970901489e-01 1.884070411324501038e-02 -1.257373690605163574e-01 1.642942195758223534e-03 -2.004916220903396606e-01 6.080279499292373657e-02 4.831148311495780945e-02 3.742286190390586853e-02 6.613034754991531372e-02 -2.356827817857265472e-02 -1.096893697977066040e-01 1.413910090923309326e-01 1.740333735942840576e-01 2.855347841978073120e-02 1.282267123460769653e-01 -6.847917288541793823e-02 8.638405054807662964e-02 2.981152618303894997e-03 -2.339088320732116699e-01 4.331818316131830215e-03 -1.749423742294311523e-01 8.390432596206665039e-02 1.933192908763885498e-01 -4.070668295025825500e-02 -4.953111056238412857e-04 2.796481549739837646e-01 4.929307103157043457e-02 1.024764999747276306e-01 -4.064795002341270447e-02 3.536427766084671021e-02 2.036791741847991943e-01 8.079665154218673706e-02 -8.538316935300827026e-02 -2.978766150772571564e-02 -3.668058663606643677e-02 1.961649358272552490e-01 8.287131041288375854e-02 7.943257689476013184e-02 1.851154416799545288e-01 6.693972647190093994e-02 1.847086101770401001e-01 6.278443336486816406e-02 7.312276214361190796e-02 -1.383673697710037231e-01 1.996643096208572388e-02 -8.135075680911540985e-03 7.810542359948158264e-03 1.216753944754600525e-01 4.898546636104583740e-02 6.027916446328163147e-03 -1.854932904243469238e-01
-1.512024253606796265e-01 -1.498910039663314819e-01 2.451228722929954529e-02 -1.323571354150772095e-01 -3.899384289979934692e-02 -1.756931990385055542e-01 3.399252146482467651e-02 1.127028763294219971e-01 -2.205942273139953613e-01 -8.249901980161666870e-02 -2.534294426441192627e-01 1.046798750758171082e-01 -8.856873214244842529e-02 7.924604415893554688e-02 7.612083572894334793e-03 -2.364121079444885254e-01 -2.535384297370910645e-01 7.832413911819458008e-02 -1.586547642946243286e-01 -6.784054636955261230e-02 1.083662658929824829e-01 -2.503753900527954102e-01 -3.234478086233139038e-02 -1.483028382062911987e-01 -7.465577125549316406e-02 -2.011284083127975464e-01 -4.100749790668487549e-01 -1.233130097389221191e-01 1.092555746436119080e-02 -6.846183538436889648e-02 -1.196612566709518433e-01 -1.119268164038658142e-01 8.169962465763092041e-02 8.623989298939704895e-03 -7.901761680841445923e-02 9.096156805753707886e-02 -1.674327552318572998e-01 4.177315533161163330e-02 9.375740587711334229e-02 3.752374649047851562e-02 -6.548074632883071899e-02 -3.126762434840202332e-02 5.199182778596878052e-02 2.314043641090393066e-01 2.077001184225082397e-01 -1.148205995559692383e-01 -9.985149651765823364e-02 9.681627899408340454e-02 -4.651801194995641708e-03 -1.285846694372594357e-03 -5.070113763213157654e-02 -4.309573397040367126e-02 7.005333155393600464e-02 -1.167735308408737183e-01 -6.923435628414154053e-02 -1.935908570885658264e-02 3.401937137823551893e-04 -8.011092245578765869e-02 -2.009052932262420654e-01 -1.532384380698204041e-02 5.467451736330986023e-02 -3.643697593361139297e-03 5.086637660861015320e-02 -1.955121010541915894e-01 1.903873234987258911e-01 -1.012914031744003296e-01 1.345459520816802979e-01 -1.074079796671867371e-01 -6.748452782630920410e-02 8.036380261182785034e-02 6.520254909992218018e-02 -7.011524587869644165e-02 -1.001222990453243256e-03 1.550823450088500977e-01 -7.501938194036483765e-02 1.137456763535737991e-02 -1.104101259261369705e-02 -1.197231262922286987e-01 -9.643437713384628296e-02 8.187954872846603394e-02 4.481269046664237976e-02 -5.436876416206359863e-02 8.955270051956176758e-02 6.111035123467445374e-02 -4.794524516910314560e-03 -9.648716449737548828e-02 -3.288192301988601685e-02 -4.283455759286880493e-02 5.798887088894844055e-02 -1.059507429599761963e-01 -1.463667601346969604e-01 -8.024604991078376770e-03 -2.174974232912063599e-01 -3.015345893800258636e-02 8.194685727357864380e-02 2.388445101678371429e-02 -3.577493503689765930e-02 7.380528748035430908e-02 -1.878455132246017456e-01 -8.819681406021118164e-02 -1.636219620704650879e-01 3.989996761083602905e-02 3.258781507611274719e-02 -7.110910862684249878e-02 5.595272406935691833e-02 -2.093404382467269897e-01 -1.976683139801025391e-01 -7.688229531049728394e-02 4.220322892069816589e-02 -9.242037683725357056e-02 -1.833821982145309448e-01 -1.489791423082351685e-01 -5.450500920414924622e-02 -1.126480624079704285e-01 -3.380400303285568953e-04 -2.226199656724929810e-01 -1.845033168792724609e-01 1.296923309564590454e-01 5.919342860579490662e-02 -1.831021010875701904e-01
-4.245723038911819458e-02 6.674280017614364624e-02 7.315476983785629272e-02 -1.233684346079826355e-01 1.268246322870254517e-01 5.470675230026245117e-02 6.337658315896987915e-02 -9.808245301246643066e-02 4.161499813199043274e-02 1.479035168886184692e-01 2.960658371448516846e-01 -5.488586798310279846e-02 1.821511387825012207e-01 -2.716657519340515137e-01 6.072622165083885193e-02 5.807526037096977234e-02 2.881788611412048340e-01 2.762855403125286102e-02 1.531726419925689697e-01 5.911687854677438736e-03 1.890598237514495850e-01 -1.907156407833099365e-02 6.694675888866186142e-03 5.048479139804840088e-02 1.407988667488098145e-01 4.483624547719955444e-02 2.245170325040817261e-01 -1.057353988289833069e-01 1.510238274931907654e-03 1.151607781648635864e-01 1.169024109840393066e-01 1.419207006692886353e-01 1.068837344646453857e-01 6.190132349729537964e-02 9.471275657415390015e-02 -4.054102301597595215e-02 4.767897725105285645e-02 -2.010832875967025757e-01 -3.449303284287452698e-02 9.179450571537017822e-02 5.612875148653984070e-02 3.005070611834526062e-02 7.889061421155929565e-02 8.743075281381607056e-02 7.968991249799728394e-02 1.478164196014404297e-01 -2.308414876461029053e-01 1.102040149271488190e-02 1.494201570749282837e-01 -4.370287060737609863e-02 -7.031688839197158813e-02 1.832926422357559204e-01 -9.341967105865478516e-02 -5.132094398140907288e-02 2.441381961107254028e-01 1.963062584400177002e-02 1.040394231677055359e-02 1.550208181142807007e-01 7.094823569059371948e-02 -2.298380807042121887e-02 -2.768653258681297302e-02 -6.086106225848197937e-02 -2.160902023315429688e-01 -7.926564663648605347e-02 -2.393404720351099968e-04 1.098584979772567749e-01 -5.749427527189254761e-02 1.120017096400260925e-01 -1.697066612541675568e-02 -7.513030618429183960e-02 1.290090382099151611e-02 3.701601177453994751e-02 7.618455588817596436e-02 7.594064623117446899e-02 1.558707095682621002e-02 -9.580647200345993042e-02 1.211967319250106812e-01 8.143701404333114624e-02 1.019905060529708862e-01 4.367847368121147156e-02 -4.852074012160301208e-02 -5.259511090116575360e-05 -2.999732829630374908e-02 -1.073909401893615723e-01 -2.028072476387023926e-01 -1.143274921923875809e-02 -1.753136888146400452e-02 7.531777024269104004e-02 4.877873510122299194e-02 -3.112586215138435364e-02 1.610835343599319458e-01 1.066805869340896606e-01 6.247949972748756409e-02 -6.427852809429168701e-02 -1.153762787580490112e-01 1.050003990530967712e-01 -2.233157120645046234e-02 2.955642528831958771e-02 1.698027402162551880e-01 2.844937890768051147e-02 2.645274698734283447e-01 -3.734776005148887634e-02 -4.049801267683506012e-03 -1.527802050113677979e-01 8.117637038230895996e-02 -1.274449080228805542e-01 2.615210413932800293e-01 -1.056930050253868103e-02 -3.711087629199028015e-02 1.131130680441856384e-01 1.276556104421615601e-01 1.512685567140579224e-01 -2.627204917371273041e-02 1.237893179059028625e-01 -9.283968806266784668e-02 3.444595932960510254e-01 3.038323223590850830e-01 7.336425036191940308e-02 2.365605682134628296e-01 7.876353710889816284e-02
-3.942582011222839355e-02 -3.034526668488979340e-02 -2.975668199360370636e-02 -1.173402369022369385e-01 1.525589544326066971e-02 4.993699491024017334e-02 -1.031337752938270569e-01 4.938289523124694824e-03 -2.663176059722900391e-01 1.716167666018009186e-02 -1.075457558035850525e-01 7.627340964972972870e-03 1.984276063740253448e-02 -7.226467132568359375e-02 -1.277486979961395264e-01 7.031779736280441284e-02 -2.784323096275329590e-01 1.676052510738372803e-01 -2.911623567342758179e-02 -8.638972789049148560e-02 1.159749738872051239e-02 -2.190703153610229492e-01 2.897893823683261871e-02 5.954294651746749878e-02 6.957790255546569824e-02 6.387436296790838242e-03 -2.593911290168762207e-01 -8.670021593570709229e-02 3.473465144634246826e-02 -1.314632743597030640e-01 9.659037739038467407e-02 -1.756567880511283875e-02 -3.948083892464637756e-02 -8.946534246206283569e-02 -3.248581290245056152e-02 3.762496635317802429e-02 6.505767256021499634e-02 9.124924987554550171e-02 -1.509108953177928925e-02 -3.157174959778785706e-02 1.386988312005996704e-01 -2.652155607938766479e-02 -7.217483967542648315e-02 -7.768764346837997437e-02 -4.713723435997962952e-02 1.038660630583763123e-01 9.937609732151031494e-02 -1.852905005216598511e-01 1.050465553998947144e-02 -9.891473501920700073e-02 8.060584962368011475e-02 5.477743223309516907e-02 1.577936708927154541e-01 -1.070528924465179443e-01 1.844022795557975769e-02 -1.490821540355682373e-01 7.167224586009979248e-02 -9.106681682169437408e-03 5.618516821414232254e-03 -8.935894072055816650e-02 -2.636918425559997559e-02 -4.336973279714584351e-02 -7.836268842220306396e-02 -2.950291521847248077e-02 2.249262854456901550e-02 -7.262406498193740845e-02 1.291277259588241577e-01 7.960461080074310303e-02 -1.591071337461471558e-01 1.314353197813034058e-01 9.718181937932968140e-02 6.557697057723999023e-02 -9.803175181150436401e-02 8.856440335512161255e-02 5.806885194033384323e-03 4.288510978221893311e-02 4.387953132390975952e-02 3.527751192450523376e-02 -1.764680743217468262e-01 -4.778339713811874390e-02 7.396328449249267578e-02 -3.542472422122955322e-02 -4.354000836610794067e-02 6.860772613435983658e-03 -2.221930772066116333e-02 7.457886636257171631e-02 -1.047463864088058472e-01 7.415258884429931641e-02 1.625489559955894947e-03 3.064119070768356323e-02 -1.252409368753433228e-01 1.948210969567298889e-02 1.218968816101551056e-02 1.731541007757186890e-02 -6.772711873054504395e-02 8.362645283341407776e-03 -8.343778550624847412e-02 -8.871197700500488281e-02 -6.673132628202438354e-02 1.000400483608245850e-01 -1.899821162223815918e-01 -6.304799020290374756e-02 -6.281722337007522583e-02 -1.376827508211135864e-01 -1.212862953543663025e-01 2.069872170686721802e-01 -8.910512179136276245e-02 -6.908297538757324219e-02 1.117600351572036743e-01 -1.032503601163625717e-02 -1.408771574497222900e-01 -1.982559710741043091e-01 -1.764267683029174805e-01 -2.607882022857666016e-01 -1.091381236910820007e-01 -2.462381422519683838e-01 -3.393654525279998779e-01 -2.261772006750106812e-01 -1.614445587620139122e-03 -1.066704243421554565e-01
4.216080531477928162e-02 4.355889931321144104e-02 2.105316519737243652e-02 5.716171860694885254e-02 -1.051092222332954407e-01 1.667235195636749268e-01 1.071983650326728821e-01 -3.822368383407592773e-02 -1.191386729478836060e-01 1.691338866949081421e-01 -1.470676213502883911e-01 1.125455722212791443e-01 -4.966155812144279480e-02 1.319364011287689209e-01 -8.124941028654575348e-03 1.113985851407051086e-02 1.078183278441429138e-01 2.818162366747856140e-02 9.016919881105422974e-03 -4.623920656740665436e-03 -8.412131667137145996e-02 -5.467769689857959747e-03 4.141069576144218445e-02 1.728148162364959717e-01 6.699570268392562866e-02 3.054138273000717163e-02 -1.386023312807083130e-01 8.019376546144485474e-02 8.624641597270965576e-02 1.590923517942428589e-01 1.215254738926887512e-01 -3.966540098190307617e-02 1.315159052610397339e-01 -9.966495446860790253e-03 1.004174873232841492e-01 4.844130948185920715e-02 1.767673939466476440e-01 5.657519027590751648e-02 1.712147961370646954e-03 7.355615496635437012e-02 -1.260544210672378540e-01 1.072317063808441162e-01 8.142527192831039429e-02 1.780493855476379395e-01 -1.195239126682281494e-01 1.859258860349655151e-01 -2.640531770884990692e-02 6.047839298844337463e-02 1.681043058633804321e-01 -1.546559333801269531e-01 3.371138498187065125e-02 5.994038283824920654e-02 -1.247581169009208679e-01 1.334812492132186890e-01 1.608685255050659180e-01 -1.103384867310523987e-01 -2.536462433636188507e-02 -9.452258795499801636e-02 4.928726330399513245e-02 1.420740336179733276e-01 4.473469406366348267e-02 -8.734876662492752075e-02 2.857414633035659790e-02 1.204118803143501282e-01 -1.343647539615631104e-01 -2.358365571126341820e-03 2.833622740581631660e-03 6.015391275286674500e-02 1.226778924465179443e-01 4.830443486571311951e-02 -2.714256048202514648e-01 6.945477426052093506e-02 1.001940015703439713e-02 -1.664299331605434418e-02 -1.076563224196434021e-01 -6.724081933498382568e-02 -1.136943325400352478e-01 3.277313709259033203e-02 1.438451558351516724e-01 8.916237205266952515e-02 2.103371769189834595e-01 1.329529285430908203e-01 -5.923047289252281189e-02 1.809794753789901733e-01 -7.017866522073745728e-02 4.524837434291839600e-02 -1.252144873142242432e-01 5.961011350154876709e-02 -1.251299977302551270e-01 -2.994566969573497772e-02 1.292716115713119507e-01 1.168657839298248291e-02 -2.256432548165321350e-02 1.946678906679153442e-01 1.704001426696777344e-01 1.048467773944139481e-02 2.360489964485168457e-01 1.053277328610420227e-01 3.243096917867660522e-02 -1.869084239006042480e-01 -1.185863837599754333e-01 9.308650344610214233e-02 -4.877138510346412659e-02 1.050763651728630066e-01 1.703464239835739136e-02 3.885911777615547180e-02 -4.721236974000930786e-02 1.313965618610382080e-01 2.086689881980419159e-02 -1.871357113122940063e-01 9.160912781953811646e-02 -4.446741193532943726e-02 1.087383087724447250e-02 -7.585092633962631226e-02 -7.838459312915802002e-02 8.405783027410507202e-02 1.132673770189285278e-02 3.426320478320121765e-02 5.986265838146209717e-02 -6.447111070156097412e-02
-1.728593260049819946e-01 8.217174559831619263e-02 -3.221219405531883240e-02 -1.650804877281188965e-01 -1.088510453701019287e-01 5.110036954283714294e-02 8.458468317985534668e-02 1.252065002918243408e-01 9.540795348584651947e-03 4.681383143179118633e-04 4.043120145797729492e-01 8.523516356945037842e-02 7.700350880622863770e-02 -2.252746820449829102e-01 6.286455690860748291e-02 -7.757326960563659668e-02 1.450079828500747681e-01 1.124882400035858154e-01 -8.996580541133880615e-02 1.863375008106231689e-01 -3.800744935870170593e-02 1.201920658349990845e-01 -1.017723158001899719e-01 1.069977879524230957e-01 -3.883597999811172485e-02 1.561947315931320190e-01 3.175779581069946289e-01 1.935249939560890198e-02 7.141049951314926147e-02 -9.890647977590560913e-02 1.135534495115280151e-01 -7.304025441408157349e-02 -7.083510514348745346e-03 2.024476602673530579e-02 1.071077138185501099e-01 -4.205925390124320984e-02 3.336319699883460999e-02 3.757334873080253601e-02 -1.144146313890814781e-03 -1.413494646549224854e-01 1.302561163902282715e-01 -5.341942608356475830e-02 -4.248693585395812988e-02 -3.778965398669242859e-02 1.649283245205879211e-02 -2.467461116611957550e-02 -4.782746732234954834e-02 -6.046939641237258911e-02 4.108057543635368347e-02 -9.553729742765426636e-02 6.080178916454315186e-02 3.571099042892456055e-02 1.238030865788459778e-01 2.202829346060752869e-02 8.784079551696777344e-02 -6.668294966220855713e-02 -9.391366690397262573e-02 -3.114185854792594910e-02 8.705163002014160156e-02 2.871425449848175049e-02 -1.941026151180267334e-01 -1.347358077764511108e-01 7.403667271137237549e-02 -7.618489116430282593e-02 -8.059249259531497955e-03 2.196435034275054932e-01 -1.172330752015113831e-01 -1.642024666070938110e-01 -5.128647387027740479e-02 9.945017844438552856e-02 -1.447258293628692627e-01 8.428701013326644897e-02 1.145567521452903748e-01 4.520260542631149292e-02 4.812321439385414124e-02 -8.000418543815612793e-02 -6.824818439781665802e-03 5.780826881527900696e-02 -1.066013053059577942e-01 1.415917277336120605e-01 1.503293961286544800e-01 1.335361748933792114e-01 -8.870241232216358185e-03 -1.474661100655794144e-02 -3.017548238858580589e-03 -1.293897330760955811e-01 1.365179121494293213e-01 -7.559382170438766479e-02 -1.424278318881988525e-01 9.200114011764526367e-02 1.603475585579872131e-02 1.739059388637542725e-01 -9.521611779928207397e-02 -5.594273284077644348e-02 -1.146774925291538239e-02 3.094979748129844666e-02 -3.943919762969017029e-02 -1.039070338010787964e-01 1.274290829896926880e-01 7.905564457178115845e-02 6.232525035738945007e-02 -2.993082813918590546e-02 2.551693283021450043e-02 1.011829972267150879e-01 3.530748933553695679e-02 -4.369889199733734131e-02 1.506874412298202515e-01 -5.450801458209753036e-03 -1.607726886868476868e-02 -4.877816140651702881e-02 2.040680199861526489e-01 -8.542139083147048950e-02 5.494071170687675476e-02 1.195842027664184570e-01 3.371988981962203979e-02 1.891652345657348633e-01 2.050937712192535400e-01 4.458205401897430420e-02 -6.979876011610031128e-02 1.649818569421768188e-01
1.185317337512969971e-01 1.813744194805622101e-02 1.229689717292785645e-01 1.529582887887954712e-01 -6.157975643873214722e-02 6.121030077338218689e-02 1.770242452621459961e-01 -1.238622441887855530e-01 -1.189395561814308167e-01 -1.271815896034240723e-01 -1.221319139003753662e-01 8.030715584754943848e-02 -3.955252096056938171e-02 1.364421248435974121e-01 1.256157457828521729e-01 7.121217995882034302e-02 -1.427899897098541260e-01 4.985493421554565430e-02 1.910082250833511353e-01 2.360183298587799072e-01 1.449234485626220703e-01 -1.094280704855918884e-01 -6.581541150808334351e-02 1.215198338031768799e-01 7.813789881765842438e-03 -2.749325633049011230e-01 -1.155393943190574646e-01 1.807944625616073608e-01 1.270039975643157959e-01 -2.756293416023254395e-01 1.225776299834251404e-01 -3.444913774728775024e-03 -1.114584431052207947e-01 -3.349175676703453064e-02 1.664383262395858765e-01 3.018234968185424805e-01 8.269423618912696838e-03 9.126348048448562622e-02 -7.710717618465423584e-02 1.757472380995750427e-02 -1.556545309722423553e-02 5.052641406655311584e-02 1.009470131248235703e-02 1.240012142807245255e-02 9.518275037407875061e-03 8.362241089344024658e-02 -1.480127125978469849e-01 1.441508531570434570e-01 1.481537967920303345e-01 3.257917761802673340e-01 8.530243486166000366e-02 -1.122751235961914062e-01 -1.608768105506896973e-01 1.783033907413482666e-01 1.413011103868484497e-01 -9.552124887704849243e-02 -1.047507971525192261e-01 -7.528132945299148560e-02 1.080255880951881409e-01 -5.487571470439434052e-03 8.720543235540390015e-03 1.286262869834899902e-01 2.710777521133422852e-01 4.440928623080253601e-02 6.065095588564872742e-02 -7.187491655349731445e-02 7.113004475831985474e-02 5.018921196460723877e-02 -2.146997451782226562e-01 8.480509370565414429e-02 1.962653249502182007e-01 -5.289215222001075745e-02 1.184278875589370728e-01 4.273550584912300110e-02 5.746111273765563965e-02 8.895745873451232910e-02 1.156764011830091476e-02 1.413175612688064575e-01 5.832373350858688354e-02 -1.698912233114242554e-01 1.266916841268539429e-01 5.389178171753883362e-03 9.614524431526660919e-03 6.635121256113052368e-02 -1.176948770880699158e-01 9.288503229618072510e-02 7.241961359977722168e-02 1.749266311526298523e-02 1.370004713535308838e-01 1.847765147686004639e-01 -3.841266781091690063e-02 -1.479583531618118286e-01 -6.981761753559112549e-02 -1.136055216193199158e-01 8.289918303489685059e-02 1.346774101257324219e-01 1.133208051323890686e-01 -8.814833126962184906e-03 -2.944395504891872406e-02 8.311875164508819580e-03 -7.385954260826110840e-02 -4.551789537072181702e-02 4.662169888615608215e-02 -8.190723508596420288e-02 -1.327551528811454773e-02 1.016975380480289459e-02 -1.341054141521453857e-01 -1.384003758430480957e-01 -3.970529884099960327e-03 3.430894911289215088e-01 1.591695286333560944e-02 2.265661209821701050e-02 -9.423258155584335327e-02 -6.457579135894775391e-02 -9.550818800926208496e-02 -7.918167114257812500e-02 -1.395718939602375031e-02 -7.351806759834289551e-02 5.450354143977165222e-02 -3.436948060989379883e-01
-8.734049275517463684e-03 2.026005685329437256e-01 -1.263720691204071045e-01 2.061602100729942322e-02 -3.695786371827125549e-02 4.744635149836540222e-02 6.799222901463508606e-03 3.662828356027603149e-02 9.680669754743576050e-03 -4.001789912581443787e-02 1.870416402816772461e-01 -3.195098042488098145e-02 1.207736730575561523e-01 8.369435369968414307e-02 2.012648582458496094e-01 -2.573457546532154083e-02 2.742645144462585449e-01 -4.360402375459671021e-02 1.942580449394881725e-03 -2.936118468642234802e-02 7.317422330379486084e-02 1.644472628831863403e-01 1.048696935176849365e-01 7.300523668527603149e-02 2.388434708118438721e-01 4.100099578499794006e-02 3.781163394451141357e-01 1.250217948108911514e-02 -1.196147054433822632e-01 -1.620197854936122894e-02 1.670688688755035400e-01 1.897677928209304810e-01 3.358377888798713684e-02 -1.891282881842926145e-04 -2.508185058832168579e-02 1.582661829888820648e-02 3.159688115119934082e-01 -7.191393990069627762e-03 3.703068196773529053e-02 -2.279844693839550018e-02 7.604306936264038086e-02 1.813887357711791992e-01 6.612284481525421143e-02 -8.847382664680480957e-02 1.109887138009071350e-01 4.129627253860235214e-03 -3.354952856898307800e-02 9.957724809646606445e-02 -2.583742886781692505e-02 -1.316576004028320312e-01 7.250393182039260864e-02 4.444380849599838257e-02 1.147342696785926819e-01 -1.448712050914764404e-01 5.330628529191017151e-02 9.021489322185516357e-02 -3.748860210180282593e-02 5.465931817889213562e-02 2.046477943658828735e-01 -5.342122539877891541e-02 -2.358934469521045685e-02 -2.022085040807723999e-01 -1.386282499879598618e-03 3.862219676375389099e-02 2.003124216571450233e-03 2.106919586658477783e-01 -1.795122623443603516e-01 -2.582936547696590424e-03 -8.611453697085380554e-03 -1.124959290027618408e-01 8.944796770811080933e-02 -4.059786722064018250e-02 5.714477598667144775e-02 -1.414223294705152512e-02 3.539887256920337677e-03 1.416837424039840698e-01 -8.046114444732666016e-02 -1.527402643114328384e-02 -8.645590394735336304e-02 -6.880068778991699219e-02 1.056582480669021606e-01 2.557891905307769775e-01 -3.007387369871139526e-02 8.142098784446716309e-02 -3.383693397045135498e-01 1.335273087024688721e-01 -2.166107855737209320e-02 -1.439647469669580460e-02 8.722330629825592041e-02 -5.683591216802597046e-02 1.106263622641563416e-01 -1.931373924016952515e-01 -8.931022137403488159e-02 1.835564896464347839e-02 -1.430506631731987000e-02 -8.150291442871093750e-02 9.960772097110748291e-02 1.875060843303799629e-03 2.242296487092971802e-01 6.964065134525299072e-02 1.734266281127929688e-01 -8.399724960327148438e-02 1.485851854085922241e-01 -8.943299949169158936e-02 8.551252633333206177e-02 4.469177499413490295e-02 2.140848487615585327e-01 1.218604221940040588e-01 -5.086021125316619873e-02 -4.488952085375785828e-02 1.937897689640522003e-02 6.882482767105102539e-02 1.477023959159851074e-01 -6.171085685491561890e-02 1.736104339361190796e-01 2.069163918495178223e-01 2.768114805221557617e-01 1.785461306571960449e-01 2.244544401764869690e-02 1.107979658991098404e-02
7.658117683604359627e-04 -7.180822640657424927e-02 -5.232517048716545105e-02 5.806047841906547546e-02 9.361840039491653442e-02 1.785564273595809937e-01 3.886085748672485352e-02 -5.551262199878692627e-02 1.666697859764099121e-01 1.237310282886028290e-02 1.938600391149520874e-01 8.951583504676818848e-02 1.079064682126045227e-01 -6.326346844434738159e-02 -3.629117831587791443e-02 -4.412097111344337463e-02 2.389710098505020142e-01 -9.101311862468719482e-02 6.991810351610183716e-02 -2.750915288925170898e-01 -9.609161317348480225e-02 1.283362805843353271e-01 9.256511926651000977e-02 4.811754822731018066e-02 4.969972744584083557e-02 1.109430659562349319e-02 4.854291081428527832e-01 -8.396466076374053955e-02 -1.718761324882507324e-01 1.352300047874450684e-01 -4.257197678089141846e-02 2.138070911169052124e-01 1.243000999093055725e-01 4.849442280828952789e-03 -4.636786505579948425e-02 4.635627567768096924e-02 3.365528210997581482e-02 7.529695332050323486e-02 5.698879808187484741e-02 8.086984604597091675e-02 2.485238201916217804e-02 -9.765447676181793213e-02 5.189071223139762878e-02 -8.067335002124309540e-03 -1.606459617614746094e-01 -5.334762483835220337e-02 -5.386216938495635986e-02 -7.033926993608474731e-02 2.888838946819305420e-02 1.800198853015899658e-02 1.168472915887832642e-01 2.294731289148330688e-01 2.417532354593276978e-01 -9.320322424173355103e-02 1.245191171765327454e-01 -4.083208739757537842e-02 -4.828060511499643326e-03 -2.992354892194271088e-02 -4.758251085877418518e-02 -3.681990131735801697e-02 2.224319055676460266e-02 -1.122912615537643433e-01 1.598046422004699707e-01 2.702613733708858490e-02 -9.225881844758987427e-02 -8.366049081087112427e-02 8.033645898103713989e-02 -4.995584487915039062e-02 -1.540719717741012573e-01 -8.155780285596847534e-02 -1.591900289058685303e-01 -8.268718421459197998e-02 9.964083880186080933e-02 -6.889279931783676147e-02 7.266557961702346802e-02 -2.584364823997020721e-02 -9.415810927748680115e-03 4.841177910566329956e-02 1.268963664770126343e-01 -1.244671195745468140e-01 8.864627778530120850e-02 6.902861595153808594e-02 -2.058388479053974152e-02 3.689910843968391418e-02 -1.396551877260208130e-01 -3.470695391297340393e-02 -5.133316665887832642e-02 -1.794985234737396240e-01 -8.080169558525085449e-02 5.474326759576797485e-02 -1.109826639294624329e-01 1.067744195461273193e-01 -5.470390617847442627e-02 -3.553893789649009705e-02 1.325470358133316040e-01 6.002874579280614853e-03 -7.062432169914245605e-02 -9.023705869913101196e-02 7.503672689199447632e-02 -2.735555730760097504e-02 7.866045087575912476e-02 -1.637544296681880951e-02 1.499625737778842449e-03 -1.025481894612312317e-01 -8.236131817102432251e-02 -3.514448553323745728e-02 2.099277824163436890e-01 2.766559273004531860e-02 7.972075045108795166e-02 8.690601587295532227e-02 1.214130073785781860e-01 5.001398921012878418e-02 8.380226045846939087e-02 4.724477604031562805e-02 -9.158377349376678467e-02 3.235923349857330322e-01 1.443398296833038330e-01 2.342918701469898224e-02 7.438204437494277954e-02 -2.834345586597919464e-02
4.864512011408805847e-02 -1.497909277677536011e-01 -2.030841857194900513e-01 -1.589527428150177002e-01 7.556301355361938477e-02 -9.251172095537185669e-02 -1.659558862447738647e-01 2.880890481173992157e-02 -3.267327845096588135e-01 -8.859557658433914185e-02 -3.395765721797943115e-01 -1.178326681256294250e-01 1.620323309907689691e-04 -1.353448778390884399e-01 -2.384721860289573669e-02 -1.269192099571228027e-01 -1.341470777988433838e-01 -1.131184473633766174e-01 -2.830540295690298080e-03 1.418507378548383713e-02 -2.129841744899749756e-01 -1.057746708393096924e-01 -1.425268780440092087e-02 -1.037257462739944458e-01 -1.817155778408050537e-01 -2.366125285625457764e-01 -1.797311753034591675e-01 4.080035723745822906e-03 -8.136788010597229004e-02 -2.175819873809814453e-02 -6.058461498469114304e-03 -2.494609355926513672e-01 -9.433808177709579468e-02 3.745332732796669006e-02 -1.130097806453704834e-01 6.116266176104545593e-02 -9.560094773769378662e-02 3.231118991971015930e-02 -6.944431364536285400e-02 -3.409490361809730530e-02 -1.623039990663528442e-01 2.646913565695285797e-02 -6.361281126737594604e-02 -5.794547125697135925e-02 -8.500937372446060181e-02 1.137094125151634216e-01 6.229173019528388977e-02 -1.759621351957321167e-01 1.193017736077308655e-01 6.966530531644821167e-02 -2.888856921344995499e-03 -2.493393123149871826e-01 6.856443732976913452e-02 -3.336782753467559814e-02 -9.259595535695552826e-03 -7.603232748806476593e-03 -5.767222493886947632e-02 2.450657077133655548e-03 -1.246486902236938477e-01 -1.043187826871871948e-01 1.457437425851821899e-01 3.620523586869239807e-02 -2.349166870117187500e-01 -9.309419244527816772e-02 1.331573575735092163e-01 1.231565326452255249e-02 5.311938002705574036e-02 4.285485297441482544e-02 5.364328995347023010e-02 3.004280617460608482e-03 2.449203655123710632e-02 1.421294957399368286e-01 9.060594439506530762e-02 1.083756089210510254e-01 -4.294928908348083496e-02 6.033787503838539124e-02 -1.370052807033061981e-02 -1.359167508780956268e-02 -1.824220269918441772e-01 -2.176537178456783295e-03 -1.694978587329387665e-02 -8.736723661422729492e-02 -2.924035303294658661e-03 -7.077199220657348633e-02 1.160102039575576782e-01 -1.087848842144012451e-01 -1.113577047362923622e-03 2.084592543542385101e-02 -9.749154001474380493e-02 1.826424300670623779e-01 -4.367318004369735718e-02 3.422529995441436768e-02 -1.187206208705902100e-01 7.506740093231201172e-02 -5.916221812367439270e-02 -1.830166727304458618e-01 4.628346487879753113e-02 1.211996376514434814e-01 -4.467866718769073486e-01 -8.617863804101943970e-02 -2.948459982872009277e-01 -5.675212014466524124e-03 -6.593807041645050049e-02 -1.477245390415191650e-01 -1.920621991157531738e-01 4.380891472101211548e-02 -1.630969531834125519e-02 3.992576093878597021e-04 -4.093787074089050293e-02 -1.721405535936355591e-01 -4.814629629254341125e-02 1.333513855934143066e-01 -3.459222987294197083e-02 -8.536477573215961456e-03 1.207245960831642151e-01 -7.289841026067733765e-02 -2.568085491657257080e-01 3.568662703037261963e-02 -1.254200190305709839e-01 -2.131043225526809692e-01
1.028091385960578918e-01 -6.845297291874885559e-03 6.707961112260818481e-02 1.390223503112792969e-01 -3.177145961672067642e-03 1.150723025202751160e-01 -3.712476417422294617e-02 1.342756673693656921e-02 -2.095658481121063232e-01 3.772525116801261902e-02 1.414039433002471924e-01 5.904584005475044250e-02 -1.180837452411651611e-01 1.551376432180404663e-01 1.698637157678604126e-01 5.622119829058647156e-02 3.496438562870025635e-01 6.710858643054962158e-02 2.525849640369415283e-01 1.464890986680984497e-01 8.428093045949935913e-02 -1.778527945280075073e-01 -7.244438678026199341e-02 9.784940630197525024e-02 1.096646264195442200e-01 1.686006039381027222e-01 1.625282764434814453e-01 1.176737472414970398e-01 -1.389783024787902832e-01 1.558088958263397217e-01 3.670181706547737122e-02 9.768655151128768921e-02 -4.284282773733139038e-02 1.417793929576873779e-01 -1.173364892601966858e-01 -1.377250254154205322e-01 -1.234868243336677551e-01 -1.479243189096450806e-01 3.255357593297958374e-02 -8.254746906459331512e-03 9.955009073019027710e-02 1.379675120115280151e-01 -3.743365779519081116e-02 7.143889367580413818e-02 1.144996285438537598e-01 1.045892294496297836e-02 5.656015127897262573e-02 1.527085602283477783e-01 2.771008014678955078e-02 -3.895324841141700745e-02 -5.984789133071899414e-02 -1.148086693137884140e-02 1.069292426109313965e-01 -3.578858822584152222e-02 -1.453591436147689819e-01 1.264259368181228638e-01 7.842973619699478149e-02 7.165322452783584595e-02 -6.609889119863510132e-02 2.319788932800292969e-02 -4.520848020911216736e-02 5.860753357410430908e-02 9.065196663141250610e-02 -7.526122033596038818e-02 -7.175014913082122803e-02 7.338488847017288208e-02 -9.997636824846267700e-02 4.979073069989681244e-03 1.419405341148376465e-01 -4.049099981784820557e-02 -1.798909008502960205e-01 -2.481429465115070343e-02 1.428817026317119598e-02 -2.041572146117687225e-02 -5.760814249515533447e-02 5.552801769226789474e-03 -7.320367544889450073e-02 2.284772694110870361e-02 -1.492291837930679321e-01 -4.571088403463363647e-02 -1.060745194554328918e-01 5.837175250053405762e-02 -2.691572532057762146e-02 -1.504553481936454773e-02 8.180335909128189087e-02 -3.259502351284027100e-02 8.807671815156936646e-02 -9.558569639921188354e-02 7.090336829423904419e-02 1.081041991710662842e-01 1.455219089984893799e-02 1.583839207887649536e-01 1.063328832387924194e-01 1.288118213415145874e-01 2.519108951091766357e-01 1.121840253472328186e-02 6.492052227258682251e-02 -7.384450733661651611e-02 2.319478839635848999e-01 -3.583890199661254883e-02 1.349615007638931274e-01 1.251483261585235596e-01 1.015820205211639404e-01 1.272392123937606812e-01 2.955792471766471863e-02 1.133533790707588196e-01 2.560277283191680908e-01 -1.659528352320194244e-02 1.025450006127357483e-01 1.200359389185905457e-01 1.028416529297828674e-01 2.747341990470886230e-02 -2.555885724723339081e-02 5.368114449083805084e-03 -5.507999658584594727e-02 2.283298969268798828e-01 9.521201997995376587e-02 2.473527379333972931e-02 1.631067097187042236e-01 3.439774736762046814e-02
9.145371615886688232e-02 5.783882737159729004e-02 -3.243156149983406067e-02 -8.199707418680191040e-02 7.654239237308502197e-02 8.741670846939086914e-02 8.010416477918624878e-02 1.621492654085159302e-01 1.464269608259201050e-01 -6.494416296482086182e-02 1.793144047260284424e-01 1.170495748519897461e-01 3.061022143810987473e-04 -9.137538820505142212e-02 1.385599374771118164e-02 -2.651849575340747833e-02 2.399458140134811401e-01 -1.473296135663986206e-01 4.185431171208620071e-03 1.033838167786598206e-01 -1.339543890208005905e-02 -1.017353963106870651e-02 5.984273552894592285e-02 -2.967302501201629639e-02 7.930478453636169434e-02 2.438287436962127686e-01 1.880082786083221436e-01 -1.283315755426883698e-02 5.755670368671417236e-02 1.131891086697578430e-01 4.506066441535949707e-02 1.833563596010208130e-01 3.558583185076713562e-02 -7.001338899135589600e-02 7.739731669425964355e-02 1.398558169603347778e-02 -7.568018510937690735e-03 2.527794055640697479e-02 -4.127292335033416748e-02 -1.254485696554183960e-01 -1.025469675660133362e-01 -1.560713052749633789e-01 1.417194306850433350e-01 4.598195105791091919e-02 -1.738231629133224487e-01 1.401831209659576416e-01 6.445460766553878784e-02 5.912963300943374634e-02 -1.667714864015579224e-01 -1.456883549690246582e-01 4.806114360690116882e-03 7.144808769226074219e-02 -1.374013125896453857e-01 -9.194272756576538086e-02 6.795246154069900513e-02 1.440175175666809082e-01 -1.449794415384531021e-02 2.030091173946857452e-02 1.559398472309112549e-01 -3.001035004854202271e-02 -8.955905586481094360e-02 -1.262746900320053101e-01 7.777076214551925659e-02 2.290157834067940712e-03 -2.721182629466056824e-02 1.665044873952865601e-01 5.624629557132720947e-03 4.159183427691459656e-02 -2.040973305702209473e-01 1.898563839495182037e-02 -2.217692695558071136e-02 -1.795452535152435303e-01 2.359104007482528687e-01 -1.434355229139328003e-01 -7.000534236431121826e-02 2.394275218248367310e-01 -9.258057922124862671e-03 -1.250736694782972336e-02 -2.225180389359593391e-03 3.150913491845130920e-02 -1.694596931338310242e-02 2.145039886236190796e-01 6.351453065872192383e-02 -2.021956741809844971e-01 -1.299333870410919189e-01 6.264618784189224243e-02 9.566330909729003906e-02 1.255454868078231812e-01 1.417534425854682922e-02 -4.743246361613273621e-02 1.691143587231636047e-02 2.415468730032444000e-02 8.772958815097808838e-02 1.769732236862182617e-01 1.595748215913772583e-01 1.052767783403396606e-01 1.225650757551193237e-01 -2.980075217783451080e-02 9.780067205429077148e-02 -5.297331884503364563e-02 2.168068140745162964e-01 9.729128330945968628e-02 8.510823547840118408e-02 -1.212280765175819397e-01 1.487577408552169800e-01 -3.494329517707228661e-03 2.716067135334014893e-01 6.263910979032516479e-02 3.619467839598655701e-02 -6.130701303482055664e-02 1.168301180005073547e-01 1.866454333066940308e-01 -1.254949569702148438e-01 -2.787662856280803680e-02 -1.130800172686576843e-01 1.956072002649307251e-01 1.379776149988174438e-01 -9.509883821010589600e-02 3.350755572319030762e-02 2.347122132778167725e-01
-5.355079099535942078e-02 6.501299887895584106e-02 -3.856976330280303955e-02 -1.853162795305252075e-02 1.558562815189361572e-01 1.644734591245651245e-01 -4.064202308654785156e-02 -1.496708113700151443e-02 -9.501420706510543823e-02 1.567882150411605835e-01 -2.069226801395416260e-01 3.640319406986236572e-02 -7.294356822967529297e-02 4.868866130709648132e-02 -1.734240353107452393e-01 -1.595925167202949524e-02 -2.730475366115570068e-01 -2.276394665241241455e-01 -4.123144224286079407e-02 4.333971533924341202e-03 -1.162756420671939850e-02 -1.172649338841438293e-01 -8.173607289791107178e-02 -3.204594552516937256e-02 -4.347399994730949402e-02 -2.061434090137481689e-01 -1.253107637166976929e-01 4.825055226683616638e-02 8.119916170835494995e-02 -7.784530520439147949e-02 -1.150012537837028503e-01 -2.881806809455156326e-03 3.314971551299095154e-02 2.278565615415573120e-02 9.578543901443481445e-02 1.500652451068162918e-02 -2.726156115531921387e-01 4.175684880465269089e-03 1.178537011146545410e-01 -1.614470630884170532e-01 -1.119442563503980637e-02 -1.544728726148605347e-01 3.267399966716766357e-02 4.324893653392791748e-02 -2.625354193150997162e-02 -1.061314791440963745e-01 -5.826276540756225586e-02 5.236561223864555359e-02 -2.628117566928267479e-03 9.702045470476150513e-02 4.008634760975837708e-02 -1.550584882497787476e-01 9.110906720161437988e-02 3.666135296225547791e-02 -1.470473855733871460e-01 -8.259914815425872803e-02 -8.350189030170440674e-02 -4.870548099279403687e-02 2.052855193614959717e-01 6.359030026942491531e-03 -1.270653158426284790e-01 8.973420411348342896e-02 -5.880555137991905212e-02 3.410446643829345703e-02 3.204318135976791382e-02 6.236306205391883850e-02 -1.040817722678184509e-01 1.522606164216995239e-01 -1.382376719266176224e-02 -3.824725374579429626e-02 -1.007188260555267334e-01 7.089348882436752319e-02 -3.489845246076583862e-02 1.172419115900993347e-01 7.845402508974075317e-02 -9.900040924549102783e-02 1.703921556472778320e-01 -3.293271362781524658e-02 -6.125798821449279785e-02 1.444264799356460571e-01 -3.763250261545181274e-02 -1.052719354629516602e-01 -9.557284414768218994e-02 1.697801500558853149e-01 -1.555461343377828598e-02 1.170111522078514099e-01 -1.661465913057327271e-01 -8.366052806377410889e-02 7.213196903467178345e-02 -3.154463693499565125e-02 1.755861379206180573e-02 -3.471232578158378601e-02 -1.824088841676712036e-01 -4.442980140447616577e-02 -4.216376692056655884e-02 8.830072358250617981e-03 -1.846905052661895752e-02 -9.986479766666889191e-03 5.647384095937013626e-04 9.995598345994949341e-03 -4.559824615716934204e-02 1.114177480340003967e-01 -6.572692096233367920e-02 -4.627264291048049927e-02 -1.201535165309906006e-01 2.692628093063831329e-02 -3.029768466949462891e-01 8.710710704326629639e-02 1.326667070388793945e-01 -1.177630573511123657e-02 -7.564720511436462402e-02 8.660270273685455322e-02 -1.134423688054084778e-01 -9.857095777988433838e-02 9.875018149614334106e-02 -2.281367331743240356e-01 -6.173443794250488281e-02 -3.958974778652191162e-02 -5.289952456951141357e-02 -2.151476740837097168e-01
8.600987493991851807e-02 -6.838651839643716812e-03 1.089743003249168396e-01 -2.575616911053657532e-02 3.550495952367782593e-02 1.086306720972061157e-01 -5.541285127401351929e-02 4.056227579712867737e-02 -5.408054590225219727e-02 2.602249756455421448e-02 3.448387682437896729e-01 -2.157025784254074097e-02 6.624002009630203247e-02 -1.023517251014709473e-01 -3.685881569981575012e-02 3.050648607313632965e-02 1.214650794863700867e-01 2.931408584117889404e-02 -9.611081331968307495e-02 3.233256563544273376e-02 2.046880125999450684e-02 8.981464803218841553e-02 2.183489650487899780e-01 -2.111231908202171326e-03 5.414438992738723755e-02 2.596935033798217773e-01 2.762604355812072754e-01 -2.979223057627677917e-02 -3.471230715513229370e-02 9.192262589931488037e-02 5.872900411486625671e-02 -3.851112350821495056e-02 1.970873624086380005e-01 -9.401515853824093938e-06 -1.205565314739942551e-02 1.854816824197769165e-02 -5.802554637193679810e-02 -2.839632704854011536e-02 8.825267851352691650e-02 -4.462800920009613037e-02 1.369876116514205933e-01 1.699756234884262085e-01 2.243491560220718384e-01 -4.801219329237937927e-02 7.942906767129898071e-02 1.028331890702247620e-01 5.313489213585853577e-02 1.049001887440681458e-01 -1.055995523929595947e-01 -6.825585663318634033e-02 1.174019277095794678e-01 9.926141798496246338e-02 -5.797464028000831604e-02 5.544525384902954102e-02 -5.245118867605924606e-03 2.587493881583213806e-02 -2.219505980610847473e-02 -7.265660911798477173e-02 -2.255469327792525291e-03 1.419867272488772869e-03 -3.574528917670249939e-02 -2.249497622251510620e-01 -6.316921114921569824e-02 1.202920079231262207e-01 -4.692018404603004456e-02 -6.011657416820526123e-02 6.421856582164764404e-02 1.349719166755676270e-01 1.236193552613258362e-01 -3.454578295350074768e-02 4.290542379021644592e-02 -1.321386694908142090e-01 1.395970880985260010e-01 -1.482156962156295776e-01 -9.293267875909805298e-02 9.673794265836477280e-04 -1.250438690185546875e-01 -1.230249032378196716e-01 2.214784622192382812e-01 1.060406565666198730e-01 5.764449015259742737e-02 6.188619416207075119e-03 -1.012222766876220703e-01 -1.060156151652336121e-01 -1.305254697799682617e-01 -6.501585245132446289e-02 3.485902398824691772e-02 -1.392223089933395386e-01 -1.113957446068525314e-02 1.918458193540573120e-01 4.532142728567123413e-02 1.616628468036651611e-01 9.763383865356445312e-02 3.355198353528976440e-02 9.975686669349670410e-02 2.451866716146469116e-01 6.212002038955688477e-02 1.155985891819000244e-01 2.116175293922424316e-01 -9.541643410921096802e-02 2.521906495094299316e-01 -6.861595809459686279e-02 -4.294623062014579773e-02 1.356696039438247681e-01 -1.445301622152328491e-02 1.150783374905586243e-01 2.861410975456237793e-01 5.959586799144744873e-02 7.099474966526031494e-02 1.015682891011238098e-01 1.017223373055458069e-01 4.581567645072937012e-02 8.579295873641967773e-02 3.407690674066543579e-02 2.865407168865203857e-01 1.796817034482955933e-01 3.737105131149291992e-01 1.880807615816593170e-02 2.488158643245697021e-03 6.195409595966339111e-02
-1.757966168224811554e-02 1.334728449583053589e-01 -7.191385328769683838e-02 4.568547382950782776e-02 -1.748929917812347412e-01 -1.584114581346511841e-01 -6.798267364501953125e-02 -6.908980011940002441e-02 -1.186119839549064636e-01 -6.889914721250534058e-02 -2.337793856859207153e-01 -7.128933817148208618e-02 -1.305932402610778809e-01 -4.284514859318733215e-02 -7.262191176414489746e-02 -1.077562756836414337e-02 -4.085038006305694580e-01 -2.274208217859268188e-01 -1.107856780290603638e-01 -2.940732240676879883e-02 -1.976215690374374390e-01 -1.878807693719863892e-01 -1.371289789676666260e-01 -2.169150300323963165e-02 6.106749922037124634e-02 -3.225578740239143372e-02 -3.324328660964965820e-01 3.842187346890568733e-03 -1.991995424032211304e-02 -2.829448580741882324e-01 6.003230344504117966e-03 -8.670499920845031738e-02 -3.794689103960990906e-02 2.587747760117053986e-02 2.609014138579368591e-02 -4.344070330262184143e-03 -2.423446439206600189e-02 -3.408253565430641174e-02 -1.565997675061225891e-02 -1.369451731443405151e-01 1.529871020466089249e-02 8.795467019081115723e-02 -5.808575823903083801e-02 1.684495247900485992e-03 -1.478505730628967285e-01 -6.334163993597030640e-02 -7.625410705804824829e-02 -1.074711903929710388e-01 3.707482665777206421e-02 5.985031649470329285e-02 2.977119572460651398e-02 -9.510532766580581665e-02 1.065727099776268005e-01 -1.018144772388041019e-03 -4.349409416317939758e-02 -2.816492319107055664e-01 1.555569469928741455e-01 -7.639435119926929474e-03 -1.234815735369920731e-02 -7.446137815713882446e-02 -3.009243868291378021e-02 2.389483600854873657e-01 4.649095609784126282e-02 -1.499202400445938110e-01 7.110629975795745850e-02 -7.112079113721847534e-02 9.641441702842712402e-02 2.684015035629272461e-02 -9.199859946966171265e-02 -1.040278300642967224e-01 5.624686181545257568e-02 -6.710648536682128906e-02 -5.755002424120903015e-02 -3.078444115817546844e-02 -5.389666929841041565e-02 -1.044452264904975891e-01 4.701181128621101379e-02 -2.368427813053131104e-01 1.378577798604965210e-01 -1.608863621950149536e-01 1.100971549749374390e-02 -1.874244362115859985e-01 1.142663657665252686e-01 4.474007990211248398e-03 1.169800311326980591e-01 -1.279549300670623779e-01 8.006951957941055298e-02 -1.330424100160598755e-02 -5.859576538205146790e-02 -1.238928586244583130e-01 6.690041720867156982e-02 5.590954795479774475e-03 4.443272203207015991e-02 -2.119434811174869537e-02 6.016869843006134033e-02 -1.046660840511322021e-01 -1.111423373222351074e-01 3.403709456324577332e-02 -5.456692352890968323e-02 1.078596338629722595e-02 -1.232614740729331970e-01 1.008181348443031311e-01 5.255538970232009888e-02 -6.933221966028213501e-02 5.937086418271064758e-02 -6.637031584978103638e-02 -2.736631594598293304e-02 -1.120616272091865540e-01 -1.424631178379058838e-01 -1.139181703329086304e-01 6.320150196552276611e-02 3.321351483464241028e-02 -4.185568168759346008e-02 -6.283434480428695679e-02 7.989858835935592651e-02 -1.096659600734710693e-01 -2.801152169704437256e-01 1.163530424237251282e-01 5.456104502081871033e-02 -1.359205991029739380e-01
-6.760939955711364746e-02 -4.422712326049804688e-02 2.298944443464279175e-02 3.175932506565004587e-04 -8.015561848878860474e-02 3.862043097615242004e-02 -7.904181629419326782e-02 2.141663432121276855e-02 -1.022529229521751404e-01 5.326214805245399475e-02 -1.744448691606521606e-01 -4.700856283307075500e-02 -2.253839373588562012e-01 8.416172862052917480e-02 1.848694533109664917e-01 3.923903219401836395e-03 -3.629854694008827209e-02 3.541725128889083862e-02 -1.561651974916458130e-01 -1.810571849346160889e-01 1.378343105316162109e-01 -1.296118497848510742e-01 3.449664637446403503e-02 -4.549064487218856812e-02 -5.436136201024055481e-02 2.174603492021560669e-01 1.505993455648422241e-01 5.534345284104347229e-02 -5.083666741847991943e-02 1.612361967563629150e-01 -1.608755141496658325e-01 -2.719731256365776062e-02 8.421450853347778320e-02 -1.490462720394134521e-01 -1.434817072004079819e-02 -1.305010542273521423e-02 -7.276156544685363770e-02 1.104647740721702576e-01 -1.843750774860382080e-01 1.020383536815643311e-01 -7.236091792583465576e-02 1.430686097592115402e-02 9.678085893392562866e-02 1.314089447259902954e-01 9.250618517398834229e-02 9.006422758102416992e-02 1.414711680263280869e-02 -2.370691159740090370e-03 -5.245554447174072266e-02 -7.553552836179733276e-02 1.397622097283601761e-02 -9.659939259290695190e-02 2.577131427824497223e-02 -1.890560053288936615e-02 -7.795042544603347778e-02 -4.181601479649543762e-02 3.831529617309570312e-02 -4.444779362529516220e-03 4.455456882715225220e-02 1.983142346143722534e-01 1.373429447412490845e-01 -1.775880344212055206e-02 -1.369784772396087646e-01 -1.264390051364898682e-01 1.221463009715080261e-01 -1.247689127922058105e-01 7.066099904477596283e-03 -8.856713026762008667e-02 1.649265885353088379e-01 4.019620269536972046e-02 -2.371369004249572754e-01 1.420921683311462402e-01 -1.664647758007049561e-01 -8.876523375511169434e-02 1.318557262420654297e-01 1.044657006859779358e-01 -2.088543921709060669e-01 -3.334641456604003906e-02 1.982046663761138916e-02 -9.653736650943756104e-02 4.290298372507095337e-02 -1.043801903724670410e-01 -1.437624245882034302e-01 -1.342030912637710571e-01 2.905446290969848633e-02 -9.540277719497680664e-02 -1.359453350305557251e-01 -2.666469477117061615e-02 -1.504976302385330200e-01 7.800528407096862793e-02 5.478039011359214783e-02 2.296761572360992432e-01 4.401632584631443024e-03 6.890969723463058472e-02 1.275409758090972900e-02 4.446657001972198486e-02 4.551810324192047119e-01 3.639217093586921692e-02 -3.978011012077331543e-02 2.606201171875000000e-01 9.393455088138580322e-02 1.388021856546401978e-01 2.177975922822952271e-01 2.551010344177484512e-03 1.927377283573150635e-02 1.677359491586685181e-01 -1.478830818086862564e-03 -5.683501437306404114e-02 1.543988436460494995e-01 -8.880245685577392578e-02 2.881176471710205078e-01 1.061353087425231934e-01 9.020398557186126709e-02 1.881629228591918945e-01 1.890393942594528198e-01 -6.497374270111322403e-03 3.342714160680770874e-02 2.994995936751365662e-02 -6.871211342513561249e-03 2.640093863010406494e-01
-2.243051864206790924e-02 1.030626893043518066e-01 8.861879259347915649e-02 1.199768017977476120e-02 9.141640737652778625e-03 -1.561459433287382126e-02 2.313810028135776520e-02 -7.765395939350128174e-02 1.531291753053665161e-01 1.889107227325439453e-01 -5.022852122783660889e-02 1.199135333299636841e-01 1.564718410372734070e-02 1.167318895459175110e-01 2.359090186655521393e-02 -1.712615229189395905e-02 1.970587857067584991e-02 4.117034003138542175e-02 -5.002751201391220093e-02 1.060523390769958496e-01 1.213917285203933716e-01 -1.533686071634292603e-01 -7.210581749677658081e-02 -3.286207467317581177e-02 1.264657676219940186e-01 -8.742196857929229736e-02 -1.283142715692520142e-01 8.020677417516708374e-02 -3.635098692029714584e-03 6.899024546146392822e-02 1.306552886962890625e-01 -5.347336828708648682e-02 -1.525469124317169189e-01 1.112478300929069519e-01 -1.604410707950592041e-01 1.637139730155467987e-02 8.552564680576324463e-02 1.301186233758926392e-01 -6.093643978238105774e-02 8.316744118928909302e-02 -2.743889205157756805e-02 -9.653765708208084106e-02 9.948659688234329224e-02 3.563221916556358337e-02 -1.258355379104614258e-02 2.447723597288131714e-01 3.473317623138427734e-02 -3.307428909465670586e-03 1.595940142869949341e-01 3.436659276485443115e-02 2.077350914478302002e-01 -2.430777996778488159e-02 -1.374348998069763184e-01 1.139462888240814209e-01 -7.017157226800918579e-02 -1.466595530509948730e-01 8.067262917757034302e-02 7.962007075548171997e-02 1.657939404249191284e-01 -3.861917555332183838e-02 3.170821582898497581e-04 -5.130625143647193909e-02 9.572269022464752197e-02 9.066616743803024292e-02 -4.673220217227935791e-02 -9.775771200656890869e-02 9.145009331405162811e-03 -1.258228123188018799e-01 -1.804284006357192993e-01 -1.364858597517013550e-01 -3.402750939130783081e-02 1.357627063989639282e-01 7.938987761735916138e-02 -7.266797870397567749e-02 1.553776711225509644e-01 7.240485399961471558e-02 1.888952553272247314e-01 5.425083264708518982e-02 -7.694187760353088379e-02 -1.068354174494743347e-01 3.067575767636299133e-02 -1.152708232402801514e-01 1.973463296890258789e-01 4.970266669988632202e-02 9.596081078052520752e-02 2.023487584665417671e-03 7.420919369906187057e-03 -1.230815872550010681e-01 2.862521708011627197e-01 -1.397597342729568481e-01 6.366217881441116333e-02 8.904555439949035645e-02 -5.491416528820991516e-02 -1.170254722237586975e-01 7.106123119592666626e-02 1.490138322114944458e-01 1.126501709222793579e-01 5.472165718674659729e-02 7.778103649616241455e-02 -9.457928687334060669e-02 -8.886269479990005493e-02 -3.622136265039443970e-02 4.819047078490257263e-02 1.735831350088119507e-01 4.118714854121208191e-02 -9.402856230735778809e-02 2.547203563153743744e-03 1.518481969833374023e-02 -3.169807419180870056e-02 2.176544070243835449e-01 -1.646982431411743164e-01 -3.326872538309544325e-04 4.781272262334823608e-02 -3.556843101978302002e-02 1.375387907028198242e-01 -8.778228610754013062e-02 -9.213265031576156616e-02 -9.380370378494262695e-03 2.798998355865478516e-02 -1.540815383195877075e-01
1.563819050788879395e-01 1.321310177445411682e-02 4.010250419378280640e-02 -1.559336781501770020e-01 -6.941706687211990356e-02 -3.045740537345409393e-02 -4.430327937006950378e-02 5.851437523961067200e-02 -1.062113866209983826e-01 1.885393075644969940e-02 2.174141444265842438e-02 7.663964480161666870e-02 -1.807509660720825195e-01 -9.204868227243423462e-02 -9.401414543390274048e-03 -1.188326776027679443e-01 -7.606863975524902344e-02 -3.940438851714134216e-02 -8.667469024658203125e-02 -1.738102287054061890e-01 1.732514798641204834e-01 -2.473196201026439667e-02 -2.833243645727634430e-02 -1.796700991690158844e-03 -7.495962083339691162e-02 -2.199555933475494385e-01 -2.838833928108215332e-01 1.649394184350967407e-01 -2.054338902235031128e-02 -1.340172737836837769e-01 2.876750752329826355e-02 -1.728400588035583496e-01 -4.387228935956954956e-02 4.318154230713844299e-02 -4.334355518221855164e-02 -9.564412385225296021e-02 -8.931849151849746704e-02 4.919652827084064484e-03 6.617115437984466553e-02 8.369736373424530029e-03 -1.799609661102294922e-01 1.777945784851908684e-03 4.066049307584762573e-02 1.842878609895706177e-01 2.061656862497329712e-02 1.774482429027557373e-02 1.857134103775024414e-01 -2.862387709319591522e-02 1.709667220711708069e-02 -3.797164559364318848e-02 -1.788952201604843140e-02 -1.839524358510971069e-01 -4.659658297896385193e-02 -3.675029799342155457e-02 -1.469394564628601074e-01 -8.556362241506576538e-02 -1.274653673171997070e-01 -1.455633938312530518e-01 -8.399105072021484375e-02 -1.391139905899763107e-02 1.668623387813568115e-01 2.342309355735778809e-01 2.053743042051792145e-02 7.940375059843063354e-02 9.595368802547454834e-02 6.913021206855773926e-03 1.043488308787345886e-01 -7.588213682174682617e-02 -4.792979732155799866e-02 -1.197515502572059631e-01 4.084413126111030579e-02 -7.813353836536407471e-02 -1.536041945219039917e-01 -9.070931933820247650e-03 5.366244539618492126e-02 -2.755454368889331818e-02 1.070881783962249756e-01 -1.063241735100746155e-01 1.965096686035394669e-03 7.394970208406448364e-02 2.289200946688652039e-02 -1.716388761997222900e-01 -1.807970404624938965e-01 -1.547525916248559952e-02 -1.328416541218757629e-02 -1.698502600193023682e-01 -6.465961784124374390e-02 -1.409650966525077820e-02 -6.695767492055892944e-02 -1.239318177103996277e-01 4.561425652354955673e-03 -1.334282308816909790e-01 4.372477158904075623e-02 5.524503067135810852e-02 -6.363876163959503174e-02 -6.365231424570083618e-02 -1.158087849617004395e-01 -1.525403559207916260e-01 -1.037336587905883789e-01 1.685388684272766113e-01 -2.385089695453643799e-01 -2.773350290954113007e-02 -5.994748324155807495e-03 -8.640221506357192993e-02 -1.592338383197784424e-01 -6.025974173098802567e-03 -1.528190225362777710e-01 6.968422979116439819e-02 -2.797939628362655640e-02 1.495963186025619507e-01 2.429127506911754608e-02 5.749650672078132629e-02 7.104484736919403076e-02 -1.942645013332366943e-01 -5.529857426881790161e-02 -1.800914704799652100e-01 -3.593821227550506592e-01 1.480290945619344711e-02 -1.789247691631317139e-01 -1.187077015638351440e-01
2.535555064678192139e-01 3.267455473542213440e-02 7.196442782878875732e-02 -1.876279711723327637e-02 1.047985404729843140e-01 -7.120279222726821899e-02 1.018720865249633789e-01 -9.539835900068283081e-02 2.235896438360214233e-01 3.437517210841178894e-02 3.162374198436737061e-01 -1.453435719013214111e-01 6.748221814632415771e-02 1.060048714280128479e-01 7.136932015419006348e-02 -6.659513711929321289e-02 1.233394593000411987e-01 -6.673521548509597778e-02 -5.380053073167800903e-02 1.986124366521835327e-01 1.185188516974449158e-01 6.490457803010940552e-02 -2.086767181754112244e-02 1.005521267652511597e-01 -1.093431338667869568e-01 2.978919446468353271e-01 3.077135086059570312e-01 8.343872427940368652e-02 -2.508717477321624756e-01 5.534373968839645386e-02 2.499160356819629669e-02 1.200810819864273071e-01 1.261222641915082932e-02 3.888800740242004395e-03 5.090003088116645813e-02 5.219504702836275101e-03 -2.317368239164352417e-02 -7.779749482870101929e-02 5.440258979797363281e-02 -3.617689013481140137e-02 -6.419594585895538330e-02 9.379139542579650879e-02 1.668281555175781250e-01 -1.798314303159713745e-01 -4.673484712839126587e-02 1.476275324821472168e-01 -1.016358807682991028e-01 1.435806900262832642e-01 1.397322416305541992e-01 9.162336587905883789e-02 3.269275650382041931e-02 1.398308426141738892e-01 -1.065052673220634460e-01 4.926201701164245605e-02 5.470197647809982300e-02 -9.345886111259460449e-02 2.889764122664928436e-02 1.501927971839904785e-01 -4.682227596640586853e-02 -2.281661145389080048e-02 4.498407244682312012e-02 -1.321083754301071167e-01 -1.912085711956024170e-01 3.065807186067104340e-02 -1.152426078915596008e-01 8.244960568845272064e-03 -4.775827378034591675e-02 -1.237442344427108765e-01 1.265380624681711197e-02 1.930988132953643799e-01 4.498320817947387695e-02 5.770790949463844299e-02 2.288405746221542358e-01 -8.918519318103790283e-02 -4.086009413003921509e-02 1.153528019785881042e-01 -9.124737232923507690e-02 1.092582941055297852e-01 -1.223488710820674896e-02 -3.521182807162404060e-03 4.075250029563903809e-02 5.222055315971374512e-02 7.266171276569366455e-02 1.353434622287750244e-01 -1.441774815320968628e-01 1.503269225358963013e-01 -9.524472802877426147e-02 -7.808031886816024780e-02 -6.141230091452598572e-02 -7.051065564155578613e-02 5.451134592294692993e-02 -1.905548013746738434e-02 -1.245302110910415649e-01 1.153056621551513672e-01 3.048802539706230164e-02 5.543118715286254883e-02 -2.304572165012359619e-01 -1.334573179483413696e-01 2.324131578207015991e-01 7.565069198608398438e-02 2.942949831485748291e-01 1.382293850183486938e-01 4.629287496209144592e-02 9.222131967544555664e-02 4.884200170636177063e-02 -1.039546430110931396e-01 1.593458652496337891e-01 3.281570971012115479e-02 6.161161139607429504e-02 1.256656646728515625e-01 1.202069744467735291e-01 -9.934515506029129028e-02 3.670679172500967979e-03 -8.088777959346771240e-02 -1.310898084193468094e-02 1.922475099563598633e-01 1.530183702707290649e-01 1.743827760219573975e-02 3.425193205475807190e-02 1.061927229166030884e-01
1.060736402869224548e-01 3.362259268760681152e-01 -5.735925585031509399e-02 1.390080526471138000e-02 -1.556497365236282349e-01 -1.333256252110004425e-02 9.355839341878890991e-02 -1.526431832462549210e-02 9.773428738117218018e-02 2.769527025520801544e-02 2.092179358005523682e-01 -1.308847516775131226e-01 8.272965252399444580e-02 -1.234095245599746704e-01 -6.551121175289154053e-02 -2.591728270053863525e-01 2.764526307582855225e-01 -4.678817465901374817e-02 1.233332324773073196e-02 -4.805117845535278320e-02 -2.715601213276386261e-02 1.468214094638824463e-01 -1.106246784329414368e-01 -6.364846229553222656e-02 5.913949012756347656e-02 1.866062879562377930e-01 3.710678219795227051e-01 -2.415595948696136475e-02 -2.072694450616836548e-01 1.480068713426589966e-01 -7.534649968147277832e-02 4.331030324101448059e-02 5.212792381644248962e-02 -7.589763496071100235e-03 2.030520588159561157e-01 1.146431826055049896e-02 6.528402119874954224e-02 -7.805234938859939575e-02 -8.984794467687606812e-02 -1.306249480694532394e-02 2.512922883033752441e-02 -3.871160373091697693e-02 3.573334217071533203e-02 -7.947535812854766846e-02 9.176012873649597168e-02 7.521043065935373306e-03 -7.354506850242614746e-02 2.564110979437828064e-02 4.292537458240985870e-03 -5.607458576560020447e-02 2.116657420992851257e-02 1.236889883875846863e-01 8.254334330558776855e-02 -1.111523881554603577e-01 1.672806292772293091e-01 1.681514084339141846e-01 6.431517750024795532e-02 -1.616741716861724854e-01 1.328185759484767914e-02 -1.621922403573989868e-01 -7.600615918636322021e-02 -1.211945200338959694e-03 7.578698545694351196e-02 -3.464314341545104980e-02 -1.483176648616790771e-02 -7.366959750652313232e-02 8.893044292926788330e-02 1.343370825052261353e-01 -1.153253484517335892e-02 1.692815572023391724e-01 -7.970269769430160522e-02 5.481234937906265259e-02 5.558304954320192337e-03 3.797634690999984741e-02 -3.500695154070854187e-02 5.806950479745864868e-02 9.742573834955692291e-03 -1.234911307692527771e-01 -8.133716136217117310e-02 1.361160427331924438e-01 -2.480378001928329468e-01 -3.986668586730957031e-02 -9.230153262615203857e-02 -1.633101105690002441e-01 5.845654010772705078e-02 -3.015045821666717529e-02 3.867443650960922241e-02 1.874313689768314362e-02 -1.586134135723114014e-01 -5.506629496812820435e-02 -4.691441729664802551e-02 -8.514026552438735962e-02 -7.995337992906570435e-02 1.509251147508621216e-01 -8.500813692808151245e-02 9.825313836336135864e-02 4.524294659495353699e-02 4.753362387418746948e-02 3.789182379841804504e-02 1.135516762733459473e-01 4.817673563957214355e-02 -1.302126944065093994e-01 -8.588106185197830200e-02 2.741561271250247955e-02 -3.628361970186233521e-02 8.341258764266967773e-02 2.709014415740966797e-01 -1.266763638705015182e-02 -8.110470324754714966e-02 -2.018607556819915771e-01 -1.550338566303253174e-01 -9.002728387713432312e-03 9.636577218770980835e-02 6.741528864949941635e-03 -5.136859789490699768e-02 1.160830929875373840e-01 3.004834651947021484e-01 -1.044902652502059937e-01 6.150399520993232727e-02 4.751443397253751755e-03
