-2.200799790443852544e-04 -7.039450574666261673e-04 -3.215934848412871361e-04 5.420093293651007116e-05 -8.159315329976379871e-04 1.963938353583216667e-03 -6.455205148085951805e-04 -2.627901034429669380e-03 5.535116069950163364e-04 -5.914092980674467981e-05 -4.423025820869952440e-04 3.457234008237719536e-03 2.278709784150123596e-03 -1.662941765971481800e-03 7.004758226685225964e-04 -2.266017021611332893e-03 3.743133565876632929e-04 -3.799728117883205414e-03 -2.559193235356360674e-04 -6.929680967004969716e-05 5.397871136665344238e-04 3.230015980079770088e-03 7.149432203732430935e-04 3.309365129098296165e-04 3.203245112672448158e-03 -4.494401626288890839e-03 -5.141380243003368378e-04 -5.134463310241699219e-03 1.496298500569537282e-04 2.474436769261956215e-03 -1.198921600007452071e-04 -7.016451854724436998e-05 1.720349653623998165e-03 -1.245363819180056453e-04 -8.502564742229878902e-04 -4.059252096340060234e-04 -2.497586654499173164e-03 -2.100486541166901588e-03 -4.894947167485952377e-03 2.179662929847836494e-03 -3.676063846796751022e-03 -8.378056008950807154e-06 -8.835367043502628803e-05 -1.188848327728919685e-04 -4.411231784615665674e-04 4.857230931520462036e-03 1.935926149599254131e-03 -6.271312304306775331e-05 1.088404795154929161e-03 1.100305584259331226e-03 -1.931336941197514534e-03 3.473471151664853096e-03 -1.385808689519762993e-03 -2.009499585255980492e-03 -2.088716020807623863e-03 2.057778183370828629e-03 -4.250730387866497040e-03 -6.093349773436784744e-03 -1.323182135820388794e-03 -6.809448241256177425e-04 -9.200916392728686333e-04 5.504686385393142700e-03 3.314411034807562828e-03 -3.315825480967760086e-03 2.503694500774145126e-03 -2.421053126454353333e-03 -5.125665571540594101e-03 -8.324897848069667816e-03 -4.956611082889139652e-04 -3.665121737867593765e-03 1.917140791192650795e-03 5.373965948820114136e-03 -1.151268184185028076e-02 -7.499544881284236908e-03 1.480815117247402668e-03 -6.592805963009595871e-03 -1.770226750522851944e-03 -9.275623597204685211e-03 -8.512611966580152512e-04 3.028701292350888252e-03 -2.145658014342188835e-03 -5.399736575782299042e-03 6.189309642650187016e-04 -1.733316166792064905e-04 -1.467872643843293190e-03 -1.590260677039623260e-02 -1.320821326225996017e-02 -3.813914256170392036e-03 -1.322290301322937012e-02 2.810948062688112259e-03 -6.599354092031717300e-03 1.945124968187883496e-04 -6.168065010569989681e-04 9.281332022510468960e-04 -1.843289937824010849e-03 4.726732149720191956e-03 1.870364416390657425e-03 1.197412330657243729e-02 3.821690334007143974e-03 1.581347431056201458e-03 -1.766966190189123154e-03 3.787576220929622650e-03 -7.262337952852249146e-03 -2.606646157801151276e-04 3.157583705615252256e-05 9.460360743105411530e-03 -1.332865003496408463e-02 -1.200824882835149765e-02 4.315142054110765457e-03 2.946358639746904373e-03 1.237359130755066872e-03 6.447451189160346985e-03 -1.205264776945114136e-02 1.206342596560716629e-02 -6.337025202810764313e-03 1.184652326628565788e-03 -2.762996032834053040e-02 -9.905030019581317902e-03 9.796506492421030998e-04 -1.024794764816761017e-02 2.070410735905170441e-02 9.590820409357547760e-03 -1.168895419687032700e-02 1.764916442334651947e-02 1.608153618872165680e-02 5.857917945832014084e-03 3.606853133533149958e-04 -3.539928421378135681e-02 -1.143798232078552246e-02 -5.664905998855829239e-03 2.047850983217358589e-03 -8.582600392401218414e-03 -7.359371520578861237e-03 1.440854044631123543e-03 5.839021876454353333e-03 -1.102162804454565048e-02 -2.885306067764759064e-02 -2.863130765035748482e-03 1.903330162167549133e-02 -7.949353195726871490e-03 -1.580821350216865540e-02 -3.739274339750409126e-03 4.522935196291655302e-04 1.178943552076816559e-03 1.142042409628629684e-02 -8.873552829027175903e-02 -3.780550032388418913e-04 -2.915750816464424133e-02 6.900640204548835754e-03 9.124200791120529175e-03 -9.972915984690189362e-03 -6.089281756430864334e-03 1.684749731793999672e-03 -1.522873993963003159e-02 -9.599552489817142487e-03 2.573493402451276779e-03 -4.137290176004171371e-03 -3.768100403249263763e-03 -5.829936359077692032e-03 -1.031103730201721191e-02 -1.198029424995183945e-02 5.160192027688026428e-03 -9.991801343858242035e-03 -1.093390863388776779e-02 -1.070896629244089127e-02 -1.591875962913036346e-02 7.075553294271230698e-03 -1.282680314034223557e-02 6.948519148863852024e-05 -4.378650337457656860e-03 -1.050665508955717087e-03 -4.164505749940872192e-03 1.683187088929116726e-03 5.925771547481417656e-04 -9.654699824750423431e-03 -1.061384566128253937e-02 -1.515860948711633682e-02 -3.770929761230945587e-03 1.923514646477997303e-04 -9.689493104815483093e-03 -1.097647193819284439e-02 -1.578212977619841695e-04 -2.575307618826627731e-03 -1.978946663439273834e-02 -1.819289987906813622e-03 -7.985853590071201324e-04 -5.598677322268486023e-03 -8.442866615951061249e-03 -5.567048676311969757e-03 1.659864443354308605e-03 -1.241818419657647610e-03 2.464242279529571533e-03 5.627161357551813126e-03 7.791740354150533676e-03 8.306168019771575928e-03 -1.430439064279198647e-03 -6.518692709505558014e-03 -1.619620597921311855e-03 6.638540886342525482e-03 -9.666252881288528442e-03
2.255012514069676399e-03 2.297809114679694176e-03 -4.158546507824212313e-04 -1.240160781890153885e-04 3.976643783971667290e-04 -5.341484677046537399e-03 6.328163202852010727e-03 -1.558932824991643429e-03 -8.433907642029225826e-04 4.882042121607810259e-04 -6.797303794883191586e-04 -4.370342940092086792e-03 -3.372178878635168076e-03 6.229535210877656937e-03 -4.076487675774842501e-04 -3.679630463011562824e-04 1.228814711794257164e-03 -5.725692608393728733e-04 -9.170853445539250970e-05 -3.739437786862254143e-03 3.415398532524704933e-03 -6.966503802686929703e-03 7.572847884148359299e-03 1.811548369005322456e-03 -9.550517424941062927e-03 1.897204550914466381e-03 1.009668631013482809e-04 1.006854884326457977e-02 2.706813975237309933e-04 -2.392886206507682800e-03 7.484017987735569477e-04 2.347960136830806732e-03 -5.117518827319145203e-03 -1.945345866261050105e-04 3.104749775957316160e-04 7.549721281975507736e-03 2.376995980739593506e-03 6.873099482618272305e-04 -2.433490240946412086e-03 -4.114639014005661011e-03 -1.543389866128563881e-03 6.597954052267596126e-05 1.855829032137989998e-03 3.143575740978121758e-03 1.332239480689167976e-03 1.094127353280782700e-02 -2.805118681862950325e-03 -7.109208672773092985e-05 1.869800966233015060e-03 -2.874020254239439964e-03 4.167588893324136734e-03 -8.590781129896640778e-03 -2.870534626708831638e-05 -1.695859828032553196e-04 9.829656919464468956e-04 -4.856919869780540466e-03 6.563643924891948700e-03 -3.643669886514544487e-03 -2.360278507694602013e-03 2.654652576893568039e-03 -1.579149684403091669e-04 -6.637867540121078491e-03 -4.086445085704326630e-03 7.509540766477584839e-03 -2.217468339949846268e-03 -2.484541328158229589e-04 7.577081210911273956e-03 1.266306359320878983e-02 1.479822327382862568e-03 -8.807104080915451050e-03 -2.803870476782321930e-03 -8.481587283313274384e-03 -1.506507862359285355e-03 1.547794044017791748e-02 -1.209775824099779129e-02 2.983196871355175972e-03 5.551431677304208279e-04 1.487523969262838364e-02 -3.879352239891886711e-03 -2.357365563511848450e-03 3.256129275541752577e-04 -1.732766861096024513e-03 -5.084735807031393051e-03 -4.467120161280035973e-04 -6.157864117994904518e-04 -6.417104974389076233e-03 1.822815509513020515e-03 5.068378522992134094e-04 -3.724309382960200310e-03 -2.337099984288215637e-03 -2.499261870980262756e-03 -3.909680890501476824e-05 3.200856270268559456e-03 4.997576121240854263e-03 -4.721373785287141800e-03 4.383171908557415009e-03 -2.830027602612972260e-03 1.000062841922044754e-02 4.570765420794487000e-03 -3.998951986432075500e-03 1.214207895100116730e-02 1.243981253355741501e-02 3.482966870069503784e-02 -4.099167417734861374e-03 4.813258070498704910e-03 3.369056619703769684e-03 -4.849948920309543610e-03 -2.895713550969958305e-03 -1.483555999584496021e-03 7.212439086288213730e-03 6.336960475891828537e-03 -8.246294222772121429e-03 -9.561890619806945324e-04 -1.305678486824035645e-02 -4.852022510021924973e-03 5.328501109033823013e-03 2.917244471609592438e-02 -5.088381469249725342e-02 -1.245690416544675827e-02 -1.619407348334789276e-02 -1.493740128353238106e-03 -4.472539294511079788e-03 -8.538597263395786285e-03 -5.683351680636405945e-02 -8.688583038747310638e-03 -8.083526976406574249e-03 3.181190462782979012e-03 4.722677543759346008e-02 -2.609081007540225983e-02 -3.588386811316013336e-03 -1.448608003556728363e-03 -2.418747171759605408e-02 5.940626724623143673e-04 5.855088122189044952e-03 -2.866187319159507751e-02 -4.116211086511611938e-03 -1.862628944218158722e-02 3.323801793158054352e-03 4.059556405991315842e-03 -3.493980038911104202e-03 6.055558566004037857e-03 -1.508034300059080124e-03 -4.695494659245014191e-03 7.877095602452754974e-03 1.651984080672264099e-02 7.280746009200811386e-03 -8.876224048435688019e-03 3.239474445581436157e-02 1.831197552382946014e-02 -9.085072670131921768e-04 4.504951357375830412e-04 3.452453063800930977e-03 -7.882429286837577820e-03 -2.631118753924965858e-03 1.225912943482398987e-03 -5.352717824280261993e-03 6.080979015678167343e-03 1.002503995550796390e-04 -6.656382232904434204e-03 4.070658236742019653e-03 1.983222085982561111e-03 -2.088810084387660027e-03 -1.141632907092571259e-03 -2.605454297736287117e-03 -1.863647834397852421e-03 3.199793165549635887e-03 -1.613729400560259819e-04 7.214078679680824280e-03 2.096854150295257568e-03 -8.649310097098350525e-03 1.388989388942718506e-03 -6.919741164892911911e-03 6.052071694284677505e-03 2.892664633691310883e-03 -2.186432247981429100e-03 -3.095325519097968936e-05 -2.864008303731679916e-03 1.427135150879621506e-02 2.523189410567283630e-03 9.092122199945151806e-04 -1.928302692249417305e-03 3.203333821147680283e-03 -8.125999011099338531e-03 6.334378849714994431e-04 -3.529436187818646431e-03 8.957370184361934662e-03 -2.341330749914050102e-03 -8.833674713969230652e-03 1.339994138106703758e-03 -2.138674492016434669e-03 -3.124685492366552353e-03 -2.964957151561975479e-03 -7.194990757852792740e-04 -4.968841094523668289e-03 -1.716285943984985352e-03 1.924421451985836029e-02 2.692837151698768139e-04 -2.766395453363656998e-03 -4.342165775597095490e-03 1.776057481765747070e-02
3.853450063616037369e-03 2.512963023036718369e-03 -8.096627425402402878e-04 -1.441735221305862069e-04 4.681531281676143408e-04 -5.862738005816936493e-03 5.348857026547193527e-03 -3.568407846614718437e-03 -1.834422466345131397e-03 9.183144429698586464e-04 -4.188972525298595428e-04 -5.713372025638818741e-03 -3.356300061568617821e-03 8.319710381329059601e-03 -2.580788859631866217e-04 -3.139343752991408110e-04 1.197867677547037601e-03 -1.059573609381914139e-03 8.619385334895923734e-05 -4.502593073993921280e-03 3.203952917829155922e-03 -7.364247925579547882e-03 9.092085994780063629e-03 2.452145563438534737e-03 -1.073056086897850037e-02 2.982254140079021454e-03 1.369978126604110003e-04 1.314760744571685791e-02 5.953501095063984394e-04 -2.146871061995625496e-03 1.332811894826591015e-03 3.172474680468440056e-03 -4.981645382940769196e-03 -1.245119492523372173e-04 2.250486286357045174e-04 7.547481451183557510e-03 2.414826536551117897e-03 5.116091924719512463e-04 -1.984396483749151230e-03 -4.356398247182369232e-03 -1.407351694069802761e-03 1.725803158478811383e-04 2.228426281362771988e-03 4.468692932277917862e-03 9.191508288495242596e-04 9.320153854787349701e-03 -2.075852360576391220e-03 -1.111465971916913986e-04 2.462233649566769600e-03 -3.260740544646978378e-03 5.865561310201883316e-03 -8.247947320342063904e-03 -4.000590182840824127e-03 -1.838248135754838586e-04 9.941186290234327316e-04 -5.611132830381393433e-03 5.519782658666372299e-03 -5.863627884536981583e-03 -4.229875281453132629e-03 2.678655087947845459e-03 1.023482836899347603e-04 -8.981375955045223236e-03 -4.319307394325733185e-03 1.039697043597698212e-02 -1.953399041667580605e-03 1.944882751558907330e-05 6.789909210056066513e-03 4.354174248874187469e-03 1.913573476485908031e-03 -9.745955467224121094e-03 -4.473258741199970245e-03 -8.874641731381416321e-03 5.072812200523912907e-04 1.166186667978763580e-02 -1.305357739329338074e-02 3.736186772584915161e-03 6.876486586406826973e-04 5.195666570216417313e-03 -6.845551077276468277e-03 -1.890719402581453323e-03 1.967144431546330452e-03 -5.245169159024953842e-04 -4.981873556971549988e-03 -2.677907468751072884e-04 -9.472922538407146931e-04 -7.869624532759189606e-03 2.160007134079933167e-03 -1.923683521454222500e-05 -4.943786188960075378e-03 -3.456865670159459114e-03 -2.237243345007300377e-03 1.165154899354092777e-04 3.924061078578233719e-03 5.960050970315933228e-03 -2.731680171564221382e-03 2.362830797210335732e-03 -1.182141131721436977e-03 5.258327815681695938e-03 6.045485381036996841e-03 -4.660710692405700684e-03 1.601641252636909485e-02 8.020820096135139465e-03 -1.560384221374988556e-02 -4.113677423447370529e-03 5.147051997482776642e-03 -4.427425446920096874e-04 2.333871647715568542e-02 -1.017841324210166931e-02 5.396505817770957947e-03 6.548785604536533356e-03 6.730158813297748566e-03 -1.102798525243997574e-02 -2.381838625296950340e-03 -2.298079989850521088e-02 -5.211814306676387787e-03 5.510111805051565170e-03 -5.257022753357887268e-02 -1.387764606624841690e-02 -1.139268395490944386e-03 -1.946831122040748596e-02 1.491195894777774811e-02 -3.972809761762619019e-03 1.707603968679904938e-02 -1.117482502013444901e-02 -6.257967557758092880e-03 -1.332919951528310776e-02 3.427706658840179443e-03 1.724684983491897583e-02 7.711437344551086426e-02 -4.110249225050210953e-03 -3.444562898948788643e-03 6.505553610622882843e-03 -2.548625343479216099e-04 5.885043647140264511e-03 2.788672596216201782e-02 -7.497277855873107910e-02 -3.063753806054592133e-02 3.424560418352484703e-03 6.274980027228593826e-03 -3.989790100604295731e-03 -6.611986085772514343e-03 -2.133341738954186440e-03 -5.026480183005332947e-03 8.536019362509250641e-03 3.912334144115447998e-02 6.689333915710449219e-02 -3.883649129420518875e-03 -7.590456306934356689e-02 4.021053016185760498e-02 7.940173964016139507e-05 -1.673577120527625084e-03 2.264349255710840225e-03 -9.792542085051536560e-03 -2.316869795322418213e-03 5.237429868429899216e-03 -5.544414743781089783e-03 4.717100877314805984e-03 -5.094035877846181393e-04 -1.020141132175922394e-02 5.595988593995571136e-03 9.637214243412017822e-03 -1.510012801736593246e-02 4.723385907709598541e-03 1.522856205701828003e-02 1.396264764480292797e-03 7.321744691580533981e-03 -5.076879169791936874e-03 8.964119479060173035e-03 4.503157455474138260e-03 -1.920555345714092255e-02 -7.003960199654102325e-04 -6.580751854926347733e-03 8.179946802556514740e-03 3.869217121973633766e-03 -6.771227810531854630e-03 -9.098522132262587547e-04 -3.067129990085959435e-03 1.570837199687957764e-02 2.978907665237784386e-03 1.254126522690057755e-02 -5.329168867319822311e-03 4.370314069092273712e-03 -8.300055633299052715e-04 5.082327406853437424e-03 -8.926904760301113129e-03 1.020798366516828537e-02 9.410459548234939575e-03 -9.678111411631107330e-03 4.698439966887235641e-03 -4.817277658730745316e-03 -2.147315535694360733e-03 -6.151104811578989029e-03 2.869046526029706001e-03 3.221831750124692917e-03 1.014420390129089355e-02 1.544677093625068665e-02 -6.460493314079940319e-04 -2.002019667997956276e-03 -1.540689496323466301e-03 -7.156668230891227722e-03
-2.728757914155721664e-03 -4.603098786901682615e-04 1.279124640859663486e-03 2.664607891347259283e-04 -5.704815848730504513e-04 8.978742174804210663e-03 -8.010148070752620697e-03 1.204359461553394794e-03 2.662767656147480011e-04 -4.882063367404043674e-04 1.004994381219148636e-03 3.343952819705009460e-03 4.252829123288393021e-03 -5.729611963033676147e-03 1.018448616378009319e-03 5.183480097912251949e-04 -1.269484288059175014e-03 -2.112302463501691818e-04 1.769911477822461165e-06 5.259174853563308716e-03 -6.065785884857177734e-03 8.676458150148391724e-03 -7.639390882104635239e-03 -2.080621197819709778e-03 1.028634887188673019e-02 -1.049502636305987835e-03 -1.818762684706598520e-04 -7.956879213452339172e-03 -1.468022310291416943e-05 3.179664723575115204e-03 -4.082259547431021929e-04 -3.123922273516654968e-03 6.091488525271415710e-03 2.752162108663469553e-04 -1.180233899503946304e-03 -6.987109314650297165e-03 -2.660576021298766136e-03 -4.052870790474116802e-04 6.712953327223658562e-04 -2.801092341542243958e-04 -1.035703346133232117e-03 -2.673949638847261667e-04 -2.618498634546995163e-03 -4.196693189442157745e-03 -6.255327025428414345e-04 -1.225275825709104538e-02 4.176790826022624969e-03 8.673399133840575814e-05 -1.490863971412181854e-03 4.214427899569272995e-03 -3.161367960274219513e-03 1.165973860770463943e-02 3.484535496681928635e-03 2.318034530617296696e-04 -1.730729360133409500e-03 8.276605047285556793e-03 -9.805064648389816284e-03 2.150082262232899666e-03 1.008586375974118710e-03 -9.724363917484879494e-04 5.438695661723613739e-04 5.241279490292072296e-03 5.664483178406953812e-03 -4.088179208338260651e-03 3.022509161382913589e-03 3.326644655317068100e-04 -1.138022914528846741e-02 -1.688814349472522736e-02 -1.632426632568240166e-03 1.263492926955223083e-02 4.833547864109277725e-04 1.030442304909229279e-02 -9.349755011498928070e-03 -9.595847222954034805e-04 1.243592239916324615e-02 -7.114741019904613495e-04 -8.047077571973204613e-04 -1.027879957109689713e-02 1.615255023352801800e-03 3.130395431071519852e-03 7.457993342541158199e-04 -6.252963794395327568e-05 6.245666183531284332e-03 6.925769848749041557e-04 -7.779427687637507915e-04 2.989379921928048134e-03 1.498723402619361877e-03 3.679287910927087069e-04 7.279995828866958618e-03 -2.480709692463278770e-03 -1.761862076818943024e-04 -2.755044843070209026e-04 -3.933406900614500046e-03 -7.029064930975437164e-03 5.246452987194061279e-03 -4.358425270766019821e-03 6.364084314554929733e-03 -1.583542488515377045e-02 -3.839086974039673805e-03 5.570414941757917404e-03 -9.144120849668979645e-03 2.530679106712341309e-02 -1.677687652409076691e-02 4.355616867542266846e-03 -5.363011267036199570e-03 -7.577455136924982071e-03 -6.637083366513252258e-03 2.601795597001910210e-03 -2.681209880392998457e-04 -1.365362759679555893e-02 -6.379404105246067047e-03 7.479745429009199142e-03 -7.715270621702075005e-04 4.345308989286422729e-03 4.380858037620782852e-03 -5.360814742743968964e-03 -5.110877752304077148e-02 -6.935629993677139282e-03 7.637111004441976547e-03 1.803543977439403534e-02 1.976655051112174988e-02 5.803678184747695923e-03 -2.168885990977287292e-02 -8.639350533485412598e-03 7.862994447350502014e-03 7.609147112816572189e-03 -3.599127521738409996e-03 -8.434887230396270752e-02 -7.049635797739028931e-02 2.937388373538851738e-03 1.041448907926678658e-03 2.645035460591316223e-02 -1.454631565138697624e-03 -5.732044577598571777e-03 2.773699164390563965e-02 -3.619519295170903206e-03 -2.022031508386135101e-02 -2.492778236046433449e-03 -1.987788453698158264e-02 9.975927881896495819e-03 2.667915250640362501e-04 2.203256590291857719e-03 5.471398588269948959e-03 -9.857999160885810852e-03 4.772083833813667297e-02 8.247447200119495392e-03 4.308157134801149368e-03 5.621547996997833252e-02 -2.589507028460502625e-02 1.950009260326623917e-03 -3.406360046938061714e-03 6.957204546779394150e-03 4.161099437624216080e-03 1.794086769223213196e-02 5.975435487926006317e-03 8.530228398740291595e-03 -6.502282340079545975e-03 2.310912241227924824e-04 1.607463881373405457e-02 -7.327992934733629227e-03 -1.553014619275927544e-03 6.781106814742088318e-03 1.617515832185745239e-02 -9.393010288476943970e-03 1.028238981962203979e-02 -6.073839962482452393e-03 5.423097871243953705e-03 -9.474283084273338318e-03 -7.277665659785270691e-03 2.464384958148002625e-02 1.157640363089740276e-03 1.329302415251731873e-02 -7.406584918498992920e-03 -3.517156001180410385e-03 1.308113150298595428e-02 3.224105108529329300e-03 8.010192774236202240e-03 -1.509695500135421753e-02 -2.534229308366775513e-03 -1.430109608918428421e-03 1.671151258051395416e-02 -4.969235975295305252e-03 6.914392579346895218e-03 -1.300521474331617355e-02 6.752581335604190826e-03 -1.031329669058322906e-02 -1.031208131462335587e-02 1.563334837555885315e-02 -3.529608715325593948e-03 8.112374925985932350e-04 -7.935693138279020786e-04 8.370944298803806305e-03 -1.187842898070812225e-02 -9.746027179062366486e-03 3.609315172070637345e-05 -1.083645876497030258e-02 4.621723201125860214e-03 7.661268464289605618e-04 1.432506018318235874e-03 -2.147630415856838226e-02
-2.309984760358929634e-03 1.592205371707677841e-03 -4.493302199989557266e-03 -1.001513737719506025e-04 -3.874945468851365149e-05 -9.622276760637760162e-03 7.077929098159074783e-03 -1.503805629909038544e-03 1.410744269378483295e-03 -3.562658966984599829e-04 -1.158926635980606079e-03 7.365993224084377289e-03 -3.299631876870989799e-03 3.378494293428957462e-04 -3.518051235005259514e-04 -5.156681290827691555e-04 2.529869321733713150e-03 -3.636272158473730087e-03 -6.697258795611560345e-04 -4.241347778588533401e-03 9.094144217669963837e-03 -7.150734309107065201e-03 6.614089943468570709e-03 1.571016735397279263e-03 -4.249671008437871933e-03 -5.154341459274291992e-03 1.801912439987063408e-04 9.794337674975395203e-03 -2.663860213942825794e-04 -3.240547375753521919e-03 -9.093998814933001995e-04 1.565960585139691830e-03 -5.731687881052494049e-03 -4.876169550698250532e-04 2.394137671217322350e-03 4.415825009346008301e-03 -3.942456678487360477e-04 -1.075862906873226166e-03 -8.649190887808799744e-03 -5.938464892096817493e-04 5.411306396126747131e-03 1.336881541647017002e-04 8.204715559259057045e-04 1.763768959790468216e-03 3.134395927190780640e-03 1.699925214052200317e-02 -3.915675450116395950e-03 -2.740303352766204625e-05 2.091707196086645126e-03 -3.194076474756002426e-03 -4.233518149703741074e-03 -1.791263464838266373e-03 -9.172888530883938074e-05 -1.776793942553922534e-04 1.116630883188918233e-04 -8.593056350946426392e-03 4.701721481978893280e-03 -7.666640914976596832e-03 3.078486071899533272e-03 1.048620208166539669e-03 -1.316215959377586842e-03 7.897603325545787811e-03 -5.153612233698368073e-03 -4.567472264170646667e-03 -2.275355858728289604e-03 -7.818097947165369987e-04 1.189228426665067673e-02 1.623333431780338287e-02 -1.889325329102575779e-03 -6.129368208348751068e-03 3.789628390222787857e-03 -8.720519952476024628e-03 -9.078504517674446106e-03 3.672136459499597549e-03 -8.485092781484127045e-03 -7.632574997842311859e-03 6.593990256078541279e-04 3.773897187784314156e-03 -1.431766548193991184e-03 -3.779852529987692833e-03 -1.086071599274873734e-03 -1.575457490980625153e-02 -5.738691426813602448e-03 -1.216428820043802261e-03 5.402399692684412003e-03 -2.062978595495223999e-02 -8.071966469287872314e-03 -1.670584781095385551e-03 -7.234994322061538696e-03 -2.778056950774043798e-04 -1.064913929440081120e-03 2.999251475557684898e-03 1.976664410904049873e-03 4.189643543213605881e-03 -2.209840109571814537e-03 1.731069758534431458e-02 -6.631169933825731277e-03 1.042479462921619415e-02 6.589250173419713974e-03 -4.697463009506464005e-03 -6.655236356891691685e-04 -3.560150042176246643e-02 2.129870839416980743e-02 -4.439614247530698776e-03 4.271377343684434891e-03 1.283779460936784744e-02 -8.038687519729137421e-03 -9.008084423840045929e-03 -5.500943399965763092e-03 1.406455505639314651e-02 4.013251978904008865e-03 1.502895914018154144e-02 3.935491666197776794e-03 1.718650385737419128e-02 -4.477774724364280701e-03 5.444055888801813126e-03 4.407789558172225952e-02 3.312797099351882935e-02 -5.728560499846935272e-04 -6.782670505344867706e-03 -2.044123411178588867e-02 -7.007490377873182297e-03 3.227476775646209717e-02 1.644148863852024078e-02 -4.720844328403472900e-03 6.674222182482481003e-03 3.216477576643228531e-03 -1.953114382922649384e-02 1.838491111993789673e-02 -2.611295785754919052e-03 3.166059323120862246e-04 -1.197962556034326553e-02 4.203616175800561905e-03 4.799315705895423889e-03 -1.101805549114942551e-02 -4.268699884414672852e-02 -2.805417776107788086e-02 8.055913494899868965e-04 9.480323642492294312e-03 4.341591149568557739e-03 6.054467987269163132e-03 -8.084893226623535156e-03 -4.923366941511631012e-03 6.880289409309625626e-03 2.632114477455615997e-02 -1.187042705714702606e-02 1.182036288082599640e-02 -8.801047503948211670e-02 1.184305083006620407e-02 -3.800933016464114189e-03 -4.848447162657976151e-03 -7.787677459418773651e-03 -3.027556464076042175e-03 -2.214706875383853912e-02 -2.017551474273204803e-02 -8.682789281010627747e-03 7.301500067114830017e-03 -2.717964584007859230e-03 9.740184759721159935e-04 -1.882546395063400269e-02 -1.192825753241777420e-02 7.672308012843132019e-03 -1.424503047019243240e-02 -8.802308700978755951e-03 -5.938343703746795654e-03 -2.106794342398643494e-02 5.247676745057106018e-03 -2.967466716654598713e-04 -1.132500078529119492e-02 -1.608062721788883209e-02 1.149450428783893585e-02 -1.218533422797918320e-02 4.819009918719530106e-03 2.428983105346560478e-03 -1.842414401471614838e-02 -1.066360156983137131e-02 -7.321891374886035919e-03 1.338118221610784531e-02 8.857752545736730099e-04 -1.538094598799943924e-02 -1.916318945586681366e-02 3.207991365343332291e-03 -2.147689089179039001e-02 -4.490694962441921234e-03 3.324154531583189964e-03 6.128525361418724060e-03 -2.816044026985764503e-03 -6.960655096918344498e-03 -4.356260877102613449e-03 1.887182705104351044e-03 6.127608008682727814e-03 2.925499575212597847e-03 1.115355920046567917e-02 1.362139824777841568e-02 1.140319835394620895e-02 2.928776899352669716e-03 -1.122936699539422989e-02 -1.891816849820315838e-03 1.850386965088546276e-03 -2.102064713835716248e-02
-1.543071935884654522e-03 -2.451502950862050056e-03 7.215830555651336908e-05 2.107597829308360815e-04 -1.535414630779996514e-04 5.319256335496902466e-03 -9.246148169040679932e-03 -4.912741482257843018e-03 -2.206037985160946846e-03 5.824268446303904057e-04 9.053377434611320496e-04 5.006023682653903961e-03 3.972613252699375153e-03 -6.037623621523380280e-03 1.835421076975762844e-03 8.601751178503036499e-04 -1.304428442381322384e-03 -2.931291237473487854e-03 2.851885219570249319e-04 3.192132106050848961e-03 -4.179114941507577896e-03 9.017221629619598389e-03 -6.660751532763242722e-03 -5.385626573115587234e-04 6.386288441717624664e-03 -6.057850085198879242e-03 -2.828222932294011116e-04 -5.123603623360395432e-03 1.163753913715481758e-03 4.945803899317979813e-03 -4.639006510842591524e-04 -1.139323925599455833e-03 7.015600800514221191e-03 8.410806185565888882e-04 -2.012712502619251609e-04 -4.171377979218959808e-03 -4.560916684567928314e-03 1.556483795866370201e-03 1.608040620340034366e-04 4.142861813306808472e-03 -5.170717486180365086e-04 -6.515492714243009686e-05 -3.296445647720247507e-04 3.224643587600439787e-04 3.196411067619919777e-03 -1.069393195211887360e-02 4.059180617332458496e-03 -2.577389386715367436e-05 3.691268502734601498e-04 4.215338267385959625e-03 -2.989206463098526001e-03 5.245069973170757294e-03 4.306062124669551849e-03 1.780778984539210796e-04 -6.619150517508387566e-04 3.798619378358125687e-03 -1.293587870895862579e-02 -4.490427207201719284e-03 -3.281798679381608963e-03 -6.483306642621755600e-04 3.302069671917706728e-04 6.084735039621591568e-03 3.528166562318801880e-03 -7.628435268998146057e-03 4.063092172145843506e-03 1.304531237110495567e-03 -6.244807038456201553e-03 -1.857906021177768707e-02 -4.975604242645204067e-04 7.600235287100076675e-03 4.654790609492920339e-05 1.089265476912260056e-02 -7.385473232716321945e-03 -1.799128949642181396e-02 8.730811998248100281e-03 -7.804011926054954529e-03 -1.074917730875313282e-03 4.540357273072004318e-03 7.192181423306465149e-03 5.598376505076885223e-03 -1.249070512130856514e-03 -8.262284100055694580e-04 6.891105324029922485e-03 2.034137723967432976e-03 1.341457827948033810e-03 1.203245576471090317e-02 -3.194024320691823959e-03 3.278663847595453262e-03 -4.139268305152654648e-03 3.997154533863067627e-03 -2.447937382385134697e-03 7.508755661547183990e-04 -8.208804065361618996e-04 9.851866634562611580e-04 1.904282346367835999e-02 9.051042608916759491e-03 2.682661637663841248e-03 4.830321762710809708e-03 1.159748295322060585e-03 4.682546015828847885e-03 -4.325129557400941849e-03 -6.404875777661800385e-03 6.948695983737707138e-03 4.648918751627206802e-03 -4.830024205148220062e-03 -5.509136244654655457e-03 -9.155828505754470825e-03 -9.916008450090885162e-03 3.496421966701745987e-03 -1.926633343100547791e-02 2.257391111925244331e-03 8.634904399514198303e-03 -5.358662456274032593e-03 1.840499043464660645e-02 1.919794594869017601e-03 -5.133626051247119904e-03 -1.468462310731410980e-02 -4.614287521690130234e-03 3.995716571807861328e-03 9.971621446311473846e-03 -2.697453834116458893e-03 8.794338442385196686e-03 -1.043195556849241257e-02 1.375083159655332565e-02 1.609458401799201965e-02 1.263068243861198425e-02 -3.538629971444606781e-03 -3.823024034500122070e-02 -2.387211844325065613e-02 5.026129292673431337e-05 -7.655672379769384861e-04 2.644734922796487808e-04 -5.749193951487541199e-03 -3.318278351798653603e-03 2.372619928792119026e-03 4.514539614319801331e-02 -1.544607896357774734e-02 1.744103617966175079e-03 1.544172503054141998e-02 -2.866600640118122101e-03 -8.329719305038452148e-03 -1.628616591915488243e-03 4.935383796691894531e-03 -2.939277794212102890e-03 1.248063798993825912e-02 1.784006319940090179e-02 -4.054598044604063034e-03 7.895153015851974487e-03 -7.480455562472343445e-03 6.494665052741765976e-03 -1.221770793199539185e-02 -4.047470632940530777e-03 1.414940319955348969e-02 2.507081662770360708e-04 -7.253787480294704437e-03 5.260157864540815353e-03 -8.472412824630737305e-03 -4.283990710973739624e-03 -1.364005962386727333e-03 -6.669729482382535934e-04 -1.009040419012308121e-02 1.252396614290773869e-03 -9.187611751258373260e-03 -5.752635188400745392e-03 -9.149475954473018646e-03 -2.823072718456387520e-03 1.461241766810417175e-02 -4.965588916093111038e-03 -1.609791535884141922e-03 3.615870373323559761e-04 -4.110259935259819031e-03 -1.035409048199653625e-03 -5.283212754875421524e-03 -9.542409097775816917e-04 -8.174830116331577301e-03 -8.690846152603626251e-03 -1.500472892075777054e-02 -1.215464901179075241e-02 1.335327215201687068e-05 -1.308764331042766571e-03 -6.774366367608308792e-03 -2.652348717674612999e-03 7.740831468254327774e-03 -1.376236975193023682e-02 2.931102644652128220e-03 -7.261307444423437119e-03 -8.389108814299106598e-03 2.815618412569165230e-03 -4.756258334964513779e-03 1.749239745549857616e-03 2.302742796018719673e-03 9.264146909117698669e-03 9.080535732209682465e-03 1.299510523676872253e-02 4.390936810523271561e-03 -1.144478097558021545e-02 -9.596019983291625977e-03 -1.085145049728453159e-03 1.222154498100280762e-02 -3.190522693330422044e-05
2.484891796484589577e-03 2.650352893397212029e-03 1.230536727234721184e-03 -2.619972510728985071e-04 9.402463911101222038e-05 -3.299863310530781746e-03 1.026295963674783707e-02 -4.979687277227640152e-03 -1.822612262003531214e-06 5.806659464724361897e-04 -1.403546193614602089e-03 -9.810995310544967651e-03 -5.518211983144283295e-03 4.631602670997381210e-03 -8.586565963923931122e-04 -4.857423191424459219e-04 1.377643668092787266e-03 8.775329915806651115e-04 2.031888725468888879e-04 -3.589514875784516335e-03 2.082412596791982651e-03 -8.694365620613098145e-03 8.186147548258304596e-03 2.059510909020900726e-03 -1.179378293454647064e-02 -1.677947933785617352e-03 3.668689896585419774e-05 3.210042836144566536e-03 -1.413862337358295918e-04 -4.184755031019449234e-03 -2.761879470199346542e-03 2.763731637969613075e-03 -6.235537584871053696e-03 -3.385628224350512028e-04 -5.953439904260449111e-05 8.767155930399894714e-03 3.507372690364718437e-03 -1.491398084908723831e-03 4.295297432690858841e-03 3.942362964153289795e-03 3.367158584296703339e-03 1.921103976201266050e-04 2.748794155195355415e-03 3.460917854681611061e-03 -4.080799699295312166e-04 6.931868847459554672e-04 -4.574459977447986603e-03 -8.992968651000410318e-05 1.494996016845107079e-03 -4.439943470060825348e-03 5.458375439047813416e-03 -3.496863646432757378e-03 6.759796291589736938e-03 -3.774586366489529610e-04 1.628800964681431651e-04 -2.716274466365575790e-03 1.123335771262645721e-02 -1.009861659258604050e-02 -8.605848415754735470e-04 3.604064229875802994e-03 -2.516156295314431190e-03 -1.418322511017322540e-02 -8.521495386958122253e-03 7.523511070758104324e-03 -2.880540443584322929e-03 -3.201425424776971340e-04 4.165134392678737640e-03 7.022656966000795364e-03 3.432006109505891800e-03 -8.346580900251865387e-03 -1.681237830780446529e-03 -1.025999989360570908e-02 -5.966127850115299225e-03 8.818982169032096863e-03 -1.670789159834384918e-02 -1.836684532463550568e-03 1.747159112710505724e-04 6.381810177117586136e-03 -6.683279760181903839e-03 -4.761974327266216278e-03 -5.944911856204271317e-03 -1.629835693165659904e-03 -6.572075188159942627e-03 -8.835089975036680698e-04 -4.226815886795520782e-03 1.465152949094772339e-02 1.004461199045181274e-02 -4.296762868762016296e-03 -1.771511451806873083e-04 8.455479517579078674e-03 1.985108479857444763e-03 1.906749530462548137e-04 3.760928520932793617e-03 5.822867155075073242e-03 -1.658521709032356739e-03 -7.108314428478479385e-03 -8.033345453441143036e-03 2.090215682983398438e-02 2.598515944555401802e-03 -5.873656366020441055e-03 1.200222969055175781e-02 -8.041588589549064636e-03 -2.187809720635414124e-02 -4.410239867866039276e-03 5.063800606876611710e-03 -1.839788863435387611e-03 1.093825325369834900e-02 -9.861871600151062012e-03 -9.698878042399883270e-03 -3.531914670020341873e-03 5.650135688483715057e-03 -1.866269670426845551e-02 4.874162375926971436e-03 -2.264431305229663849e-02 -4.516039043664932251e-03 5.419636145234107971e-03 5.423448234796524048e-02 2.738562645390629768e-03 -1.654201187193393707e-02 -1.587714813649654388e-02 -1.259614992886781693e-02 -5.780881736427545547e-03 -9.214296587742865086e-04 -3.267988329753279686e-03 -1.185572613030672073e-02 -3.775428514927625656e-03 3.431728109717369080e-03 1.603343710303306580e-02 -1.289947982877492905e-02 -2.056175610050559044e-03 2.118268283084034920e-03 1.527738990262150764e-03 1.506216940470039845e-03 5.645182449370622635e-03 -7.068602833896875381e-03 -4.171886667609214783e-02 2.313656359910964966e-02 4.104679392185062170e-04 -2.412285190075635910e-03 -1.800324395298957825e-02 -9.873833507299423218e-03 -2.686688909307122231e-03 -5.712178535759449005e-03 9.518018923699855804e-03 2.078952034935355186e-03 2.007384784519672394e-02 -6.510965526103973389e-03 5.669868085533380508e-03 1.148889027535915375e-02 -2.046081237494945526e-03 1.001682318747043610e-02 -8.065166883170604706e-03 1.458870526403188705e-02 -2.020347677171230316e-02 4.888869356364011765e-03 -1.350164064206182957e-03 9.918644092977046967e-03 3.115949948551133275e-05 -1.472952868789434433e-02 -1.150251948274672031e-03 3.132105572149157524e-03 -1.415800396353006363e-02 -6.005567498505115509e-03 6.555606611073017120e-03 -5.840781610459089279e-03 -1.239746576175093651e-03 -1.466133166104555130e-02 1.189668010920286179e-02 9.820737875998020172e-03 -9.006978012621402740e-03 -2.002733759582042694e-03 -1.087099406868219376e-02 9.191246703267097473e-03 3.481293562799692154e-03 -1.236527343280613422e-03 -1.736341975629329681e-03 -8.096815086901187897e-03 7.602109573781490326e-03 2.443542471155524254e-03 6.524068303406238556e-03 -1.014549098908901215e-02 3.788681700825691223e-03 -9.740972309373319149e-04 3.113170387223362923e-03 -9.529668837785720825e-03 1.256522722542285919e-02 9.809644892811775208e-03 -1.961064897477626801e-02 5.500941537320613861e-03 7.986695505678653717e-03 2.631286391988396645e-03 -9.275333024561405182e-03 1.521726418286561966e-02 4.725981038063764572e-03 -3.603747580200433731e-03 7.406292017549276352e-03 4.373579286038875580e-03 -1.344231888651847839e-03 5.602294113487005234e-03 3.267547872383147478e-04
-2.509521087631583214e-03 1.780859078280627728e-03 2.156804548576474190e-03 -1.399829285219311714e-03 3.263732287450693548e-05 -1.830243039876222610e-03 5.935842171311378479e-03 5.355528555810451508e-03 -6.886518094688653946e-04 1.665679155848920345e-04 3.883674216922372580e-04 -7.442014291882514954e-03 2.327990019693970680e-03 -7.185246795415878296e-04 -2.891733311116695404e-03 -1.192202544189058244e-04 -1.108795055188238621e-03 8.105196058750152588e-03 2.391740417806431651e-04 2.996715717017650604e-03 9.341240511275827885e-04 1.436826423741877079e-03 -3.908372949808835983e-03 -2.343648346140980721e-03 3.003506688401103020e-03 5.154136568307876587e-03 1.127396444644546136e-05 6.543967407196760178e-03 -1.973434817045927048e-03 1.841033372329548001e-04 -5.892691551707684994e-04 -3.342948853969573975e-03 1.201753155328333378e-03 4.510368307819589972e-05 -1.143415807746350765e-03 -4.820602945983409882e-03 -5.651663523167371750e-04 -1.221699523739516735e-03 2.325767185539007187e-03 1.091764308512210846e-03 2.063302788883447647e-03 -1.057699671946465969e-03 -1.865972735686227679e-04 -2.519603585824370384e-03 -3.460461972281336784e-03 1.137371361255645752e-02 3.379878762643784285e-04 9.483304165769368410e-05 -2.086988883092999458e-03 1.317388494499027729e-03 -3.441155888140201569e-03 -7.295357529073953629e-03 -1.834447728469967842e-03 1.941297668963670731e-04 2.718461328186094761e-04 -9.797407547011971474e-04 1.088322419673204422e-02 8.342560380697250366e-03 -1.522573875263333321e-03 -4.122212994843721390e-03 1.566609600558876991e-03 -4.744040779769420624e-03 7.678868714720010757e-03 -3.679829649627208710e-03 -4.073603078722953796e-03 1.321166637353599072e-04 -1.008280902169644833e-03 6.642404012382030487e-03 -3.306845610495656729e-04 2.753562526777386665e-03 1.622950774617493153e-03 2.864803886041045189e-03 8.050069212913513184e-03 5.746090319007635117e-03 5.426349118351936340e-03 6.449374835938215256e-03 5.798424826934933662e-04 3.319048509001731873e-02 5.248177913017570972e-04 6.486928323283791542e-04 8.295708539662882686e-05 1.126842666417360306e-02 2.759374445304274559e-03 1.394944119965657592e-04 -2.886188740376383066e-04 2.930586226284503937e-02 -7.669780869036912918e-03 -1.422708737663924694e-03 3.069316036999225616e-03 1.521064783446490765e-03 4.880778025835752487e-03 -5.660280585289001465e-03 -9.761013207025825977e-04 -5.747030954807996750e-03 -3.782996442168951035e-03 2.189591713249683380e-02 7.476324681192636490e-04 -1.912368088960647583e-02 -4.862554837018251419e-03 4.548547323793172836e-03 -5.909306462854146957e-03 -1.571178808808326721e-02 9.621598757803440094e-03 2.956253942102193832e-03 -1.485473127104341984e-03 7.061978802084922791e-03 6.248616846278309822e-04 2.357257995754480362e-03 6.558355409651994705e-03 -6.774094421416521072e-03 -2.978170290589332581e-03 -7.663878495804965496e-04 4.260617308318614960e-03 3.718660678714513779e-03 1.138961780816316605e-02 -4.603469278663396835e-03 2.932717464864253998e-02 -2.671501366421580315e-03 -1.138183637522161007e-03 4.869161639362573624e-03 -1.794517785310745239e-02 -5.631389562040567398e-03 -8.451824076473712921e-03 -4.730628058314323425e-02 -3.241698257625102997e-03 -5.367471836507320404e-03 -2.075567143037915230e-03 4.042503610253334045e-02 4.969305824488401413e-03 5.485423840582370758e-03 1.887235091999173164e-03 -1.448761671781539917e-02 7.952397689223289490e-03 -1.092710066586732864e-03 2.378086000680923462e-02 2.050254493951797485e-02 -5.106938630342483521e-02 -5.727672018110752106e-03 -9.698592126369476318e-03 -5.874177441000938416e-03 2.614658698439598083e-02 1.242623198777437210e-02 1.852070912718772888e-03 -6.199045572429895401e-03 7.374816574156284332e-03 8.379341661930084229e-02 9.495733305811882019e-03 -2.788364700973033905e-02 -2.561419829726219177e-02 -4.139936994761228561e-03 1.001963485032320023e-02 1.575130224227905273e-02 1.022142637521028519e-02 -1.306770183145999908e-02 1.746032945811748505e-02 -1.612218329682946205e-03 7.773340679705142975e-03 6.311973556876182556e-03 4.928628448396921158e-03 1.354963611811399460e-02 2.170908078551292419e-02 -4.310048650950193405e-03 6.353007163852453232e-03 2.168398723006248474e-02 7.646718993782997131e-03 7.166674360632896423e-03 -1.188760157674551010e-02 3.961971029639244080e-03 1.334300450980663300e-02 -9.445524774491786957e-03 -4.828205332159996033e-03 7.548639550805091858e-03 1.684707589447498322e-03 -2.990055363625288010e-03 4.511164966970682144e-03 1.068731397390365601e-02 2.213248051702976227e-03 4.681415390223264694e-03 -3.066671779379248619e-03 1.587217673659324646e-02 4.824539646506309509e-03 -4.578988067805767059e-03 1.247513201087713242e-02 1.929357275366783142e-02 -9.293838404119014740e-03 -2.565596718341112137e-03 1.425525266677141190e-02 -3.817760851234197617e-03 7.297695148736238480e-03 9.020710131153464317e-04 4.406633786857128143e-03 -6.374189630150794983e-03 -2.833470236510038376e-03 -8.463467471301555634e-03 -7.172098383307456970e-03 2.158633433282375336e-02 4.874114878475666046e-03 1.746807130984961987e-03 2.195232082158327103e-04 1.725045219063758850e-02
2.008469309657812119e-03 -6.607032846659421921e-04 1.346707867924124002e-04 1.475624799240904395e-06 1.850332948379218578e-03 3.220282960683107376e-03 3.426072886213660240e-03 8.267892524600028992e-03 2.647532848641276360e-03 -3.981027402915060520e-04 1.939080189913511276e-03 -1.557570323348045349e-02 -2.572541357949376106e-03 4.139474127441644669e-03 -6.613845471292734146e-04 3.211444709450006485e-03 2.982413861900568008e-04 4.210023209452629089e-03 2.007395960390567780e-04 -9.382573625771328807e-05 -3.337569767609238625e-03 -4.649230279028415680e-03 6.347679067403078079e-03 -9.303195402026176453e-04 1.235917443409562111e-03 4.776803310960531235e-03 1.527265994809567928e-03 9.792176075279712677e-03 -7.614727364853024483e-04 -2.128639724105596542e-03 1.147229340858757496e-03 -1.643554423935711384e-03 -2.795257605612277985e-03 1.169245573692023754e-03 -1.216303673572838306e-03 1.930841477587819099e-03 7.007031701505184174e-03 -2.444605343043804169e-03 4.044896923005580902e-03 -2.173292683437466621e-03 -1.066985307261347771e-03 -1.882449396362062544e-05 2.081949205603450537e-04 -8.595036342740058899e-04 -9.160173940472304821e-04 -3.178361104801297188e-03 -3.153904806822538376e-03 7.258285768330097198e-05 -1.007230719551444054e-03 -2.173846587538719177e-03 4.524396732449531555e-03 -9.301150217652320862e-03 2.771932398900389671e-03 1.824373612180352211e-03 3.131675301119685173e-03 3.097285050898790359e-03 5.846622865647077560e-03 1.048983540385961533e-02 7.521330378949642181e-03 -6.357259699143469334e-04 3.473292570561170578e-03 -2.340588159859180450e-02 -1.422480796463787556e-03 4.835702944546937943e-03 -1.360903261229395866e-03 3.434416837990283966e-03 9.163064882159233093e-03 5.923194810748100281e-03 6.969437235966324806e-04 -1.955537358298897743e-03 -5.583708640187978745e-03 -6.698564626276493073e-03 2.385994791984558105e-02 1.519739627838134766e-02 2.682284452021121979e-03 5.713794380426406860e-03 3.285227809101343155e-03 2.435944229364395142e-02 1.782026141881942749e-03 -1.255027484148740768e-03 7.426807424053549767e-04 5.209104623645544052e-03 -3.483356442302465439e-03 1.821206766180694103e-03 -3.967406228184700012e-03 2.202448621392250061e-02 1.492959447205066681e-02 -4.300614818930625916e-03 1.431603822857141495e-02 -4.434342496097087860e-03 2.333822194486856461e-03 -1.513350871391594410e-03 5.769106210209429264e-04 -2.592514967545866966e-03 -1.100506912916898727e-02 -6.196007598191499710e-03 -1.692025456577539444e-03 -1.641733944416046143e-02 7.757655694149434566e-04 -2.378251170739531517e-03 5.448655574582517147e-04 -2.057694643735885620e-02 -1.745901070535182953e-02 4.675321397371590137e-04 4.655887314584106207e-04 -1.771439239382743835e-02 1.417036820203065872e-02 -1.705208607017993927e-02 -7.565495092421770096e-03 5.695735570043325424e-03 -2.231324906460940838e-04 -3.039777465164661407e-02 8.853844366967678070e-03 -1.889500883407890797e-03 5.623039789497852325e-03 -1.233976799994707108e-03 -2.066918462514877319e-02 6.723642349243164062e-02 1.113093225285410881e-03 1.762323197908699512e-03 -1.495155133306980133e-02 -9.444377385079860687e-03 2.897661365568637848e-02 -1.088607162237167358e-01 -9.513217024505138397e-03 -3.514291951432824135e-03 -7.218082901090383530e-04 6.774207949638366699e-02 -1.526904571801424026e-02 4.599085543304681778e-03 3.110143588855862617e-03 -6.924768537282943726e-02 6.738323718309402466e-03 -8.790930151008069515e-04 -6.196771282702684402e-03 3.393826633691787720e-02 7.107112091034650803e-03 -6.370139308273792267e-03 -1.755723915994167328e-02 1.691894605755805969e-02 2.276543341577053070e-02 6.330952048301696777e-03 -3.516366705298423767e-04 -3.494368633255362511e-03 -7.452466990798711777e-03 4.468232765793800354e-02 1.077052298933267593e-02 1.109786555171012878e-01 1.102113537490367889e-02 -8.893072605133056641e-03 3.672939166426658630e-02 1.339114829897880554e-02 1.493508345447480679e-03 1.816473156213760376e-02 3.087653592228889465e-02 1.853651134297251701e-03 -3.951404243707656860e-03 3.203403903171420097e-03 -1.395576400682330132e-03 1.310963742434978485e-02 2.833035029470920563e-02 -2.302514947950839996e-02 1.435455214232206345e-02 3.292376548051834106e-02 1.623721048235893250e-02 2.656131982803344727e-02 -5.421483423560857773e-03 5.224292632192373276e-03 1.945733441971242428e-03 6.401278078556060791e-03 -9.127362631261348724e-03 5.012847948819398880e-03 1.545075094327330589e-03 -1.385244075208902359e-03 1.041758526116609573e-02 8.402906358242034912e-03 1.771866343915462494e-02 9.706850163638591766e-03 -1.055939588695764542e-03 2.772805280983448029e-02 1.588252559304237366e-02 -8.590215584263205528e-04 1.233999803662300110e-02 2.852443791925907135e-02 -1.046235579997301102e-02 2.255899365991353989e-03 2.718817815184593201e-02 -8.393838070333003998e-03 5.824690684676170349e-03 3.894770983606576920e-03 -6.716346833854913712e-03 -3.225767984986305237e-02 -1.223416812717914581e-02 -1.077898405492305756e-02 -1.436669752001762390e-02 -4.920938983559608459e-03 9.815555997192859650e-03 3.530820831656455994e-03 -6.762963719666004181e-03 2.649851702153682709e-02
2.514100633561611176e-03 2.355087781324982643e-03 -1.013765344396233559e-03 -1.523621758678928018e-04 4.240803536958992481e-04 -6.713409442454576492e-03 6.056403275579214096e-03 -1.253618742339313030e-03 2.183601754950359464e-04 3.421100263949483633e-04 -9.229811839759349823e-04 -4.155656788498163223e-03 -3.514656797051429749e-03 7.604827638715505600e-03 -7.757798884995281696e-04 -4.378065059427171946e-04 1.245956402271986008e-03 -1.285376143641769886e-03 -1.088311764760874212e-04 -4.459084011614322662e-03 4.131030291318893433e-03 -7.687026169151067734e-03 6.298107560724020004e-03 1.941517461091279984e-03 -8.779622614383697510e-03 3.893225453794002533e-03 1.009546467685140669e-04 1.094918139278888702e-02 1.702401059446856380e-04 -2.636509947478771210e-03 1.571990316733717918e-03 2.919047372415661812e-03 -5.319213028997182846e-03 -2.295943850185722113e-04 7.554254843853414059e-04 6.440686993300914764e-03 3.173836041241884232e-03 1.007041544653475285e-03 -2.493077656254172325e-03 -5.039928015321493149e-03 -6.403857260011136532e-04 2.067322056973353028e-04 2.079397207126021385e-03 3.401610068976879120e-03 8.008748409338295460e-04 9.424149990081787109e-03 -2.326817950233817101e-03 -7.064724195515736938e-05 1.920034177601337433e-03 -3.393166000023484230e-03 3.994625061750411987e-03 -6.976022385060787201e-03 1.088343677110970020e-03 -2.162198215955868363e-04 8.714784635230898857e-04 -6.037753075361251831e-03 8.014938794076442719e-03 -1.434983452782034874e-03 4.112111637368798256e-04 3.513623494654893875e-03 -3.752749180421233177e-04 -6.975606549531221390e-03 -4.239163827151060104e-03 1.164426282048225403e-02 -2.721085213124752045e-03 -3.721076063811779022e-04 6.536042317748069763e-03 1.742318272590637207e-02 1.115995808504521847e-03 -9.211894124746322632e-03 1.903767581097781658e-03 -9.316000156104564667e-03 7.412762497551739216e-04 1.497540436685085297e-02 -1.069534663110971451e-02 4.640913568437099457e-03 6.177555769681930542e-04 9.558655321598052979e-03 -1.064754556864500046e-03 -2.583182184025645256e-03 2.340382663533091545e-03 1.404372393153607845e-03 -5.425380542874336243e-03 -5.083233700133860111e-04 1.128580537624657154e-03 1.051867846399545670e-03 6.063934881240129471e-03 1.215616357512772083e-03 -3.600174095481634140e-03 -4.153413232415914536e-03 1.697137122391723096e-06 2.058262325590476394e-04 3.144307993352413177e-03 4.420268349349498749e-03 -6.926278583705425262e-03 8.929217234253883362e-03 -9.904408361762762070e-04 1.823043078184127808e-02 5.103255622088909149e-03 -4.876770079135894775e-03 9.683628566563129425e-03 -3.134746477007865906e-02 -5.012812837958335876e-02 -4.206091165542602539e-03 5.028356332331895828e-03 4.383443854749202728e-03 -2.107377396896481514e-03 -6.740323733538389206e-03 -4.330448340624570847e-03 7.691121660172939301e-03 6.225619465112686157e-03 -9.092418476939201355e-03 -1.075479784049093723e-03 -2.072612009942531586e-02 -4.484108183532953262e-03 5.284287501126527786e-03 -4.125016927719116211e-02 1.844207569956779480e-02 -3.730538010131567717e-04 -1.744710281491279602e-02 3.234569216147065163e-03 -5.243518855422735214e-03 -1.334215281531214714e-03 5.809364840388298035e-02 -7.046969607472419739e-03 -1.608423516154289246e-02 3.287050407379865646e-03 -5.342166870832443237e-02 -2.820242429152131081e-03 -3.400344168767333031e-03 -2.612405922263860703e-03 1.561494637280702591e-02 9.477779385633766651e-04 5.649810191243886948e-03 8.667142130434513092e-03 2.596862055361270905e-02 5.824043601751327515e-02 4.090219270437955856e-03 7.338730618357658386e-03 3.392241778783500195e-04 -4.674396943300962448e-03 -2.156683476641774178e-03 -4.866603761911392212e-03 6.986740510910749435e-03 2.462131157517433167e-02 -4.989433661103248596e-02 -5.179657600820064545e-03 -3.324322029948234558e-02 3.082885034382343292e-02 -1.579052652232348919e-03 -2.158777788281440735e-03 -6.402612663805484772e-03 -1.304591260850429535e-02 2.138322452083230019e-03 -7.937237969599664211e-04 -7.036303170025348663e-03 6.277088541537523270e-03 -3.735244681593030691e-04 6.843211129307746887e-03 -4.163761623203754425e-04 1.227009017020463943e-02 -3.193755634129047394e-03 3.518822416663169861e-02 -5.927803926169872284e-03 1.279706042259931564e-02 1.961100846529006958e-02 -1.311810407787561417e-02 3.501791972666978836e-03 2.836404019035398960e-04 -6.110375281423330307e-03 4.869959317147731781e-03 1.862416247604414821e-04 6.207677070051431656e-03 3.045650199055671692e-03 1.388399745337665081e-03 2.948239212855696678e-03 1.380726695060729980e-02 1.560518238693475723e-02 1.573112327605485916e-03 2.388537628576159477e-03 -2.824742812663316727e-03 5.329147446900606155e-03 -1.391166821122169495e-02 6.512910127639770508e-03 -3.549302928149700165e-03 8.978375233709812164e-03 7.448514923453330994e-03 1.276463153772056103e-03 2.838733838871121407e-03 -4.840414039790630341e-03 -1.233412767760455608e-03 8.355728932656347752e-04 -1.679352251812815666e-03 -5.959010683000087738e-03 9.950635954737663269e-03 1.495534460991621017e-02 4.693321883678436279e-03 4.044951347168534994e-04 -1.018383353948593140e-02 3.043713234364986420e-02
-4.915893659926950932e-04 2.784524811431765556e-03 -2.265878720209002495e-03 -1.886785175884142518e-04 7.532812742283567786e-05 -5.993871018290519714e-03 1.177752297371625900e-02 -5.239477381110191345e-03 -1.301606884226202965e-03 6.339031970128417015e-04 -1.024072524160146713e-03 -2.837993815774098039e-05 -3.952899482101202011e-03 3.986694384366273880e-03 -3.443931927904486656e-04 -3.544785431586205959e-04 9.060549782589077950e-04 2.225271193310618401e-03 -8.349912241101264954e-05 -3.612475469708442688e-03 7.539904676377773285e-03 -6.983770057559013367e-03 1.249328069388866425e-02 2.224825322628021240e-03 -1.300646085292100906e-02 -1.986423041671514511e-03 6.935119745321571827e-05 1.499153301119804382e-02 4.564097034744918346e-04 -3.363057039678096771e-03 -3.709080338012427092e-04 3.068169113248586655e-03 -4.924985114485025406e-03 -1.841289049480110407e-04 1.033551641739904881e-03 5.641730036586523056e-03 -1.983639376703649759e-04 8.970854105427861214e-04 -4.599553358275443316e-04 -1.895424909889698029e-03 1.697975560091435909e-03 8.459208765998482704e-05 2.022439846768975258e-03 4.073681775480508804e-03 2.862991765141487122e-03 1.219290122389793396e-02 -3.062780713662505150e-03 -1.017174363369122148e-04 1.721372711472213268e-03 -3.070950042456388474e-03 1.786415814422070980e-04 -1.945830648764967918e-03 -9.510795585811138153e-03 -3.334346984047442675e-04 2.055308868875727057e-04 -6.287163123488426208e-03 1.521564461290836334e-02 -6.770003587007522583e-03 -4.844753537327051163e-03 2.387027256190776825e-03 -1.809404813684523106e-03 -7.129202131181955338e-04 -6.128723733127117157e-03 6.878170650452375412e-03 -2.170961350202560425e-03 -2.620988234411925077e-04 5.075073800981044769e-03 -2.451149048283696175e-03 1.043053693138062954e-03 -8.776211179792881012e-03 8.398119360208511353e-03 -8.637947961688041687e-03 -3.530812973622232676e-04 1.201049424707889557e-02 -1.902630366384983063e-02 -2.023371635004878044e-03 3.422641311772167683e-04 7.153657730668783188e-03 -2.568941004574298859e-02 -3.808541456237435341e-03 -4.721851088106632233e-03 6.045597139745950699e-03 -4.957464989274740219e-03 -6.121217738837003708e-04 1.044169999659061432e-03 -1.222967356443405151e-02 2.670215442776679993e-03 1.293672947213053703e-03 -7.176150102168321609e-03 -7.464024820365011692e-04 1.520953490398824215e-03 1.817653654143214226e-03 3.773093223571777344e-03 6.816614884883165359e-03 -2.482360578142106533e-04 6.674562115222215652e-03 -4.341378342360258102e-03 -8.523474447429180145e-03 6.657679914496839046e-04 -4.502057563513517380e-03 1.154474169015884399e-02 2.676735259592533112e-02 1.769245788455009460e-02 -3.956831060349941254e-03 4.646765999495983124e-03 3.782720072194933891e-03 -1.520694978535175323e-02 -1.761482842266559601e-02 6.017811130732297897e-03 7.747456897050142288e-03 5.788051057606935501e-03 -2.086589578539133072e-03 2.025319030508399010e-03 -3.001798875629901886e-02 -4.966535605490207672e-03 5.366577301174402237e-03 -1.979047246277332306e-02 -1.513320486992597580e-02 -8.040750399231910706e-03 -1.695555634796619415e-02 2.014005370438098907e-02 -4.773682449012994766e-03 -1.495112013071775436e-02 -4.230543971061706543e-02 -1.310964860022068024e-02 -5.482084583491086960e-03 3.138221334666013718e-03 -3.799390792846679688e-02 -2.389112487435340881e-02 -2.842616755515336990e-03 5.052282009273767471e-03 -2.326967380940914154e-02 2.439666568534448743e-04 5.405894014984369278e-03 1.824569515883922577e-02 -1.112853456288576126e-02 -2.821672335267066956e-02 3.275507595390081406e-03 7.306586485356092453e-03 -1.873373636044561863e-03 -1.589175872504711151e-02 -7.320889271795749664e-03 -4.943859763443470001e-03 9.750965982675552368e-03 2.646069042384624481e-02 -3.749269247055053711e-02 2.192441839724779129e-03 2.393288165330886841e-02 -4.681295249611139297e-03 -5.782181397080421448e-04 -1.165895909070968628e-02 -4.448649939149618149e-03 -1.375675760209560394e-02 -5.071419756859540939e-03 -2.931748982518911362e-03 -3.579963464289903641e-03 1.184436492621898651e-02 -3.666465869173407555e-03 -2.263793954625725746e-03 -1.736047863960266113e-02 -5.184208508580923080e-03 -9.365305304527282715e-04 -2.272611856460571289e-02 -7.300051394850015640e-03 -7.222096435725688934e-03 -1.935965963639318943e-03 -3.105313982814550400e-03 1.244847010821104050e-02 1.044673495925962925e-03 1.666941912844777107e-03 6.497791968286037445e-03 -9.025245904922485352e-03 1.206297148019075394e-02 3.489521332085132599e-03 -1.511378306895494461e-02 -1.482305862009525299e-02 -9.395060129463672638e-03 1.661992631852626801e-02 2.626948291435837746e-03 8.531492785550653934e-04 -6.179512944072484970e-03 3.010469954460859299e-03 -2.794231055304408073e-03 -1.952389627695083618e-02 -9.788986062631011009e-04 8.896981365978717804e-03 -3.763035405427217484e-03 -6.517978850752115250e-03 7.350995205342769623e-03 -5.463560577481985092e-03 3.930660313926637173e-04 -4.859216511249542236e-03 1.114880573004484177e-02 9.462749585509300232e-03 1.264175493270158768e-02 1.888690330088138580e-02 -9.293287061154842377e-03 -2.306328155100345612e-03 2.128512831404805183e-03 1.712867245078086853e-02
-8.633848046883940697e-04 4.270722623914480209e-03 7.806840352714061737e-03 1.042797302943654358e-04 1.195165386889129877e-04 -3.337561385706067085e-03 3.097875276580452919e-03 -2.391905436525121331e-04 -4.799510817974805832e-03 5.014332709833979607e-04 3.038300434127449989e-03 1.012693159282207489e-02 3.248819150030612946e-03 -4.465876612812280655e-03 1.888743136078119278e-03 9.474327089264988899e-04 3.009137290064245462e-04 -2.168600913137197495e-04 2.757681941147893667e-04 2.106306375935673714e-03 -1.278990181162953377e-03 4.865908995270729065e-03 -6.547089200466871262e-03 -6.376107339747250080e-04 -6.071016192436218262e-03 -2.786730183288455009e-03 5.056512600276619196e-05 -2.033920772373676300e-02 7.968173595145344734e-04 4.076020792126655579e-03 2.226432552561163902e-03 3.944422642234712839e-04 5.977045278996229172e-03 6.977992597967386246e-04 -1.403136411681771278e-04 -5.898364353924989700e-03 -2.250216202810406685e-03 4.048256378155201674e-04 -4.448338877409696579e-03 3.379498142749071121e-03 -6.517106667160987854e-03 -2.708301690290682018e-05 -2.933405048679560423e-04 -2.075423399219289422e-04 -1.691721699899062514e-04 4.324628971517086029e-03 2.969763474538922310e-03 1.128703297581523657e-04 -3.637937828898429871e-03 3.339779330417513847e-03 -1.747374539263546467e-03 6.735613103955984116e-03 1.061296649277210236e-02 2.477522648405283689e-04 9.593738650437444448e-05 -3.244928084313869476e-03 2.532771555706858635e-03 -6.829370395280420780e-04 -9.075568988919258118e-03 2.672459930181503296e-03 4.208430182188749313e-03 1.226752158254384995e-02 7.113259634934365749e-04 -6.033213343471288681e-03 1.341000432148575783e-03 1.718711573630571365e-03 -5.241345148533582687e-03 -1.700974418781697750e-03 1.115283928811550140e-03 6.226474419236183167e-03 -2.508422359824180603e-03 5.449857097119092941e-03 -3.065728396177291870e-02 -2.610757946968078613e-02 -8.785059675574302673e-03 -3.943628165870904922e-03 -2.164938086934853345e-05 -3.448959439992904663e-02 -3.037357702851295471e-03 4.955305252224206924e-03 2.358228899538516998e-03 8.966558962129056454e-04 6.848350167274475098e-03 1.727797556668519974e-03 -1.695366227068006992e-04 -2.577002160251140594e-02 -1.136272773146629333e-02 -1.875722082331776619e-04 -3.472018288448452950e-03 2.899398328736424446e-03 -9.655911475419998169e-03 -1.204401720315217972e-03 2.970452769659459591e-04 -4.437523020897060633e-04 -3.053499094676226377e-04 -1.153988763689994812e-03 4.198724869638681412e-03 -9.554509073495864868e-03 -3.570084460079669952e-03 3.931880928575992584e-03 1.719416759442538023e-04 -1.258275192230939865e-02 -3.190930234268307686e-03 3.778155893087387085e-03 -3.563679987564682961e-03 1.961650885641574860e-02 -1.312388852238655090e-02 1.149505656212568283e-02 3.583126701414585114e-03 2.258964441716670990e-02 -2.237652661278843880e-03 8.513933978974819183e-03 -1.752580050379037857e-03 -1.906343619339168072e-03 4.772447515279054642e-03 -3.879993222653865814e-03 1.646206155419349670e-02 -3.436396270990371704e-02 -5.005412735044956207e-03 -1.229514181613922119e-02 1.780800893902778625e-02 6.331609911285340786e-04 -1.501877792179584503e-02 2.539900597184896469e-03 -1.379933487623929977e-02 1.469805254600942135e-03 -2.591321244835853577e-03 1.334204245358705521e-02 -3.188016265630722046e-02 1.042985357344150543e-03 -4.167765728197991848e-04 2.394332550466060638e-02 -3.147046314552426338e-03 -3.747817128896713257e-03 9.692858904600143433e-03 -1.053551025688648224e-02 -2.818333357572555542e-02 -4.215188790112733841e-03 -7.144869770854711533e-03 -3.827073611319065094e-03 1.173556200228631496e-03 4.064852837473154068e-03 3.509718691930174828e-03 -5.411244463175535202e-03 1.598133146762847900e-02 1.082266774028539658e-02 -3.154329024255275726e-03 -4.121510684490203857e-02 1.566059887409210205e-02 4.421888850629329681e-03 4.430280241649597883e-04 -3.230635542422533035e-03 1.764686591923236847e-02 -1.529021933674812317e-02 -1.614140160381793976e-02 -5.430578719824552536e-03 -1.168152200989425182e-03 -4.435498733073472977e-03 -2.475519664585590363e-02 -9.229972027242183685e-03 -2.879947051405906677e-02 2.290861681103706360e-02 -1.312170084565877914e-02 -1.290446706116199493e-02 -9.721420705318450928e-03 -1.638144813477993011e-02 -6.130995694547891617e-03 -6.855803076177835464e-04 -3.437030318309552968e-05 3.506835782900452614e-04 -3.396342275664210320e-03 -1.236256584525108337e-02 -5.326954647898674011e-03 -1.422478235326707363e-03 -1.780176768079400063e-03 -5.215921439230442047e-03 -1.118629332631826401e-02 -1.604684442281723022e-02 3.577410825528204441e-04 -2.541506104171276093e-02 -1.258209906518459320e-02 3.275132970884442329e-03 -1.474066264927387238e-02 -1.060279924422502518e-02 5.740135442465543747e-03 -7.426934316754341125e-03 -6.466651801019906998e-03 4.749667830765247345e-03 -2.690213499590754509e-03 8.743079379200935364e-03 -7.490447722375392914e-03 1.373024936765432358e-02 2.104784362018108368e-03 1.578596711624413729e-04 6.509060040116310120e-03 2.107761101797223091e-03 -6.658117752522230148e-03 5.968313198536634445e-04 -9.465666487812995911e-03 -3.224885091185569763e-02
2.681480837054550648e-04 -3.354918153490871191e-04 4.766137572005391121e-04 3.208718908354057930e-07 8.324810551130212843e-06 4.870413686148822308e-04 4.172111512161791325e-04 1.036311499774456024e-03 2.961669233627617359e-04 -2.241770998807623982e-04 1.196704579342622310e-05 -3.520338796079158783e-03 -9.814108125283382833e-06 1.649073965381830931e-04 -9.097684232983738184e-05 -4.442860699782613665e-06 3.117058367934077978e-04 1.506455591879785061e-03 -5.512140432983869687e-06 3.041457785002421588e-05 -9.838158730417490005e-04 -1.574849011376500130e-04 -5.279892124235630035e-03 -5.188919021748006344e-04 1.102532143704593182e-03 4.919162020087242126e-04 -1.946510337802465074e-06 -1.595693989656865597e-03 -3.692948666866868734e-04 7.645503501407802105e-05 -4.214874934405088425e-05 -9.847524343058466911e-04 4.009772237623110414e-05 5.642241012537851930e-05 -1.310136722167953849e-04 -2.147238468751311302e-03 -9.458117710892111063e-05 -6.666775443591177464e-04 1.228120992891490459e-03 2.129000378772616386e-03 -2.493347739800810814e-03 -8.176384653779678047e-06 1.209351694342331029e-06 -7.800453022355213761e-05 -8.409454603679478168e-04 -1.730322139337658882e-03 1.994058402488008142e-04 3.989374818047508597e-06 -4.136265852139331400e-05 -1.215477823279798031e-04 6.288396543823182583e-04 4.336735873948782682e-04 3.976275678724050522e-03 1.000712654786184430e-05 1.283938490814762190e-05 7.446291856467723846e-04 4.003635141998529434e-03 4.740992095321416855e-03 6.642020307481288910e-04 4.514923057286068797e-05 6.521519389934837818e-05 -8.776418864727020264e-03 -7.119325891835615039e-05 2.660789992660284042e-03 -1.813318667700514197e-04 -1.130505324908881448e-06 4.873085301369428635e-03 2.921032020822167397e-03 3.568780084606260061e-05 -2.182062307838350534e-04 -2.536474028602242470e-03 -4.814235144294798374e-04 -2.009171526879072189e-03 5.889294669032096863e-03 3.958152141422033310e-03 1.497980323620140553e-03 -9.324111488240305334e-06 -9.872443042695522308e-04 1.484158169478178024e-02 2.818610519170761108e-04 -1.856457674875855446e-04 7.063531083986163139e-04 1.052156658261083066e-04 4.778553557116538286e-04 -5.211342941038310528e-04 7.562403101474046707e-03 3.054149448871612549e-03 -1.367973512969911098e-03 4.546716809272766113e-03 5.154771497473120689e-04 6.274336483329534531e-04 -2.913317621278110892e-05 -1.404654176440089941e-05 -8.701992919668555260e-04 -7.754174526780843735e-03 -2.664849394932389259e-03 7.179825915955007076e-04 -8.110356517136096954e-03 -6.172560388222336769e-04 -4.023759975098073483e-04 3.648562706075608730e-04 2.973705716431140900e-02 2.475827001035213470e-02 9.546873625367879868e-04 -2.773299056570976973e-04 -5.402399227023124695e-03 6.585898809134960175e-03 1.653240062296390533e-02 -3.243509912863373756e-03 2.976793795824050903e-03 -1.069584744982421398e-03 -1.919899322092533112e-02 5.542617291212081909e-04 -1.571798697113990784e-02 3.670379519462585449e-03 -2.001818967983126640e-03 -1.486545335501432419e-02 1.983187161386013031e-02 -7.251631468534469604e-04 4.042999353259801865e-03 -6.644587498158216476e-03 -2.534936182200908661e-03 1.613345812074840069e-03 -7.016325742006301880e-02 9.406539611518383026e-03 -2.866693073883652687e-03 -2.394163457211107016e-04 -1.346375700086355209e-02 -3.230090066790580750e-02 4.101270809769630432e-03 1.881948206573724747e-03 -3.873664140701293945e-02 5.029208026826381683e-03 2.224177587777376175e-04 1.330859377048909664e-03 4.809036105871200562e-02 7.445356342941522598e-03 -2.209329744800925255e-03 -6.120851263403892517e-03 2.120090648531913757e-03 2.470123581588268280e-02 1.599724782863631845e-04 4.487669793888926506e-04 -2.656627213582396507e-03 -2.150941267609596252e-02 3.697569295763969421e-02 2.455237787216901779e-03 8.945423364639282227e-02 -6.132423877716064453e-04 -2.961039077490568161e-03 1.596229150891304016e-02 8.942794986069202423e-03 -1.534122857265174389e-03 1.193777937442064285e-02 2.094248123466968536e-02 -3.489495720714330673e-04 5.297629162669181824e-03 5.843559047207236290e-04 6.057738792151212692e-03 1.257381774485111237e-02 1.156171597540378571e-02 -4.860565997660160065e-03 2.028686553239822388e-02 1.403738744556903839e-02 1.029174495488405228e-02 1.629622280597686768e-02 1.403318485245108604e-03 5.758853163570165634e-03 -5.898133851587772369e-03 -2.497073262929916382e-03 4.839806351810693741e-03 8.454493246972560883e-03 -3.960049245506525040e-03 -7.503785309381783009e-04 9.069981053471565247e-03 1.262063719332218170e-02 9.432201273739337921e-03 2.093254443025216460e-04 -6.997357704676687717e-04 1.486488524824380875e-02 1.506833266466856003e-02 -7.993195904418826103e-04 1.162040419876575470e-02 1.977689377963542938e-02 -1.341008814051747322e-03 -1.881010015495121479e-03 2.194165019318461418e-03 3.760698018595576286e-03 3.538167802616953850e-03 4.441451281309127808e-03 -1.914379303343594074e-03 -1.081916131079196930e-02 -9.999134577810764313e-03 -1.142083760350942612e-02 -1.520065031945705414e-02 -2.250317251309752464e-03 9.243937209248542786e-03 -7.559487712569534779e-04 -6.856212392449378967e-03 2.053187228739261627e-02
-3.028853097930550575e-04 1.247178413905203342e-03 -3.498391015455126762e-03 -2.308636612724512815e-04 4.136047791689634323e-04 2.017627120949327946e-04 5.244685336947441101e-03 4.972359631210565567e-03 5.821445956826210022e-03 -3.455763508100062609e-04 -1.400559907779097557e-03 -1.616887189447879791e-02 -3.563444595783948898e-03 9.955254383385181427e-03 -1.615226385183632374e-03 -8.479148964397609234e-04 -3.816481912508606911e-04 -9.512669639661908150e-04 2.271848788950592279e-04 -2.317271195352077484e-03 3.946235403418540955e-03 -8.510204963386058807e-03 5.347446538507938385e-03 2.603646717034280300e-04 -3.870432730764150620e-03 6.386980414390563965e-03 5.561179568758234382e-05 6.619531661272048950e-03 -1.323794363997876644e-03 -3.842963138595223427e-03 9.069116786122322083e-04 4.400930774863809347e-04 -6.749114021658897400e-03 -4.749885993078351021e-04 1.551821362227201462e-03 3.591147018596529961e-03 5.147441290318965912e-03 -1.090386533178389072e-03 6.649474147707223892e-03 -2.267687348648905754e-03 8.547330275177955627e-03 1.494703901698812842e-04 2.209510712418705225e-04 -2.405958366580307484e-04 -3.152731107547879219e-03 6.645672488957643509e-03 -4.295062273740768433e-03 -7.823848136467859149e-05 1.281708944588899612e-03 -4.109001252800226212e-03 2.116513904184103012e-03 -1.628631842322647572e-03 1.010464387945830822e-03 -1.434725418221205473e-04 9.400563430972397327e-04 9.422595612704753876e-04 8.726694621145725250e-03 6.847729440778493881e-03 1.206993032246828079e-02 1.841262564994394779e-03 -4.370999813545495272e-04 -2.030803263187408447e-02 -2.245734678581357002e-03 8.237811736762523651e-03 -3.105461830273270607e-03 -1.218539546243846416e-03 -5.577331758104264736e-04 1.081596501171588898e-02 1.797819859348237514e-03 -9.226338006556034088e-03 3.791397670283913612e-03 -1.028250250965356827e-02 1.801762729883193970e-02 7.967158220708370209e-03 -4.233184736222028732e-03 6.634425371885299683e-03 8.161814184859395027e-04 2.556542679667472839e-02 -1.301642972975969315e-02 -4.190654493868350983e-03 4.399414756335318089e-04 -3.885480109602212906e-03 -7.265088614076375961e-03 -1.130829332396388054e-03 2.615108154714107513e-03 -1.168818795122206211e-03 1.213542744517326355e-02 -9.978236630558967590e-04 1.035005040466785431e-02 -7.462232024408876896e-04 1.176342181861400604e-02 -1.489704474806785583e-03 3.267706197220832109e-04 -3.611678839661180973e-04 -1.176902931183576584e-02 2.473074197769165039e-02 -2.568071009591221809e-03 1.435850653797388077e-02 2.630289411172270775e-03 -4.292785655707120895e-03 1.424388028681278229e-04 -1.472165808081626892e-02 -8.247217163443565369e-03 -4.351630341261625290e-03 5.100564099848270416e-03 -1.672471314668655396e-02 1.327021140605211258e-02 7.246774155646562576e-03 -1.678891479969024658e-02 2.492287568747997284e-02 2.965726191177964211e-03 -1.981077156960964203e-02 2.210889942944049835e-03 8.362564258277416229e-03 -3.598783630877733231e-03 4.677291493862867355e-03 4.520788043737411499e-02 3.385172784328460693e-02 -6.467921659350395203e-03 -3.808100474998354912e-03 -2.469100989401340485e-03 -7.040280848741531372e-03 2.148199267685413361e-02 -4.010096658021211624e-03 -9.926581755280494690e-03 -5.421265028417110443e-03 3.194883931428194046e-03 -1.020901463925838470e-02 -5.394810438156127930e-02 -1.030638115480542183e-03 -2.279933396494016051e-04 -4.753958061337471008e-02 4.966516979038715363e-03 4.739440977573394775e-03 4.344347864389419556e-03 3.154543042182922363e-02 3.437522798776626587e-02 1.136352657340466976e-03 -1.829416304826736450e-02 4.041252657771110535e-03 -3.931168175768107176e-04 2.459072740748524666e-03 -4.669114947319030762e-03 4.350206814706325531e-03 -2.082755044102668762e-02 2.125696837902069092e-02 7.122475653886795044e-03 5.209237337112426758e-02 -7.005542516708374023e-03 -6.492914166301488876e-03 1.721267588436603546e-02 1.905750297009944916e-02 -9.708595462143421173e-03 1.948038674890995026e-02 2.184543199837207794e-02 8.566598990000784397e-04 6.154391448944807053e-03 1.004485320299863815e-02 2.201129309833049774e-02 -4.368154797703027725e-03 2.071861736476421356e-02 -1.622402854263782501e-02 1.683817803859710693e-02 1.639528758823871613e-02 1.971077546477317810e-02 2.021414227783679962e-02 1.226563006639480591e-03 7.088638376444578171e-03 -1.252035517245531082e-02 1.417799037881195545e-03 1.081744860857725143e-02 1.708784140646457672e-02 5.799358710646629333e-03 5.870391614735126495e-04 1.258690748363733292e-02 6.807927973568439484e-03 2.412600256502628326e-02 1.370785105973482132e-02 -5.009557935409247875e-04 7.478112354874610901e-03 2.058666758239269257e-02 -2.023922570515424013e-04 1.188326859846711159e-03 1.413016673177480698e-02 -3.434500889852643013e-03 5.508755333721637726e-03 -6.461042910814285278e-03 4.176392685621976852e-03 6.537728011608123779e-03 -2.876779064536094666e-03 1.074366737157106400e-02 -9.914781898260116577e-03 -9.293632581830024719e-03 -2.003254741430282593e-02 -1.129585551097989082e-03 1.913145184516906738e-02 2.144756540656089783e-02 2.923418651334941387e-05 -2.100086305290460587e-03 1.996282115578651428e-02
4.665863525588065386e-04 3.962375922128558159e-04 -8.531304774805903435e-05 -1.186313966172747314e-06 -6.573203336301958188e-06 3.758051199838519096e-03 -3.336025110911577940e-04 1.377772423438727856e-03 6.092507101129740477e-05 -6.796520756324753165e-05 -5.337637048796750605e-05 4.947238136082887650e-03 -8.517514652339741588e-05 -1.230835041496902704e-04 1.864565547293750569e-06 -1.195857521452126093e-06 -4.807778459507972002e-04 -1.849845750257372856e-03 -1.997944345930591226e-04 -2.741775642789434642e-05 -4.971149610355496407e-04 3.318585804663598537e-04 8.782661519944667816e-03 6.100278696976602077e-04 -1.538483309559524059e-03 -2.535659587010741234e-03 1.823004680545636802e-08 2.783305943012237549e-03 5.920180119574069977e-04 1.486824912717565894e-04 4.707875996246002614e-05 1.486798748373985291e-03 2.269018750666873530e-06 -2.384608524153009057e-05 7.396061118924990296e-05 1.770048518665134907e-03 7.942667252791579813e-06 -3.312691696919500828e-04 -1.654318533837795258e-03 -1.739849802106618881e-03 1.929910271428525448e-03 -1.055564644047990441e-05 2.095591844408772886e-05 3.968247983721084893e-05 6.507246289402246475e-04 -2.168330596759915352e-03 -4.353201074991375208e-05 -5.369402060750871897e-05 3.169005140080116689e-05 -1.574670022819191217e-05 3.176802420057356358e-04 7.908682455308735371e-04 8.699549944140017033e-04 -4.864789389102952555e-06 -2.016414327954407781e-05 3.208355279639363289e-03 3.786816378124058247e-04 -2.659647434484213591e-04 -1.214861869812011719e-03 -7.873503491282463074e-04 -3.097789594903588295e-04 1.326948311179876328e-02 -7.274663075804710388e-04 -1.666858210228383541e-03 2.043223503278568387e-04 2.834268707374576479e-05 2.790610305964946747e-04 2.112648682668805122e-03 -2.534360100980848074e-04 3.790344053413718939e-04 4.324706736952066422e-03 6.074558477848768234e-04 8.325135335326194763e-03 -3.814717638306319714e-05 -4.006918519735336304e-03 -4.402318503707647324e-03 -1.541171400276653003e-06 -1.392332930117845535e-02 -3.937198780477046967e-04 5.213039694353938103e-04 9.303560545959044248e-06 -8.512564818374812603e-04 -1.356208485958632082e-05 -6.799658149247989058e-05 1.623619609745219350e-04 -2.668295986950397491e-03 2.960458514280617237e-04 -7.579556549899280071e-04 -8.613857440650463104e-03 -9.597515454515814781e-04 -1.996070750465150923e-05 -5.190745469008106738e-06 5.232058174442499876e-05 2.389529399806633592e-04 4.389059729874134064e-03 5.313138477504253387e-03 -1.279069110751152039e-04 1.876476779580116272e-02 4.692911461461335421e-04 -1.359262823825702071e-04 8.775951573625206947e-04 -1.188859250396490097e-02 1.608433015644550323e-02 7.092576561262831092e-05 -5.934946238994598389e-05 6.358311511576175690e-04 3.759854473173618317e-03 -1.818312518298625946e-02 2.196321031078696251e-03 -8.712482638657093048e-03 -1.417128078173846006e-04 2.263445779681205750e-02 -1.880197552964091301e-03 9.582966566085815430e-03 -1.922662719152867794e-03 4.339243605500087142e-05 -1.341533008962869644e-02 1.366090681403875351e-02 -2.442235418129712343e-04 -6.926374975591897964e-03 1.935212872922420502e-02 3.310805186629295349e-03 2.279759198427200317e-02 6.530182063579559326e-02 -7.466723211109638214e-03 5.487111397087574005e-03 -2.289753183504217304e-06 -2.646867372095584869e-02 3.720440715551376343e-02 1.325240940786898136e-03 1.526023726910352707e-03 2.800798043608665466e-02 -2.757336711511015892e-03 5.510986011358909309e-05 7.587934378534555435e-04 -5.415162816643714905e-02 6.145433522760868073e-03 -5.398496869020164013e-04 9.189814329147338867e-03 1.627703546546399593e-03 -6.114166229963302612e-03 -3.371038837940432131e-05 -1.699991298664826900e-05 -3.469162038527429104e-05 -2.272544894367456436e-03 -1.331479288637638092e-02 -1.404205220751464367e-03 -7.449151575565338135e-02 1.928225392475724220e-04 3.667663550004363060e-03 -3.691155929118394852e-03 -1.189691573381423950e-02 9.748895652592182159e-03 -1.028325315564870834e-02 -1.475979946553707123e-02 4.012553021311759949e-03 -2.556548453867435455e-03 -1.541097182780504227e-03 -1.760400086641311646e-02 -1.208041887730360031e-02 -2.024111337959766388e-02 1.014933548867702484e-02 -1.732360571622848511e-02 -1.118344254791736603e-02 -1.561177242547273636e-02 -1.847767457365989685e-02 4.189596045762300491e-03 2.107652137055993080e-03 1.528424560092389584e-03 2.661889884620904922e-03 8.679291931912302971e-04 -9.785833768546581268e-03 5.343739408999681473e-03 9.565359796397387981e-04 -8.812298066914081573e-03 -1.338702905923128128e-02 -1.490696892142295837e-02 3.465823596343398094e-03 1.295855618081986904e-03 -2.249576337635517120e-02 -1.682630181312561035e-02 1.418340136297047138e-03 -6.472195498645305634e-03 -2.525069192051887512e-02 1.834269380196928978e-03 1.369325560517609119e-03 -4.935589386150240898e-04 -5.529393441975116730e-03 -1.266452600248157978e-03 -1.468260539695620537e-03 -1.405247603543102741e-03 9.622916579246520996e-03 1.076372526586055756e-02 2.313798852264881134e-02 1.234739366918802261e-02 -9.314910508692264557e-03 -1.043626572936773300e-02 -1.813097158446907997e-03 5.909445695579051971e-03 -3.133671358227729797e-02
1.780874561518430710e-03 2.859939588233828545e-03 -6.180039490573108196e-04 -1.547372376080602407e-04 4.077964695170521736e-04 1.226446591317653656e-03 2.699345583096146584e-03 1.462678483221679926e-04 1.673764316365122795e-03 -2.163634344469755888e-04 -8.430154994130134583e-04 -1.666585542261600494e-02 -4.283232614398002625e-03 6.986430380493402481e-03 -8.054175996221601963e-04 -5.286010564304888248e-04 -1.819282770156860352e-03 1.521060708910226822e-03 -5.713458813261240721e-05 -2.014842350035905838e-03 1.158553059212863445e-03 -8.405880071222782135e-03 6.350481417030096054e-03 2.189062768593430519e-03 -9.672468528151512146e-03 5.067598074674606323e-03 2.089923800667747855e-04 -6.134703289717435837e-05 2.353018644498661160e-04 -2.852389588952064514e-03 1.406539347954094410e-03 3.767481073737144470e-03 -5.920872557908296585e-03 -2.737976901698857546e-04 -4.244261654093861580e-04 5.517933517694473267e-03 4.244037438184022903e-03 -1.012615975923836231e-04 2.545931842178106308e-03 2.098932163789868355e-03 -7.333566900342702866e-04 1.814727438613772392e-04 2.314910292625427246e-03 3.097385168075561523e-03 -1.472553587518632412e-03 5.239732126938179135e-05 -2.890308387577533722e-03 -1.620325201656669378e-04 1.260828692466020584e-03 -4.333247430622577667e-03 3.352886298671364784e-03 9.140427573584020138e-04 4.273158032447099686e-03 5.794502158096292987e-06 5.545515450648963451e-04 2.354023046791553497e-03 9.185861796140670776e-03 3.426714567467570305e-03 2.279077423736453056e-03 2.918030833825469017e-03 -1.764542248565703630e-04 -2.215518988668918610e-02 -5.543164908885955811e-03 1.025769580155611038e-02 -2.449827035889029503e-03 -3.930653911083936691e-04 -2.477425616234540939e-03 2.298362739384174347e-02 2.454384230077266693e-03 -6.805959623306989670e-03 9.641243959777057171e-04 -1.007372792810201645e-02 2.299078367650508881e-02 2.227622270584106445e-02 -1.046499703079462051e-02 6.067260634154081345e-03 1.004564575850963593e-03 1.255493331700563431e-02 1.062472537159919739e-02 -2.876479644328355789e-03 1.411407371051609516e-03 1.594138145446777344e-02 -5.909866653382778168e-03 -6.497629219666123390e-04 -4.520647693425416946e-03 2.756471559405326843e-02 1.952286809682846069e-02 -2.639359328895807266e-03 -3.302035387605428696e-03 6.277613807469606400e-03 7.626607548445463181e-04 -3.093018021900206804e-04 3.093882231041789055e-03 3.468096256256103516e-03 -5.437646526843309402e-03 1.306637097150087357e-02 -2.658175304532051086e-03 2.579318359494209290e-02 -1.087712007574737072e-03 -6.227094680070877075e-03 4.657735582441091537e-03 -6.103761843405663967e-04 -7.923592813313007355e-03 -4.529665224254131317e-03 5.070012994110584259e-03 -1.219246629625558853e-02 1.570448093116283417e-02 -1.722397655248641968e-02 -3.603462129831314087e-03 1.760206930339336395e-02 6.492898333817720413e-03 -2.235177531838417053e-02 6.883589958306401968e-05 -1.493675820529460907e-02 -4.914188757538795471e-03 5.274042487144470215e-03 4.777634143829345703e-02 -7.284317631274461746e-03 -8.958806283771991730e-03 -1.668544486165046692e-02 -9.898843243718147278e-03 -5.833193194121122360e-03 3.075346536934375763e-02 -1.351384446024894714e-02 -7.680800743401050568e-03 -8.699190802872180939e-03 3.595191519707441330e-03 2.149816416203975677e-02 3.309381008148193359e-02 -3.165323287248611450e-03 -1.743497559800744057e-03 2.754784002900123596e-02 1.824878389015793800e-03 5.631376523524522781e-03 -2.936199121177196503e-02 -4.616222530603408813e-02 6.341297179460525513e-02 2.986853476613759995e-03 6.179851945489645004e-03 -1.645174063742160797e-02 -1.159206964075565338e-02 -8.194477995857596397e-04 -5.212322343140840530e-03 6.249863188713788986e-03 -2.602409385144710541e-02 -3.003325685858726501e-02 -3.444808244239538908e-04 -3.872975707054138184e-02 -4.907079972326755524e-03 -2.663531107828021049e-03 1.988099515438079834e-02 2.296670340001583099e-03 -9.798458777368068695e-04 2.693882444873452187e-03 8.554369211196899414e-03 1.081753362086601555e-04 1.881371019408106804e-03 3.596947062760591507e-03 -9.078874252736568451e-03 5.233902484178543091e-03 1.708350516855716705e-02 -1.437702868133783340e-02 2.023542858660221100e-02 1.708818972110748291e-02 1.454332028515636921e-03 7.527417503297328949e-03 -1.450178679078817368e-02 6.402191706001758575e-03 1.218459941446781158e-02 -1.907954178750514984e-02 -3.635482396930456161e-03 2.342164516448974609e-03 6.852603983134031296e-03 3.506237408146262169e-03 3.493579570204019547e-03 8.318131789565086365e-03 5.315470043569803238e-03 9.980609640479087830e-03 2.121291123330593109e-03 1.356480922549962997e-02 2.281442051753401756e-03 7.105660624802112579e-03 2.061407314613461494e-03 1.065859757363796234e-02 -1.179270632565021515e-02 7.525465916842222214e-03 1.400225330144166946e-02 -5.285955499857664108e-03 5.484459456056356430e-03 6.352850235998630524e-03 -1.389190903864800930e-03 -1.734625548124313354e-02 6.753275636583566666e-03 3.964183386415243149e-03 -3.070550039410591125e-03 2.614121185615658760e-03 7.272294722497463226e-03 8.411088492721319199e-05 3.063665237277746201e-03 1.882958598434925079e-02
-1.425072085112333298e-03 -1.814353512600064278e-03 -1.228881999850273132e-03 1.563482219353318214e-04 -3.342515265103429556e-04 5.791870062239468098e-04 -7.649095263332128525e-03 -1.888083992525935173e-03 -3.328045131638646126e-03 1.323191827395930886e-04 1.636262517422437668e-03 1.121093425899744034e-02 5.272732581943273544e-03 -9.228313138009980321e-05 5.868392530828714371e-03 9.793484350666403770e-04 -2.670345420483499765e-04 -5.651091691106557846e-03 -7.535410695709288120e-04 -3.008147468790411949e-04 -1.202550134621560574e-03 1.040682662278413773e-02 1.645186683163046837e-03 1.454230630770325661e-03 -5.671824910677969456e-04 -2.402703510597348213e-03 -4.233125073369592428e-04 -1.388726523146033287e-03 2.956247422844171524e-03 4.934658762067556381e-03 -1.711736316792666912e-03 6.498551811091601849e-04 7.581050042062997818e-03 7.470192504115402699e-04 1.823984668590128422e-03 -4.284747410565614700e-03 -6.970222573727369308e-03 9.479880827711895108e-05 -5.836770869791507721e-03 5.877434276044368744e-03 -1.673435326665639877e-04 -2.360397229494992644e-05 -2.075599477393552661e-04 3.540719626471400261e-03 -1.709063217276707292e-04 -1.194319315254688263e-02 5.155446473509073257e-03 -4.302584420656785369e-05 1.296815695241093636e-03 4.783179145306348801e-03 -4.568516742438077927e-03 -3.846908919513225555e-03 4.394198302179574966e-03 -3.983919741585850716e-04 -1.241865567862987518e-03 5.440922686830163002e-04 -6.923179607838392258e-03 -5.337449256330728531e-04 -8.626920171082019806e-03 -1.221905229613184929e-03 1.032849773764610291e-03 1.157795917242765427e-02 3.717147046700119972e-03 2.837493957486003637e-04 8.242356590926647186e-03 1.330019091255962849e-03 6.294426857493817806e-04 -2.529622800648212433e-02 -1.468907692469656467e-03 3.214428434148430824e-03 -7.201144937425851822e-03 1.247887592762708664e-02 -1.803734223358333111e-03 1.883164234459400177e-02 -1.780250924639403820e-03 -3.123837523162364960e-03 -1.777279423549771309e-03 -1.983137056231498718e-02 4.600379150360822678e-03 5.705262534320354462e-03 -2.407432300969958305e-03 -5.070875864475965500e-03 7.628726307302713394e-03 2.325727138668298721e-03 1.506541157141327858e-03 -7.187945768237113953e-03 -1.270788069814443588e-02 1.411994802765548229e-03 -1.289480086416006088e-02 3.377771237865090370e-03 -1.106050051748752594e-02 2.139314310625195503e-03 1.385027571814134717e-04 6.960498169064521790e-03 6.617750041186809540e-03 -2.440917305648326874e-03 9.204799309372901917e-03 9.644554927945137024e-03 2.117941156029701233e-03 3.842683974653482437e-03 2.205670578405261040e-03 -8.284005336463451385e-03 3.751000389456748962e-02 5.021109711378812790e-03 -5.064663942903280258e-03 6.173810455948114395e-03 -2.077402919530868530e-02 -2.150071226060390472e-02 1.084074750542640686e-02 -3.741720318794250488e-02 -2.471437677741050720e-03 1.047290489077568054e-02 -6.351576186716556549e-03 1.301628630608320236e-02 -1.522150007076561451e-03 -4.733859095722436905e-03 -5.020993575453758240e-02 -1.843062601983547211e-02 -4.728547297418117523e-03 -6.432204041630029678e-03 -1.488203648477792740e-02 8.526020683348178864e-03 -2.569879777729511261e-02 6.044646352529525757e-02 4.745098762214183807e-03 9.135762229561805725e-03 -3.772145137190818787e-03 -4.176178947091102600e-02 5.380498245358467102e-02 1.866283673734869808e-05 3.216119948774576187e-03 4.084037616848945618e-02 -5.281405989080667496e-03 -3.707283874973654747e-03 -1.283791009336709976e-02 -9.014295414090156555e-03 8.481661789119243622e-03 -1.351655926555395126e-03 1.494400762021541595e-02 5.830056499689817429e-03 -1.536067295819520950e-02 -3.088168567046523094e-03 4.910221789032220840e-03 1.436203310731798410e-04 4.501989856362342834e-02 -9.106800705194473267e-02 -5.902804550714790821e-04 -1.261992305517196655e-01 -1.663866452872753143e-02 6.710430607199668884e-03 -8.340069092810153961e-03 -2.437655813992023468e-02 2.691009081900119781e-03 5.068843252956867218e-03 -1.867562159895896912e-02 1.845772610977292061e-03 -5.076090339571237564e-03 -6.372781354002654552e-04 3.764914348721504211e-03 3.765156259760260582e-03 -1.082350499927997589e-02 6.199520546942949295e-03 3.526798915117979050e-03 2.329997951164841652e-03 -5.766277667135000229e-03 -4.735472612082958221e-03 -5.156543571501970291e-03 -8.495673537254333496e-03 -6.088171154260635376e-03 -2.059315145015716553e-02 4.366741515696048737e-03 4.499267321079969406e-03 1.429579686373472214e-03 2.152114408090710640e-03 -8.290669880807399750e-03 -2.354630967602133751e-03 -7.382849231362342834e-03 -2.261085610371083021e-04 2.256909618154168129e-03 6.968181580305099487e-03 -1.794903166592121124e-02 2.901558065786957741e-03 -1.252713799476623535e-02 -2.610972616821527481e-03 7.896498776972293854e-03 -2.625904278829693794e-03 4.045653156936168671e-03 1.083041075617074966e-02 -1.277644420042634010e-03 1.136111444793641567e-03 2.360168611630797386e-03 1.673277467489242554e-02 1.440540305338799953e-03 1.178606413304805756e-02 -1.325714029371738434e-02 -2.104728296399116516e-02 -1.657016389071941376e-02 1.743612228892743587e-04 5.431440193206071854e-03 1.813818002119660378e-03
2.327191177755594254e-03 8.955959347076714039e-04 6.698421202600002289e-03 1.223593717440962791e-04 7.444414950441569090e-05 3.896986600011587143e-03 -7.123815361410379410e-03 1.115412218496203423e-03 -2.954705385491251945e-03 3.260948287788778543e-04 1.176154590211808681e-03 3.191456780768930912e-04 1.908686826936900616e-03 7.688829209655523300e-04 1.391111291013658047e-04 4.242640279699116945e-04 -1.963246148079633713e-03 3.436017781496047974e-03 5.670250393450260162e-04 3.333685221150517464e-03 -6.426842417567968369e-03 6.199529860168695450e-03 -6.174250040203332901e-03 -5.646249046549201012e-04 3.451592521741986275e-03 5.026070866733789444e-03 -5.491825504577718675e-05 -2.734648762270808220e-03 4.117276112083345652e-04 2.780809300020337105e-03 5.879948148503899574e-04 -4.473609733395278454e-04 4.585402086377143860e-03 2.146182087017223239e-04 -4.199500835966318846e-04 -3.611150663346052170e-03 -1.035357010550796986e-03 1.897512469440698624e-03 4.638766404241323471e-03 5.325721576809883118e-05 -2.320555970072746277e-03 -1.077085471479222178e-04 -1.167658134363591671e-03 -1.482915016822516918e-03 -4.775007255375385284e-03 -1.092957239598035812e-02 2.819398883730173111e-03 1.459562645322876051e-05 -1.935196574777364731e-03 1.870134845376014709e-03 3.542229067534208298e-03 -4.315974656492471695e-03 1.417601574212312698e-02 3.788484609685838223e-04 1.723247405607253313e-04 3.417346393689513206e-03 -6.625909823924303055e-03 7.020387798547744751e-03 -6.025463342666625977e-03 6.487349746748805046e-04 1.658795401453971863e-03 1.485924702137708664e-03 1.632035011425614357e-03 3.862699959427118301e-04 1.896788831800222397e-03 6.392946816049516201e-04 -1.452457997947931290e-02 1.924193650484085083e-02 1.786487177014350891e-03 5.173474084585905075e-03 -1.186130475252866745e-02 7.823115214705467224e-03 5.139039829373359680e-03 1.645448803901672363e-02 7.161440793424844742e-03 7.296211086213588715e-03 -3.176492464262992144e-04 -7.249756716191768646e-03 2.482443675398826599e-02 3.410715144127607346e-03 3.721116576343774796e-03 1.128937397152185440e-02 4.563942551612854004e-03 4.931061412207782269e-04 -3.950425889343023300e-03 2.916936203837394714e-02 -2.807922428473830223e-04 2.827480668202042580e-03 -3.056689864024519920e-03 -2.018393250182271004e-03 4.975385381840169430e-04 -2.279923064634203911e-03 -1.596167916432023048e-03 -3.303266596049070358e-03 -3.036817535758018494e-03 2.303206420037895441e-04 5.591711960732936859e-03 1.173335313796997070e-02 -5.462636239826679230e-03 2.304073655977845192e-03 -3.339699935168027878e-03 -7.333685178309679031e-03 1.105213817209005356e-02 3.777368925511837006e-03 -3.759375307708978653e-03 2.010216849157586694e-04 5.191566422581672668e-03 6.544545176438987255e-04 6.651605479419231415e-03 -7.034976035356521606e-03 -5.164974369108676910e-03 -4.195795860141515732e-03 -2.324564615264534950e-03 4.508971702307462692e-03 5.163316614925861359e-03 -5.045899190008640289e-03 -2.819235809147357941e-02 1.706264168024063110e-02 -2.690291497856378555e-03 7.993512786924839020e-03 -2.199063822627067566e-02 5.818332545459270477e-03 -4.191376734524965286e-03 4.053483251482248306e-03 7.746285293251276016e-03 -9.689085185527801514e-03 -2.744734287261962891e-03 3.474347176961600780e-04 7.719943672418594360e-02 2.792270854115486145e-03 -2.909512957558035851e-03 2.180806361138820648e-02 -1.811158843338489532e-03 -5.403133109211921692e-03 6.644554901868104935e-03 -3.468245267868041992e-02 1.801200024783611298e-02 -6.608423427678644657e-04 2.874690853059291840e-02 -1.082706265151500702e-03 2.121598832309246063e-02 7.958376780152320862e-03 4.045716486871242523e-03 -5.874700378626585007e-03 -1.624409668147563934e-02 6.069737672805786133e-02 3.046721918508410454e-03 -8.267865329980850220e-02 -1.407979708164930344e-02 2.643582643941044807e-03 5.399460904300212860e-03 1.110226660966873169e-02 1.327318232506513596e-02 7.973919622600078583e-03 3.157285274937748909e-03 4.774692934006452560e-03 -6.102494895458221436e-03 2.381782047450542450e-03 -1.135145872831344604e-02 1.903724484145641327e-02 5.905063822865486145e-03 2.498962916433811188e-03 6.497025489807128906e-03 1.196563150733709335e-02 -1.209194073453545570e-03 6.401558406651020050e-03 -1.029923558235168457e-02 6.267618387937545776e-03 1.402723416686058044e-02 -7.558347191661596298e-03 -5.568019114434719086e-03 6.614706013351678848e-03 -3.638996509835124016e-03 -9.073678520508110523e-04 3.109682817012071609e-03 7.504438515752553940e-03 -4.049515817314386368e-03 -5.901612341403961182e-03 4.526558768702670932e-05 1.132433302700519562e-02 1.408399548381567001e-03 -1.943467184901237488e-03 1.552749332040548325e-02 3.195968223735690117e-03 -5.992708262056112289e-03 -3.455607919022440910e-03 -6.739893433405086398e-05 1.152053475379943848e-02 6.129391957074403763e-03 -4.547222517430782318e-03 -1.673387130722403526e-03 -4.377036355435848236e-03 -7.290593814104795456e-03 6.477553979493677616e-04 -4.240425769239664078e-03 -9.072765242308378220e-04 -6.700390949845314026e-04 6.131072877906262875e-04 5.424084141850471497e-03 1.970845833420753479e-02
2.645750762894749641e-03 2.662762068212032318e-03 -1.845086342655122280e-03 -1.756311248755082488e-04 6.335396319627761841e-04 -7.265479769557714462e-03 6.460624746978282928e-03 -9.648087434470653534e-04 1.211840426549315453e-04 5.098469555377960205e-04 -9.671598672866821289e-04 -5.535108502954244614e-03 -4.264857154339551926e-03 9.299036115407943726e-03 -8.757930481806397438e-04 -4.837419255636632442e-04 1.835185918025672436e-03 -2.023536013439297676e-03 -2.333101838303264230e-05 -5.525857675820589066e-03 4.814446438103914261e-03 -8.657263591885566711e-03 1.073177438229322433e-02 2.318059094250202179e-03 -8.887001313269138336e-03 4.102205857634544373e-03 1.965432456927374005e-04 1.400574296712875366e-02 1.507117558503523469e-04 -2.743294928222894669e-03 1.765429158695042133e-03 3.725226037204265594e-03 -6.289898883551359177e-03 -3.164727822877466679e-04 4.221225099172443151e-04 7.406211923807859421e-03 3.428570227697491646e-03 1.371761085465550423e-03 -2.123384270817041397e-03 -5.901439581066370010e-03 3.594325098674744368e-04 3.026589693035930395e-04 2.645084634423255920e-03 3.911845851689577103e-03 6.710493471473455429e-04 7.478133775293827057e-03 -2.699956996366381645e-03 -8.609532233094796538e-05 2.431977307423949242e-03 -4.471956752240657806e-03 4.799092654138803482e-03 -7.453478407114744186e-03 -2.362172352150082588e-03 -6.627733819186687469e-05 1.090540667064487934e-03 -6.480669137090444565e-03 5.389627534896135330e-03 -2.534742234274744987e-03 1.240385900018736720e-04 3.941840957850217819e-03 -4.173340857960283756e-04 -9.483918547630310059e-03 -4.828973673284053802e-03 1.026634220033884048e-02 -2.818017965182662010e-03 -2.504559815861284733e-04 8.485897444188594818e-03 3.193469718098640442e-03 2.122011035680770874e-03 -1.147463824599981308e-02 -3.403738606721162796e-03 -1.004715170711278915e-02 8.097186684608459473e-03 5.382957868278026581e-03 -1.084179989993572235e-02 5.001696292310953140e-03 8.956910460256040096e-04 1.101718936115503311e-02 1.885977690108120441e-04 -2.531045582145452499e-03 2.297452650964260101e-03 5.850222078152000904e-04 -6.523334421217441559e-03 -6.662832456640899181e-04 -2.120518591254949570e-03 -3.653075313195586205e-03 9.189491160213947296e-03 1.373368082568049431e-03 -4.003328736871480942e-03 -5.018725525587797165e-03 9.551795665174722672e-04 6.123417551862075925e-05 3.441613866016268730e-03 5.427972413599491119e-03 -8.218580856919288635e-03 4.953041789121925831e-04 -1.140537278843112290e-04 1.227087806910276413e-02 4.607765004038810730e-03 -6.066853180527687073e-03 1.078760810196399689e-02 -2.434870973229408264e-02 -2.069252543151378632e-03 -4.629919305443763733e-03 5.655077286064624786e-03 1.039133989252150059e-03 -8.266207762062549591e-03 -2.097819233313202858e-03 -5.816380959004163742e-03 1.711278036236763000e-02 6.450301501899957657e-03 -1.250647008419036865e-02 -5.955736851319670677e-04 -1.508474443107843399e-02 -4.532149527221918106e-03 5.535944830626249313e-03 3.845273330807685852e-02 5.209282785654067993e-02 -3.897504648193717003e-03 -1.671625114977359772e-02 1.198554132133722305e-02 -5.608731880784034729e-03 4.883071035146713257e-02 4.434794187545776367e-02 -6.531693041324615479e-03 -1.271169167011976242e-02 3.743096953257918358e-03 -2.737167058512568474e-03 4.549916833639144897e-02 -3.516028169542551041e-03 -2.112176734954118729e-03 2.334222942590713501e-02 1.884830417111515999e-03 5.839432589709758759e-03 -2.075083926320075989e-02 -6.250547617673873901e-02 4.746799916028976440e-02 4.297613166272640228e-03 1.177085470408201218e-02 3.898445749655365944e-03 -6.640138570219278336e-03 -1.867097569629549980e-03 -5.591385532170534134e-03 8.085641078650951385e-03 -1.398868393152952194e-02 6.195078790187835693e-02 -1.015042071230709553e-03 -6.627092510461807251e-02 2.291113883256912231e-02 -2.020047046244144440e-03 4.677711520344018936e-03 -5.139600019901990891e-03 -1.541316788643598557e-02 -2.202886156737804413e-03 -5.206681671552360058e-04 -6.895810365676879883e-03 4.914807155728340149e-03 1.370405079796910286e-04 -3.908691927790641785e-03 4.086958710104227066e-03 8.191969245672225952e-03 -1.407805550843477249e-02 1.798067614436149597e-02 8.236658759415149689e-03 4.842581693083047867e-03 2.469122875481843948e-03 -1.419892720878124237e-02 3.027809783816337585e-03 4.832823295146226883e-03 -1.791414618492126465e-02 -1.745900255627930164e-03 -2.581767505034804344e-03 9.960025548934936523e-03 3.866913495585322380e-03 -5.983729846775531769e-03 3.498937468975782394e-03 8.157571777701377869e-03 1.879674755036830902e-02 2.184894867241382599e-03 6.939469370990991592e-03 -8.234689012169837952e-03 6.544638425111770630e-03 -7.774863392114639282e-03 9.251638315618038177e-03 -9.696942754089832306e-03 1.088333874940872192e-02 1.187505479902029037e-02 -2.598730847239494324e-03 6.643047090619802475e-03 -4.824422299861907959e-03 -4.135955241508781910e-04 -7.444682065397500992e-03 -1.400128712703008205e-05 7.253743824549019337e-04 4.041080828756093979e-04 7.615565788000822067e-03 3.138613654300570488e-03 9.061636519618332386e-04 -9.055932052433490753e-03 1.863183267414569855e-02
