1.053918525576591492e-02 1.313770626438781619e-04 2.068433212116360664e-03 -1.993429614230990410e-03 2.240523463115096092e-03 6.176744587719440460e-03 5.446887109428644180e-03 -6.326242146315053105e-05 1.994994003325700760e-03 2.041356405243277550e-03 5.630725063383579254e-03 7.275498472154140472e-03 1.237815245985984802e-03 -8.913486090023070574e-05 2.303475281223654747e-03 4.657369572669267654e-03 9.660897776484489441e-03 8.625449612736701965e-03 2.147420542314648628e-03 -9.126885561272501945e-04 2.462408971041440964e-03 -6.226366167538799345e-06 9.348029852844774723e-04 -1.156238722614943981e-04 5.367767298594117165e-04 1.427923049777746201e-02 6.920846644788980484e-03 -2.696528565138578415e-03 -5.741721019148826599e-03 4.814499057829380035e-03 1.882300153374671936e-02 2.120071323588490486e-03 9.495924226939678192e-03 -2.566378936171531677e-02 6.613456644117832184e-03 9.215597994625568390e-03 1.099717430770397186e-02 -8.456172654405236244e-04 4.454688169062137604e-03 6.474237889051437378e-04 1.283745095133781433e-02 2.731451066210865974e-03 4.348301794379949570e-03 -4.426470259204506874e-04 -5.007151048630475998e-04 3.179365023970603943e-02 1.438920572400093079e-02 1.545477472245693207e-02 -5.171494558453559875e-03 8.090465562418103218e-04 4.696362651884555817e-03 -2.176594716729596257e-05 3.006066195666790009e-03 1.021534670144319534e-02 3.820151556283235550e-03 1.549109816551208496e-02 2.905963920056819916e-03 1.318576629273593426e-03 2.972333692014217377e-03 -1.569486688822507858e-03 -2.781240642070770264e-02 -4.155009519308805466e-03 5.406900122761726379e-02 3.221881017088890076e-02 -1.621869206428527832e-02 1.296714134514331818e-02 -2.243033051490783691e-02 3.205197863280773163e-03 4.089909419417381287e-02 1.932148635387420654e-02 -9.069066494703292847e-03 1.426496636122465134e-02 6.265155505388975143e-03 -1.740515790879726410e-02 1.923819654621183872e-04 4.786756262183189392e-02 -4.896405339241027832e-02 3.221759200096130371e-02 2.096095867455005646e-02 -9.535142220556735992e-03 4.128131084144115448e-03 2.277102321386337280e-04 -1.204911340028047562e-02 1.462659146636724472e-02 -3.603572025895118713e-03 -2.943018451333045959e-02 6.105743348598480225e-03 2.541813955758698285e-05 -1.105376705527305603e-01 -2.666842890903353691e-03 1.605788990855216980e-02 -1.171622145920991898e-02 2.724119462072849274e-03 -4.502043128013610840e-02 -2.433552592992782593e-02 1.065269485116004944e-01 -9.438605606555938721e-02 2.279916516272351146e-04 3.100024536252021790e-03 -4.453117959201335907e-03 8.410191163420677185e-03 -6.336792837828397751e-03 2.414373494684696198e-02 3.728556446731090546e-03 7.400026079267263412e-03 -3.249146416783332825e-02 1.383886951953172684e-02 4.370787367224693298e-02 1.556078251451253891e-02 6.068561924621462822e-04 6.502940785139799118e-03 1.527237296104431152e-01 2.969803987070918083e-03 4.912959877401590347e-03 9.095226228237152100e-02 1.105269882827997208e-02 7.949581369757652283e-03 -9.815394878387451172e-03 1.439655572175979614e-02 4.683522973209619522e-03
2.406186424195766449e-03 -2.426586252113338560e-05 9.232917800545692444e-03 -9.929683990776538849e-03 -2.757149050012230873e-04 -9.874094976112246513e-04 -4.850555560551583767e-04 -9.246725239790976048e-04 5.300241522490978241e-03 -2.688631415367126465e-03 8.615912869572639465e-03 -4.116447176784276962e-03 -2.287480514496564865e-03 -7.107582641765475273e-04 -8.137108525261282921e-04 -9.137143380939960480e-03 1.219182368367910385e-02 5.974267696728929877e-05 -1.835467992350459099e-03 -3.247916465625166893e-04 1.395412953570485115e-03 -8.838100256980396807e-06 3.929042140953242779e-04 1.088493131101131439e-02 -1.068297307938337326e-03 4.625475034117698669e-03 8.735228329896926880e-03 -2.011551987379789352e-04 8.211926557123661041e-03 2.874936442822217941e-03 -1.923362375237047672e-03 -3.217552730347961187e-04 1.514849439263343811e-02 2.672658860683441162e-02 8.440844248980283737e-04 3.363979049026966095e-03 9.339084848761558533e-03 -2.376387128606438637e-03 5.885407794266939163e-03 -3.966782707720994949e-03 2.268811315298080444e-02 2.140518091619014740e-02 -2.239383757114410400e-03 -2.487616846337914467e-03 -5.934488493949174881e-03 -2.046496607363224030e-02 1.204234268516302109e-02 1.405060850083827972e-02 -8.481943048536777496e-03 1.448422088287770748e-03 2.497723326086997986e-04 -2.854018748621456325e-05 1.448544440791010857e-03 1.907011307775974274e-02 -9.967492660507559776e-04 1.086261589080095291e-03 3.409466473385691643e-03 2.521261107176542282e-03 2.040840312838554382e-02 -6.287322845309972763e-03 1.865628408268094063e-03 -7.447467069141566753e-04 -6.505811959505081177e-02 -2.283287048339843750e-02 -6.211521569639444351e-03 1.450604177080094814e-03 -5.539702251553535461e-03 8.537366054952144623e-03 -1.236541420221328735e-01 1.143294945359230042e-02 6.642595399171113968e-03 -9.646678715944290161e-02 -1.174661330878734589e-03 1.334378775209188461e-02 -5.358014255762100220e-02 2.584342844784259796e-02 1.145350337028503418e-01 2.975226007401943207e-02 5.252848938107490540e-02 1.109392833313904703e-04 -2.673744037747383118e-02 2.379269426455721259e-04 -8.455852046608924866e-03 -1.106682047247886658e-01 -1.261725992662832141e-05 -7.090612500905990601e-02 4.295604676008224487e-02 -5.151906237006187439e-02 9.459320455789566040e-02 -3.222160041332244873e-02 -2.702110074460506439e-02 -9.328345209360122681e-02 1.133586559444665909e-02 -4.787521809339523315e-02 -9.991611354053020477e-03 1.054813563823699951e-01 -8.287056535482406616e-02 -1.270299777388572693e-03 4.520296584814786911e-03 7.608604151755571365e-03 1.232859306037425995e-02 1.565638463944196701e-03 2.336384262889623642e-03 -9.285211563110351562e-04 -1.202021725475788116e-03 -3.728201612830162048e-03 1.411266252398490906e-02 -2.330255322158336639e-02 -8.939428254961967468e-03 7.962293457239866257e-04 -3.749463940039277077e-04 -1.479432880878448486e-01 1.291522756218910217e-03 7.536564953625202179e-03 2.662411704659461975e-02 9.249247377738356590e-04 8.945279754698276520e-03 -4.117979668080806732e-03 6.508316379040479660e-03 8.302907808683812618e-04
2.658655866980552673e-03 3.013286041095852852e-04 2.407593885436654091e-03 1.016456913203001022e-02 2.714287256821990013e-03 4.572704900056123734e-03 5.758095998317003250e-03 -9.676664922153577209e-05 6.086358334869146347e-04 -5.554655799642205238e-04 6.110895890742540359e-03 2.922704443335533142e-03 1.568765146657824516e-03 -4.739055875688791275e-04 1.148334587924182415e-03 9.302338585257530212e-03 9.701818227767944336e-03 4.907971713691949844e-03 3.555329982191324234e-03 -1.421198598109185696e-03 2.223826246336102486e-03 -5.350077117327600718e-06 1.263471669517457485e-03 -2.512999810278415680e-03 5.817700875923037529e-04 1.277002133429050446e-02 7.378696464002132416e-03 -3.251598915085196495e-03 -6.000387482345104218e-03 5.144624970853328705e-03 2.558608306571841240e-03 2.643780782818794250e-03 8.800171315670013428e-03 2.229954674839973450e-02 6.414650473743677139e-03 8.566832402721047401e-04 9.912294335663318634e-03 -8.436247007921338081e-04 -5.446955561637878418e-03 -2.186506753787398338e-03 9.229778312146663666e-03 -7.336063310503959656e-03 4.185314755886793137e-03 -1.492918236181139946e-03 -1.077549881301820278e-03 1.930000260472297668e-02 4.753715824335813522e-03 1.185910683125257492e-02 1.010169554501771927e-02 -1.366887008771300316e-04 3.461231710389256477e-03 -1.618209898879285902e-05 3.177887992933392525e-03 8.400400402024388313e-04 3.286441322416067123e-03 6.881117820739746094e-03 2.730022650212049484e-03 8.565039606764912605e-04 -1.765705086290836334e-02 -4.304492322262376547e-04 -5.913466215133666992e-03 -6.680140271782875061e-03 2.515442483127117157e-02 -3.733573481440544128e-03 -1.253566239029169083e-02 9.550370275974273682e-03 -1.504215039312839508e-02 -5.367181729525327682e-03 7.615415006875991821e-02 2.325570676475763321e-03 -7.514903694391250610e-02 8.007807657122612000e-03 7.443966809660196304e-03 4.052713513374328613e-03 -1.650823839008808136e-02 1.649012416601181030e-02 -4.204413294792175293e-02 8.421860635280609131e-03 2.579567767679691315e-02 1.842319592833518982e-02 -3.539933124557137489e-03 1.572753069922327995e-03 -2.091608330374583602e-04 -7.317082583904266357e-02 -6.159048061817884445e-03 3.353113681077957153e-02 -1.862962543964385986e-02 3.849002346396446228e-02 4.626234248280525208e-02 2.873456105589866638e-03 2.627687714993953705e-02 3.508013114333152771e-02 3.587146522477269173e-03 6.407832354307174683e-02 4.209451377391815186e-03 6.533786654472351074e-02 -3.936940431594848633e-02 3.252389142289757729e-04 4.099986981600522995e-04 -1.200564904138445854e-03 7.849569432437419891e-03 3.983007278293371201e-03 4.382779449224472046e-02 2.385292202234268188e-03 5.580960307270288467e-03 -2.574043162167072296e-02 1.325590815395116806e-02 1.550121325999498367e-02 1.574030146002769470e-02 -3.631653671618551016e-04 4.769250284880399704e-03 9.571773931384086609e-03 3.976305481046438217e-03 2.780213020741939545e-03 1.066155582666397095e-01 9.830235503613948822e-03 8.448671549558639526e-03 -1.180286490125581622e-04 5.631867796182632446e-03 5.162844434380531311e-03
-1.475995685905218124e-02 -6.058121216483414173e-04 -2.657059812918305397e-03 -4.627624899148941040e-02 -4.121283069252967834e-03 -7.144350558519363403e-03 -7.464274298399686813e-03 2.029419410973787308e-04 -3.907635342329740524e-03 -1.442153821699321270e-03 -6.841731257736682892e-03 -7.349510211497545242e-03 -2.148845000192523003e-03 5.388342542573809624e-04 -1.243140548467636108e-03 -2.520634979009628296e-02 -1.125123631209135056e-02 -4.989013541489839554e-03 -2.412406262010335922e-03 1.662039081566035748e-03 -2.469777828082442284e-03 8.377905942325014621e-06 -1.559920026920735836e-03 2.927042776718735695e-03 -1.199849415570497513e-03 -1.458237692713737488e-02 -8.357520215213298798e-03 4.362499341368675232e-03 2.629741327837109566e-03 -5.333367735147476196e-03 1.414613611996173859e-02 -3.814602969214320183e-03 -9.851388633251190186e-03 3.628562763333320618e-02 -7.965057156980037689e-03 -9.758454747498035431e-03 -2.418393082916736603e-02 1.053120824508368969e-03 -2.954012714326381683e-03 6.400329293683171272e-04 -1.315415836870670319e-02 1.261981669813394547e-02 -6.022168323397636414e-03 1.664050039835274220e-03 3.468459704890847206e-03 -1.385055575519800186e-02 -1.283879578113555908e-02 9.851272217929363251e-03 -9.532144293189048767e-03 4.680149722844362259e-04 -2.805573400110006332e-03 2.994340502482373267e-05 -3.379265544936060905e-03 5.542098544538021088e-03 -5.984195508062839508e-03 -1.164076942950487137e-02 -1.473045907914638519e-03 -4.175140056759119034e-03 -2.232967875897884369e-03 2.118628006428480148e-03 1.339100208133459091e-02 6.184379570186138153e-03 -6.113451719284057617e-02 -5.245657265186309814e-02 2.056338824331760406e-02 -1.200759503990411758e-02 3.045727871358394623e-02 -7.552229799330234528e-03 2.786633931100368500e-02 -2.627894468605518341e-02 -8.744730800390243530e-02 -4.474210739135742188e-02 -8.690626360476016998e-03 1.385484356433153152e-02 2.407276071608066559e-02 -5.620667338371276855e-02 -6.883477419614791870e-02 -3.583217784762382507e-02 -5.266379937529563904e-02 4.088010266423225403e-02 -7.907354156486690044e-04 -4.844092472922056913e-05 9.058823343366384506e-04 2.372496202588081360e-02 4.849603865295648575e-03 -4.649816080927848816e-02 -4.598688799887895584e-03 7.361181825399398804e-02 7.212603092193603516e-02 3.574033034965395927e-03 -2.816711924970149994e-02 7.541655004024505615e-02 -3.205713350325822830e-03 -7.288496196269989014e-02 -8.739654719829559326e-02 -1.478390768170356750e-04 -1.014291495084762573e-01 -2.089026238536462188e-04 -4.468396306037902832e-03 -1.858762092888355255e-02 -9.677037596702575684e-03 -7.387711200863122940e-03 -5.406637117266654968e-02 -3.041380783542990685e-03 -5.936651490628719330e-03 -2.590672671794891357e-02 -1.635919883847236633e-02 -8.144352585077285767e-03 -4.131400492042303085e-03 6.764947320334613323e-04 -6.183468736708164215e-03 1.237587854266166687e-01 -4.208995960652828217e-03 -2.962686354294419289e-03 5.422404035925865173e-02 -1.216948591172695160e-02 -9.694117121398448944e-03 -1.137469988316297531e-02 -1.579391956329345703e-02 -5.056495312601327896e-03
8.856059983372688293e-03 7.223539869301021099e-04 1.345799304544925690e-03 7.583710364997386932e-03 4.037714097648859024e-03 7.161880843341350555e-03 7.293709553778171539e-03 -2.349534479435533285e-04 2.261314541101455688e-03 1.868501421995460987e-03 5.190804600715637207e-03 4.528656601905822754e-03 2.356383251026272774e-03 -1.340107264695689082e-04 2.736162394285202026e-03 1.372621301561594009e-02 9.519989602267742157e-03 4.069190472364425659e-03 2.384356455877423286e-03 -7.958740461617708206e-04 2.666820073500275612e-03 -4.998922577215125784e-06 1.135357073508203030e-03 -3.134048311039805412e-03 1.542606041766703129e-03 1.399034634232521057e-02 6.686903070658445358e-03 -3.034002380445599556e-03 6.677172495983541012e-04 4.540672525763511658e-03 2.682237140834331512e-02 3.868440166115760803e-03 8.241673000156879425e-03 5.360629037022590637e-02 9.530525654554367065e-03 1.782908290624618530e-02 1.640510000288486481e-02 -1.018903683871030807e-03 3.078745212405920029e-03 5.117905791848897934e-03 1.015978492796421051e-02 3.082365915179252625e-02 5.948065780103206635e-03 -6.394577794708311558e-04 -4.783298063557595015e-04 -1.022614911198616028e-02 1.190419215708971024e-02 2.749250084161758423e-02 7.696032058447599411e-03 5.728045944124460220e-04 3.866530489176511765e-03 -1.603797500138171017e-05 2.676765201613306999e-03 4.497110377997159958e-03 5.750119220465421677e-03 1.368384808301925659e-02 1.035927678458392620e-03 3.298889205325394869e-04 3.325726091861724854e-02 -2.088257344439625740e-03 -3.092471510171890259e-02 -4.109576810151338577e-03 5.394557490944862366e-02 1.916537433862686157e-02 -1.693027466535568237e-02 1.457267720252275467e-02 -2.383922599256038666e-02 9.344263933598995209e-03 3.292250260710716248e-02 1.861078105866909027e-02 6.394010782241821289e-02 -2.450975403189659119e-02 7.366127800196409225e-03 -3.121592802926898003e-03 9.237203747034072876e-03 -1.811907999217510223e-02 9.349111467599868774e-02 1.890116371214389801e-02 -3.194588422775268555e-02 1.065456960350275040e-02 -1.134850550442934036e-02 -4.634005890693515539e-04 -1.211746409535408020e-02 4.510401934385299683e-02 -3.189681563526391983e-03 9.902505204081535339e-03 2.374476566910743713e-02 -6.888762861490249634e-02 6.317123770713806152e-02 -1.355242263525724411e-02 9.664584696292877197e-02 8.815534412860870361e-02 1.632963423617184162e-03 -4.932459443807601929e-02 3.078993409872055054e-02 -5.698396638035774231e-02 -7.290093693882226944e-03 2.437469811411574483e-05 3.380693728104233742e-03 -6.610971409827470779e-03 7.531026843935251236e-03 -1.597039774060249329e-02 -3.963391482830047607e-02 3.769103204831480980e-03 7.898008450865745544e-03 4.386226460337638855e-02 1.388015411794185638e-02 1.933085732161998749e-02 -6.872578524053096771e-03 5.912613705731928349e-04 6.809168029576539993e-03 1.477468758821487427e-01 3.301057731732726097e-03 3.843084909021854401e-03 -7.126411795616149902e-02 1.191318780183792114e-02 7.893042638897895813e-03 -5.753152538090944290e-03 4.692976828664541245e-03 4.301882814615964890e-03
4.953589523211121559e-04 1.283217425225302577e-04 -9.686819976195693016e-04 -1.745282788760960102e-03 1.742861059028655291e-04 -4.002099012723192573e-05 5.142129157320596278e-05 2.355551405344158411e-04 4.363552725408226252e-04 2.555266837589442730e-04 -2.245621290057897568e-03 -2.498972462490200996e-04 5.034866044297814369e-04 2.161226730095222592e-04 -2.742379438132047653e-04 8.064510766416788101e-04 -3.345675300806760788e-03 -7.212386117316782475e-05 2.044110442511737347e-04 1.253380556590855122e-03 -7.702144794166088104e-04 2.414552682239445858e-06 4.841654154006391764e-04 -8.767583640292286873e-04 3.488671500235795975e-04 -3.412238089367747307e-03 -2.538008382543921471e-03 1.796041760826483369e-04 -1.235391246154904366e-03 -1.181693281978368759e-03 2.656711731106042862e-03 1.149509189417585731e-04 -5.389832891523838043e-03 2.282364293932914734e-03 2.802148446789942682e-05 -6.107700522989034653e-03 -1.834527938626706600e-03 5.641272873617708683e-04 -2.271655015647411346e-03 8.790058200247585773e-04 -7.138958666473627090e-03 -8.586701005697250366e-03 6.861861911602318287e-04 1.262057223357260227e-03 3.519670804962515831e-03 -5.616786889731884003e-03 -6.732068024575710297e-03 4.139174707233905792e-04 -4.108183493372052908e-04 5.770887364633381367e-04 -8.351291180588304996e-04 7.473548976122401655e-06 8.932817727327346802e-04 -3.632536157965660095e-03 3.740088432095944881e-04 -7.637673057615756989e-03 -5.607465864159166813e-04 -3.255131887272000313e-03 -8.360214531421661377e-03 2.355003496631979942e-03 4.092518240213394165e-03 1.779286685632541776e-04 -5.917983502149581909e-02 3.236641176044940948e-03 2.375628333538770676e-03 -1.175796031020581722e-03 4.014507401734590530e-03 -5.637180991470813751e-03 -1.102088857442140579e-02 -5.060138646513223648e-03 -4.253290221095085144e-02 -3.209976851940155029e-02 2.094381634378805757e-04 6.292004254646599293e-04 2.195596694946289062e-03 -6.734080146998167038e-03 1.244979351758956909e-02 -4.303927067667245865e-03 -7.531238719820976257e-03 5.832416936755180359e-03 4.853826481848955154e-03 8.596523548476397991e-04 -3.617261536419391632e-04 5.702114105224609375e-02 1.717712293611839414e-04 1.166737079620361328e-02 -1.792661473155021667e-02 3.032003715634346008e-02 -5.808863788843154907e-04 1.550005096942186356e-02 -1.610284671187400818e-02 -3.719716891646385193e-02 -2.709858817979693413e-03 -1.840331219136714935e-02 -2.540950290858745575e-02 -6.177400425076484680e-02 6.293950974941253662e-02 4.498523776419460773e-04 6.569309625774621964e-04 -5.082419011159799993e-05 -3.436266211792826653e-03 7.832877337932586670e-03 -4.361857846379280090e-02 4.017070750705897808e-04 -3.446796908974647522e-04 -1.411582110449671745e-03 -4.223532974720001221e-03 -2.354528941214084625e-02 1.733192708343267441e-03 8.391846204176545143e-04 -1.535331481136381626e-03 4.324068129062652588e-02 8.303041104227304459e-04 -4.898823681287467480e-04 7.916331291198730469e-02 -3.146383911371231079e-03 -2.599456580355763435e-03 -5.935371853411197662e-03 -1.138980733230710030e-03 -1.160257088486105204e-04
2.374461153522133827e-03 2.257333253510296345e-04 -4.339396487921476364e-03 1.764618325978517532e-03 6.240820512175559998e-04 4.476264584809541702e-04 9.538431768305599689e-04 4.656964156311005354e-04 -2.895611105486750603e-03 6.685250438749790192e-03 -1.027977280318737030e-02 8.570450358092784882e-03 1.595418783836066723e-03 2.503165276721119881e-03 4.642805084586143494e-03 2.120390534400939941e-03 -1.086807809770107269e-02 -3.811107308138161898e-05 6.182190962135791779e-03 8.311568759381771088e-03 1.463296823203563690e-03 9.062136996362823993e-06 -1.604260411113500595e-03 1.104536838829517365e-02 1.252406742423772812e-03 -1.808703527785837650e-03 -9.494056925177574158e-03 5.934649612754583359e-03 1.050573121756315231e-02 -2.895948244258761406e-03 -2.261688001453876495e-03 2.287176030222326517e-04 -2.141529927030205727e-03 6.091688759624958038e-03 7.420561742037534714e-04 1.023640856146812439e-03 3.214007883798331022e-04 1.826216583140194416e-03 4.007486160844564438e-03 1.003542635589838028e-02 -1.551511790603399277e-02 1.220071874558925629e-02 1.554405200295150280e-03 5.379039794206619263e-03 1.280815433710813522e-02 5.342814140021800995e-03 6.895856000483036041e-03 1.180865336209535599e-03 7.384324446320533752e-03 1.289890054613351822e-02 1.199689600616693497e-02 3.659797221189364791e-05 -5.732985213398933411e-03 1.538012456148862839e-02 1.356335589662194252e-03 3.049030201509594917e-03 5.149541888386011124e-03 2.440933603793382645e-03 1.571328006684780121e-02 4.573447629809379578e-03 -9.428332559764385223e-04 -1.304166042245924473e-03 -3.241664543747901917e-02 -1.683087833225727081e-02 -2.310486743226647377e-03 -7.819630554877221584e-04 -5.088763282401487231e-05 -1.251721568405628204e-02 -6.039770320057868958e-03 2.268153708428144455e-03 4.734846577048301697e-02 -1.708243973553180695e-02 1.060264650732278824e-03 -1.514820102602243423e-02 2.363623119890689850e-02 -3.340927185490727425e-03 2.278482541441917419e-02 8.336479659192264080e-04 1.261819247156381607e-02 -1.830445416271686554e-02 3.420261666178703308e-02 1.520110527053475380e-05 1.295830029994249344e-02 -6.496598571538925171e-02 -1.922061201184988022e-03 6.452047079801559448e-02 -4.700165707617998123e-03 -7.456049788743257523e-03 3.722427412867546082e-02 -3.756962018087506294e-03 6.634990870952606201e-02 3.444712981581687927e-02 -1.639918074943125248e-03 6.532217562198638916e-02 -3.062606044113636017e-02 -7.268849294632673264e-03 7.599656283855438232e-02 1.215923548443242908e-04 1.234925875905901194e-04 9.192548692226409912e-03 -1.084372773766517639e-02 2.307020500302314758e-02 3.455810993909835815e-02 2.798473695293068886e-03 4.165371414273977280e-03 1.313444785773754120e-02 -1.117369439452886581e-02 1.212881226092576981e-02 2.001622132956981659e-02 9.384096600115299225e-03 2.751118503510951996e-03 4.124572873115539551e-02 -3.380145877599716187e-03 7.041164673864841461e-03 -2.374329604208469391e-02 1.186802401207387447e-03 -1.105695310980081558e-02 9.319368749856948853e-03 8.072312921285629272e-03 -2.048924565315246582e-03
4.600589745678007603e-04 1.702517038211226463e-04 3.029785118997097015e-03 -2.167497295886278152e-03 4.290856013540178537e-04 -3.727742005139589310e-04 6.536744185723364353e-04 3.167991235386580229e-05 2.597509417682886124e-03 -1.357181929051876068e-03 -2.113185357302427292e-03 -1.476351986639201641e-03 4.179461393505334854e-04 7.139262161217629910e-04 2.268795622512698174e-03 -1.482172170653939247e-03 -1.869246829301118851e-03 -1.023022108711302280e-03 -1.459389575757086277e-03 1.194485463201999664e-03 5.245739128440618515e-03 5.871523853784310631e-07 8.654783596284687519e-04 -1.183263724669814110e-03 5.141608417034149170e-04 3.204865846782922745e-03 -1.953871455043554306e-03 -3.454194171354174614e-03 -2.643866697326302528e-03 -8.782786899246275425e-04 -3.207566449418663979e-03 7.416683365590870380e-04 5.756567232310771942e-03 -7.867746986448764801e-03 1.138390391133725643e-03 -4.550934827420860529e-04 7.785647758282721043e-04 3.890539810527116060e-04 7.669832091778516769e-03 7.548651046818122268e-05 3.450060903560370207e-04 9.771842742338776588e-04 3.400230780243873596e-04 1.205933862365782261e-03 4.485833924263715744e-03 -1.026592799462378025e-03 7.772409822791814804e-03 -1.523702638223767281e-03 -2.469439525157213211e-03 1.515123760327696800e-03 4.078132566064596176e-03 2.040075514742056839e-06 7.149799057515338063e-05 1.954579958692193031e-03 1.306253834627568722e-03 3.199197526555508375e-04 2.315179677680134773e-03 -4.520098213106393814e-03 2.997251693159341812e-03 -7.935476605780422688e-04 -2.534362720325589180e-03 -5.230372189544141293e-04 -3.369277715682983398e-02 7.641908712685108185e-03 -1.213479088619351387e-03 -8.909886819310486317e-04 -1.223183702677488327e-03 -1.352154184132814407e-03 -9.357038885354995728e-02 -1.443348242901265621e-03 -2.269580587744712830e-02 4.355594981461763382e-03 2.542885020375251770e-03 -9.167381795123219490e-04 1.205115765333175659e-02 -1.742064254358410835e-03 -2.775390073657035828e-02 -1.276997965760529041e-03 1.518744416534900665e-02 -1.533086411654949188e-02 2.275114180520176888e-03 -1.211114809848368168e-03 2.005699556320905685e-03 -3.823478706181049347e-03 -1.072895247489213943e-03 8.001949638128280640e-03 1.756119355559349060e-02 -3.498864918947219849e-02 -3.868762776255607605e-02 -9.855999611318111420e-03 1.507078064605593681e-03 1.232127100229263306e-02 2.399865770712494850e-03 -1.542326994240283966e-02 -3.628356847912073135e-03 -4.444021731615066528e-02 -5.390371382236480713e-02 -1.929997961269691586e-04 4.659816157072782516e-03 5.617189221084117889e-03 -2.783227479085326195e-03 4.889064468443393707e-03 -9.620976634323596954e-03 2.636763732880353928e-03 4.727421794086694717e-03 -7.514679455198347569e-04 -2.466058824211359024e-03 8.763540536165237427e-03 5.466283182613551617e-04 1.622968586161732674e-03 7.843764498829841614e-03 9.110982716083526611e-02 1.394490129314363003e-03 1.762842526659369469e-03 3.427473083138465881e-02 6.297502666711807251e-03 -2.150550018996000290e-03 4.573001933749765158e-04 2.932825591415166855e-03 4.709647328127175570e-04
7.235294324345886707e-04 -2.212856052210554481e-04 -4.321978427469730377e-03 -3.446138696745038033e-03 -2.443214878439903259e-03 -4.114089068025350571e-03 -5.643515847623348236e-03 2.230934769613668323e-04 -6.995932199060916901e-03 -2.296457387274131179e-05 -7.887763902544975281e-03 -1.394149032421410084e-03 -8.893507765606045723e-05 -2.093810180667787790e-04 -1.935367123223841190e-03 -1.430062204599380493e-02 -1.197073608636856079e-02 -2.699659438803792000e-03 -2.008877927437424660e-03 1.042031683027744293e-03 -3.398308530449867249e-03 9.170506018563173711e-06 -1.923193573020398617e-03 -2.117095515131950378e-03 -1.694487291388213634e-04 -1.540071982890367508e-02 -8.797218091785907745e-03 2.686596708372235298e-03 1.911396742798388004e-03 -5.614849738776683807e-03 -1.001768652349710464e-02 -2.446944592520594597e-03 -1.224096398800611496e-02 2.393399178981781006e-02 -5.774040706455707550e-03 -2.116229385137557983e-02 -1.480493135750293732e-02 1.560486620292067528e-03 -5.710334051400423050e-03 -7.722986629232764244e-04 -1.512042339891195297e-02 -6.496089510619640350e-03 -2.649985719472169876e-03 1.766686473274603486e-04 3.902040654793381691e-03 -1.600610651075839996e-02 -1.274612732231616974e-02 -1.674299873411655426e-02 -6.799465976655483246e-03 -1.490465947426855564e-04 -4.964082501828670502e-03 3.260761877754703164e-05 -3.342334646731615067e-03 -6.575752981007099152e-03 -3.019567811861634254e-03 -9.193657897412776947e-03 -2.661033067852258682e-03 -6.792968139052391052e-03 -1.650129444897174835e-02 2.215171465650200844e-03 8.031557314097881317e-03 3.888347418978810310e-03 -1.960641471669077873e-03 3.241986036300659180e-03 1.673128269612789154e-02 -1.218151766806840897e-02 1.548593770712614059e-02 -7.212545722723007202e-03 7.611881196498870850e-02 -1.050056051462888718e-02 -1.496955845504999161e-02 -1.388331502676010132e-02 -4.247452598065137863e-03 -3.568402491509914398e-03 -8.701899088919162750e-03 2.072119712829589844e-02 -5.774854496121406555e-02 -2.140322327613830566e-02 -5.467538535594940186e-02 1.873412751592695713e-03 1.248977519571781158e-02 9.888997738016769290e-06 6.331612356007099152e-03 5.312223732471466064e-02 2.142392797395586967e-03 -1.073633041232824326e-02 -6.503988988697528839e-03 -1.424263697117567062e-02 -9.359399974346160889e-02 1.690789475105702877e-03 -7.410457730293273926e-02 -2.691298164427280426e-02 -6.715628318488597870e-03 -2.732291258871555328e-02 -5.221471935510635376e-02 3.652705252170562744e-02 5.185370892286300659e-02 -2.606875113997375593e-06 -8.737528696656227112e-03 -1.370265032164752483e-03 -1.308695320039987564e-02 -1.887700520455837250e-02 -1.793784671463072300e-03 -5.218228325247764587e-03 -7.599888835102319717e-03 -3.689865395426750183e-02 -1.722995378077030182e-02 6.399207748472690582e-03 3.704380244016647339e-03 -3.306432627141475677e-04 -8.253673091530799866e-03 8.313766121864318848e-02 -4.628077149391174316e-03 -7.684923242777585983e-03 -1.856465637683868408e-02 -1.253542769700288773e-02 -1.022760383784770966e-02 7.041293662041425705e-03 -9.536352939903736115e-03 -5.664238706231117249e-03
7.416080683469772339e-03 8.148738415911793709e-04 1.541723846457898617e-03 5.804527550935745239e-03 3.915395587682723999e-03 6.209675222635269165e-03 6.703378632664680481e-03 3.128506941720843315e-04 5.026162252761423588e-04 1.007127459160983562e-03 4.773222841322422028e-03 6.618188228458166122e-03 2.356374170631170273e-03 3.459320214460603893e-05 1.728322939015924931e-03 4.145240876823663712e-03 9.638947434723377228e-03 8.985950611531734467e-03 5.554944742470979691e-03 -1.019134651869535446e-03 2.245709998533129692e-03 -5.020945536671206355e-06 1.440556021407246590e-03 3.232373856008052826e-04 1.596048474311828613e-03 1.251468807458877563e-02 7.127652410417795181e-03 -1.465110690332949162e-03 -1.097367727197706699e-03 5.409775301814079285e-03 -2.339943312108516693e-03 3.681323491036891937e-03 9.863888844847679138e-03 9.028798900544643402e-03 8.960611186921596527e-03 2.179313451051712036e-02 1.639765873551368713e-02 -3.234960604459047318e-04 5.518915597349405289e-03 1.143806148320436478e-03 1.128458790481090546e-02 5.314266774803400040e-03 4.605981986969709396e-03 -8.940090629039332271e-05 -1.363360555842518806e-03 1.523754210211336613e-03 2.010040357708930969e-02 1.735156401991844177e-02 1.034918334335088730e-02 1.145134563557803631e-03 5.841092206537723541e-03 -1.681499270489439368e-05 2.364856656640768051e-03 9.264181368052959442e-03 5.132418591529130936e-03 1.362319849431514740e-02 6.150854751467704773e-03 8.420108817517757416e-03 1.843122392892837524e-02 -8.409190340898931026e-04 -1.622558012604713440e-02 -7.385456468909978867e-03 -8.615777641534805298e-02 3.677777573466300964e-02 -1.353291328996419907e-02 1.065746322274208069e-02 -1.896740682423114777e-02 5.655314773321151733e-03 -8.831452578306198120e-02 1.907346770167350769e-02 5.342655256390571594e-02 4.977567121386528015e-03 6.749052088707685471e-03 -1.012023910880088806e-02 7.200640160590410233e-03 2.191780321300029755e-02 -2.435324527323246002e-02 3.461825847625732422e-02 8.080611936748027802e-03 1.617421978153288364e-03 4.241491202265024185e-03 1.062501687556505203e-03 2.154223853722214699e-03 -9.079473465681076050e-02 -6.340339314192533493e-03 1.428047195076942444e-02 3.808983601629734039e-03 -1.426398102194070816e-02 -4.634562507271766663e-02 -1.444105058908462524e-02 1.547115016728639603e-02 5.917144007980823517e-03 3.148662159219384193e-03 -2.268641442060470581e-02 6.402631849050521851e-02 9.229194372892379761e-02 9.892993420362472534e-02 9.722866234369575977e-04 2.324882661923766136e-03 1.002358365803956985e-02 7.635586429387331009e-03 2.059474587440490723e-02 3.608251363039016724e-02 4.525152966380119324e-03 6.525321863591670990e-03 2.945097535848617554e-02 1.402974501252174377e-02 2.517822198569774628e-02 -4.345648630987852812e-05 5.092849605716764927e-04 7.197603117674589157e-03 2.018415834754705429e-03 3.935626242309808731e-03 6.320499349385499954e-03 1.181286573410034180e-01 1.046515628695487976e-02 8.417638018727302551e-03 1.093133003450930119e-03 1.327003631740808487e-02 5.484789609909057617e-03
1.173945330083370209e-02 4.902119399048388004e-04 9.522764012217521667e-04 3.225733712315559387e-02 3.551097586750984192e-03 7.312312256544828415e-03 6.599443033337593079e-03 1.514653849881142378e-04 1.929326797835528851e-03 3.169814590364694595e-03 5.620152223855257034e-03 6.302251946181058884e-03 2.001083921641111374e-03 5.243372870609164238e-04 3.520498285070061684e-03 1.855105534195899963e-02 1.026097778230905533e-02 4.187468439340591431e-03 7.992959581315517426e-03 -2.063769352389499545e-04 2.901928732171654701e-03 -6.089623184379888698e-06 1.268301624804735184e-03 1.470651477575302124e-03 1.189594157040119171e-03 1.485793385654687881e-02 7.149556186050176620e-03 -2.455464098602533340e-03 -3.902080934494733810e-03 5.470986943691968918e-03 5.503655876964330673e-03 3.345471108332276344e-03 7.816738449037075043e-03 4.510522261261940002e-02 7.451673038303852081e-03 5.744635127484798431e-04 1.502687856554985046e-02 -6.439586868509650230e-04 4.155620466917753220e-03 2.578393090516328812e-03 1.070538908243179321e-02 3.317844495177268982e-02 5.223392974585294724e-03 5.636293208226561546e-04 1.227957312949001789e-03 7.910080254077911377e-03 1.375625468790531158e-02 2.806108631193637848e-02 1.239241007715463638e-02 1.503771753050386906e-03 5.202618427574634552e-03 -2.180773481086362153e-05 3.098506014794111252e-03 6.385284475982189178e-03 4.972008522599935532e-03 1.522446330636739731e-02 2.848318545147776604e-03 8.128932677209377289e-03 3.622111305594444275e-02 -4.179847601335495710e-04 -1.335080340504646301e-02 -3.789321985095739365e-03 -2.838355116546154022e-02 2.673817239701747894e-02 -1.561325509101152420e-02 1.393984537571668625e-02 -1.889606378972530365e-02 6.307169329375028610e-03 6.667309999465942383e-02 1.988094113767147064e-02 2.604485675692558289e-02 -1.053406074643135071e-01 7.171294186264276505e-03 3.179333638399839401e-03 1.737336441874504089e-02 4.775116965174674988e-02 6.323132663965225220e-02 2.109841210767626762e-03 3.201761841773986816e-02 -6.368012167513370514e-03 -5.077730398625135422e-03 -2.013918128795921803e-04 -3.228407585993409157e-03 3.057917021214962006e-02 -2.896031364798545837e-03 2.838792651891708374e-02 -1.875458844006061554e-02 -4.892564937472343445e-02 4.304808378219604492e-02 -6.014846730977296829e-03 1.222438216209411621e-01 4.801489040255546570e-02 1.457083155401051044e-03 8.616413176059722900e-02 -3.776473551988601685e-02 1.060098037123680115e-01 2.313858829438686371e-02 5.620443844236433506e-04 3.243567189201712608e-03 9.542186744511127472e-03 8.158205077052116394e-03 3.238606825470924377e-02 4.844935238361358643e-02 5.137113854289054871e-03 9.436353109776973724e-03 -9.537705220282077789e-03 1.486028637737035751e-02 -3.180430456995964050e-02 1.747545972466468811e-02 1.477844896726310253e-03 7.740871980786323547e-03 -3.172828257083892822e-02 2.907328773289918900e-03 5.607855506241321564e-03 2.293169312179088593e-02 1.191965676844120026e-02 8.445112034678459167e-03 1.561638340353965759e-02 1.531088259071111679e-03 5.183108150959014893e-03
-4.429731518030166626e-03 2.908448805101215839e-04 3.464337671175599098e-03 9.192072320729494095e-04 1.731792930513620377e-03 5.290205590426921844e-03 3.907622303813695908e-03 -7.447405951097607613e-04 4.804925527423620224e-03 -2.497878391295671463e-03 7.857629097998142242e-03 8.045827038586139679e-03 2.781368966680020094e-04 -7.779807783663272858e-04 -7.216829108074307442e-04 5.005270242691040039e-03 1.090149022638797760e-02 8.166301064193248749e-03 8.777338080108165741e-03 -2.027911134064197540e-03 2.509260550141334534e-03 -4.552576683636289090e-06 4.948928835801780224e-04 -4.484754055738449097e-03 3.132720012217760086e-04 1.133122108876705170e-02 8.255196735262870789e-03 -2.393073402345180511e-03 1.027918793261051178e-02 4.454785492271184921e-03 -1.832788810133934021e-02 1.753230462782084942e-03 9.903260506689548492e-03 -4.280065651983022690e-03 4.243259783834218979e-03 1.063580997288227081e-02 2.070042304694652557e-02 -1.743173343129456043e-03 3.282398451119661331e-03 -8.522346615791320801e-04 1.584768295288085938e-02 -2.573541179299354553e-02 3.418829059228301048e-03 -2.615158678963780403e-03 -7.261295802891254425e-03 4.925807565450668335e-02 1.289016101509332657e-02 -9.703896939754486084e-04 -4.881548695266246796e-03 -1.380125992000102997e-03 8.499744581058621407e-04 -1.361470185656799003e-05 1.537650823593139648e-03 1.668120035901665688e-03 3.274507820606231689e-03 6.879436317831277847e-03 1.106824493035674095e-03 7.841975428164005280e-03 4.989986494183540344e-02 -4.057127516716718674e-03 -2.076243050396442413e-02 -1.031495281495153904e-03 -9.337100386619567871e-02 -2.200331352651119232e-02 -9.355994872748851776e-03 1.067337393760681152e-02 -1.944078132510185242e-02 1.208987925201654434e-02 8.219975233078002930e-02 2.271913923323154449e-02 -7.776436209678649902e-02 6.896264106035232544e-02 3.924109507352113724e-03 -1.965625211596488953e-02 -2.184405922889709473e-02 3.795485943555831909e-02 1.876944303512573242e-02 1.645789109170436859e-02 5.194116011261940002e-02 2.406879886984825134e-02 -1.273384224623441696e-02 -5.519206752069294453e-04 -1.116154436022043228e-02 -1.210971996188163757e-01 -7.539910729974508286e-04 -3.466843068599700928e-02 -1.944839954376220703e-03 -5.609420686960220337e-02 6.831461936235427856e-02 -2.600663341581821442e-03 -3.140753135085105896e-02 -7.667501270771026611e-02 3.709808690473437309e-03 1.034963969141244888e-02 -4.075800254940986633e-02 8.323272690176963806e-03 -1.901564188301563263e-02 -5.858447984792292118e-04 5.203811917454004288e-03 4.028948023915290833e-03 1.116731576621532440e-02 1.553909201174974442e-02 -5.656189844012260437e-02 1.709059230051934719e-03 2.618966158479452133e-03 6.446315348148345947e-02 1.417373307049274445e-02 -7.019695639610290527e-02 1.540427212603390217e-03 -1.576063223183155060e-03 4.706757608801126480e-03 -9.907618165016174316e-02 2.520318143069744110e-03 3.833894152194261551e-03 1.845154212787747383e-03 9.659935720264911652e-03 9.158540517091751099e-03 2.157601714134216309e-02 2.354059368371963501e-02 4.049280658364295959e-03
6.077675498090684414e-04 1.350952225038781762e-04 -2.201148075982928276e-03 1.958705717697739601e-03 -9.044964826898649335e-05 -3.207526868209242821e-03 -1.467283698730170727e-03 5.503405191120691597e-05 -2.772587118670344353e-03 -1.418122206814587116e-03 -6.266833283007144928e-03 -4.976633004844188690e-03 3.601046919357031584e-04 -4.758403229061514139e-04 -2.764957025647163391e-03 2.561119152233004570e-03 -9.586425498127937317e-03 -4.966642241925001144e-03 -3.739404957741498947e-03 4.364174965303391218e-04 -3.262825077399611473e-03 5.507883997779572383e-06 -9.067882783710956573e-04 -6.518068257719278336e-04 5.455828504636883736e-04 -1.371498405933380127e-02 -6.770852953195571899e-03 1.394010381773114204e-03 7.734042010270059109e-04 -4.981833975762128830e-03 -2.008930593729019165e-02 -1.667552278377115726e-04 -8.717976510524749756e-03 -9.768499992787837982e-03 -2.617492573335766792e-03 -5.870789755135774612e-03 -4.393010400235652924e-03 8.496434893459081650e-04 -4.835420288145542145e-03 -3.376683918759226799e-03 -1.173203717917203903e-02 -1.764933392405509949e-02 -1.171380747109651566e-03 -1.771880488377064466e-04 4.296364204492419958e-04 8.589144796133041382e-03 -1.339036505669355392e-02 -2.771340543404221535e-03 -6.042032036930322647e-03 -9.440434514544904232e-04 -4.828929435461759567e-03 2.013360426644794643e-05 -2.470858395099639893e-03 -8.744693361222743988e-03 -9.774437639862298965e-04 -1.374172326177358627e-02 -2.349522896111011505e-03 -1.096297334879636765e-02 -2.626900747418403625e-02 9.964100318029522896e-04 1.587235182523727417e-02 6.121941260062158108e-05 -1.833304204046726227e-02 -4.703386873006820679e-02 4.055188968777656555e-03 -7.703220471739768982e-03 1.030470430850982666e-02 -9.576384909451007843e-03 -7.717736810445785522e-02 -1.589077711105346680e-02 1.680754683911800385e-02 6.528977304697036743e-02 -3.003418212756514549e-03 9.266175329685211182e-03 -2.009310387074947357e-02 1.859499514102935791e-02 -2.433692663908004761e-02 -1.294896844774484634e-02 -5.446426570415496826e-02 -1.224105828441679478e-03 4.213673062622547150e-03 1.942321832757443190e-04 7.012027781456708908e-03 -2.542447671294212341e-02 -1.029757258947938681e-04 -4.204999655485153198e-02 1.028963550925254822e-02 2.680982649326324463e-02 -1.268271654844284058e-01 -5.756556638516485691e-04 -1.081270873546600342e-01 -7.562005519866943359e-02 -2.772164298221468925e-03 -9.523604065179824829e-02 -2.926527149975299835e-02 -1.381224095821380615e-01 -7.108303159475326538e-02 -2.761671203188598156e-04 -3.822719212621450424e-03 1.874723006039857864e-03 -9.491086937487125397e-03 7.112060207873582840e-03 5.136994272470474243e-02 -4.785554017871618271e-03 -8.395790122449398041e-03 -6.217124685645103455e-02 -1.347294915467500687e-02 -3.006670065224170685e-02 -2.283117733895778656e-02 -9.420581045560538769e-04 -7.394336163997650146e-03 -7.941912114620208740e-02 -2.881702501326799393e-03 -5.884579382836818695e-03 6.006811279803514481e-03 -1.048806868493556976e-02 -7.720810826867818832e-03 5.047457525506615639e-04 -5.775062832981348038e-03 -5.083720199763774872e-03
-6.533283740282058716e-03 -3.165940288454294205e-04 -8.780554635450243950e-04 -1.238256972283124924e-02 -3.134316997602581978e-03 -6.237520836293697357e-03 -6.409556604921817780e-03 2.781212242553010583e-05 -2.890689764171838760e-03 -2.218381501734256744e-03 -5.112949758768081665e-03 -6.753017194569110870e-03 -1.780188642442226410e-03 -3.354064538143575191e-04 -2.507335506379604340e-03 -4.714921116828918457e-03 -8.989512920379638672e-03 -6.639589555561542511e-03 -5.503691267222166061e-03 5.276279407553374767e-04 -2.465328201651573181e-03 5.251617039903067052e-06 -9.546002838760614395e-04 -1.221823855303227901e-03 -7.432904094457626343e-04 -1.266280747950077057e-02 -6.426210980862379074e-03 2.245744690299034119e-03 8.201146847568452358e-04 -4.710414912551641464e-03 -1.815804652869701385e-02 -2.878914121538400650e-03 -7.068307138979434967e-03 -1.364834513515233994e-02 -7.469482719898223877e-03 -1.744281873106956482e-02 -1.457139663398265839e-02 7.572502363473176956e-04 -6.665577180683612823e-03 -3.707311116158962250e-03 -1.138359773904085159e-02 -1.999337784945964813e-02 -4.728820640593767166e-03 -6.093956471886485815e-05 8.715700823813676834e-05 -2.857762447092682123e-04 -1.342922355979681015e-02 -1.222946215420961380e-02 -8.350230753421783447e-03 -1.138810766860842705e-03 -4.211326595395803452e-03 1.655157939239870757e-05 -2.640298102051019669e-03 -1.001429278403520584e-02 -4.179757554084062576e-03 -1.237649098038673401e-02 -2.422895748168230057e-03 -3.514354350045323372e-03 -2.542572841048240662e-02 1.071434118784964085e-03 2.665297500789165497e-02 6.670642644166946411e-03 -3.095347993075847626e-02 -5.614059790968894958e-02 1.244576368480920792e-02 -1.464589498937129974e-02 1.829772628843784332e-02 -1.025424245744943619e-02 4.249001387506723404e-03 -1.757463812828063965e-02 2.046879380941390991e-02 -4.274037480354309082e-02 -7.415917236357927322e-03 8.540431968867778778e-03 -2.601175010204315186e-02 -4.470993205904960632e-02 -2.468892838805913925e-03 -2.430304884910583496e-02 -5.438801273703575134e-02 2.964049763977527618e-02 8.113636285997927189e-04 -1.085820840671658516e-03 1.903799944557249546e-03 -1.211572811007499695e-01 5.609164480119943619e-03 -3.040130622684955597e-02 -7.128833793103694916e-03 -1.976659521460533142e-02 -1.765868440270423889e-02 3.408073680475354195e-03 3.701874613761901855e-02 -8.400336652994155884e-02 -1.640108996070921421e-03 -5.503026023507118225e-02 5.303972959518432617e-02 -8.144360966980457306e-03 -8.363987505435943604e-02 -3.264308325015008450e-04 -4.110599402338266373e-03 -6.497595924884080887e-03 -7.297787815332412720e-03 -2.040834911167621613e-02 4.113281890749931335e-02 -4.117220640182495117e-03 -7.482409477233886719e-03 8.736055344343185425e-03 -1.304174773395061493e-02 -4.322474077343940735e-02 -5.217667203396558762e-04 -1.053612329997122288e-03 -5.981152411550283432e-03 -1.199762821197509766e-01 -3.155440324917435646e-03 -5.706078372895717621e-03 -1.070537567138671875e-01 -9.357832372188568115e-03 -7.590214256197214127e-03 -9.313875809311866760e-03 -8.281596004962921143e-03 -4.622657783329486847e-03
-1.576084410771727562e-03 -6.172967841848731041e-04 -3.160228952765464783e-03 -3.003568202257156372e-02 -4.554903600364923477e-03 -1.180234085768461227e-02 -8.067362010478973389e-03 -1.671823993092402816e-04 -5.137590691447257996e-03 -2.789659425616264343e-03 -8.044654503464698792e-03 -2.058330364525318146e-02 -2.165407873690128326e-03 -1.848233368946239352e-04 -3.474571974948048592e-03 -3.115148283541202545e-02 -1.357705239206552505e-02 -3.752301912754774094e-03 -7.458121515810489655e-03 8.364735404029488564e-04 -3.600485622882843018e-03 9.065480298886541277e-06 -2.578186802566051483e-03 -4.355565644800662994e-03 -1.366449054330587387e-03 -1.763143949210643768e-02 -9.591189213097095490e-03 5.120650865137577057e-03 1.250034570693969727e-02 -7.166368421167135239e-03 2.077371440827846527e-02 -4.031086806207895279e-03 -1.098832767456769943e-02 -8.497951924800872803e-02 -1.119766943156719208e-02 -3.543143346905708313e-02 -2.178703993558883667e-02 8.301554480567574501e-04 -6.047172937542200089e-03 -1.040500216186046600e-02 -1.589681766927242279e-02 2.127287909388542175e-02 -6.980346515774726868e-03 2.336734905838966370e-04 1.121665234677493572e-03 4.222066327929496765e-02 -1.647021993994712830e-02 -1.783832092769443989e-03 1.059263478964567184e-02 -8.034259080886840820e-04 -4.914579447358846664e-03 3.056009882129728794e-05 -4.494204651564359665e-03 -6.973853334784507751e-03 -6.406625267118215561e-03 -1.521041430532932281e-02 -2.557291882112622261e-03 -2.025100961327552795e-02 1.179986540228128433e-02 1.622756593860685825e-03 3.410122543573379517e-02 4.517870023846626282e-03 -6.221556104719638824e-03 -5.401724949479103088e-02 1.581134647130966187e-02 -5.868175998330116272e-03 2.033232897520065308e-02 1.149074826389551163e-02 -1.050397455692291260e-01 -1.504344493150711060e-02 -9.786734730005264282e-02 5.377242341637611389e-02 -8.641367778182029724e-03 -2.320484025403857231e-03 2.920585311949253082e-02 -1.795433647930622101e-02 -4.256511572748422623e-03 -3.433914482593536377e-02 -6.147526949644088745e-02 4.392471536993980408e-02 1.542527042329311371e-02 3.310538304504007101e-04 1.846112497150897980e-02 -1.476303189992904663e-01 3.404406132176518440e-03 5.215113610029220581e-02 1.224680896848440170e-02 -1.205969322472810745e-02 -2.094675786793231964e-02 -7.823862135410308838e-03 6.947538256645202637e-02 -5.513555929064750671e-02 -3.799130674451589584e-03 -9.124065935611724854e-02 -8.892872184514999390e-02 7.301390916109085083e-02 3.064213320612907410e-02 -8.211256936192512512e-04 -6.710111163556575775e-03 -9.070541127584874630e-04 -1.196919381618499756e-02 -3.754176944494247437e-02 8.067494630813598633e-02 -5.212375894188880920e-03 -9.706684388220310211e-03 -5.757354944944381714e-02 -2.024786546826362610e-02 -3.981696441769599915e-02 2.673722617328166962e-02 -8.857655338943004608e-04 -8.506538346409797668e-03 -7.139520347118377686e-02 -5.593695212155580521e-03 -7.318940013647079468e-03 -1.358858197927474976e-01 -1.454582251608371735e-02 -1.159817259758710861e-02 2.161627402529120445e-03 -6.956626311875879765e-04 -7.582121063023805618e-03
-3.925085067749023438e-03 8.930962067097425461e-04 3.188548143953084946e-03 -2.626773156225681305e-02 5.173088517040014267e-03 7.815941236913204193e-03 8.577778004109859467e-03 6.993969873292371631e-05 4.985700361430644989e-03 5.154666956514120102e-03 7.546037435531616211e-03 1.018944941461086273e-02 2.578709507361054420e-03 3.841541911242529750e-05 3.541686339303851128e-03 3.465743036940693855e-03 1.317711919546127319e-02 -8.694349671714007854e-04 -2.735412679612636566e-03 -7.686901954002678394e-04 3.913346678018569946e-03 -8.586147487221751362e-06 2.476664027199149132e-03 -3.651273204013705254e-03 1.822479069232940674e-03 1.780224032700061798e-02 9.097349829971790314e-03 -5.470938514918088913e-03 -1.390306372195482254e-02 6.886098533868789673e-03 4.872491583228111267e-02 4.568382631987333298e-03 1.124013494700193405e-02 -1.438056305050849915e-02 1.549005601555109024e-02 3.444419428706169128e-02 2.328512817621231079e-02 -9.305347921326756477e-04 5.801331251859664917e-03 1.287101861089468002e-02 1.526268664747476578e-02 1.770635694265365601e-02 7.667803205549716949e-03 -2.368948771618306637e-04 -9.960272582247853279e-04 2.072024531662464142e-02 1.256704423576593399e-02 1.140545308589935303e-02 2.128728292882442474e-02 7.924867677502334118e-04 5.258561577647924423e-03 -2.851936187653336674e-05 4.168688785284757614e-03 8.423410356044769287e-03 7.613532245159149170e-03 1.509157102555036545e-02 2.071537310257554054e-03 2.052129432559013367e-02 2.891275659203529358e-02 -2.274967497214674950e-03 -2.925509586930274963e-02 -5.097203887999057770e-03 -6.444023549556732178e-02 4.278400912880897522e-02 -2.646143920719623566e-02 1.356406975537538528e-02 -3.419544920325279236e-02 2.134076505899429321e-02 -1.112485304474830627e-01 1.085599797079339623e-04 1.103301420807838440e-01 -1.085094064474105835e-01 8.474617265164852142e-03 3.951966762542724609e-03 -2.849951386451721191e-03 7.251816801726818085e-03 5.836311262100934982e-03 5.099783837795257568e-02 2.386466786265373230e-02 -4.081244394183158875e-02 6.405486725270748138e-03 -3.333622589707374573e-04 -4.008245654404163361e-03 -4.427060484886169434e-02 -3.965173382312059402e-03 -4.143202677369117737e-02 -1.044274959713220596e-02 9.048725478351116180e-03 9.498296678066253662e-02 7.778231520205736160e-03 1.123602092266082764e-01 1.140894889831542969e-01 3.781331470236182213e-03 -8.863618969917297363e-02 -8.199712634086608887e-02 9.935970604419708252e-02 -8.936345577239990234e-02 5.750500131398439407e-04 6.460748612880706787e-03 2.056182548403739929e-02 1.124615874141454697e-02 2.063812687993049622e-03 6.768896430730819702e-02 5.036906339228153229e-03 9.488617070019245148e-03 1.385910995304584503e-02 1.968894340097904205e-02 -5.368983373045921326e-03 -3.690716112032532692e-04 1.133454730734229088e-03 8.472883142530918121e-03 1.643997430801391602e-01 5.106402561068534851e-03 3.095539053902029991e-03 -8.220762014389038086e-02 1.533478964120149612e-02 1.112556457519531250e-02 -1.239056815393269062e-03 1.309049688279628754e-02 6.980030331760644913e-03
9.621029719710350037e-03 2.117378870025277138e-03 3.638922236859798431e-03 8.729642257094383240e-03 6.406915839761495590e-03 1.210960745811462402e-02 1.003442332148551941e-02 -8.823898388072848320e-04 1.324725919403135777e-03 1.018167939037084579e-03 3.929825965315103531e-03 4.330276977270841599e-03 4.894596990197896957e-03 -1.443181070499122143e-03 5.865960381925106049e-03 3.056884743273258209e-03 1.075853127986192703e-02 1.123405434191226959e-02 5.648454651236534119e-03 -1.645638374611735344e-03 1.665566698648035526e-03 8.972126124717760831e-06 1.449267147108912468e-03 -5.152045749127864838e-03 4.533417522907257080e-03 1.674331538379192352e-02 7.641834206879138947e-03 -8.700632490217685699e-03 -7.808709982782602310e-03 5.811705719679594040e-03 -4.394594114273786545e-03 6.502965465188026428e-03 1.303276792168617249e-02 -1.565343327820301056e-02 1.205196511000394821e-02 3.494030982255935669e-02 1.687220670282840729e-02 -2.124577062204480171e-03 -1.395507482811808586e-03 -5.900709074921905994e-04 7.289072964340448380e-03 5.497141741216182709e-03 9.940671734511852264e-03 -1.767975743860006332e-03 2.587922383099794388e-03 1.653713732957839966e-02 5.198289174586534500e-03 2.240014448761940002e-02 6.633151788264513016e-03 -6.906236521899700165e-04 3.088186029344797134e-03 3.918049696949310601e-05 1.536803087219595909e-03 -2.132927766069769859e-03 1.031957659870386124e-02 1.538870763033628464e-02 -2.104897284880280495e-03 1.292174914851784706e-03 4.718651995062828064e-03 -4.768389742821455002e-03 -1.055063097737729549e-03 -9.450783021748065948e-03 2.962736412882804871e-02 6.418772786855697632e-02 -1.619952917098999023e-02 2.221731469035148621e-02 -3.187450394034385681e-02 1.893781684339046478e-02 -8.269461244344711304e-02 1.686708070337772369e-02 6.613549590110778809e-02 -1.169398985803127289e-02 1.017743442207574844e-02 9.211237542331218719e-03 1.806151494383811951e-02 3.673614189028739929e-02 1.243359968066215515e-01 3.567612543702125549e-02 4.455249384045600891e-02 -1.237106136977672577e-02 -1.042538508772850037e-02 1.089568482711911201e-03 -3.160395659506320953e-03 -1.325187273323535919e-02 -9.514732286334037781e-03 -4.583219066262245178e-02 5.162277445197105408e-02 1.791119948029518127e-02 3.592457855120301247e-03 -1.897472888231277466e-02 -5.004464462399482727e-02 -5.762564390897750854e-02 2.751155057922005653e-03 -7.799685001373291016e-02 -5.659871734678745270e-03 -3.097756765782833099e-02 -3.111791424453258514e-02 -6.216018809936940670e-04 3.487694310024380684e-03 -5.576055031269788742e-03 8.226788602769374847e-03 -8.847994729876518250e-03 -2.182043716311454773e-02 3.303519682958722115e-03 1.131085865199565887e-02 -2.698467485606670380e-02 1.740557700395584106e-02 -3.673851257190108299e-03 -2.062859013676643372e-02 3.849507193081080914e-04 7.622666656970977783e-03 -1.580811440944671631e-01 3.843570826575160027e-03 1.948027173057198524e-03 2.120875567197799683e-02 1.475737523287534714e-02 9.025988169014453888e-03 6.645496934652328491e-03 -1.472618058323860168e-02 5.780722014605998993e-03
1.313667511567473412e-03 1.406150840921327472e-05 -8.490287698805332184e-03 1.112517155706882477e-02 -5.575166433118283749e-04 -1.899050839710980654e-04 -1.578068593516945839e-03 6.123206694610416889e-04 5.114893428981304169e-04 1.594709791243076324e-02 -1.321136858314275742e-02 1.280019059777259827e-02 4.839124158024787903e-04 7.278555538505315781e-03 3.303204663097858429e-03 3.976205363869667053e-03 -1.268836017698049545e-02 -1.479168189689517021e-03 9.549265727400779724e-03 1.114587485790252686e-02 5.358549300581216812e-03 1.280131255043670535e-05 -1.254232367500662804e-03 1.693326793611049652e-02 8.053901256062090397e-04 -2.437663264572620392e-03 -1.017979253083467484e-02 9.720585308969020844e-03 1.626791246235370636e-02 -2.715740702114999294e-04 3.423519956413656473e-04 -1.155075035057961941e-03 -7.511446252465248108e-03 2.435532957315444946e-02 -1.844990532845258713e-03 2.061048289760947227e-03 -4.046444781124591827e-03 1.948967576026916504e-03 3.432376682758331299e-02 2.279744669795036316e-02 -5.849312990903854370e-03 1.669638417661190033e-02 -7.518543279729783535e-04 1.196902990341186523e-02 1.480993814766407013e-02 3.692983882501721382e-03 2.702054381370544434e-02 -4.613583150785416365e-04 1.467569451779127121e-02 1.814672164618968964e-02 2.620784007012844086e-02 3.421374276513233781e-05 -2.008255105465650558e-03 3.379396721720695496e-02 -1.803653285605832934e-04 3.490180522203445435e-02 2.069897577166557312e-02 8.783861063420772552e-03 2.716113626956939697e-02 9.529022499918937683e-03 2.661763457581400871e-03 2.649041591212153435e-03 5.608909577131271362e-02 2.498161792755126953e-02 4.901389591395854950e-03 -4.761776886880397797e-03 7.927896454930305481e-03 -1.194509025663137436e-02 -1.876611448824405670e-02 1.457687281072139740e-02 -7.603415753692388535e-03 -2.105570584535598755e-02 -3.142672823742032051e-03 -2.665173262357711792e-02 3.082657232880592346e-02 -5.052197724580764771e-03 -7.603930681943893433e-02 -7.099333684891462326e-03 8.039684966206550598e-03 -1.357514131814241409e-02 5.090675875544548035e-02 -1.385052455589175224e-03 -1.085403747856616974e-02 9.160608053207397461e-02 2.393661998212337494e-03 6.200003996491432190e-02 -7.346537709236145020e-02 2.918786136433482170e-03 -3.028870560228824615e-03 2.161305211484432220e-02 4.306216910481452942e-02 4.055751115083694458e-02 -4.915052093565464020e-03 7.807028293609619141e-02 4.639410227537155151e-02 1.157789528369903564e-01 7.217721641063690186e-02 4.605874128174036741e-04 5.153407342731952667e-03 2.684408798813819885e-02 -1.073599327355623245e-02 4.299068450927734375e-02 4.212803021073341370e-02 8.682823739945888519e-03 2.514769090339541435e-03 4.699913784861564636e-02 -9.389099664986133575e-03 3.835236653685569763e-02 3.869465738534927368e-02 1.366495527327060699e-02 6.261960137635469437e-03 1.109943464398384094e-01 -2.148542087525129318e-03 1.398940104991197586e-02 -6.251732353121042252e-03 2.046633744612336159e-03 -1.152118574827909470e-02 2.392379567027091980e-02 2.547694742679595947e-02 2.223103307187557220e-03
-1.025371439754962921e-02 -7.410672842524945736e-04 -1.485667540691792965e-03 -1.221288274973630905e-02 -4.238938447088003159e-03 -7.790338713675737381e-03 -7.697053719311952591e-03 -2.018863306147977710e-04 -3.163921413943171501e-03 -2.293795347213745117e-03 -5.930270534008741379e-03 -4.500861279666423798e-03 -2.634488744661211967e-03 -1.180805120384320617e-04 -2.945040352642536163e-03 -4.025839734822511673e-03 -1.114979572594165802e-02 -7.134726271033287048e-03 -5.014316178858280182e-03 4.283589369151741266e-04 -2.811289625242352486e-03 6.256551387195941061e-06 -1.521273399703204632e-03 7.394147105515003204e-04 -1.593819702975451946e-03 -1.608245819807052612e-02 -7.944621145725250244e-03 3.179694525897502899e-03 5.418256390839815140e-03 -5.833478644490242004e-03 -2.858544467017054558e-03 -3.949503414332866669e-03 -8.731077425181865692e-03 -4.767502471804618835e-02 -8.434717543423175812e-03 -7.313626352697610855e-03 -1.680739223957061768e-02 6.549403187818825245e-04 -3.022338263690471649e-03 -1.932635204866528511e-03 -1.167657412588596344e-02 1.413007499650120735e-03 -6.071620155125856400e-03 5.126561882207170129e-05 -2.559724816819652915e-05 1.105404365807771683e-02 -1.539167668670415878e-02 -7.167288102209568024e-03 -1.378169655799865723e-02 -1.551619614474475384e-03 -5.051067564636468887e-03 1.957172571565024555e-05 -3.689578734338283539e-03 -7.130437530577182770e-03 -6.134324241429567337e-03 -1.525507867336273193e-02 -3.116502659395337105e-03 -6.207895465195178986e-03 -6.599775981158018112e-03 1.053921761922538280e-03 8.531843312084674835e-03 7.825545966625213623e-03 -2.523256838321685791e-02 -7.189373672008514404e-02 1.552428118884563446e-02 -1.393494848161935806e-02 2.289789542555809021e-02 -4.243392497301101685e-03 -3.849633783102035522e-02 -1.111936289817094803e-02 5.088708922266960144e-02 7.419848442077636719e-02 -8.791392669081687927e-03 1.625676057301461697e-03 -3.359195590019226074e-02 -1.979344710707664490e-02 -2.476577833294868469e-02 -2.817084640264511108e-02 -2.374563738703727722e-02 -1.664487831294536591e-02 -5.966551252640783787e-04 -1.100442372262477875e-03 6.685151602141559124e-04 -4.963925108313560486e-02 6.863503251224756241e-03 -3.539972007274627686e-02 7.920306175947189331e-03 1.249210443347692490e-03 3.001914732158184052e-02 -4.919806495308876038e-03 2.554329112172126770e-02 -8.069500327110290527e-02 -2.096671611070632935e-03 2.872824855148792267e-02 7.975489832460880280e-03 -4.547471925616264343e-02 -7.499428838491439819e-02 -7.183045963756740093e-04 -4.457098431885242462e-03 -1.355574000626802444e-03 -8.783613331615924835e-03 -1.136840786784887314e-02 -4.570589959621429443e-02 -4.667973611503839493e-03 -8.789279498159885406e-03 -1.601402834057807922e-02 -1.627234183251857758e-02 1.150178839452564716e-03 -1.176904421299695969e-02 -1.429882831871509552e-03 -7.352853193879127502e-03 1.333021745085716248e-02 -3.566226689144968987e-03 -5.626187659800052643e-03 -5.332238972187042236e-02 -1.304006390273571014e-02 -9.575936011970043182e-03 5.183387082070112228e-03 -1.456859707832336426e-02 -5.551502108573913574e-03
1.245354115962982178e-02 1.892029249574989080e-04 4.920343402773141861e-03 9.361664764583110809e-03 1.553955255076289177e-03 3.964453935623168945e-03 3.634751308709383011e-03 3.391084610484540462e-04 3.751828917302191257e-04 -1.396730309352278709e-03 -5.437594838440418243e-03 4.638443235307931900e-03 1.696024322882294655e-03 1.647547323955222964e-04 2.592466771602630615e-03 5.636604968458414078e-03 -1.018904056400060654e-02 3.690297249704599380e-03 2.321775304153561592e-03 2.235979773104190826e-03 1.536871190182864666e-03 7.720474968664348125e-06 -8.687503868713974953e-04 6.553949788212776184e-03 1.390688819810748100e-03 -2.347361762076616287e-03 -7.753240410238504410e-03 -2.870605792850255966e-03 -3.481785533949732780e-03 -3.401987720280885696e-03 5.002104211598634720e-03 1.156599726527929306e-03 1.329204533249139786e-02 -2.869965508580207825e-02 6.489444058388471603e-03 9.750391356647014618e-03 7.921000942587852478e-03 1.329933293163776398e-03 -6.870235083624720573e-04 3.091928083449602127e-03 -2.893974538892507553e-03 3.237767843529582024e-03 3.834251081570982933e-03 1.513834809884428978e-03 5.604048259556293488e-03 1.403208449482917786e-02 2.429913729429244995e-03 1.774623058736324310e-02 1.600738149136304855e-03 2.383607905358076096e-03 6.472642067819833755e-03 2.466499972797464579e-05 -3.024876350536942482e-03 1.069469749927520752e-02 4.054206889122724533e-03 -1.834579277783632278e-03 -1.572105451487004757e-03 -3.496662015095353127e-03 6.726068910211324692e-03 9.355217334814369678e-04 5.335411988198757172e-03 -1.208022353239357471e-03 1.009387820959091187e-01 -1.748609472997486591e-03 -1.355088967829942703e-02 7.945850491523742676e-03 -1.251213159412145615e-02 -2.882843138650059700e-03 -4.968411102890968323e-02 2.033047936856746674e-02 5.852556973695755005e-02 -3.712746500968933105e-02 5.532206501811742783e-03 4.906766582280397415e-03 -1.846200041472911835e-02 -3.673029365018010139e-03 2.951901219785213470e-02 2.717150375247001648e-03 -2.689300104975700378e-02 -2.597435377538204193e-02 -1.908385753631591797e-02 -6.946639041416347027e-04 2.702978439629077911e-03 -8.964024484157562256e-02 -2.449409104883670807e-03 -5.747090280055999756e-02 5.189600866287946701e-03 1.487446669489145279e-02 -5.092077329754829407e-02 -9.081738069653511047e-03 -9.657947719097137451e-02 -2.263354882597923279e-02 4.658657591789960861e-03 3.710602968931198120e-02 -4.878658801317214966e-03 1.962019875645637512e-02 -1.014012545347213745e-01 1.064687385223805904e-04 1.191038871183991432e-03 1.193234696984291077e-02 -3.439764259383082390e-03 -1.242982875555753708e-02 -3.113807877525687218e-03 -2.065386623144149780e-03 3.165141097269952297e-04 -2.680643275380134583e-02 -9.496096521615982056e-03 1.867727190256118774e-02 -6.030701566487550735e-03 2.120555844157934189e-03 -8.726879605092108250e-04 -8.742854744195938110e-02 -2.173785585910081863e-03 2.801274647936224937e-03 -1.151486709713935852e-01 -2.142106881365180016e-03 -8.708562701940536499e-03 -1.140244957059621811e-02 -5.922077223658561707e-03 -2.068692352622747421e-03
-6.851769285276532173e-04 -1.375443680444732308e-04 6.209021899849176407e-03 2.480349130928516388e-02 -7.002720667514950037e-05 -2.329996204935014248e-04 -1.189817558042705059e-04 -6.646719411946833134e-04 1.213342510163784027e-02 -2.978147473186254501e-03 9.208246134221553802e-03 -1.266842614859342575e-02 -1.724656554870307446e-03 -1.403624541126191616e-03 -2.928798785433173180e-03 8.362663909792900085e-03 1.062934845685958862e-02 7.591220200993120670e-04 -7.650438230484724045e-03 -2.362289931625127792e-03 2.520079491659998894e-03 -8.367233021999709308e-06 1.807727268896996975e-03 -2.266301773488521576e-03 -1.061566523276269436e-03 1.072568632662296295e-02 8.618950843811035156e-03 -2.708104439079761505e-04 8.567217737436294556e-03 3.849502652883529663e-03 -7.281509693711996078e-03 3.039948351215571165e-04 1.105339825153350830e-02 5.883277952671051025e-02 1.452625147067010403e-03 -6.400583311915397644e-03 5.456685088574886322e-03 -1.810614019632339478e-03 4.247711505740880966e-03 -5.162378074601292610e-04 1.581604406237602234e-02 -2.153046801686286926e-02 -2.012714045122265816e-03 -4.106968175619840622e-03 -1.358133740723133087e-02 -3.194730728864669800e-02 8.063729852437973022e-03 -2.126274630427360535e-03 3.647232661023736000e-03 -3.299921518191695213e-03 -2.127339364960789680e-03 -3.345447839819826186e-05 3.697674721479415894e-03 -6.118727382272481918e-03 -7.666411693207919598e-04 4.953940398991107941e-03 -2.894549863412976265e-03 1.071574352681636810e-02 -1.025751791894435883e-02 -5.240677855908870697e-03 -7.112117484211921692e-03 3.591511049307882786e-04 -7.932913303375244141e-02 2.974999882280826569e-02 -5.351091269403696060e-03 1.877588918432593346e-03 -8.776730857789516449e-03 1.501462981104850769e-02 5.153863504528999329e-02 4.969100933521986008e-03 4.092742875218391418e-02 4.301985725760459900e-02 -1.708358060568571091e-03 3.323717275634407997e-03 -1.947782561182975769e-02 -1.807433366775512695e-02 5.913261324167251587e-02 3.372579230926930904e-04 1.391336601227521896e-02 6.167340907268226147e-04 -1.098486315459012985e-02 -1.408349817211274058e-05 -6.544524338096380234e-03 -8.630192838609218597e-03 1.752489479258656502e-03 -5.997523292899131775e-02 1.570078544318675995e-02 -5.664470791816711426e-02 7.392214238643646240e-02 -3.088532714173197746e-03 -1.217753663659095764e-01 4.209740832448005676e-02 7.264753337949514389e-03 7.121930271387100220e-02 -8.777263015508651733e-02 -6.508434563875198364e-02 -6.736416369676589966e-03 -2.765914832707494497e-04 1.157802250236272812e-02 1.107624266296625137e-02 1.376451738178730011e-02 -1.775082759559154510e-02 -8.938197046518325806e-02 -3.891697269864380360e-04 -1.136027509346604347e-03 3.626134246587753296e-02 1.358375139534473419e-02 -4.838728904724121094e-02 -1.091943471692502499e-03 -3.066438715904951096e-03 1.561922137625515461e-03 1.061918139457702637e-01 4.793297499418258667e-03 -1.004213234409689903e-03 -1.110929921269416809e-01 6.149393972009420395e-03 9.602757170796394348e-03 -2.372127212584018707e-02 1.014287490397691727e-02 3.493951400741934776e-03
1.582409604452550411e-03 -5.949477781541645527e-05 2.225913573056459427e-03 1.031272462569177151e-03 2.255855506518855691e-04 2.541952999308705330e-03 1.434284844435751438e-03 -3.357679524924606085e-04 2.815235173329710960e-03 3.076455614063888788e-04 5.538465455174446106e-03 2.425490412861108780e-03 -4.357967409305274487e-04 2.464778081048280001e-04 1.995124621316790581e-03 6.117541342973709106e-03 8.052554912865161896e-03 2.314154058694839478e-03 3.139503067359328270e-03 -3.313277265988290310e-04 2.807360375300049782e-03 -4.741766588267637417e-06 2.289430849486961961e-04 1.159830135293304920e-03 -4.188617458567023277e-04 1.131064165383577347e-02 5.712164100259542465e-03 -9.273218456655740738e-04 -1.014643021335359663e-05 3.701857058331370354e-03 9.779327549040317535e-03 3.168498806189745665e-04 7.789051625877618790e-03 -4.924767185002565384e-03 2.464503515511751175e-03 1.359967701137065887e-02 6.399770267307758331e-03 -1.098706736229360104e-03 3.760186024010181427e-03 -2.666532964212819934e-05 9.687480516731739044e-03 9.394101798534393311e-03 6.900087464600801468e-04 -3.671624290291219950e-04 -1.540135010145604610e-03 1.400338113307952881e-02 1.074276491999626160e-02 1.156135275959968567e-02 5.897286348044872284e-03 7.702735019847750664e-04 3.273363923653960228e-03 -1.583506127644795924e-05 9.504980989731848240e-04 6.066337693482637405e-03 7.449263357557356358e-04 1.006142888218164444e-02 9.719058871269226074e-04 6.442061625421047211e-03 1.179831568151712418e-02 -1.929382793605327606e-03 -4.589329473674297333e-03 -2.302714274264872074e-04 -4.434165731072425842e-02 1.250246632844209671e-02 -4.126798827201128006e-03 5.410482175648212433e-03 -1.020183507353067398e-02 6.060259882360696793e-03 -2.702679112553596497e-02 6.232599727809429169e-03 4.010220244526863098e-02 3.997510764747858047e-03 2.198247937485575676e-03 2.673792652785778046e-03 4.480601637624204159e-04 -1.140185445547103882e-02 5.119841545820236206e-02 5.577833391726016998e-03 -3.645689459517598152e-03 -1.098132226616144180e-02 -1.765938592143356800e-03 -4.966330016031861305e-04 -3.067039651796221733e-03 5.417295545339584351e-02 -1.344768679700791836e-04 -2.565355971455574036e-04 1.266099885106086731e-02 -1.968390680849552155e-02 -3.723170980811119080e-02 -9.178790263831615448e-03 -5.234716087579727173e-02 1.341417990624904633e-02 2.498245332390069962e-03 4.226177930831909180e-02 2.449234575033187866e-02 -4.822174832224845886e-02 5.768079310655593872e-02 -3.026770427823066711e-04 3.441985230892896652e-03 2.876906655728816986e-03 8.240788243710994720e-03 1.045030169188976288e-02 1.630519703030586243e-02 3.428432624787092209e-03 6.883347406983375549e-03 -1.452597882598638535e-02 1.115858927369117737e-02 2.370351180434226990e-02 2.325519686564803123e-03 8.620262960903346539e-04 6.314648315310478210e-03 3.184636682271957397e-02 1.292789122089743614e-03 4.464183002710342407e-03 5.852705985307693481e-02 9.140249341726303101e-03 6.372338626533746719e-03 6.196955684572458267e-03 8.136803284287452698e-03 3.231470240280032158e-03
-2.186152385547757149e-03 -8.350430289283394814e-05 -2.713449066504836082e-03 -1.832244306569918990e-04 1.414213795214891434e-03 1.267937594093382359e-03 1.928027835674583912e-03 1.292287954129278660e-03 -3.040607320144772530e-03 8.029710501432418823e-03 3.754089120775461197e-04 3.500778402667492628e-04 2.735705056693404913e-04 2.277974272146821022e-03 4.799344460479915142e-04 3.950726706534624100e-03 4.281182773411273956e-03 1.407056348398327827e-03 1.578710973262786865e-03 -5.462475819513201714e-04 1.630434999242424965e-04 -8.470148031847202219e-07 5.846092826686799526e-04 4.585140384733676910e-03 2.583114837761968374e-04 8.028828538954257965e-03 2.278962871059775352e-03 -3.478884464129805565e-04 2.213560655945912004e-04 4.341550637036561966e-03 -1.710183103568851948e-03 1.341369701549410820e-03 1.473106793127954006e-03 6.670409813523292542e-03 3.089301753789186478e-03 3.121143905445933342e-03 1.719983061775565147e-03 8.671305258758366108e-04 1.418937649577856064e-02 9.490984492003917694e-03 1.469178777188062668e-02 -1.083342940546572208e-03 -4.236630047671496868e-04 4.409030545502901077e-03 5.064462311565876007e-03 1.026584766805171967e-02 2.125946246087551117e-02 -4.291577497497200966e-04 4.184408113360404968e-03 1.543355523608624935e-03 9.186482056975364685e-03 -3.175501888108556159e-06 3.573209978640079498e-03 1.896577514708042145e-02 1.219664001837372780e-03 2.510565146803855896e-02 6.513964384794235229e-03 5.935388151556253433e-03 1.418893691152334213e-02 4.525405820459127426e-03 1.044513264787383378e-04 -2.265333198010921478e-03 1.149502582848072052e-02 3.900108393281698227e-03 -5.127755925059318542e-03 1.379090128466486931e-03 -2.836971776559948921e-03 -4.724553786218166351e-03 6.529664993286132812e-02 1.129911746829748154e-02 -2.237352170050144196e-02 -9.632786735892295837e-03 1.598470960743725300e-03 -7.926886901259422302e-03 3.020730055868625641e-02 4.759180359542369843e-03 -4.097358137369155884e-02 1.102972659282386303e-03 1.565307751297950745e-02 5.127104464918375015e-03 1.894688606262207031e-02 -2.383981154707726091e-05 -1.571896113455295563e-02 -4.394086822867393494e-02 -1.101920730434358120e-03 5.238488316535949707e-02 -4.535470530390739441e-02 -7.445520721375942230e-03 -3.365529328584671021e-02 1.732793636620044708e-02 -5.289883352816104889e-03 2.419106662273406982e-02 -8.916605147533118725e-04 4.999868571758270264e-02 3.128921985626220703e-02 9.441833198070526123e-02 1.146485805511474609e-01 1.684254268184304237e-03 -8.222840842790901661e-04 6.238985806703567505e-03 3.261814825236797333e-03 7.475797086954116821e-03 5.426586419343948364e-02 4.387666005641222000e-03 3.331341547891497612e-03 3.054564073681831360e-02 5.009240005165338516e-03 2.249682880938053131e-02 5.288079380989074707e-03 1.755898469127714634e-03 4.574609454721212387e-03 -7.944881916046142578e-02 -6.406769389286637306e-04 5.878194700926542282e-03 2.736912295222282410e-02 2.222492126747965813e-03 2.772865351289510727e-03 1.010485738515853882e-02 8.185391314327716827e-03 2.967495704069733620e-03
-1.928224461153149605e-03 4.580623499350622296e-05 4.634126555174589157e-03 4.028175491839647293e-03 3.455183759797364473e-04 -1.869848696514964104e-03 8.082800777629017830e-04 2.339834580197930336e-03 6.959124002605676651e-04 1.634961692616343498e-03 -7.630678592249751091e-04 -8.716554730199277401e-04 -6.623482331633567810e-04 3.109435550868511200e-03 2.542603062465786934e-03 1.229683286510407925e-03 -6.084634223952889442e-04 6.610439158976078033e-04 1.660122186876833439e-03 -2.835188759490847588e-03 -6.772584165446460247e-04 -2.306496526216506027e-06 6.867502350360155106e-03 3.101978916674852371e-03 4.652411735150963068e-05 5.670477636158466339e-03 3.762934356927871704e-04 -1.665696618147194386e-03 -5.636241286993026733e-03 7.900278083980083466e-03 -1.789287663996219635e-03 7.065674290060997009e-04 1.318264193832874298e-02 1.081017591059207916e-02 8.787053520791232586e-04 -2.598436316475272179e-03 -2.088717446895316243e-04 3.166147274896502495e-03 3.135900478810071945e-03 6.061849184334278107e-03 2.717871451750397682e-03 3.591168904677033424e-03 -2.184369135648012161e-03 4.056603647768497467e-03 5.087054334580898285e-03 2.673499053344130516e-03 1.722919940948486328e-02 9.743033442646265030e-04 6.354205776005983353e-03 -1.225573942065238953e-03 6.558068096637725830e-03 -8.758308467804454267e-06 1.143146958202123642e-02 1.327650062739849091e-02 -3.561581543181091547e-04 1.528301183134317398e-02 1.193827670067548752e-02 -6.755116628482937813e-04 1.125366427004337311e-02 1.623787544667720795e-02 1.519094104878604412e-03 -3.267869818955659866e-03 -4.807024449110031128e-02 -5.865318700671195984e-03 -4.204666242003440857e-03 -1.172116608358919621e-03 -2.082821680232882500e-03 -1.943530514836311340e-02 8.755827695131301880e-02 -8.425262058153748512e-04 -1.027381345629692078e-01 4.461310338228940964e-03 1.279428252018988132e-03 -1.260880474001169205e-02 -1.873786095529794693e-03 1.114144222810864449e-03 -1.644105911254882812e-01 2.734486013650894165e-03 1.526185218244791031e-02 2.140956185758113861e-02 3.069185465574264526e-02 2.987477928400039673e-04 -5.077097937464714050e-02 2.923108171671628952e-03 -2.554214559495449066e-03 4.250447731465101242e-03 -1.205336973071098328e-01 1.844207872636616230e-03 -6.942603737115859985e-02 9.997434169054031372e-02 7.557076215744018555e-02 1.400415301322937012e-01 1.128673274070024490e-02 1.019850373268127441e-01 8.147799968719482422e-02 1.109216138720512390e-01 1.932143121957778931e-01 4.307870753109455109e-03 3.663402050733566284e-03 3.393868729472160339e-02 1.403333008056506515e-04 6.159003823995590210e-02 1.462509632110595703e-01 1.431362889707088470e-02 5.729631055146455765e-03 1.133889779448509216e-01 -1.145214890129864216e-03 3.885355964303016663e-02 5.709684267640113831e-02 -2.394664101302623749e-03 1.192378625273704529e-02 6.257675588130950928e-02 1.204649265855550766e-02 2.727220207452774048e-02 2.009001374244689941e-01 -8.416699245572090149e-03 1.306977937929332256e-03 1.441659778356552124e-02 3.204136341810226440e-02 1.566151529550552368e-02
3.897501388564705849e-03 3.521796897985041142e-04 3.368247998878359795e-03 -1.133999414741992950e-02 1.169630675576627254e-03 2.726950217038393021e-03 2.544138580560684204e-03 -3.165208909194916487e-04 1.203202526085078716e-03 -2.157532842829823494e-03 3.856112714856863022e-03 -9.938889415934681892e-04 6.137556047178804874e-04 -3.009549400303512812e-04 1.423824694938957691e-03 -1.232310023624449968e-04 5.521872080862522125e-03 2.696960465982556343e-03 9.418362169526517391e-04 -6.018871208652853966e-04 1.170249073766171932e-03 -3.612958323628845392e-07 3.408879856579005718e-04 -1.111925113946199417e-03 7.096006302163004875e-04 6.388156674802303314e-03 4.157584160566329956e-03 -2.593329874798655510e-03 -5.334413610398769379e-03 3.295208793133497238e-03 1.095433440059423447e-02 1.301202224567532539e-03 8.871510624885559082e-03 4.467716068029403687e-02 3.700696630403399467e-03 1.773573458194732666e-02 1.166648697108030319e-02 -1.007991610094904900e-03 3.013898152858018875e-03 -2.973635680973529816e-03 8.049590513110160828e-03 7.591381669044494629e-03 1.866556936874985695e-03 -7.197960512712597847e-04 -7.876280578784644604e-04 1.861206255853176117e-02 8.215290494263172150e-03 1.155937183648347855e-02 5.423344206064939499e-03 1.908443518914282322e-04 1.541901030577719212e-03 8.966202926785626914e-07 1.318301801802590489e-04 9.607994579710066319e-04 2.382810693234205246e-03 8.153287693858146667e-03 1.745607121847569942e-03 3.397426102310419083e-03 2.362973755225539207e-03 -2.518178662285208702e-04 -2.616723300889134407e-03 -9.779495885595679283e-04 4.353657364845275879e-02 6.150501593947410583e-02 -5.455716978758573532e-03 5.675066728144884109e-03 -1.319460105150938034e-02 6.022264715284109116e-03 7.431484758853912354e-02 1.750001218169927597e-03 6.442662328481674194e-02 -6.439755111932754517e-02 3.584746271371841431e-03 6.557966698892414570e-04 1.969526708126068115e-02 -9.990167804062366486e-03 -4.107176139950752258e-02 -3.110760124400258064e-03 2.660140860825777054e-03 -1.231376640498638153e-02 -5.462240427732467651e-03 -5.708624958060681820e-04 2.402818761765956879e-03 4.960360005497932434e-02 -1.210618414916098118e-03 4.397904966026544571e-03 9.415121166966855526e-04 -1.880790293216705322e-02 -2.671842649579048157e-02 -6.951883435249328613e-03 -7.126186043024063110e-02 2.011252753436565399e-02 3.844692371785640717e-03 -4.691128060221672058e-02 5.138405784964561462e-02 -1.311219763010740280e-02 1.128195375204086304e-01 -3.612993459682911634e-04 1.980537781491875648e-03 -4.487858619540929794e-03 6.007433403283357620e-03 -1.443072222173213959e-02 -6.339506804943084717e-02 1.926193013787269592e-03 3.239931538701057434e-03 1.889829523861408234e-02 6.947292480617761612e-03 -7.996296626515686512e-04 3.693685401231050491e-03 9.842349390964955091e-05 4.484548699110746384e-03 -9.242998808622360229e-02 1.447259564884006977e-03 3.042859258130192757e-03 1.373397186398506165e-02 4.839828703552484512e-03 4.343513399362564087e-03 -1.186640234664082527e-03 3.812416922301054001e-03 2.893009688705205917e-03
-3.828005399554967880e-03 -2.730797277763485909e-04 -1.429838739568367600e-04 -1.364026032388210297e-02 -2.450964646413922310e-03 -4.673794843256473541e-03 -5.120265763252973557e-03 1.158735540229827166e-04 -1.408365089446306229e-03 -1.001583063043653965e-03 -4.641422070562839508e-03 -3.025447018444538116e-03 -1.447923597879707813e-03 1.490977301727980375e-04 -1.404388807713985443e-03 -4.219596274197101593e-03 -8.116690441966056824e-03 -5.127874668687582016e-03 -3.357246518135070801e-03 1.537382369861006737e-03 -1.870486070401966572e-03 5.565218998526688665e-06 -8.389507420361042023e-04 2.171844476833939552e-03 -6.317311781458556652e-04 -1.252067182213068008e-02 -6.097021978348493576e-03 2.955947536975145340e-03 4.706197883933782578e-03 -4.100227262824773788e-03 -9.875165298581123352e-03 -2.559691434726119041e-03 -5.407756194472312927e-03 -2.703425101935863495e-02 -6.176838185638189316e-03 -9.831783361732959747e-03 -1.039279531687498093e-02 7.364424527622759342e-04 -2.398427808657288551e-03 -3.974144055973738432e-04 -8.356371894478797913e-03 -8.261662907898426056e-03 -3.559197764843702316e-03 9.128964738920331001e-04 1.744067878462374210e-03 -1.786789111793041229e-02 -9.088610298931598663e-03 -8.046255446970462799e-03 -7.734216284006834030e-03 5.224726046435534954e-04 -2.414844697341322899e-03 1.964153852895833552e-05 -2.800602465867996216e-03 -2.435037167742848396e-03 -3.296957584097981453e-03 -1.072103157639503479e-02 -1.100783585570752621e-03 -3.645423799753189087e-03 -4.424995742738246918e-03 1.139505417086184025e-03 1.023459155112504959e-02 5.004532635211944580e-03 -2.046577259898185730e-02 -3.021752275526523590e-02 1.067032106220722198e-02 -8.975931443274021149e-03 1.383671071380376816e-02 -1.921861432492733002e-03 1.796568743884563446e-02 -9.465006180107593536e-03 4.112730920314788818e-02 -2.494689449667930603e-02 -5.994924344122409821e-03 -1.868113875389099121e-03 -2.767186611890792847e-03 2.062403073068708181e-04 2.092572301626205444e-02 -9.201128967106342316e-03 -3.629087656736373901e-02 2.239619847387075424e-03 1.012736931443214417e-03 -8.976295066531747580e-05 7.319605443626642227e-03 -8.446688205003738403e-02 3.593333996832370758e-03 -2.190948650240898132e-02 5.381688941270112991e-03 -1.296363770961761475e-02 -6.327919661998748779e-02 2.023390261456370354e-03 -6.587281823158264160e-02 -6.450507044792175293e-02 -3.047709469683468342e-04 -3.659638389945030212e-02 -2.605088241398334503e-02 -4.226432740688323975e-02 -6.550321727991104126e-02 -2.476885565556585789e-04 -1.765342196449637413e-03 -1.286690239794552326e-03 -6.367639638483524323e-03 -9.555096039548516273e-04 3.245861455798149109e-02 -3.205776214599609375e-03 -6.386672146618366241e-03 -2.495103143155574799e-02 -1.114346925169229507e-02 -3.234398365020751953e-02 -4.523189272731542587e-03 5.573075031861662865e-04 -5.539903882890939713e-03 2.118017710745334625e-02 -2.608686685562133789e-03 -3.469028277322649956e-03 7.655070722103118896e-02 -9.421317838132381439e-03 -6.993961986154317856e-03 -5.862181074917316437e-03 -5.010307766497135162e-03 -3.874675137922167778e-03
1.220998633652925491e-02 1.089628669433295727e-03 1.485460321418941021e-03 5.209988448768854141e-04 4.743420518934726715e-03 7.935356348752975464e-03 8.041181601583957672e-03 2.694201248232275248e-04 2.649610163643956184e-03 2.825094386935234070e-03 6.185373291373252869e-03 8.313638973049819469e-04 2.808501478284597397e-03 -1.316414090979378670e-05 2.325621666386723518e-03 1.074357517063617706e-02 1.128241606056690216e-02 4.845990333706140518e-03 5.098623223602771759e-03 -1.614755601622164249e-03 2.752736909314990044e-03 -7.346631264226743951e-06 2.209241036325693130e-03 -5.029453895986080170e-04 2.020163694396615028e-03 1.552031096071004868e-02 8.352340199053287506e-03 -4.416740033775568008e-03 -2.207317156717181206e-03 6.153859198093414307e-03 7.502723485231399536e-03 4.573327489197254181e-03 8.840243332087993622e-03 3.871677815914154053e-02 1.031805109232664108e-02 2.275698632001876831e-02 1.960017159581184387e-02 -4.255539679434150457e-04 3.133651334792375565e-03 2.254138235002756119e-03 1.212059892714023590e-02 2.143353037536144257e-02 6.284680683165788651e-03 -6.706390995532274246e-04 -1.102771260775625706e-03 6.023890804499387741e-03 1.541451644152402878e-02 2.518183179199695587e-02 7.211717776954174042e-03 -3.064453194383531809e-04 4.022200591862201691e-03 -2.439879608573392034e-05 4.096523392945528030e-03 2.071223570965230465e-05 6.313613615930080414e-03 1.530578546226024628e-02 3.251249436289072037e-03 5.599209573119878769e-03 2.966001816093921661e-02 -4.418936150614172220e-04 -1.227772887796163559e-02 -4.848977085202932358e-03 1.536997407674789429e-02 -3.370898589491844177e-02 -1.409261766821146011e-02 1.221113093197345734e-02 -1.581897400319576263e-02 9.692171588540077209e-03 -8.114500343799591064e-02 6.712261121720075607e-03 -1.657334342598915100e-02 3.390032052993774414e-02 8.143750019371509552e-03 -1.763613894581794739e-02 2.204112522304058075e-02 -3.929897677153348923e-03 -6.425956264138221741e-03 1.280429679900407791e-02 2.962697856128215790e-02 -2.292460529133677483e-03 -9.354028850793838501e-03 -3.437511331867426634e-04 -1.490852795541286469e-02 -3.118359949439764023e-03 -3.837936324998736382e-03 -4.790621344000101089e-03 7.465412636520341039e-05 4.325928166508674622e-02 -7.641258090734481812e-02 -2.252624835819005966e-03 8.039177954196929932e-02 5.975392833352088928e-02 2.206987235695123672e-03 -5.771643668413162231e-02 1.900273957289755344e-03 -9.127373993396759033e-02 -7.971950620412826538e-02 1.081115333363413811e-03 4.000725690275430679e-03 1.456804573535919189e-02 9.037765674293041229e-03 6.868788506835699081e-03 6.913018971681594849e-02 4.836106207221746445e-03 7.872316986322402954e-03 1.677648536860942841e-02 1.649649254977703094e-02 6.504588574171066284e-02 1.615519076585769653e-02 -5.394623731262981892e-04 7.340109441429376602e-03 1.582078486680984497e-01 5.653179716318845749e-03 5.825064610689878464e-03 9.448324888944625854e-02 1.222737412899732590e-02 9.906873106956481934e-03 -1.516320090740919113e-02 8.458130992949008942e-03 6.619575433433055878e-03
1.080423011444509029e-03 -1.505214167991653085e-04 -6.407194770872592926e-03 6.485267542302608490e-03 1.768664078554138541e-04 2.385488711297512054e-03 1.208418034366331995e-04 2.713652560487389565e-03 -4.482507240027189255e-03 9.237065911293029785e-03 -4.989708540961146355e-04 1.207604352384805679e-02 2.697589225135743618e-04 2.348474226891994476e-03 4.316037520766258240e-03 3.988447599112987518e-03 1.676044892519712448e-03 -1.360745663987472653e-04 7.359093520790338516e-03 5.503007676452398300e-03 -3.410154604353010654e-04 1.558003873469715472e-06 -8.971283677965402603e-04 4.402649588882923126e-03 -1.725338661344721913e-04 3.729563672095537186e-03 5.449170130304992199e-04 4.694647155702114105e-03 3.206436056643724442e-03 2.335722325369715691e-03 2.918699756264686584e-03 -5.705295479856431484e-04 -9.186457842588424683e-03 2.224770374596118927e-03 7.141299283830448985e-05 3.114840481430292130e-03 -3.415567625779658556e-04 2.008511219173669815e-03 1.159374974668025970e-02 1.024089101701974869e-02 -2.533457940444350243e-03 1.736870966851711273e-02 1.535180723294615746e-03 6.799221970140933990e-03 1.627696305513381958e-02 5.919967312365770340e-03 5.784417968243360519e-03 9.981779148802161217e-04 1.028464362025260925e-02 8.473083376884460449e-03 1.059031300246715546e-02 7.149942575779277831e-06 -8.030987228266894817e-04 1.616880670189857483e-02 8.675942081026732922e-05 2.044805325567722321e-02 8.879668079316616058e-03 7.110511418431997299e-03 1.131808385252952576e-02 1.115796808153390884e-02 1.018620561808347702e-03 4.279614659026265144e-04 1.882121153175830841e-02 1.731036603450775146e-02 -1.769561204127967358e-04 5.251029506325721741e-04 1.848444575443863869e-03 -2.870344184339046478e-02 2.948595024645328522e-02 4.333441145718097687e-03 7.809689734131097794e-03 -5.413234978914260864e-02 7.741154404357075691e-04 -2.549347467720508575e-02 6.013825163245201111e-02 -2.545973984524607658e-03 -4.883828014135360718e-02 -4.037295293528586626e-04 1.519682724028825760e-02 -5.407139658927917480e-03 5.845487490296363831e-02 -8.613643558419425972e-07 1.340882852673530579e-02 -4.259780514985322952e-03 2.206421486334875226e-04 9.446883201599121094e-02 -3.674804046750068665e-02 -2.531988359987735748e-02 7.595940679311752319e-02 1.566087640821933746e-02 -2.401278913021087646e-02 4.916764423251152039e-02 -9.330458939075469971e-03 9.982582181692123413e-03 2.367751486599445343e-02 -3.494313359260559082e-02 -2.032747678458690643e-02 2.495359396561980247e-03 -2.405787818133831024e-03 5.775292869657278061e-03 -3.613860812038183212e-03 2.393885329365730286e-02 1.685403473675251007e-02 5.195509176701307297e-03 7.637507282197475433e-03 9.757300838828086853e-03 2.157494658604264259e-03 2.424638159573078156e-02 1.713762804865837097e-02 7.055837661027908325e-03 4.028564319014549255e-03 3.077517449855804443e-02 -5.275504663586616516e-03 4.358554258942604065e-03 1.081820577383041382e-01 5.239311605691909790e-03 5.044044228270649910e-04 1.754952222108840942e-02 1.266824454069137573e-02 5.443852860480546951e-04
1.789193018339574337e-03 -2.564571332186460495e-04 -2.112082205712795258e-03 5.832219496369361877e-03 -5.302545614540576935e-04 1.856748247519135475e-03 -4.837547894567251205e-04 1.963071525096893311e-03 4.043159424327313900e-04 8.188773877918720245e-03 -3.202232066541910172e-03 9.534317068755626678e-03 8.254946442320942879e-04 5.979259498417377472e-03 6.560270208865404129e-03 4.176021553575992584e-03 -3.602566896006464958e-03 -7.048348779790103436e-04 7.814225740730762482e-03 5.950668361037969589e-03 2.921673702076077461e-03 2.412307594568119384e-06 1.689135213382542133e-03 1.077849231660366058e-02 -1.299185387324541807e-04 9.222622960805892944e-03 -2.508352044969797134e-03 9.205061942338943481e-03 8.259465917944908142e-03 5.697490647435188293e-03 9.641842552809976041e-06 -1.473531941883265972e-03 -4.572425968945026398e-03 1.655885577201843262e-02 -9.016541880555450916e-04 2.942472696304321289e-03 -6.198739283718168736e-04 2.231051446869969368e-03 -1.099385786801576614e-03 1.050935406237840652e-02 -1.708913967013359070e-02 1.292598620057106018e-02 2.470639534294605255e-03 9.364726021885871887e-03 8.544714190065860748e-03 5.483527202159166336e-03 -2.272506011649966240e-03 -2.375815995037555695e-03 1.240769680589437485e-02 4.866978619247674942e-03 9.109494276344776154e-03 6.647570444329176098e-06 -1.313272863626480103e-03 1.594737730920314789e-02 -2.154615212930366397e-04 1.589799113571643829e-02 8.365375921130180359e-03 9.199989028275012970e-03 1.947298832237720490e-02 1.654459349811077118e-02 1.971471356227993965e-04 -5.131392754265107214e-06 -1.016896963119506836e-02 3.048539627343416214e-03 -4.619343380909413099e-04 2.030843636021018028e-03 2.529194898670539260e-05 -1.770545169711112976e-02 5.169834196567535400e-02 2.387667074799537659e-03 -7.315173000097274780e-02 7.420556154102087021e-03 1.413592020981013775e-03 -1.937996223568916321e-02 3.435579687356948853e-02 8.621780201792716980e-03 -8.998078852891921997e-02 -2.198153175413608551e-03 1.088880584575235844e-03 4.892455413937568665e-03 3.994869068264961243e-02 6.456417031586170197e-04 -1.259578019380569458e-02 -4.943164810538291931e-02 -9.886325569823384285e-04 6.637491285800933838e-02 -1.161109060049057007e-01 -5.511752329766750336e-03 5.995526164770126343e-02 8.638310432434082031e-02 5.843221396207809448e-02 8.201000094413757324e-02 -9.327068109996616840e-04 1.379404813051223755e-01 6.168033555150032043e-02 1.618013679981231689e-01 1.390848904848098755e-01 3.098604967817664146e-03 7.559859659522771835e-03 2.481876499950885773e-02 -2.307394053786993027e-03 5.862347781658172607e-02 1.013557761907577515e-01 1.554753258824348450e-02 8.700454607605934143e-03 1.153210923075675964e-01 1.366046024486422539e-03 4.055701196193695068e-02 5.485537648200988770e-02 4.543463699519634247e-03 1.391658000648021698e-02 1.875859647989273071e-01 4.195557441562414169e-03 2.798110991716384888e-02 1.234302818775177002e-01 7.279684767127037048e-03 -7.316137198358774185e-04 2.658940665423870087e-02 4.144111275672912598e-02 9.500184096395969391e-03
-7.828588597476482391e-03 -1.501710648881271482e-04 -1.858697738498449326e-03 -1.673523709177970886e-02 -2.461205003783106804e-03 -6.663180887699127197e-03 -5.853594746440649033e-03 1.219562618643976748e-04 -2.636905293911695480e-03 -2.269827527925372124e-03 -6.116415373980998993e-03 -1.006158301606774330e-03 -1.259269425645470619e-03 -1.708784402580931783e-04 -2.418129937723278999e-03 -1.348077412694692612e-02 -1.002070307731628418e-02 -7.737174630165100098e-03 -5.780336447060108185e-03 7.475497550331056118e-04 -2.701899735257029533e-03 6.533038231282262132e-06 -1.087432028725743294e-03 8.839118527248501778e-04 -4.576031060423702002e-04 -1.434020232409238815e-02 -7.145352195948362350e-03 2.333822660148143768e-03 9.843568550422787666e-04 -5.100161768496036530e-03 -1.401620078831911087e-02 -2.389245666563510895e-03 -8.863360621035099030e-03 1.334940432570874691e-03 -8.872594684362411499e-03 -2.306810766458511353e-02 -1.785117760300636292e-02 8.989454945549368858e-04 -3.844933118671178818e-03 -2.249752404168248177e-03 -1.189884822815656662e-02 -9.019020944833755493e-03 -4.458852577954530716e-03 2.146379265468567610e-04 9.103465708903968334e-04 -3.599204123020172119e-02 -1.289922557771205902e-02 -3.127326490357518196e-03 -9.470978751778602600e-03 -7.346085039898753166e-04 -4.247874952852725983e-03 2.363028215768281370e-05 -2.903118729591369629e-03 -5.753691773861646652e-03 -4.122775513678789139e-03 -1.302906032651662827e-02 -2.111772075295448303e-03 -7.248679641634225845e-03 -1.608071499504148960e-03 1.081020222045481205e-03 2.503499947488307953e-02 2.990762470290064812e-03 -5.509249120950698853e-02 2.066712453961372375e-02 9.414337575435638428e-03 -1.320446096360683441e-02 1.611744798719882965e-02 3.129072487354278564e-03 -5.352419242262840271e-02 -1.312382146716117859e-02 -6.594491004943847656e-02 1.082477420568466187e-01 -6.645636633038520813e-03 1.239539496600627899e-02 -2.081473916769027710e-02 -4.090503603219985962e-02 -5.451658368110656738e-02 -2.631677128374576569e-02 -3.657546266913414001e-02 -9.835421107709407806e-03 3.765373257920145988e-03 7.763854955555871129e-05 7.851281203329563141e-03 -1.189874410629272461e-01 2.006534952670335770e-03 -3.364137187600135803e-02 -1.015511155128479004e-02 -2.870470844209194183e-02 -1.068577840924263000e-01 -3.752846503630280495e-03 -3.216973319649696350e-02 5.012128874659538269e-02 -2.480308525264263153e-03 -7.136109471321105957e-02 -5.995557177811861038e-03 -1.134288460016250610e-01 -2.926476672291755676e-02 -2.244256465928629041e-04 -3.545578103512525558e-03 -6.852840073406696320e-03 -8.912175893783569336e-03 -1.643836311995983124e-02 -1.166727207601070404e-02 -4.269862547516822815e-03 -7.941100746393203735e-03 3.044491447508335114e-02 -1.452187262475490570e-02 -6.672810763120651245e-02 -8.721202611923217773e-03 -7.043300429359078407e-04 -6.998996715992689133e-03 1.870444789528846741e-02 -2.884819637984037399e-03 -5.555918440222740173e-03 -1.404446959495544434e-01 -1.151250489056110382e-02 -8.287852630019187927e-03 -2.088343910872936249e-02 -1.048313640058040619e-02 -4.887389019131660461e-03
-1.194908400066196918e-03 -1.050000573741272092e-04 -3.849047701805830002e-03 1.273208297789096832e-02 -1.675209146924316883e-03 -5.636568181216716766e-03 -4.096721298992633820e-03 5.364626995287835598e-04 -6.359431892633438110e-03 -2.920933548011817038e-05 -8.409341797232627869e-03 -7.232435164041817188e-04 2.377370583417359740e-05 4.919113707728683949e-04 -1.369235571473836899e-03 -1.553699281066656113e-02 -1.255315076559782028e-02 -4.842729773372411728e-03 -2.226179698482155800e-03 1.219451660290360451e-03 -3.130087163299322128e-03 9.045833394338842481e-06 -1.569180516526103020e-03 6.218391354195773602e-04 2.882517874240875244e-04 -1.402927935123443604e-02 -9.233505465090274811e-03 3.493552096188068390e-03 5.178258288651704788e-04 -5.339256022125482559e-03 -8.684651926159858704e-03 -1.811623922549188137e-03 -1.088080182671546936e-02 -1.407565176486968994e-02 -6.252417340874671936e-03 -1.183329522609710693e-02 -1.413326989859342575e-02 1.767426962032914162e-03 -5.456864833831787109e-03 9.861380094662308693e-04 -1.561836339533329010e-02 -1.630309037864208221e-02 -3.272543894127011299e-03 1.587851555086672306e-03 4.238177556544542313e-03 -1.845565624535083771e-02 -1.199611462652683258e-02 -1.347384415566921234e-02 -9.256679564714431763e-03 4.592193363350816071e-06 -3.005289239808917046e-03 3.372556238900870085e-05 -3.603691933676600456e-03 -1.491013797931373119e-03 -2.510522957891225815e-03 -8.001143112778663635e-03 -1.034076442010700703e-03 -2.413236070424318314e-03 -9.105469100177288055e-03 3.456092206761240959e-03 4.509271122515201569e-03 2.723437733948230743e-03 -4.202400520443916321e-02 -6.394131481647491455e-02 1.018478907644748688e-02 -1.104322168976068497e-02 1.994907669723033905e-02 -9.643386118113994598e-03 -2.723484113812446594e-02 -6.055395118892192841e-03 -9.555310942232608795e-03 7.523001730442047119e-02 -4.031717777252197266e-03 3.841456491500139236e-03 -4.588160198181867599e-03 -1.471208408474922180e-02 -8.664520084857940674e-02 -1.721746288239955902e-02 -1.809318922460079193e-02 3.465612651780247688e-03 1.604663953185081482e-02 -1.466443791287019849e-05 3.448977367952466011e-03 1.197029501199722290e-01 1.110250246711075306e-03 9.798469953238964081e-03 -2.470366470515727997e-02 -3.015350957866758108e-04 -1.187738031148910522e-01 1.200847793370485306e-02 1.716275513172149658e-02 3.135428205132484436e-02 -4.871724639087915421e-03 5.026406794786453247e-02 4.873052984476089478e-02 -8.602168411016464233e-02 1.030174791812896729e-01 3.517508157528936863e-04 -7.401258219033479691e-03 -1.163840410299599171e-03 -1.243698690086603165e-02 7.673340383917093277e-03 3.183078020811080933e-02 -3.274105023592710495e-03 -6.510336883366107941e-03 -3.173705935478210449e-02 -1.744216866791248322e-02 1.319700386375188828e-02 -1.366266864351928234e-03 -4.418015305418521166e-05 -6.722276099026203156e-03 -4.215636849403381348e-02 -3.864453639835119247e-03 -3.638203023001551628e-03 8.760783821344375610e-02 -1.213916018605232239e-02 -1.074073649942874908e-02 7.063402328640222549e-03 -1.400965848006308079e-03 -5.002792924642562866e-03
1.170952105894684792e-03 1.258355914615094662e-04 -5.414345301687717438e-03 5.883421748876571655e-03 5.280190380290150642e-04 3.110376885160803795e-03 1.720974687486886978e-03 -1.002076678560115397e-04 -2.774614840745925903e-04 -9.275510674342513084e-04 3.622490447014570236e-03 -2.552389632910490036e-03 6.291075842455029488e-04 -1.884972007246688008e-04 -6.060651969164609909e-03 7.249036338180303574e-03 4.644753877073526382e-03 1.734315883368253708e-03 2.663710911292582750e-04 -5.746255628764629364e-03 -4.374163690954446793e-03 -2.684987521206494421e-06 2.473780885338783264e-03 -1.186151430010795593e-02 -8.298977627418935299e-05 7.021422032266855240e-03 4.425816237926483154e-03 -7.315203547477722168e-03 -1.980980485677719116e-02 3.963272087275981903e-03 -2.705068094655871391e-03 1.011775806546211243e-03 -4.895203746855258942e-03 2.684525772929191589e-02 2.127976389601826668e-03 2.245400799438357353e-03 4.648407921195030212e-03 -3.486456116661429405e-04 -6.189320702105760574e-03 -4.647685680538415909e-03 1.150016020983457565e-02 -3.638005815446376801e-03 2.461531432345509529e-03 -1.796026714146137238e-03 -1.002488005906343460e-02 7.737266831099987030e-03 1.742825843393802643e-04 -1.605252036824822426e-03 4.493769665714353323e-04 -7.658308371901512146e-03 -1.128681842237710953e-02 -7.477922736143227667e-06 6.703085266053676605e-03 -1.548116188496351242e-02 1.072370097972452641e-03 -1.310247834771871567e-02 9.221743792295455933e-03 -4.979095421731472015e-03 -2.488653175532817841e-02 3.942945972084999084e-03 -3.684486960992217064e-03 -4.177860915660858154e-03 -3.562992066144943237e-02 2.680162526667118073e-02 -6.592519115656614304e-03 7.820347324013710022e-03 -8.873849175870418549e-03 -7.500430569052696228e-03 1.556975301355123520e-02 2.117385156452655792e-03 -9.957177937030792236e-02 5.062340572476387024e-02 4.999286960810422897e-03 -1.569103915244340897e-03 2.482845075428485870e-02 4.987540887668728828e-04 -1.562278270721435547e-01 7.595871575176715851e-03 -7.648559287190437317e-03 4.424566775560379028e-02 1.659391075372695923e-02 1.531375106424093246e-03 -7.910848595201969147e-03 -4.485044255852699280e-02 -4.422296769917011261e-03 5.456996150314807892e-03 -1.102531105279922485e-01 3.134249523282051086e-02 -4.579435288906097412e-02 5.024568736553192139e-02 -3.861298784613609314e-02 4.565257951617240906e-02 -6.124421954154968262e-03 6.085515394806861877e-02 4.974893108010292053e-02 1.339667290449142456e-01 7.062782347202301025e-02 1.160208601504564285e-03 -2.968208398669958115e-03 -2.790194936096668243e-03 3.762507345527410507e-03 1.840780675411224365e-02 3.870484232902526855e-02 4.008049727417528629e-04 -4.911025520414113998e-03 9.510160423815250397e-03 4.470244981348514557e-03 3.645661845803260803e-02 1.060246303677558899e-02 -6.559237372130155563e-03 -2.743828576058149338e-03 7.796442508697509766e-02 3.133922349661588669e-03 -2.278283704072237015e-03 -2.137142437277361751e-04 -1.878955517895519733e-04 4.733635112643241882e-03 -2.930168760940432549e-03 5.943880882114171982e-03 5.172581877559423447e-03
