5.666528269648551941e-02 9.747263789176940918e-02 7.703158259391784668e-02 1.202166378498077393e-01 8.044052869081497192e-02 1.723691634833812714e-02 1.315747648477554321e-01 -8.055024594068527222e-02 9.521432220935821533e-02 9.770292043685913086e-02 5.762031674385070801e-02 1.252952069044113159e-01 9.219262003898620605e-02 5.448429659008979797e-02 1.445091329514980316e-02 2.390850894153118134e-02 1.782380193471908569e-01 -6.311727920547127724e-04 1.812695711851119995e-01 1.590263843536376953e-01 1.538996398448944092e-01 -5.202079657465219498e-03 8.196921646595001221e-02 2.581548392772674561e-01 2.857047878205776215e-02 -1.675135791301727295e-01 1.155172064900398254e-01 2.952456474304199219e-02 3.461710214614868164e-01 -9.113826602697372437e-02 9.718153625726699829e-02 2.070521861314773560e-01 9.763860702514648438e-02 2.276217341423034668e-01 2.456574887037277222e-02 2.729201018810272217e-01 2.737145721912384033e-01 7.695358991622924805e-02 9.007883816957473755e-02 2.596198767423629761e-02 4.314064607024192810e-02 6.118213012814521790e-02 5.032431334257125854e-02 7.824315875768661499e-02 3.016001358628273010e-02 1.628184020519256592e-01 1.990246027708053589e-02 4.347862005233764648e-01 1.931993067264556885e-01 4.395928233861923218e-02 1.038510501384735107e-01 1.002400964498519897e-01 4.494256153702735901e-02 5.747831612825393677e-02 3.378795459866523743e-02 -4.814760014414787292e-02 -7.286226004362106323e-02 -1.791955344378948212e-02 -1.773349381983280182e-02 1.044217869639396667e-01 2.193955332040786743e-01 5.393104627728462219e-02 1.131507679820060730e-01 1.207816321402788162e-02 -3.249907493591308594e-02 1.847330480813980103e-01 8.502162992954254150e-02 -2.431773953139781952e-02 2.153825387358665466e-02 4.645829554647207260e-03 5.913131870329380035e-03 -2.127092890441417694e-02 -1.365109682083129883e-01 2.976571023464202881e-02 -4.265167191624641418e-02 -8.965647779405117035e-03 -2.731445990502834320e-02 7.987157255411148071e-02 -3.698680922389030457e-02 2.230780757963657379e-02 -2.288523875176906586e-02 -5.550497397780418396e-02 6.855897605419158936e-02 -8.991623669862747192e-02 5.279002338647842407e-02 -2.207094430923461914e-02 2.369917556643486023e-02 1.136196330189704895e-01 1.143723353743553162e-01 3.193850070238113403e-02 -5.552469193935394287e-02 8.563464134931564331e-02 -4.612561315298080444e-02 8.741398155689239502e-02 8.725940249860286713e-03 4.405347257852554321e-02 2.283195033669471741e-02 1.318180561065673828e-01 6.233886629343032837e-02 6.026368215680122375e-02 7.629902660846710205e-02 -8.711345493793487549e-03 -1.765196956694126129e-02 6.923115998506546021e-02 3.429685533046722412e-02 1.004369370639324188e-02 1.078468784689903259e-01 1.368215978145599365e-01 1.149584650993347168e-01 1.636135578155517578e-01 9.831205010414123535e-02 -1.607286743819713593e-02 -1.665985882282257080e-01 2.468939498066902161e-02 1.189116481691598892e-02 1.064382344484329224e-01 2.611379511654376984e-02 1.949121616780757904e-02 3.941787779331207275e-02 1.102797314524650574e-01 -2.676969394087791443e-02 -6.601175665855407715e-02 5.716708675026893616e-02 6.881027482450008392e-03 1.362333074212074280e-02 2.906304784119129181e-03 -7.817624136805534363e-03 1.057591736316680908e-01 5.918790586292743683e-03 -9.181208163499832153e-02 7.661479059606790543e-03 -1.083361953496932983e-01 2.508068084716796875e-02 -1.171832345426082611e-02 9.182198904454708099e-03 -1.163870245218276978e-01 7.204793393611907959e-02 1.799241602420806885e-01 -5.386060103774070740e-03 -5.380897223949432373e-02 -3.717318549752235413e-02 -6.497943401336669922e-02 2.828369289636611938e-02 7.366263773292303085e-03 -1.029293313622474670e-01 8.577328175306320190e-02 3.819224983453750610e-02 1.630694605410099030e-02 1.295489631593227386e-02 9.056438505649566650e-02 1.072109341621398926e-01 1.046659126877784729e-01 -4.390699043869972229e-02 5.869187880307435989e-03 8.029804378747940063e-02 7.044736295938491821e-02 4.263947159051895142e-02 5.233602598309516907e-02 2.251705527305603027e-01 -2.263350877910852432e-03 1.027531549334526062e-02 -6.267009675502777100e-02 1.118211634457111359e-02 2.818254381418228149e-02 -1.250712200999259949e-02 -4.462423920631408691e-02 8.255837112665176392e-02 8.768493682146072388e-02 -2.530468814074993134e-02 4.136994853615760803e-02 1.161188557744026184e-01 -1.078482195734977722e-01 1.880992799997329712e-01 3.274692893028259277e-01 2.504740469157695770e-02 -1.061408501118421555e-02 -4.284212365746498108e-02 -3.878384083509445190e-02 2.981180250644683838e-01 -2.827814780175685883e-02 4.772420600056648254e-02 3.028956651687622070e-01 1.065547112375497818e-02 1.276297569274902344e-01 5.313346534967422485e-02 1.286642849445343018e-01 5.658744275569915771e-02 -4.082253947854042053e-02 1.044896319508552551e-01 6.918469909578561783e-03 1.965980827808380127e-01 -8.951614052057266235e-02 1.635109335184097290e-01 -1.290763728320598602e-03 -9.669204801321029663e-02 -1.409505493938922882e-02 9.725078009068965912e-03 2.797201275825500488e-01 -5.497929453849792480e-02 -3.088077530264854431e-02
2.243936657905578613e-01 8.210656046867370605e-02 -3.421388193964958191e-02 -8.685183711349964142e-03 1.965020969510078430e-02 -8.020278811454772949e-02 -4.581460729241371155e-02 7.352753728628158569e-02 2.010168880224227905e-01 -8.489347063004970551e-03 5.185098946094512939e-02 5.138293281197547913e-02 7.872328162193298340e-02 2.188434451818466187e-01 -1.409088354557752609e-02 3.321264684200286865e-01 2.754837572574615479e-01 8.184262365102767944e-02 7.993720471858978271e-02 1.761170476675033569e-01 4.574915021657943726e-02 -8.393607288599014282e-02 -4.659820720553398132e-02 2.876905500888824463e-01 5.596487224102020264e-02 -8.264342695474624634e-02 -5.455287173390388489e-02 -1.636045053601264954e-02 3.252334296703338623e-01 1.388842165470123291e-01 9.023915231227874756e-02 2.130837440490722656e-01 1.125820651650428772e-01 1.273903846740722656e-01 -6.237124651670455933e-02 3.036774396896362305e-01 2.263527130708098412e-03 8.801309764385223389e-02 2.840832993388175964e-02 1.256158482283353806e-02 -1.000455841422080994e-01 6.278428435325622559e-02 9.732106118462979794e-04 -1.815421134233474731e-02 -4.025837406516075134e-02 2.239319384098052979e-01 1.148004829883575439e-01 2.836265563964843750e-01 4.423253983259201050e-02 1.286874115467071533e-01 -8.303365111351013184e-02 3.983157221227884293e-03 5.065915733575820923e-02 4.865510761737823486e-02 4.959854483604431152e-02 5.269327759742736816e-02 7.216630131006240845e-02 2.884021028876304626e-02 5.655569955706596375e-02 7.933821529150009155e-02 2.655189111828804016e-02 -2.410978078842163086e-02 4.779196903109550476e-02 1.933176517486572266e-01 1.293055154383182526e-02 1.072215959429740906e-01 -2.549811452627182007e-02 6.030855327844619751e-02 1.342714428901672363e-01 1.536240577697753906e-01 6.002768129110336304e-02 7.659845799207687378e-02 -3.922955691814422607e-02 -2.354814670979976654e-02 1.930465251207351685e-01 3.953571245074272156e-02 -3.535513952374458313e-02 4.834783263504505157e-03 9.918905794620513916e-03 -2.353778854012489319e-02 7.189053297042846680e-02 1.001099031418561935e-02 8.853289484977722168e-02 3.872382640838623047e-02 6.875717639923095703e-02 1.840509474277496338e-02 -3.270417451858520508e-02 2.118268050253391266e-02 1.149984970688819885e-01 3.499383479356765747e-02 7.427237927913665771e-02 -5.038978904485702515e-02 -4.474610462784767151e-02 3.475476056337356567e-02 -5.810991674661636353e-02 1.252126842737197876e-01 -1.954408548772335052e-02 1.112423613667488098e-01 -2.302135899662971497e-02 1.092797517776489258e-01 8.111261576414108276e-02 1.004296466708183289e-01 7.156129181385040283e-02 -2.356073260307312012e-02 7.586976140737533569e-02 -3.279504552483558655e-02 -1.364884823560714722e-01 1.564438641071319580e-02 -6.157090514898300171e-02 -1.073962170630693436e-02 1.565352529287338257e-01 1.240122038871049881e-02 -1.317904740571975708e-01 -1.037843152880668640e-01 2.923236601054668427e-02 1.715019717812538147e-02 1.101763844490051270e-01 8.188045583665370941e-03 1.100937724113464355e-01 9.491696022450923920e-03 3.247141093015670776e-02 1.234740205109119415e-02 -2.940753661096096039e-02 -4.479946568608283997e-02 4.555065557360649109e-02 -6.329933553934097290e-02 -2.342984825372695923e-02 1.554249674081802368e-01 1.476835012435913086e-01 1.077281776815652847e-03 -1.104473471641540527e-01 -1.659108847379684448e-01 -3.290138021111488342e-02 1.268779672682285309e-02 3.931095451116561890e-02 -8.561740815639495850e-02 1.336209177970886230e-01 -7.450608909130096436e-02 4.562604799866676331e-02 3.824150562286376953e-02 6.219859421253204346e-02 -3.890838846564292908e-02 -6.157340481877326965e-02 -8.845575153827667236e-02 -1.221021637320518494e-02 2.275077253580093384e-02 -9.350018203258514404e-02 7.095000147819519043e-02 4.902866482734680176e-02 2.444988042116165161e-01 4.232238046824932098e-03 3.287914395332336426e-02 1.102075874805450439e-01 2.815636061131954193e-02 -5.427049472928047180e-02 -6.897418200969696045e-02 -3.001728467643260956e-02 -2.775279432535171509e-02 2.823958359658718109e-02 -2.374656498432159424e-02 -1.412007119506597519e-02 1.106579229235649109e-01 1.334963887929916382e-01 1.834211498498916626e-02 1.670864224433898926e-01 -8.429443836212158203e-02 -2.772960439324378967e-02 -2.841938659548759460e-02 4.785231128334999084e-02 1.965560168027877808e-01 5.171108990907669067e-02 3.361811488866806030e-02 -5.420618224889039993e-03 2.464222311973571777e-01 1.113058552145957947e-01 -6.609667837619781494e-02 7.103965431451797485e-02 1.362489312887191772e-01 2.271679341793060303e-01 9.700382128357887268e-03 3.132706508040428162e-02 9.967818856239318848e-02 3.007054142653942108e-02 -1.137779355049133301e-01 8.847570046782493591e-03 2.796472311019897461e-01 5.319235473871231079e-02 -5.410088226199150085e-02 -1.126539558172225952e-01 1.530939806252717972e-02 1.805880293250083923e-02 2.216354623669758439e-04 3.923873417079448700e-03 -1.174108497798442841e-02 6.912759970873594284e-03 8.140347152948379517e-02 4.489056766033172607e-03 2.468372434377670288e-01 1.880254130810499191e-03 1.075757369399070740e-01
7.276976853609085083e-02 -1.173220798373222351e-01 2.158043347299098969e-02 -4.251439496874809265e-02 -1.743525415658950806e-01 5.400461703538894653e-02 -7.896933704614639282e-02 -9.206972271203994751e-02 -2.273320592939853668e-02 -3.063787333667278290e-02 2.396436175331473351e-03 -7.134232670068740845e-03 -8.743503689765930176e-02 5.435551330447196960e-02 3.490341361612081528e-03 -1.133826468139886856e-02 -1.099912524223327637e-01 -9.752869606018066406e-02 2.920935861766338348e-02 -2.587175071239471436e-01 2.090040128678083420e-03 3.313736245036125183e-02 -9.347217530012130737e-02 -1.148886382579803467e-01 1.637941808439791203e-03 5.867072194814682007e-02 1.731199771165847778e-02 4.570940975099802017e-03 -2.797286808490753174e-01 4.120483249425888062e-02 -5.101724714040756226e-02 -1.336437184363603592e-02 -5.231006443500518799e-02 -1.494273990392684937e-01 -6.981468945741653442e-02 -1.463579833507537842e-01 -6.262051872909069061e-03 -5.484311655163764954e-02 -6.168954074382781982e-02 -4.426687955856323242e-02 -3.684706240892410278e-02 -8.240779489278793335e-02 2.799705788493156433e-02 -2.439707331359386444e-02 7.462240755558013916e-02 -9.918871521949768066e-02 -7.932316511869430542e-02 -1.768030971288681030e-01 -6.684228777885437012e-02 -1.650871336460113525e-01 2.439875900745391846e-02 5.560144782066345215e-04 -4.102645441889762878e-02 4.935037717223167419e-02 1.187669672071933746e-02 6.386087089776992798e-02 4.150942340493202209e-02 -7.541303336620330811e-02 -2.684794366359710693e-03 9.827136248350143433e-02 4.058460891246795654e-02 -1.033747494220733643e-01 -1.573585867881774902e-01 -8.852303028106689453e-02 -3.889444097876548767e-02 2.011151053011417389e-02 2.216319181025028229e-02 -1.527215540409088135e-01 -8.330269902944564819e-02 1.709457300603389740e-02 -7.264475524425506592e-02 -4.605998843908309937e-02 -7.958392053842544556e-02 -1.010764110833406448e-02 -6.304182112216949463e-02 -8.938047289848327637e-02 -3.835312277078628540e-02 -1.938436366617679596e-02 9.404526650905609131e-02 -7.758896332234144211e-03 4.247732460498809814e-02 2.042732434347271919e-03 -1.785640865564346313e-01 -4.113866761326789856e-02 -1.378764361143112183e-01 -4.620121046900749207e-02 9.748804382979869843e-03 -1.187302637845277786e-02 -1.599054485559463501e-01 -1.035064086318016052e-01 2.669026143848896027e-02 -3.939413279294967651e-02 2.555501647293567657e-03 -6.804116815328598022e-02 8.496238850057125092e-03 2.586613036692142487e-02 1.793120056390762329e-02 5.622848868370056152e-02 4.245703294873237610e-02 4.468847066164016724e-02 2.411349117755889893e-02 1.256352365016937256e-01 8.959065377712249756e-02 9.534502774477005005e-02 9.846022725105285645e-02 1.099162399768829346e-01 1.291248109191656113e-02 -9.060796350240707397e-03 -1.285211592912673950e-01 -6.746900081634521484e-02 1.610713601112365723e-01 8.172917179763317108e-03 -6.062966585159301758e-02 6.735018640756607056e-02 1.712708026170730591e-01 -7.928219437599182129e-02 5.461285822093486786e-03 1.081531047821044922e-01 6.901736557483673096e-02 -1.260711252689361572e-01 -1.154118701815605164e-01 -1.261877361685037613e-02 -1.138495132327079773e-01 -6.633042544126510620e-02 1.365295890718698502e-02 1.399588435888290405e-01 -3.917536884546279907e-02 -2.669742889702320099e-02 -4.885489493608474731e-02 1.272927075624465942e-01 2.790369093418121338e-02 -7.687343657016754150e-02 -3.331702947616577148e-02 -1.096966490149497986e-01 1.879050023853778839e-02 -2.015899121761322021e-01 7.278704643249511719e-02 3.596472367644309998e-02 6.992813199758529663e-02 1.009434238076210022e-01 1.506569087505340576e-01 -7.121498882770538330e-02 1.652215607464313507e-02 7.802694290876388550e-02 6.034919619560241699e-02 1.434746235609054565e-01 -4.797301441431045532e-02 -5.997279658913612366e-02 6.417513638734817505e-02 -5.679032579064369202e-02 -3.953671082854270935e-02 1.112867221236228943e-01 -1.701189130544662476e-01 -7.225898653268814087e-02 -1.413344293832778931e-01 9.174574166536331177e-02 -1.067484021186828613e-01 3.404768183827400208e-02 -7.856390625238418579e-02 3.760939091444015503e-02 -5.326881259679794312e-02 1.186665426939725876e-02 6.057663261890411377e-02 -3.721567243337631226e-02 -1.149373725056648254e-01 1.248750016093254089e-01 -1.570027172565460205e-01 -1.285211890935897827e-01 -1.336124092340469360e-01 -4.552701488137245178e-02 -1.342262923717498779e-01 3.783284872770309448e-02 6.956537254154682159e-03 -1.936707645654678345e-01 -1.244583204388618469e-01 6.607161462306976318e-02 -4.263852909207344055e-02 2.850431948900222778e-02 -1.229717880487442017e-01 8.356323838233947754e-02 -1.477328827604651451e-03 -3.430958092212677002e-02 5.977679789066314697e-02 -5.386745091527700424e-03 -7.898661494255065918e-02 -1.453349888324737549e-01 -4.624077992048114538e-04 6.638301908969879150e-02 -9.758132509887218475e-03 3.927686437964439392e-02 -2.556908177211880684e-03 -1.555518656969070435e-01 9.797107486519962549e-05 -4.624888300895690918e-02 6.689196079969406128e-02 -3.420460596680641174e-02 -1.116626933217048645e-01 -1.254087686538696289e-01 -1.637633703649044037e-02 -2.241785079240798950e-02
9.207054972648620605e-03 -8.393417298793792725e-02 -4.238656163215637207e-02 -1.835475564002990723e-01 -5.130083486437797546e-02 8.002626895904541016e-02 -5.706420913338661194e-02 8.687657117843627930e-02 5.543640349060297012e-03 7.034421712160110474e-02 1.496651675552129745e-02 -3.064312599599361420e-02 -9.400951117277145386e-02 -7.533048093318939209e-02 -2.086543850600719452e-02 2.732083015143871307e-02 -1.707950681447982788e-01 -1.518326699733734131e-01 -4.583681374788284302e-02 -9.181194007396697998e-02 -1.277219057083129883e-01 3.971303231082856655e-04 -1.095624640583992004e-02 -1.584410220384597778e-01 -1.235672011971473694e-01 6.924325227737426758e-02 -4.242844134569168091e-02 -2.582577988505363464e-02 -2.733359634876251221e-01 -3.145297989249229431e-02 -8.505422621965408325e-02 -2.002104669809341431e-01 -1.068372502923011780e-01 -5.230027809739112854e-02 -7.052467018365859985e-02 -2.742840349674224854e-01 -1.892077326774597168e-01 -7.345511019229888916e-02 -4.012145474553108215e-02 1.118012070655822754e-01 6.272052973508834839e-02 -7.496531307697296143e-02 -4.642239212989807129e-02 -1.990326680243015289e-02 -6.271286867558956146e-03 -1.823588162660598755e-01 -1.654747277498245239e-01 -4.929128885269165039e-01 -1.458035260438919067e-01 -9.457642585039138794e-02 5.920960754156112671e-02 -5.832737311720848083e-02 6.129112467169761658e-02 -1.710007041692733765e-01 -9.275110810995101929e-02 8.482524752616882324e-02 -2.514656819403171539e-02 1.237504854798316956e-01 1.050587072968482971e-01 1.087800972163677216e-02 -4.440016299486160278e-02 -1.045984327793121338e-01 5.436908081173896790e-02 9.974817931652069092e-02 -1.257116794586181641e-01 -1.405401378870010376e-01 -2.806177735328674316e-02 1.809423044323921204e-02 -5.994876474142074585e-02 5.850975401699542999e-03 -4.240447282791137695e-02 -4.229889437556266785e-02 1.219409257173538208e-01 1.428646408021450043e-02 -4.118782654404640198e-02 -1.135054528713226318e-01 -2.103538811206817627e-01 -1.453191135078668594e-02 6.555418670177459717e-02 -1.455252021551132202e-01 -3.996511548757553101e-02 9.113382548093795776e-03 6.572517007589340210e-02 5.207454320043325424e-03 -1.200914010405540466e-02 -2.889142185449600220e-02 2.542878873646259308e-02 4.018077254295349121e-02 -4.706161562353372574e-03 6.615802645683288574e-02 1.024798676371574402e-01 -1.119707971811294556e-01 -1.434956192970275879e-01 -4.863533005118370056e-02 -1.371859610080718994e-01 3.531444445252418518e-02 -8.510328829288482666e-03 -1.120553724467754364e-02 1.805503107607364655e-02 -2.083043381571769714e-02 -9.691470861434936523e-02 -2.265944704413414001e-02 -1.137706413865089417e-01 -1.285312697291374207e-02 -5.528022721409797668e-02 5.420366674661636353e-02 8.811771869659423828e-02 5.558320134878158569e-02 1.908109337091445923e-01 -4.005097970366477966e-02 -9.186894446611404419e-02 -2.373172342777252197e-02 5.083280801773071289e-02 -1.006388366222381592e-01 1.646515130996704102e-01 -1.154337152838706970e-01 8.641128242015838623e-02 -7.442025840282440186e-02 6.210789829492568970e-02 -1.425850670784711838e-02 -1.212608069181442261e-01 2.164243720471858978e-02 1.767886243760585785e-02 -7.408628612756729126e-02 1.505718380212783813e-01 1.685219854116439819e-01 -6.361401081085205078e-02 -5.122100189328193665e-02 8.256053179502487183e-02 1.659104228019714355e-01 9.011278301477432251e-02 -2.980682440102100372e-02 1.732429116964340210e-01 -8.456623554229736328e-02 3.131243959069252014e-02 -1.985237188637256622e-02 2.971304394304752350e-02 -7.805160433053970337e-02 6.557470560073852539e-02 -9.360329806804656982e-02 -6.634882837533950806e-02 8.727537095546722412e-02 -2.411212626611813903e-04 -7.797971367835998535e-02 -3.664280753582715988e-03 2.193436026573181152e-01 9.043487161397933960e-02 -5.636540055274963379e-02 -5.147896707057952881e-02 -2.103091180324554443e-01 -6.029371544718742371e-02 -6.822474300861358643e-02 -6.186288595199584961e-02 -4.807015135884284973e-02 1.339827924966812134e-01 5.723021179437637329e-02 -5.970644298940896988e-03 -4.122113063931465149e-02 6.369438779074698687e-05 1.044223532080650330e-01 -2.096316404640674591e-02 -2.308254688978195190e-02 -4.552504047751426697e-02 3.763970732688903809e-02 4.723520949482917786e-02 -5.831301957368850708e-02 -1.012092456221580505e-01 -7.938130944967269897e-02 -9.208586998283863068e-03 -4.650302603840827942e-02 5.877101048827171326e-02 3.723741322755813599e-02 -4.177107661962509155e-02 -2.418666481971740723e-01 9.026429802179336548e-02 8.670742064714431763e-02 -5.776644684374332428e-03 -1.294500827789306641e-01 -1.660488843917846680e-01 -5.426985770463943481e-02 1.465604733675718307e-02 -1.879305392503738403e-01 -7.024951279163360596e-02 -1.839159801602363586e-02 3.608640749007463455e-03 -2.440203428268432617e-01 -2.991870045661926270e-03 1.836835779249668121e-02 3.495084354653954506e-03 2.716754935681819916e-02 -1.674878038465976715e-02 -6.103695929050445557e-02 6.363794207572937012e-02 1.758965849876403809e-02 -2.813174948096275330e-02 -7.735120505094528198e-02 -6.175807490944862366e-02 -3.457499444484710693e-01 -1.040082648396492004e-01 4.134982079267501831e-02
-4.956100136041641235e-02 9.079992771148681641e-02 2.136971801519393921e-01 3.905245289206504822e-02 8.971791714429855347e-02 -5.958564579486846924e-02 8.894233405590057373e-02 4.728763923048973083e-02 -7.203979417681694031e-03 9.659353643655776978e-02 5.720688775181770325e-02 8.451079949736595154e-03 4.044034332036972046e-02 1.419087797403335571e-01 8.981108665466308594e-02 1.927503570914268494e-02 1.033211946487426758e-01 7.646250724792480469e-02 1.102770641446113586e-01 7.295238971710205078e-02 1.412243396043777466e-01 1.158021762967109680e-01 1.057949662208557129e-02 2.793422341346740723e-01 -1.571836695075035095e-02 1.437794603407382965e-02 1.568613201379776001e-01 6.194391474127769470e-02 2.511607706546783447e-01 -4.201999306678771973e-02 1.189213618636131287e-01 1.564852744340896606e-01 9.410061687231063843e-02 6.784180551767349243e-02 -9.191267192363739014e-03 2.840365171432495117e-01 2.967096306383609772e-02 -8.956767618656158447e-02 2.147147618234157562e-02 1.585155725479125977e-02 -6.217808276414871216e-02 2.026689983904361725e-02 2.338364347815513611e-02 1.071199849247932434e-01 9.191526472568511963e-02 3.627896308898925781e-02 1.012399941682815552e-01 2.904747128486633301e-01 1.412086635828018188e-01 -4.479647800326347351e-02 -3.239738568663597107e-02 -9.623324871063232422e-02 8.622213453054428101e-02 -2.416386082768440247e-02 2.420755475759506226e-02 -8.781798183917999268e-02 -5.877564847469329834e-02 6.156701222062110901e-02 6.345389783382415771e-02 -4.376502707600593567e-02 2.046756818890571594e-02 6.878410279750823975e-02 2.118694409728050232e-02 1.083531454205513000e-01 5.646288394927978516e-02 6.511259824037551880e-02 1.038750857114791870e-01 1.511439830064773560e-01 4.998162388801574707e-02 1.742034852504730225e-01 -1.005504839122295380e-02 3.762175142765045166e-02 6.778237223625183105e-02 -6.704708188772201538e-02 5.121219903230667114e-02 7.255172729492187500e-02 3.202589973807334900e-02 1.142547726631164551e-01 -6.167344748973846436e-02 1.743187755346298218e-01 7.676672190427780151e-02 -1.152341812849044800e-01 6.753043085336685181e-02 1.054635196924209595e-01 -1.392025034874677658e-02 7.606881111860275269e-02 8.694486320018768311e-02 -9.001321345567703247e-02 1.864325441420078278e-02 -3.812852129340171814e-02 -3.253730386495590210e-02 7.839400321245193481e-02 -5.110595747828483582e-02 -1.115556992590427399e-02 -1.153723001480102539e-01 -4.893624037504196167e-02 -4.542937502264976501e-02 -3.331528231501579285e-02 5.560697242617607117e-02 1.458205282688140869e-01 5.602818727493286133e-02 3.264575824141502380e-02 4.389285296201705933e-02 -8.206788450479507446e-02 4.630498215556144714e-02 -3.340785577893257141e-02 -1.235577836632728577e-01 5.484426021575927734e-02 -8.443369716405868530e-02 -3.182673454284667969e-02 1.359670907258987427e-01 7.068586349487304688e-02 1.269688457250595093e-01 1.775017008185386658e-02 -5.601507425308227539e-02 4.772531613707542419e-02 -6.676683574914932251e-02 -1.211532950401306152e-01 5.830591171979904175e-02 -1.279425919055938721e-01 2.300984412431716919e-02 1.016627922654151917e-01 8.556261658668518066e-02 -1.623282134532928467e-01 -5.427308380603790283e-02 -7.017788290977478027e-02 1.396714448928833008e-01 1.794019155204296112e-02 4.131215810775756836e-02 -3.869720175862312317e-02 -1.845795102417469025e-02 -3.250290080904960632e-02 1.938295736908912659e-02 8.378730714321136475e-02 9.012753143906593323e-03 -1.233562082052230835e-01 -7.055453490465879440e-03 9.545881301164627075e-02 -8.090753108263015747e-02 6.139782071113586426e-02 2.511628158390522003e-02 8.545927703380584717e-02 -3.627410903573036194e-02 1.061641499400138855e-01 2.210066420957446098e-03 2.080524154007434845e-02 1.306869536638259888e-01 3.153795842081308365e-04 -4.513780027627944946e-02 6.860546767711639404e-02 -9.804233908653259277e-03 -2.423478523269295692e-03 -3.221558779478073120e-02 -1.754530239850282669e-03 7.542035728693008423e-02 1.064414251595735550e-02 -1.359845548868179321e-01 9.858167916536331177e-02 1.003352329134941101e-01 -5.526174232363700867e-02 8.061192929744720459e-02 -3.055869787931442261e-02 -1.282081753015518188e-01 1.690429262816905975e-02 3.010226413607597351e-02 5.777692422270774841e-02 1.488834619522094727e-01 1.014603823423385620e-01 5.528191104531288147e-02 5.741510167717933655e-02 -2.488568238914012909e-02 1.148051917552947998e-01 6.029401719570159912e-02 2.201144248247146606e-01 4.844364896416664124e-02 -1.025046184659004211e-01 -9.727358818054199219e-02 1.586656123399734497e-01 3.107450306415557861e-01 1.257810443639755249e-01 -1.186020579189062119e-02 9.291094541549682617e-02 1.175409997813403606e-04 4.421702399849891663e-02 -4.119715467095375061e-02 2.790094912052154541e-01 1.520312428474426270e-01 1.105228438973426819e-02 -7.679605390876531601e-03 3.006177023053169250e-02 1.134423241019248962e-01 -5.585381761193275452e-02 2.366629540920257568e-01 9.094049036502838135e-02 -1.839120835065841675e-01 1.837625503540039062e-01 8.590779453516006470e-02 3.113637566566467285e-01 -1.529745059087872505e-04 -8.153795450925827026e-02
1.949709840118885040e-02 -1.533847153186798096e-01 5.167052894830703735e-02 -1.313350945711135864e-01 -1.337700933218002319e-01 -2.826038748025894165e-02 5.354655906558036804e-02 3.722977265715599060e-02 -1.479508280754089355e-01 -9.816234558820724487e-02 -2.930096909403800964e-02 -1.043094098567962646e-01 -1.143835633993148804e-01 2.864440158009529114e-02 8.969098329544067383e-03 -6.177423149347305298e-02 -2.155811488628387451e-01 3.288137912750244141e-02 -7.058716565370559692e-02 -1.912606209516525269e-01 -5.596049502491950989e-02 -1.490968465805053711e-01 -8.573224395513534546e-02 -4.169610440731048584e-01 -3.721828758716583252e-02 -6.484658271074295044e-02 -1.196662783622741699e-01 -1.127930730581283569e-01 -3.017166852951049805e-01 -1.206287667155265808e-01 2.280908264219760895e-02 -2.175995707511901855e-01 -7.395481318235397339e-02 3.663089126348495483e-03 4.208618402481079102e-02 -1.982180029153823853e-01 -1.170856058597564697e-01 5.066859722137451172e-02 -1.306517571210861206e-01 7.117576897144317627e-02 -1.130971685051918030e-01 -2.627239935100078583e-02 2.544219605624675751e-02 -6.679435074329376221e-02 2.637758851051330566e-02 -1.869692653417587280e-01 2.810178790241479874e-03 -2.961862385272979736e-01 -3.035442717373371124e-02 -9.071791172027587891e-02 -1.472270041704177856e-01 -3.274032846093177795e-02 9.706452488899230957e-02 -2.611025050282478333e-02 1.719428785145282745e-02 -7.760672271251678467e-02 1.018460690975189209e-01 9.967115521430969238e-02 3.818534314632415771e-02 -1.547765731811523438e-02 -2.441443502902984619e-02 9.347368776798248291e-02 -1.662839762866497040e-02 2.119454555213451385e-03 -1.472558081150054932e-01 -5.245403945446014404e-02 -8.418239653110504150e-02 7.419356843456625938e-04 5.025150999426841736e-02 5.730213224887847900e-02 2.147250622510910034e-02 -8.714895695447921753e-02 -2.436005510389804840e-02 -5.222588405013084412e-02 -7.362165302038192749e-02 -5.411465652287006378e-03 -2.532910555601119995e-02 4.519158974289894104e-02 -1.142804101109504700e-01 -7.629670947790145874e-02 -2.133107483386993408e-01 8.401826024055480957e-02 -9.073705226182937622e-02 -1.390597075223922729e-01 2.173791639506816864e-02 -1.106801927089691162e-01 -1.142093613743782043e-01 2.427326329052448273e-02 -4.871958121657371521e-02 7.879471033811569214e-02 3.890980035066604614e-02 -7.680418342351913452e-02 1.521149724721908569e-01 -3.974718600511550903e-02 7.411554455757141113e-03 1.612849235534667969e-01 -1.758267581462860107e-01 -4.124343767762184143e-02 -1.388264894485473633e-01 -9.733860194683074951e-02 8.417323976755142212e-02 -4.303968325257301331e-02 -5.808300524950027466e-02 7.847801595926284790e-02 -8.682759106159210205e-02 1.431971788406372070e-02 3.719515353441238403e-02 -4.339926317334175110e-02 7.223807275295257568e-02 -2.389330044388771057e-02 -1.576647162437438965e-01 -2.701578289270401001e-02 -4.371067509055137634e-02 -3.422597795724868774e-02 1.948041021823883057e-01 -6.972285360097885132e-02 -2.656778134405612946e-02 -6.541557610034942627e-02 1.144970804452896118e-01 -3.066730313003063202e-02 -6.429148465394973755e-02 6.350754946470260620e-02 -1.189200803637504578e-01 -1.093783602118492126e-01 4.890936613082885742e-02 3.453003615140914917e-02 -1.999218016862869263e-01 -2.052664011716842651e-02 -3.456912189722061157e-02 8.413609862327575684e-02 5.411984026432037354e-02 7.886377722024917603e-02 3.645152971148490906e-02 -1.748821735382080078e-01 3.967669606208801270e-02 5.468938872218132019e-02 -1.001337319612503052e-01 -4.213979095220565796e-02 5.143076926469802856e-02 -2.980978973209857941e-02 4.670118913054466248e-02 5.982418730854988098e-02 2.774639055132865906e-02 8.548269048333168030e-03 -1.417047437280416489e-02 1.513723656535148621e-02 -3.561560437083244324e-02 -1.212842017412185669e-02 -1.696960069239139557e-02 -9.844820946455001831e-02 6.924667209386825562e-02 -3.950150310993194580e-02 -3.902670368552207947e-02 -5.213679000735282898e-02 -5.150036886334419250e-02 -6.687132269144058228e-02 -3.280929848551750183e-02 -8.269757777452468872e-02 8.741591125726699829e-02 -1.403578966856002808e-01 -1.459702476859092712e-02 -4.086875542998313904e-02 -1.264641731977462769e-01 -3.117516404017806053e-03 -6.439390033483505249e-02 -1.237461459822952747e-03 -1.645617336034774780e-01 4.622426256537437439e-02 8.485571295022964478e-02 9.456413239240646362e-02 -1.741323173046112061e-01 -1.706824898719787598e-01 -9.792764484882354736e-02 -2.622142434120178223e-01 -1.336465030908584595e-01 -2.129380032420158386e-02 5.488900467753410339e-02 -1.354184597730636597e-01 -4.001302123069763184e-01 9.521684050559997559e-02 6.419357657432556152e-02 -1.630447655916213989e-01 -3.583360090851783752e-02 2.036716789007186890e-02 5.368995293974876404e-02 -6.180329248309135437e-02 -7.887707650661468506e-02 1.170530840754508972e-01 -2.144678123295307159e-02 -6.186699029058218002e-03 -1.378702372312545776e-01 -9.041126817464828491e-02 -1.720219664275646210e-02 -2.975246123969554901e-02 -1.589027605950832367e-02 -1.480177603662014008e-02 -9.614341706037521362e-02 -2.474147230386734009e-01 -7.877468317747116089e-02 -3.492639586329460144e-02
1.255029905587434769e-02 -8.192721009254455566e-02 -6.461045145988464355e-02 3.028157912194728851e-02 -5.212871357798576355e-02 1.515784021466970444e-02 -7.290212810039520264e-02 2.362050116062164307e-02 -7.618720084428787231e-02 -1.212680190801620483e-01 -4.047971218824386597e-02 -7.092456519603729248e-02 -1.394801735877990723e-01 -9.050200879573822021e-02 -9.909074008464813232e-02 9.855435788631439209e-02 -1.387423574924468994e-01 -2.559846267104148865e-02 -6.999794393777847290e-02 -9.481703490018844604e-02 7.587639242410659790e-02 1.594386622309684753e-02 3.284956142306327820e-02 -2.944038808345794678e-01 -1.672002673149108887e-02 3.177277743816375732e-02 -4.395516961812973022e-02 -2.363210543990135193e-02 -9.691997617483139038e-02 2.259387262165546417e-02 -4.821962863206863403e-02 -1.837407201528549194e-01 -2.791145257651805878e-02 -3.990837559103965759e-02 -8.395347744226455688e-02 -1.568086594343185425e-01 -1.250239312648773193e-01 -4.326200112700462341e-02 -6.559624522924423218e-02 -4.883284866809844971e-02 1.742720603942871094e-02 -1.278142631053924561e-01 1.794004201656207442e-04 -3.015966154634952545e-02 1.852693967521190643e-02 -4.881362989544868469e-02 6.318110227584838867e-02 -2.290253341197967529e-01 -9.534733742475509644e-02 1.760559901595115662e-02 -2.676063962280750275e-02 -1.321178078651428223e-01 -1.366355270147323608e-01 -1.187660321593284607e-01 -2.496272772550582886e-01 -1.013020426034927368e-02 1.802678778767585754e-02 4.759616404771804810e-02 -6.467978656291961670e-02 2.522331103682518005e-02 1.527937203645706177e-01 -7.977277040481567383e-03 -1.405901610851287842e-01 -5.195259302854537964e-02 -6.396577507257461548e-02 -5.145176500082015991e-02 4.073579981923103333e-02 7.058741152286529541e-02 6.204829365015029907e-02 -8.867172151803970337e-02 -3.626831620931625366e-02 1.974959671497344971e-02 2.085837423801422119e-01 9.426375478506088257e-02 -1.306638866662979126e-01 3.445320576429367065e-02 -1.300160437822341919e-01 1.816444993019104004e-01 9.647675603628158569e-02 -2.533995779231190681e-03 4.977260529994964600e-02 2.534719184041023254e-02 -8.577867597341537476e-02 -1.635518074035644531e-01 -7.386215031147003174e-02 -1.476554479449987411e-02 -9.090483933687210083e-02 1.456777099519968033e-02 -8.448841981589794159e-03 -2.804413205012679100e-03 3.314160183072090149e-02 -1.095087081193923950e-02 4.641960933804512024e-02 1.154092792421579361e-02 5.661799758672714233e-02 3.883206099271774292e-02 -1.034265756607055664e-01 -4.625992849469184875e-02 -4.308590292930603027e-02 -6.795707345008850098e-02 2.853030711412429810e-02 -1.279681324958801270e-01 -2.173853106796741486e-02 1.485707610845565796e-01 -4.413732094690203667e-04 1.258248537778854370e-01 -3.210726007819175720e-02 -3.103402815759181976e-02 3.235241398215293884e-02 2.495246753096580505e-02 -1.377141177654266357e-01 -8.889941871166229248e-02 3.775917738676071167e-02 2.048837393522262573e-02 8.587098680436611176e-03 1.240431796759366989e-02 4.932021349668502808e-02 1.889335960149765015e-01 -3.664433583617210388e-02 1.342051383107900620e-02 -5.554449930787086487e-02 5.671512801200151443e-03 1.930661615915596485e-03 1.215982139110565186e-01 -2.444152161478996277e-02 8.664700202643871307e-03 -4.124623537063598633e-02 5.012595653533935547e-02 1.709824614226818085e-02 1.241259500384330750e-01 2.440996281802654266e-02 9.558565914630889893e-02 1.566659510135650635e-01 8.200795948505401611e-02 4.979953542351722717e-02 -1.225868314504623413e-01 1.209537684917449951e-01 2.800173498690128326e-02 6.700189411640167236e-02 3.478974103927612305e-02 2.503648959100246429e-02 1.432171016931533813e-01 -5.759799852967262268e-02 -1.195474117994308472e-01 -1.727716811001300812e-02 -1.719433069229125977e-02 -9.419238567352294922e-02 -1.696330681443214417e-02 -6.085344031453132629e-02 -5.490321293473243713e-02 1.527595520019531250e-01 1.833545789122581482e-02 -5.993777886033058167e-02 4.364845808595418930e-03 1.746678538620471954e-02 2.889722771942615509e-02 -1.646344959735870361e-01 -8.508265018463134766e-02 -3.924473002552986145e-02 1.646304577589035034e-01 3.805512189865112305e-02 -6.294929981231689453e-02 -8.690236508846282959e-02 3.143660351634025574e-02 -7.344172894954681396e-02 -6.900729238986968994e-02 -9.924028068780899048e-02 -1.017761230468750000e-01 -1.833576709032058716e-02 -1.605865955352783203e-01 -6.351517885923385620e-02 -4.905164986848831177e-02 -1.633547693490982056e-01 -3.022621572017669678e-01 -9.706445038318634033e-02 2.759238332509994507e-02 -5.278105661273002625e-02 -2.525024674832820892e-02 -2.241746783256530762e-01 -8.250849694013595581e-02 -6.148851290345191956e-02 -6.842131167650222778e-02 -9.181237220764160156e-02 6.557966768741607666e-02 -2.156665325164794922e-01 -1.896090209484100342e-01 -9.549504518508911133e-02 -9.559210389852523804e-03 -2.649023756384849548e-02 7.145854830741882324e-02 -9.848655760288238525e-02 2.588286995887756348e-03 9.933186322450637817e-02 3.900478407740592957e-02 -1.038825735449790955e-01 3.526644781231880188e-02 -1.100938096642494202e-01 -1.611896455287933350e-01 2.255702205002307892e-02 -1.451162714511156082e-02
2.639234997332096100e-02 5.627154931426048279e-02 3.451436385512351990e-02 -5.597177892923355103e-03 6.923260539770126343e-02 -3.297193348407745361e-02 7.781805843114852905e-02 6.004567444324493408e-02 9.491223841905593872e-02 6.268035620450973511e-02 -6.454523652791976929e-02 -3.500549122691154480e-02 7.580195367336273193e-02 4.500023648142814636e-02 1.300363149493932724e-02 3.942742571234703064e-02 2.218122333288192749e-01 1.568768471479415894e-01 3.356632217764854431e-02 6.299570668488740921e-03 1.580000072717666626e-01 -1.361220479011535645e-01 8.579599112272262573e-02 2.087523490190505981e-01 -5.651428177952766418e-02 -2.212899550795555115e-02 -1.146064046770334244e-02 5.133046954870223999e-02 2.687784433364868164e-01 -2.452286332845687866e-02 -4.794517159461975098e-02 1.602725535631179810e-01 5.380798503756523132e-02 1.312770098447799683e-01 5.693288147449493408e-02 1.716454327106475830e-01 1.527189165353775024e-01 -6.177112087607383728e-02 3.245418518781661987e-02 -6.848907098174095154e-03 1.410922408103942871e-01 8.518506586551666260e-02 5.740590393543243408e-02 -6.169120315462350845e-03 1.816615611314773560e-01 1.865275055170059204e-01 8.514044433832168579e-02 2.110672891139984131e-01 5.544270947575569153e-02 1.223338767886161804e-01 1.306504905223846436e-01 -9.889264591038227081e-03 -6.847772747278213501e-02 4.730236902832984924e-02 3.833953291177749634e-02 3.598611056804656982e-02 -1.250835657119750977e-01 1.373967230319976807e-01 -1.139976200647652149e-03 1.087844222784042358e-01 5.218774825334548950e-02 -9.220353327691555023e-03 -5.808195844292640686e-02 4.052250459790229797e-02 -3.760527819395065308e-02 1.359681226313114166e-02 3.437688574194908142e-02 7.659861445426940918e-02 8.809204399585723877e-02 -1.951161958277225494e-02 -5.392519384622573853e-02 -9.487061761319637299e-03 -3.208376839756965637e-02 -8.154816925525665283e-02 7.912830263376235962e-02 2.997625246644020081e-02 1.435121148824691772e-01 -4.389101639389991760e-02 -2.383771166205406189e-02 4.206360876560211182e-02 5.427702888846397400e-02 -6.502560526132583618e-02 9.007275849580764771e-02 3.703010082244873047e-02 6.650506705045700073e-02 3.918640315532684326e-02 5.384211242198944092e-02 7.791524380445480347e-02 -9.179406799376010895e-03 -1.233117505908012390e-01 -2.164494097232818604e-01 4.901996254920959473e-02 4.377005249261856079e-02 9.935904294252395630e-02 1.332819461822509766e-01 4.528437182307243347e-02 8.792231231927871704e-02 2.145067974925041199e-02 3.893063403666019440e-03 8.686543256044387817e-02 1.626460999250411987e-02 6.703717168420553207e-03 1.159479692578315735e-01 6.636592000722885132e-02 1.615477055311203003e-01 -1.438697427511215210e-01 1.077871844172477722e-01 -9.759171865880489349e-03 -4.401332885026931763e-02 -5.728741735219955444e-02 -2.779246540740132332e-03 8.271244168281555176e-02 1.998997759073972702e-03 3.419433161616325378e-02 -8.475331962108612061e-02 1.920065656304359436e-02 -5.322792008519172668e-02 -7.042925059795379639e-02 1.020971685647964478e-02 -5.977920815348625183e-02 1.338846087455749512e-01 -2.618880942463874817e-02 -1.765266619622707367e-02 -1.767331063747406006e-01 5.571355298161506653e-02 1.400691457092761993e-02 6.750931590795516968e-02 2.333256043493747711e-02 4.505914449691772461e-02 -1.000561416149139404e-01 4.167121369391679764e-03 -1.991940103471279144e-02 -7.503888010978698730e-02 1.289928257465362549e-01 6.900397688150405884e-02 3.263898566365242004e-02 6.446243077516555786e-02 8.695488423109054565e-02 -1.417351812124252319e-01 -1.416809558868408203e-01 5.644438043236732483e-02 4.757646843791007996e-02 -7.024592906236648560e-02 6.345811299979686737e-03 -7.689356058835983276e-02 6.266694515943527222e-02 -1.180867999792098999e-01 1.988321170210838318e-02 -1.224541291594505310e-01 -2.295867726206779480e-02 -3.081131726503372192e-03 1.916994154453277588e-01 8.547382056713104248e-02 2.503481693565845490e-02 5.620375741273164749e-03 6.597199290990829468e-02 2.414907701313495636e-02 3.914097324013710022e-02 1.221418157219886780e-01 9.446467459201812744e-02 -4.470636323094367981e-02 1.948902010917663574e-01 -6.551551818847656250e-02 1.059165876358747482e-02 -3.673423454165458679e-02 -4.616410285234451294e-02 1.705616116523742676e-01 2.799917459487915039e-01 3.802511096000671387e-02 1.410029828548431396e-01 1.537505071610212326e-02 1.004658937454223633e-01 4.037251323461532593e-02 2.791591882705688477e-01 7.244423776865005493e-02 1.172317564487457275e-01 1.062560454010963440e-01 1.368813216686248779e-01 2.575461268424987793e-01 -3.235860168933868408e-02 1.439158916473388672e-01 6.805617362260818481e-02 -2.185428515076637268e-02 3.415449708700180054e-02 1.531874388456344604e-01 1.074457988142967224e-01 1.564725935459136963e-01 3.743600845336914062e-02 -3.419963270425796509e-02 -1.236548870801925659e-01 1.927782595157623291e-02 3.160679712891578674e-02 9.077411144971847534e-02 1.766156256198883057e-01 1.568412929773330688e-01 1.999669373035430908e-01 -3.496394306421279907e-02 3.645475804805755615e-01 7.890064269304275513e-02 9.652683138847351074e-02
-9.196104109287261963e-02 -2.084614634513854980e-01 -1.139510720968246460e-01 7.751790806651115417e-03 7.323943544179201126e-03 4.518956691026687622e-02 4.511263966560363770e-02 -9.618719667196273804e-02 -1.413877010345458984e-01 -2.885520807467401028e-04 3.682939708232879639e-02 -5.765662342309951782e-02 5.217723920941352844e-02 -2.018714137375354767e-02 -1.237840577960014343e-01 -2.092153020203113556e-02 -3.039046004414558411e-02 -1.121927648782730103e-01 -8.350255340337753296e-02 3.212708514183759689e-03 -1.134158372879028320e-01 -1.506831496953964233e-01 2.950838766992092133e-03 -3.042626678943634033e-01 -6.765598058700561523e-02 1.546929776668548584e-01 -4.252575337886810303e-02 -5.984138697385787964e-02 -2.871662080287933350e-01 -4.911332577466964722e-02 -1.562853530049324036e-02 -5.703039094805717468e-02 1.063195709139108658e-02 2.195289544761180878e-02 -1.332486271858215332e-01 -3.346578180789947510e-01 -1.603634804487228394e-01 -1.022532880306243896e-01 -7.326095551252365112e-02 3.430369868874549866e-02 9.120499342679977417e-02 -1.555265188217163086e-01 -2.105027139186859131e-01 -7.786048948764801025e-02 -1.310780495405197144e-01 -8.813662827014923096e-02 -1.509121432900428772e-02 -2.080053985118865967e-01 -5.001083016395568848e-02 -1.239741593599319458e-01 -9.763800352811813354e-02 9.027124196290969849e-02 -4.393164440989494324e-02 -9.414736181497573853e-02 -3.346061706542968750e-02 8.768735080957412720e-02 1.683306545019149780e-01 5.751834809780120850e-02 -3.213674575090408325e-02 -6.239836290478706360e-02 -9.049525111913681030e-02 3.197460621595382690e-02 1.374834775924682617e-01 7.443935610353946686e-03 2.676237374544143677e-03 2.856102772057056427e-02 -1.264902353286743164e-01 -9.155336767435073853e-02 -8.756906539201736450e-02 -4.126707464456558228e-02 3.597109764814376831e-02 -3.732992336153984070e-02 2.429255098104476929e-02 5.907785147428512573e-03 -1.004663109779357910e-01 1.320718089118599892e-03 3.178897127509117126e-02 -5.889093503355979919e-02 7.759726606309413910e-03 -5.742678046226501465e-02 -7.656614482402801514e-02 -2.947092987596988678e-02 -3.178479149937629700e-02 -9.070447832345962524e-02 -1.071317121386528015e-01 1.201937571167945862e-01 -3.160330653190612793e-02 1.199235469102859497e-01 -1.512462049722671509e-01 9.074617177248001099e-03 5.415820330381393433e-02 -4.462094604969024658e-02 -3.986399620771408081e-02 -6.633457541465759277e-02 -1.008884385228157043e-01 3.150705993175506592e-02 -5.802683066576719284e-03 -5.868442729115486145e-02 -1.228014007210731506e-01 -1.668311655521392822e-01 -5.541766993701457977e-03 -1.288440357893705368e-02 -6.029243022203445435e-02 8.798658847808837891e-02 -9.866657853126525879e-02 8.664453402161598206e-03 -6.816662102937698364e-02 -3.661934286355972290e-02 6.968192011117935181e-02 1.197680309414863586e-01 -5.534483492374420166e-02 -4.809047281742095947e-02 9.443674981594085693e-02 2.687354758381843567e-02 -2.442710474133491516e-02 -1.235816106200218201e-01 -7.180231809616088867e-02 -5.427872389554977417e-02 2.945560775697231293e-02 -1.062960103154182434e-01 4.065669141709804535e-03 9.199811518192291260e-02 8.628076314926147461e-02 -1.092105135321617126e-01 5.069890990853309631e-02 9.279321134090423584e-02 -2.729093283414840698e-02 1.374089270830154419e-01 -1.452680211514234543e-02 1.030552238225936890e-01 -6.684987992048263550e-02 1.684208959341049194e-01 2.680223435163497925e-02 9.505894035100936890e-02 -5.550631135702133179e-02 -1.443029791116714478e-01 -4.868150129914283752e-02 -1.452100463211536407e-02 4.205390810966491699e-02 3.382760286331176758e-02 -8.799495548009872437e-02 9.784330427646636963e-02 4.304011538624763489e-02 -1.236210167407989502e-01 5.769417434930801392e-02 6.899885833263397217e-02 -2.422192133963108063e-02 -6.321938335895538330e-02 -6.544119119644165039e-02 2.011016244068741798e-03 -4.811518639326095581e-02 -4.496071860194206238e-02 1.070630177855491638e-01 -4.812327772378921509e-02 3.563234582543373108e-03 8.821678347885608673e-03 -3.203858062624931335e-02 8.716016262769699097e-02 -1.393062155693769455e-02 1.582795009016990662e-02 -1.270455773919820786e-02 1.583484816364943981e-03 1.726911813020706177e-01 -2.202594280242919922e-02 -1.411938853561878204e-02 -3.639130294322967529e-02 2.247772179543972015e-02 -1.476975381374359131e-01 -3.481458872556686401e-02 4.721018951386213303e-03 -1.576178818941116333e-01 2.668632380664348602e-02 -1.231566444039344788e-01 -2.787058055400848389e-01 -1.094174459576606750e-01 2.840725891292095184e-02 -2.405373565852642059e-02 -1.053749993443489075e-01 -1.851174831390380859e-01 2.319382876157760620e-02 -3.897219523787498474e-02 -1.350384205579757690e-01 2.049017697572708130e-01 1.226016134023666382e-02 -1.016967296600341797e-01 -2.704976797103881836e-01 -1.977356523275375366e-01 -6.541658937931060791e-02 1.516509149223566055e-02 8.212577551603317261e-03 -2.460550144314765930e-02 -1.356344968080520630e-01 8.056189864873886108e-02 1.130277439951896667e-01 -2.538259513676166534e-02 -1.099584475159645081e-01 -1.279199719429016113e-01 -2.053886801004409790e-01 -1.137913111597299576e-02 2.811858616769313812e-02
6.049511209130287170e-02 8.165873587131500244e-02 6.859479099512100220e-02 1.517917867749929428e-02 1.105617508292198181e-01 -4.488435015082359314e-02 9.802938252687454224e-02 1.481471955776214600e-01 2.079451382160186768e-01 7.896466553211212158e-02 2.897410094738006592e-02 4.608165845274925232e-02 3.635778650641441345e-02 -1.443269196897745132e-02 -5.338954553008079529e-02 6.745515763759613037e-02 5.945502966642379761e-02 1.501459032297134399e-01 6.570180505514144897e-02 1.430559009313583374e-01 4.934320226311683655e-02 -1.061732843518257141e-01 6.116069853305816650e-02 3.223661482334136963e-01 -5.175203084945678711e-02 -2.563964575529098511e-02 1.483926922082901001e-01 6.438855081796646118e-02 3.309969604015350342e-01 -2.071430161595344543e-02 2.434088736772537231e-01 1.009531691670417786e-01 1.721922755241394043e-01 -5.987732857465744019e-02 -8.432801812887191772e-02 3.449130356311798096e-01 9.105230867862701416e-02 -3.102918155491352081e-02 2.976269647479057312e-02 -5.009804666042327881e-02 4.089095443487167358e-02 6.725700944662094116e-02 2.191667854785919189e-01 2.125446870923042297e-02 1.362411826848983765e-01 8.249668776988983154e-02 1.197257637977600098e-01 2.862925827503204346e-01 5.331820249557495117e-02 -1.041706725955009460e-01 4.615814983844757080e-02 6.766679883003234863e-02 -3.159203380346298218e-02 1.422480791807174683e-01 -5.885255336761474609e-02 2.887080609798431396e-02 4.845125600695610046e-02 -5.119389295578002930e-02 -1.095413882285356522e-02 8.201672881841659546e-02 -4.346698522567749023e-03 -3.485735505819320679e-03 1.244942992925643921e-01 1.328026317059993744e-02 1.212459579110145569e-01 1.475603133440017700e-02 5.276295542716979980e-02 1.878918334841728210e-02 -4.766119271516799927e-02 1.911462396383285522e-01 -2.896977588534355164e-02 6.253441423177719116e-02 -2.665182575583457947e-02 7.717282045632600784e-03 -3.440397977828979492e-02 -2.205710411071777344e-01 6.986570358276367188e-02 4.119525663554668427e-03 3.421021625399589539e-02 1.488989591598510742e-01 5.048763751983642578e-02 -3.041115589439868927e-02 6.742478907108306885e-02 1.066232249140739441e-01 -5.306603759527206421e-02 8.017769455909729004e-02 5.020011588931083679e-02 5.986890569329261780e-02 3.008279949426651001e-03 -1.462128758430480957e-02 -9.298287332057952881e-02 -5.719935521483421326e-02 9.142205119132995605e-02 1.149851977825164795e-01 -1.123105511069297791e-01 5.412881076335906982e-02 2.060321718454360962e-01 -3.156870603561401367e-02 6.644927710294723511e-02 -1.531445235013961792e-02 -4.598603397607803345e-02 -9.866450726985931396e-02 1.315803825855255127e-01 -3.798907622694969177e-03 2.446357905864715576e-02 4.025340452790260315e-02 3.653070703148841858e-02 3.228615596890449524e-02 6.949292123317718506e-02 1.263096481561660767e-01 -4.872173815965652466e-02 4.687448590993881226e-02 -8.988733403384685516e-03 5.903941392898559570e-02 -1.219139434397220612e-02 -2.378124557435512543e-02 -6.100660935044288635e-02 -1.221184134483337402e-01 -8.762712776660919189e-02 2.717506326735019684e-02 -2.993089891970157623e-02 1.087815985083580017e-01 -7.795615494251251221e-02 4.547842219471931458e-02 4.422720149159431458e-02 -4.605867713689804077e-02 9.883839637041091919e-02 1.771210581064224243e-01 3.597747907042503357e-02 -1.587865501642227173e-01 -2.619745582342147827e-02 6.910110265016555786e-02 8.934579673223197460e-04 6.648029386997222900e-02 4.213073477149009705e-02 4.278375953435897827e-02 1.131163686513900757e-01 1.001805514097213745e-01 1.824130862951278687e-02 -9.125076979398727417e-02 6.368827819824218750e-02 -4.633919149637222290e-02 -9.195333719253540039e-02 5.861255526542663574e-02 6.689776480197906494e-02 3.718847036361694336e-02 -7.233165949583053589e-02 -9.465113282203674316e-02 5.673906579613685608e-02 7.541593909263610840e-02 6.392113119363784790e-02 1.496668010950088501e-01 -3.817979246377944946e-02 -7.775099575519561768e-02 4.034772887825965881e-02 -1.225800961256027222e-01 1.607790589332580566e-01 -3.967278078198432922e-02 -1.184972655028104782e-02 -3.006834164261817932e-02 -8.584276586771011353e-02 1.010411754250526428e-01 1.245965249836444855e-04 6.976805161684751511e-03 5.471001565456390381e-02 8.439780771732330322e-02 2.265308611094951630e-02 7.418622821569442749e-02 1.170107126235961914e-01 -8.529310673475265503e-02 1.608446612954139709e-02 -1.141004730015993118e-02 9.382654726505279541e-02 3.136900663375854492e-01 -4.709575697779655457e-02 -2.664106711745262146e-02 -2.031918149441480637e-03 -4.032918810844421387e-02 2.385270297527313232e-01 3.153772652149200439e-02 -1.730674207210540771e-01 1.767316311597824097e-01 2.007095888257026672e-02 -3.355874912813305855e-03 -2.006201073527336121e-02 2.637625932693481445e-01 1.071006134152412415e-01 2.391233108937740326e-02 -8.423208445310592651e-02 -1.502982378005981445e-01 -2.083468623459339142e-02 5.367932096123695374e-02 -8.574149757623672485e-02 -4.113289713859558105e-02 -3.263358026742935181e-02 3.353693336248397827e-02 1.307556182146072388e-01 2.316326200962066650e-01 5.032417178153991699e-02 -2.365046925842761993e-02
1.128551959991455078e-01 2.073502391576766968e-01 1.603197306394577026e-01 1.240048632025718689e-01 -4.075548797845840454e-02 -1.452350523322820663e-02 5.535202473402023315e-02 4.231857601553201675e-03 3.358488529920578003e-02 1.831007748842239380e-01 8.066147565841674805e-02 6.014337763190269470e-02 1.287909001111984253e-01 2.830225229263305664e-02 2.310657873749732971e-02 6.890543550252914429e-02 9.774061292409896851e-02 7.483688741922378540e-02 8.715035021305084229e-02 1.055773571133613586e-01 3.342856466770172119e-02 7.108346372842788696e-02 1.291378736495971680e-01 3.689554929733276367e-01 3.614817932248115540e-02 2.109264209866523743e-02 -2.374197170138359070e-02 2.995645403861999512e-01 3.473182320594787598e-01 5.791943892836570740e-02 9.467381238937377930e-02 5.021609738469123840e-02 1.306632012128829956e-01 1.336111780256032944e-02 6.549658626317977905e-02 1.287209093570709229e-01 2.294948995113372803e-01 2.420021407306194305e-02 2.261573821306228638e-01 1.787594892084598541e-02 2.403745427727699280e-02 2.227526158094406128e-01 4.071400687098503113e-02 9.491229057312011719e-02 -4.630445316433906555e-02 8.000110834836959839e-02 7.325873523950576782e-02 3.582861423492431641e-01 7.609222829341888428e-02 5.193546414375305176e-02 4.192075878381729126e-02 3.904805984348058701e-03 -3.488326445221900940e-02 1.400711983442306519e-01 -2.421527355909347534e-02 -4.514389857649803162e-02 1.124343052506446838e-01 1.316288411617279053e-01 7.496013492345809937e-02 1.550378501415252686e-01 -3.985457122325897217e-02 3.908707946538925171e-02 1.080484092235565186e-01 1.069680005311965942e-01 -1.833138801157474518e-02 6.496682018041610718e-02 7.798816263675689697e-02 1.497687548398971558e-01 7.820270955562591553e-02 7.400020211935043335e-02 2.493205713108181953e-03 5.398023873567581177e-02 -3.383787348866462708e-02 1.554039400070905685e-02 1.625050045549869537e-02 2.283093705773353577e-02 2.577291987836360931e-02 4.730733484029769897e-02 -9.710214100778102875e-03 -1.686709187924861908e-02 -3.405807912349700928e-02 -4.340824857354164124e-02 1.280540227890014648e-01 2.567403614521026611e-01 -3.816695138812065125e-02 1.059122756123542786e-02 1.252865493297576904e-01 -7.565885782241821289e-03 -9.785696119070053101e-02 -8.583705057390034199e-04 2.824107930064201355e-02 7.163204252719879150e-02 -6.573398597538471222e-03 2.329645445570349693e-03 -4.767384845763444901e-03 1.735780537128448486e-01 -3.596791299059987068e-03 5.087215919047594070e-03 -1.141075193881988525e-01 -4.051192477345466614e-02 -2.257306361570954323e-03 -2.946458756923675537e-02 3.985679894685745239e-02 4.589627962559461594e-03 9.774560481309890747e-02 -5.763527378439903259e-02 1.133434399962425232e-01 7.337750494480133057e-02 -2.314466238021850586e-02 -4.104679822921752930e-02 2.480332180857658386e-02 -2.336973510682582855e-02 -2.065645456314086914e-01 1.353354454040527344e-01 3.034282103180885315e-02 1.079575568437576294e-01 -4.843324795365333557e-02 9.675663709640502930e-02 -3.590247780084609985e-02 4.134073853492736816e-02 2.100493572652339935e-02 2.467641234397888184e-02 1.756389811635017395e-02 1.508680284023284912e-01 -9.634623304009437561e-03 8.750504255294799805e-02 1.218390613794326782e-01 2.887353301048278809e-02 9.223888814449310303e-02 5.590461194515228271e-02 6.986186653375625610e-02 8.975446224212646484e-02 -9.457759559154510498e-02 1.480482816696166992e-01 5.999742820858955383e-02 2.981478348374366760e-03 -7.458280771970748901e-02 7.963026314973831177e-02 -1.148595288395881653e-01 1.494242809712886810e-02 -6.675405800342559814e-02 5.990827921777963638e-03 -3.000834025442600250e-02 6.194978207349777222e-02 -6.377996504306793213e-02 -7.106315344572067261e-02 1.884639821946620941e-02 2.807783894240856171e-02 -9.231014549732208252e-02 3.691637143492698669e-02 -2.696584537625312805e-02 8.533396571874618530e-02 4.488683491945266724e-02 5.377975851297378540e-02 2.405069302767515182e-03 8.894674479961395264e-02 -1.846064440906047821e-02 3.513897955417633057e-02 9.815365821123123169e-02 -9.938847506418824196e-04 7.907845079898834229e-02 3.836836665868759155e-02 1.016343086957931519e-01 1.701450557447969913e-03 5.619980767369270325e-02 2.002544254064559937e-01 1.324970424175262451e-01 7.801542431116104126e-02 -1.554765645414590836e-02 5.329833552241325378e-02 4.940147045999765396e-03 -8.676309138536453247e-02 1.237932443618774414e-01 2.218077033758163452e-01 -2.536375820636749268e-02 -5.075674131512641907e-02 8.985346183180809021e-03 1.971855014562606812e-01 1.844721883535385132e-01 -5.702617764472961426e-02 -2.337835729122161865e-02 6.500764191150665283e-02 3.558950498700141907e-03 4.142596945166587830e-02 -6.715208292007446289e-02 2.366805225610733032e-01 1.122568324208259583e-01 -9.474561363458633423e-02 -3.903304412961006165e-02 9.621204435825347900e-02 1.720896735787391663e-02 -1.921042613685131073e-02 -9.519721381366252899e-03 6.655796617269515991e-02 6.166268885135650635e-02 3.587916120886802673e-02 1.891649961471557617e-01 2.905922532081604004e-01 5.055439472198486328e-02 1.933908313512802124e-01
1.460776664316654205e-02 1.845297403633594513e-02 9.447512775659561157e-02 8.306446485221385956e-03 -7.272615283727645874e-02 6.552152335643768311e-02 9.173845499753952026e-02 6.542632728815078735e-02 2.708040736615657806e-02 1.037589460611343384e-02 1.101448982954025269e-01 6.814239919185638428e-02 1.051215156912803650e-01 1.795919984579086304e-01 5.695214122533798218e-02 1.179151982069015503e-01 2.180261909961700439e-01 1.465977281332015991e-01 1.236661449074745178e-01 1.283445358276367188e-01 9.652227908372879028e-02 1.055564284324645996e-01 8.721910417079925537e-02 3.856289684772491455e-01 2.004307955503463745e-01 -4.067977145314216614e-02 1.116406987421214581e-03 -3.219582140445709229e-02 2.859742045402526855e-01 1.757251769304275513e-01 9.271585941314697266e-02 2.472378164529800415e-01 1.198381558060646057e-01 7.439483702182769775e-02 8.660756051540374756e-02 2.639627754688262939e-01 3.162807319313287735e-03 -6.640128325670957565e-03 1.152396872639656067e-01 1.475643962621688843e-01 1.022711992263793945e-01 9.511959552764892578e-02 1.131627932190895081e-01 -4.592621698975563049e-02 8.846940100193023682e-02 6.893905997276306152e-02 -1.778941415250301361e-02 3.018815517425537109e-01 1.267049461603164673e-01 1.445280760526657104e-01 -8.393073827028274536e-02 -9.946336504071950912e-04 -6.687086820602416992e-02 -1.295551657676696777e-01 -1.482626646757125854e-01 -3.308687359094619751e-02 -9.424475580453872681e-02 9.413985535502433777e-03 -1.324985325336456299e-01 3.053782507777214050e-02 1.266488581895828247e-01 -2.728099934756755829e-03 1.311966627836227417e-01 1.622683368623256683e-02 9.390846639871597290e-02 7.919947616755962372e-03 -1.016081944108009338e-01 1.402184963226318359e-01 6.920769065618515015e-02 -3.368697315454483032e-02 -5.009622126817703247e-02 1.113994196057319641e-01 -1.494671404361724854e-01 1.857987977564334869e-02 -2.572119422256946564e-02 3.959926217794418335e-02 -8.877990394830703735e-02 -9.869980812072753906e-02 8.081595599651336670e-02 -2.438781224191188812e-02 -1.263244729489088058e-02 -1.631346493959426880e-01 1.085386946797370911e-01 -3.706797957420349121e-02 -1.594463363289833069e-02 -4.573274031281471252e-02 1.147206872701644897e-02 -3.413065895438194275e-02 6.973984837532043457e-02 -2.809305116534233093e-02 2.336659235879778862e-03 9.820042550563812256e-02 1.075856313109397888e-01 4.975828528404235840e-02 -8.852434903383255005e-02 -7.236126065254211426e-02 8.148047327995300293e-02 3.794449567794799805e-02 1.136571094393730164e-01 9.908959269523620605e-02 -7.526291999965906143e-03 2.154696546494960785e-02 -4.734741151332855225e-02 -1.140039879828691483e-02 -3.695344924926757812e-02 -6.729682907462120056e-03 1.796335354447364807e-02 1.691093891859054565e-01 -3.020852245390415192e-02 9.712585061788558960e-02 9.148828685283660889e-02 2.695232070982456207e-02 -1.735049635171890259e-01 -1.571763753890991211e-01 -1.363961696624755859e-01 5.768314749002456665e-02 -1.330914646387100220e-01 -4.405043553560972214e-03 -1.925685256719589233e-02 2.452960610389709473e-02 7.481598854064941406e-02 1.172162666916847229e-01 -5.939689278602600098e-02 -4.246139898896217346e-02 4.145253077149391174e-02 -5.015818774700164795e-02 1.053298711776733398e-01 -1.795710436999797821e-02 -5.755881592631340027e-02 -1.391529291868209839e-01 1.202035844326019287e-01 2.584922313690185547e-02 -1.324792802333831787e-01 1.770895719528198242e-01 -5.356816574931144714e-02 1.026626229286193848e-01 1.915165595710277557e-02 -3.480203822255134583e-02 -4.814324155449867249e-02 -1.018203981220722198e-02 9.431860409677028656e-03 -7.578939199447631836e-02 -1.244435831904411316e-01 -2.794005163013935089e-02 -2.503519877791404724e-02 -2.720267884433269501e-02 -9.364441782236099243e-02 3.367368131875991821e-02 -1.967853493988513947e-02 1.676363172009587288e-03 -4.710705578327178955e-02 -3.266799822449684143e-02 -4.207177460193634033e-02 -7.602680474519729614e-02 -1.313182711601257324e-02 -3.362418338656425476e-02 -1.385875232517719269e-02 2.304636873304843903e-02 -4.881697893142700195e-02 2.477812953293323517e-02 -4.513920471072196960e-02 -7.476773113012313843e-02 6.425043195486068726e-02 -4.393218085169792175e-02 1.225889623165130615e-01 1.762656569480895996e-01 6.841820478439331055e-02 2.107145190238952637e-01 3.259604424238204956e-02 2.540391683578491211e-02 2.576111257076263428e-02 -9.705363214015960693e-02 1.177180707454681396e-01 3.521098494529724121e-01 -3.131818026304244995e-02 7.934589684009552002e-02 2.100011147558689117e-02 1.741868108510971069e-01 3.873828947544097900e-01 -5.747589468955993652e-02 3.855317085981369019e-02 9.337849915027618408e-02 4.552792385220527649e-02 4.240421205759048462e-02 3.967328462749719620e-03 2.666133940219879150e-01 1.352851977571845055e-03 3.139133751392364502e-02 -2.143295481801033020e-02 7.433468475937843323e-03 -6.644539535045623779e-02 4.193076491355895996e-02 4.819826409220695496e-02 4.518320411443710327e-02 -2.788015082478523254e-02 1.165501251816749573e-01 9.378900378942489624e-02 2.860394418239593506e-01 6.884143501520156860e-02 2.614797791466116905e-03
-3.299995511770248413e-02 -1.441865712404251099e-01 -7.188687473535537720e-02 -1.162273529917001724e-02 -3.176401183009147644e-02 2.462122030556201935e-02 -5.089494213461875916e-02 -1.182508990168571472e-01 -5.964226275682449341e-02 2.001527324318885803e-02 -2.101151458919048309e-02 -2.698320895433425903e-02 3.255583345890045166e-02 6.480388343334197998e-02 -2.567573823034763336e-02 2.003253437578678131e-02 -1.620295047760009766e-01 -8.195157349109649658e-02 -1.624646931886672974e-01 -2.123242616653442383e-01 -2.387391030788421631e-01 9.871200658380985260e-03 -8.752734214067459106e-02 -1.955695599317550659e-01 -3.050140663981437683e-02 1.540217921137809753e-02 -1.978086978197097778e-01 -1.204162836074829102e-01 -2.107021510601043701e-01 7.239455729722976685e-02 -6.394461542367935181e-02 -2.218508720397949219e-01 -2.487556636333465576e-02 -3.180208057165145874e-02 -6.443004310131072998e-02 -1.726303696632385254e-01 -1.732804626226425171e-01 -1.495756059885025024e-01 -1.298718303442001343e-01 3.914533555507659912e-02 -7.807877846062183380e-03 2.672685496509075165e-02 1.606380566954612732e-02 -1.037410348653793335e-01 -2.922554314136505127e-02 -1.330069154500961304e-01 -4.286968335509300232e-02 -3.224284648895263672e-01 -7.706371694803237915e-02 -5.720964819192886353e-02 -1.359167844057083130e-01 -3.998807445168495178e-02 -9.994725696742534637e-03 -1.022654995322227478e-01 1.008587656542658806e-03 -1.040756851434707642e-01 -2.997137792408466339e-02 -1.410658843815326691e-02 -9.959944337606430054e-02 -1.409797519445419312e-01 3.718066588044166565e-02 -1.766655780375003815e-02 6.815785914659500122e-02 -6.494966894388198853e-02 -1.952577531337738037e-01 -6.500484794378280640e-02 8.838780969381332397e-02 -5.352285131812095642e-02 -3.062847815454006195e-02 -1.496259719133377075e-01 3.630261169746518135e-03 9.580515325069427490e-03 -5.548512563109397888e-02 2.440805919468402863e-02 8.493434637784957886e-02 5.174404755234718323e-02 -6.709735374897718430e-03 -4.303956031799316406e-02 8.283984661102294922e-02 -1.054666377604007721e-02 8.180267363786697388e-02 -4.052436724305152893e-02 -1.874824762344360352e-01 -1.190265733748674393e-02 -3.145036101341247559e-02 2.909828536212444305e-02 -3.122028708457946777e-02 6.271400302648544312e-02 -8.227225393056869507e-02 5.374111235141754150e-02 1.699834130704402924e-02 -2.972879260778427124e-02 -8.669044077396392822e-02 -6.813616305589675903e-02 -1.063154190778732300e-01 -9.458320587873458862e-02 -8.291618432849645615e-04 -1.707144230604171753e-01 -9.187564253807067871e-02 -7.027967274188995361e-02 -2.017458081245422363e-01 -5.558107048273086548e-02 -9.111949801445007324e-02 -1.423520781099796295e-02 -4.152543470263481140e-02 4.749032482504844666e-02 5.988877266645431519e-02 -1.177324205636978149e-01 8.134562522172927856e-02 -3.907146304845809937e-02 -1.668831557035446167e-01 -9.310555458068847656e-02 4.806974530220031738e-02 1.215636916458606720e-02 1.200275272130966187e-01 -1.636316068470478058e-02 -1.122370455414056778e-02 2.954432275146245956e-03 -5.081706121563911438e-02 7.627153769135475159e-03 2.667875401675701141e-02 -1.651948988437652588e-01 6.525685638189315796e-02 -1.068726256489753723e-01 -1.762865334749221802e-01 -1.057954952120780945e-01 -7.861892879009246826e-02 8.060374110937118530e-02 1.941504701972007751e-02 9.445586800575256348e-02 1.098892465233802795e-01 -1.755036972463130951e-02 1.047058999538421631e-01 -6.919027119874954224e-02 1.779461055994033813e-01 -2.578035183250904083e-02 -5.568963661789894104e-02 -8.702317625284194946e-02 1.234572287648916245e-02 1.005942896008491516e-01 2.226077578961849213e-02 -6.364149600267410278e-02 -4.331581294536590576e-02 -2.684808336198329926e-02 9.468331933021545410e-02 6.767811626195907593e-02 1.235951781272888184e-01 -1.085958927869796753e-01 1.512512564659118652e-02 -8.441627770662307739e-02 1.226180642843246460e-01 -1.721448451280593872e-02 -1.105217728763818741e-02 6.741411238908767700e-02 -3.596471250057220459e-02 6.591245532035827637e-02 -6.394792348146438599e-02 -2.390907146036624908e-02 -9.559505432844161987e-02 -7.358982227742671967e-03 -1.286394745111465454e-01 8.353684842586517334e-02 4.357928782701492310e-02 -4.419970139861106873e-02 -1.720259338617324829e-01 -3.137224912643432617e-02 -2.898238413035869598e-02 -8.938729017972946167e-02 -1.539183501154184341e-02 6.825507432222366333e-02 -6.472833338193595409e-04 -9.061349928379058838e-02 -3.307940810918807983e-02 -1.681331545114517212e-01 -2.464233525097370148e-02 -9.468919783830642700e-02 -2.557796798646450043e-02 -1.562647670507431030e-01 -3.945843279361724854e-01 1.035580933094024658e-01 1.199453230947256088e-02 -1.883071959018707275e-01 -4.824854061007499695e-02 7.745829224586486816e-02 2.331023477017879486e-02 -2.993027865886688232e-01 -9.133432060480117798e-02 1.371628139168024063e-02 -7.379332184791564941e-02 4.119057953357696533e-02 3.990679513663053513e-03 -3.699947893619537354e-02 -3.778787329792976379e-02 -1.488406956195831299e-01 -1.406542807817459106e-01 -1.247548609972000122e-01 -1.488736718893051147e-01 -5.336182191967964172e-02 -2.066179877147078514e-03 1.380988210439682007e-02
-1.395029276609420776e-01 -8.182726055383682251e-02 3.697466105222702026e-02 -3.289831057190895081e-02 6.715099327266216278e-03 -3.664636239409446716e-02 8.706976473331451416e-02 -1.363606303930282593e-01 5.865075066685676575e-02 -7.609238475561141968e-02 -4.057610407471656799e-02 -5.400913953781127930e-02 2.301201783120632172e-02 -1.344298273324966431e-01 -1.883815526962280273e-01 -1.338502764701843262e-01 -1.633950769901275635e-01 -1.400099843740463257e-01 -8.327867835760116577e-02 -1.316020786762237549e-01 -5.841425433754920959e-02 2.002320624887943268e-02 -1.346264779567718506e-01 -2.804285585880279541e-01 7.967186719179153442e-02 -4.648415371775627136e-02 5.435819923877716064e-02 -5.848717689514160156e-02 -3.013428449630737305e-01 9.781137108802795410e-03 -3.638883680105209351e-02 -1.332264691591262817e-01 -4.170412197709083557e-03 2.798410877585411072e-02 -1.476230323314666748e-01 -1.346001774072647095e-01 -1.446254551410675049e-01 6.047280877828598022e-02 -1.298826038837432861e-01 -1.131963822990655899e-02 3.410333767533302307e-02 -3.662576526403427124e-02 -3.711630776524543762e-02 -1.597419753670692444e-02 -8.379765599966049194e-02 -9.942411631345748901e-02 -4.388251900672912598e-02 -2.309915274381637573e-01 -8.061293512582778931e-02 -8.723984472453594208e-03 -4.485385864973068237e-02 -1.065538749098777771e-01 -1.611090451478958130e-02 -1.146058589220046997e-01 -2.380574005655944347e-04 9.233218431472778320e-02 2.114619687199592590e-02 -7.000143174082040787e-03 -1.059368345886468887e-02 -1.763402968645095825e-01 1.040760874748229980e-01 1.429155915975570679e-01 -6.611718982458114624e-02 4.283653944730758667e-02 2.124150842428207397e-02 -1.254557371139526367e-01 -1.541144698858261108e-01 -5.061530508100986481e-03 -1.362439393997192383e-01 -4.599805176258087158e-02 -3.383099287748336792e-02 3.837355971336364746e-02 5.459365248680114746e-02 2.985376305878162384e-02 9.048156440258026123e-03 -2.944958582520484924e-02 -3.717968240380287170e-02 -1.553994268178939819e-01 7.315766066312789917e-02 4.588774871081113815e-03 -4.356742277741432190e-02 3.736378252506256104e-02 -3.264761343598365784e-02 -5.013626068830490112e-02 -2.422705665230751038e-02 -2.709554275497794151e-03 -4.905102029442787170e-02 -6.908849626779556274e-02 1.841716468334197998e-02 1.096893772482872009e-01 -5.798672512173652649e-02 -1.708577573299407959e-01 -1.198375970125198364e-01 9.576713293790817261e-02 -1.228710636496543884e-01 -7.061874121427536011e-02 -5.923000723123550415e-02 -4.018672183156013489e-02 -1.141724586486816406e-01 -5.089433118700981140e-02 -1.390477269887924194e-01 4.004070907831192017e-02 2.653822861611843109e-02 1.959420293569564819e-01 -1.313596963882446289e-01 1.375888288021087646e-01 -5.921481177210807800e-02 3.387608006596565247e-02 1.145321759395301342e-03 -1.404884308576583862e-01 -5.722512304782867432e-02 -4.157194495201110840e-02 1.644770847633481026e-03 7.571405172348022461e-02 1.321921348571777344e-01 -1.283661574125289917e-01 -1.674567349255084991e-02 -7.623515278100967407e-02 1.086291149258613586e-01 -9.518638253211975098e-02 -2.810596860945224762e-02 -6.168454512953758240e-02 -8.296764642000198364e-02 -3.732935292646288872e-03 -6.377234309911727905e-02 9.103683382272720337e-02 -2.023782134056091309e-01 -4.090123623609542847e-02 -3.165951371192932129e-02 1.484159082174301147e-01 1.104143634438514709e-01 -5.160149652510881424e-03 2.928174473345279694e-02 -3.872438147664070129e-02 6.919921189546585083e-02 6.182390730828046799e-03 -1.904678903520107269e-02 -1.877237409353256226e-01 4.053581878542900085e-02 -6.157830357551574707e-02 -9.821961075067520142e-02 6.300163269042968750e-02 1.649738252162933350e-01 -3.993279114365577698e-02 -3.482287749648094177e-02 -8.824998885393142700e-02 -3.373607620596885681e-02 1.290632784366607666e-01 -7.525660097599029541e-02 6.205707788467407227e-02 -1.322721783071756363e-02 5.438889563083648682e-02 1.413254737854003906e-01 -7.039234042167663574e-02 7.897607982158660889e-02 1.789066344499588013e-01 -3.244566032662987709e-03 -1.106346622109413147e-01 6.160501390695571899e-03 -3.769197687506675720e-02 -4.562183469533920288e-02 -3.139835596084594727e-02 -6.314906477928161621e-02 1.192716285586357117e-01 -1.128548532724380493e-01 3.440564870834350586e-02 -6.323932111263275146e-02 -1.193716078996658325e-01 -7.508362829685211182e-02 -4.135645553469657898e-02 -7.640592753887176514e-02 5.400817096233367920e-02 1.334491558372974396e-02 -2.899974286556243896e-01 1.326750125735998154e-02 4.279814288020133972e-02 -6.763114593923091888e-03 9.600599110126495361e-02 -3.089877367019653320e-01 1.774737797677516937e-02 -7.084406167268753052e-02 -1.065935790538787842e-01 2.704346552491188049e-02 3.239913284778594971e-02 -1.167355757206678391e-02 -2.751818895339965820e-01 3.500424697995185852e-02 6.647421419620513916e-02 -4.017899557948112488e-02 2.009000629186630249e-02 -2.122373133897781372e-01 1.217116788029670715e-01 -5.819065123796463013e-02 -4.124503210186958313e-02 -1.620185561478137970e-02 -1.345845758914947510e-01 -1.126381307840347290e-01 -2.564441263675689697e-01 -1.234769448637962341e-01 2.785072103142738342e-02
2.760509848594665527e-01 -1.851516366004943848e-01 -1.236424967646598816e-01 5.756864324212074280e-02 -3.709654137492179871e-02 -8.202391862869262695e-02 2.770085260272026062e-02 -1.048142835497856140e-02 -7.769563049077987671e-02 -1.268845889717340469e-02 -8.517244458198547363e-02 -9.441615082323551178e-03 -5.312164127826690674e-02 -1.262245234102010727e-03 -4.640602692961692810e-02 -1.845904886722564697e-01 -1.419484466314315796e-01 -1.055728271603584290e-02 -2.322476953268051147e-01 -1.336077451705932617e-01 -8.190917968750000000e-02 -1.570145413279533386e-02 -2.389312088489532471e-01 -2.588835656642913818e-01 -1.992373540997505188e-02 1.165913864970207214e-01 -5.896886810660362244e-02 -2.032731771469116211e-01 -3.690210878849029541e-01 -1.031971052289009094e-01 -1.301545947790145874e-01 -1.653671562671661377e-01 1.724770991131663322e-03 -7.946303486824035645e-02 -2.336398959159851074e-01 -2.549606859683990479e-01 -2.194820940494537354e-01 -1.280219946056604385e-02 5.865714699029922485e-02 -1.278297305107116699e-01 -5.803559347987174988e-02 -8.248417824506759644e-02 3.478786721825599670e-02 -1.016287803649902344e-01 -1.958400309085845947e-01 -2.142909467220306396e-01 -7.252912223339080811e-02 -3.398070037364959717e-01 -2.531595528125762939e-01 -8.505275845527648926e-02 6.622038781642913818e-02 -4.523926228284835815e-02 -2.454555220901966095e-02 -1.066133901476860046e-01 -6.775651872158050537e-02 -3.580368310213088989e-02 -4.477195441722869873e-03 -8.714031428098678589e-02 1.398120541125535965e-02 -1.410148479044437408e-02 -2.199013717472553253e-02 7.452113926410675049e-02 -1.028706654906272888e-01 1.523138768970966339e-02 -1.395980715751647949e-01 -1.114898696541786194e-01 -5.007181316614151001e-02 -3.102449327707290649e-02 -4.699572175741195679e-02 1.090295426547527313e-02 2.448975108563899994e-02 -1.055630967020988464e-01 -3.091653995215892792e-02 -1.383969932794570923e-02 -2.756386250257492065e-02 -4.148427769541740417e-02 -6.994186341762542725e-02 -4.664011672139167786e-02 1.243162602186203003e-01 -1.118656694889068604e-01 -3.418494388461112976e-02 -3.045832365751266479e-02 -1.598888784646987915e-01 -1.387037634849548340e-01 -1.666465587913990021e-02 -1.408511679619550705e-02 -3.976920992136001587e-02 -9.223771095275878906e-02 -9.601706266403198242e-02 -5.505763739347457886e-02 7.873298972845077515e-02 -7.068961858749389648e-02 -1.136818528175354004e-01 -8.855469524860382080e-02 -9.003254026174545288e-02 -3.220546245574951172e-02 -7.064285874366760254e-02 3.164904192090034485e-02 8.099080063402652740e-03 -9.374272823333740234e-02 -5.202521383762359619e-02 -7.716378662735223770e-03 -1.300257891416549683e-01 7.837420701980590820e-02 -1.273521482944488525e-01 6.479395180940628052e-02 5.121313408017158508e-02 -6.062240153551101685e-02 -7.684865593910217285e-02 -4.188587516546249390e-02 -5.710057541728019714e-02 -4.289278015494346619e-02 9.933433681726455688e-02 3.891272470355033875e-02 -1.763379201292991638e-02 -1.376782655715942383e-01 6.053380668163299561e-02 5.229001864790916443e-03 1.070337295532226562e-01 5.381362978368997574e-03 9.048681706190109253e-02 9.587736800312995911e-03 8.319360017776489258e-02 1.916595846414566040e-01 -6.969966739416122437e-02 9.503126144409179688e-02 -1.560896486043930054e-01 1.082167625427246094e-01 4.339737072587013245e-02 5.969627201557159424e-02 5.293415859341621399e-02 -7.950934767723083496e-02 1.196406558156013489e-01 -1.047386005520820618e-01 -9.952548891305923462e-02 -2.400416135787963867e-02 -2.515657572075724602e-03 -4.007990285754203796e-02 -1.035975366830825806e-01 -9.456154890358448029e-03 -7.963777333498001099e-02 3.989902511239051819e-02 3.118158690631389618e-02 4.216594621539115906e-02 -1.168422847986221313e-01 -1.471918821334838867e-02 -2.001445926725864410e-02 -9.197986684739589691e-03 -6.514467298984527588e-02 -1.392378807067871094e-01 5.371739715337753296e-02 -1.026319488883018494e-01 -1.158787161111831665e-01 5.309430416673421860e-03 1.106519103050231934e-01 6.077953428030014038e-02 -1.118233986198902130e-02 4.992191866040229797e-02 -6.725787371397018433e-02 -3.217080980539321899e-02 -1.042309477925300598e-01 -9.819182008504867554e-02 -4.748313128948211670e-02 1.860471256077289581e-02 -6.787806004285812378e-02 -5.339523777365684509e-02 -1.096527203917503357e-01 -6.743506062775850296e-03 -1.248207263415679336e-04 -6.335813552141189575e-03 -2.544136643409729004e-01 -9.316424280405044556e-02 -3.235703110694885254e-01 -2.781319022178649902e-01 -1.608058996498584747e-02 -2.060684491880238056e-04 5.838863179087638855e-02 -1.108749359846115112e-01 -2.648786604404449463e-01 -1.786859333515167236e-02 -4.434993490576744080e-02 -9.055212140083312988e-02 -9.334047138690948486e-02 1.735335402190685272e-02 1.217840313911437988e-01 -1.763245016336441040e-01 -1.402550339698791504e-01 -1.489129755645990372e-02 -1.116935312747955322e-01 -5.214573815464973450e-02 -5.099206697195768356e-03 9.049618616700172424e-03 -5.760811269283294678e-02 1.700659096240997314e-02 -7.385330647230148315e-02 -1.575278341770172119e-01 -2.486367151141166687e-02 -2.468247711658477783e-01 -9.013304114341735840e-02 2.151561342179775238e-02
3.509757295250892639e-02 1.914122551679611206e-01 6.320457905530929565e-02 1.840496510267257690e-01 -1.785409171134233475e-03 -6.569673866033554077e-02 3.680546581745147705e-02 -5.962130799889564514e-02 9.759738296270370483e-02 8.995504677295684814e-02 4.004864767193794250e-02 -1.017574295401573181e-01 -6.445702747441828251e-04 1.488550156354904175e-01 1.015467010438442230e-02 2.503282390534877777e-02 2.304089963436126709e-01 5.804469808936119080e-03 1.711005568504333496e-01 1.439804583787918091e-01 7.491530478000640869e-02 3.817367553710937500e-02 4.674709215760231018e-02 4.051941037178039551e-01 5.023757740855216980e-02 -1.932963915169239044e-02 2.694559842348098755e-02 1.030713394284248352e-01 2.233402729034423828e-01 5.333019047975540161e-02 1.352620869874954224e-01 1.555475443601608276e-01 2.277906239032745361e-01 8.557748794555664062e-02 1.279766857624053955e-01 1.679055988788604736e-01 8.097153156995773315e-02 7.136818021535873413e-02 -3.037363989278674126e-03 6.418886780738830566e-02 6.420132238417863846e-03 1.555949300527572632e-01 3.561236336827278137e-02 3.448745980858802795e-02 1.254421174526214600e-01 1.686889231204986572e-01 1.317151188850402832e-01 4.137660264968872070e-01 1.133512929081916809e-01 1.746151894330978394e-01 4.478902369737625122e-02 4.255306348204612732e-02 1.031262874603271484e-01 5.284134298563003540e-02 -7.917094044387340546e-03 -1.364184916019439697e-01 -7.723843213170766830e-03 -6.446716934442520142e-02 -7.780186086893081665e-02 -8.868034183979034424e-02 3.310425579547882080e-02 5.774612724781036377e-02 -1.150391995906829834e-01 1.292991489171981812e-01 -1.972227916121482849e-02 2.018327564001083374e-01 1.630675494670867920e-01 -8.279514312744140625e-02 -1.101771742105484009e-02 1.303395032882690430e-01 -3.612222149968147278e-02 5.023672431707382202e-02 1.609257459640502930e-01 -2.125862799584865570e-02 6.015422567725181580e-02 -2.193526364862918854e-02 -6.303166504949331284e-03 -1.389154642820358276e-01 -2.080433629453182220e-02 1.673838496208190918e-01 -4.557447135448455811e-02 6.136662885546684265e-02 1.063966751098632812e-01 7.060127705335617065e-02 1.009735465049743652e-01 2.711224928498268127e-02 -9.063410572707653046e-03 -4.751070868223905563e-03 2.943604066967964172e-02 1.940504088997840881e-02 -2.802935801446437836e-02 2.709365263581275940e-02 3.703068569302558899e-02 1.971295028924942017e-01 3.047559782862663269e-02 4.169283807277679443e-02 1.779647320508956909e-01 -6.205694377422332764e-02 7.277031242847442627e-02 1.295606046915054321e-01 -1.258091907948255539e-02 4.013227298855781555e-02 -7.066658139228820801e-02 7.573743932880461216e-04 1.274563968181610107e-01 -1.425711363554000854e-01 -1.339426934719085693e-01 -1.024503186345100403e-01 8.557254076004028320e-02 7.895456999540328979e-02 1.715901046991348267e-01 1.534464396536350250e-02 -3.702069446444511414e-02 -3.141907602548599243e-02 -1.951076537370681763e-01 3.543626889586448669e-02 8.220340311527252197e-02 5.968881025910377502e-02 -1.104277148842811584e-01 -1.841177581809461117e-03 1.313856616616249084e-02 3.367173299193382263e-02 9.543206542730331421e-02 3.214410692453384399e-02 1.245058551430702209e-01 -6.813330203294754028e-02 1.920311152935028076e-02 -5.233220010995864868e-02 -1.013092771172523499e-01 -3.174556186422705650e-03 1.975152641534805298e-03 4.033537209033966064e-02 -2.503617294132709503e-02 -8.312008529901504517e-02 -1.863881386816501617e-02 -1.071787253022193909e-02 5.777247250080108643e-02 8.902251720428466797e-02 2.069331333041191101e-02 -1.518433392047882080e-01 -1.374553516507148743e-02 5.041610077023506165e-02 -8.831834048032760620e-02 9.264083951711654663e-02 1.158590335398912430e-02 4.097457602620124817e-02 -1.013923063874244690e-01 -7.799481041729450226e-03 1.855839416384696960e-02 -7.098172605037689209e-02 -8.250763267278671265e-02 9.626703709363937378e-02 1.084781717509031296e-02 3.980542719364166260e-02 3.411688655614852905e-02 2.013007365167140961e-02 1.072257012128829956e-01 -1.233647461049258709e-03 -2.295111306011676788e-02 1.019159257411956787e-01 -1.866463758051395416e-02 7.992886006832122803e-03 3.731028363108634949e-02 -1.348378509283065796e-01 8.063688874244689941e-02 1.997046731412410736e-02 1.262762993574142456e-01 2.294796109199523926e-01 3.565605264157056808e-03 1.383859515190124512e-01 4.619888216257095337e-02 -1.271910816431045532e-01 1.025317013263702393e-01 2.824243307113647461e-01 -4.066669940948486328e-02 -9.567628055810928345e-02 7.127293944358825684e-02 1.762097924947738647e-01 3.515388667583465576e-01 -1.181012601591646671e-03 4.493487998843193054e-02 1.445657163858413696e-01 5.549406632781028748e-02 -7.753552868962287903e-03 -1.172559037804603577e-01 2.607215642929077148e-01 1.977726817131042480e-01 -7.895768433809280396e-02 -8.764562755823135376e-02 1.125927790999412537e-01 1.159326657652854919e-01 -5.807591974735260010e-02 -3.968055918812751770e-02 1.094706058502197266e-01 -2.762912772595882416e-02 6.646030396223068237e-02 1.501332968473434448e-01 1.593313515186309814e-01 1.373621821403503418e-01 -1.968459412455558777e-02
4.871549550443887711e-03 2.631936222314834595e-02 4.453303292393684387e-02 1.272539794445037842e-01 2.283252403140068054e-02 -3.655025362968444824e-02 1.730251461267471313e-01 2.756117843091487885e-02 5.802876129746437073e-02 1.116913333535194397e-01 -7.313403766602277756e-03 2.024083212018013000e-02 3.794841840863227844e-02 -2.532942220568656921e-02 6.859715282917022705e-02 8.666427433490753174e-02 9.447583556175231934e-02 1.151239946484565735e-01 1.103982105851173401e-01 5.442287772893905640e-03 -1.079850792884826660e-01 1.177737712860107422e-01 -2.499879710376262665e-02 2.668251693248748779e-01 1.588494479656219482e-01 -5.098785087466239929e-02 4.099357128143310547e-02 5.056408047676086426e-02 1.491016894578933716e-01 1.364878714084625244e-01 -3.672172315418720245e-03 1.441195309162139893e-01 1.914373598992824554e-02 6.714183092117309570e-02 1.551013588905334473e-01 3.045402653515338898e-02 3.426923602819442749e-02 -2.036724006757140160e-03 -3.101317957043647766e-02 1.678739674389362335e-02 -2.004315331578254700e-02 3.397835046052932739e-02 -5.240450054407119751e-02 1.425537914037704468e-01 1.109341457486152649e-01 4.227387905120849609e-02 -1.521068532019853592e-02 1.406185794621706009e-02 4.413489252328872681e-03 5.415546894073486328e-02 8.306898176670074463e-02 6.750305742025375366e-02 -7.149235159158706665e-02 -5.286098271608352661e-02 1.339685618877410889e-01 -1.567443758249282837e-01 1.211537141352891922e-02 -3.621601685881614685e-02 6.220084428787231445e-02 9.080923348665237427e-02 1.128924116492271423e-01 1.485823374241590500e-02 2.968722768127918243e-02 -1.412401907145977020e-02 8.131728321313858032e-02 9.388186037540435791e-02 1.394646316766738892e-01 5.441211536526679993e-02 8.386803418397903442e-02 5.118223279714584351e-02 1.634220033884048462e-02 3.577010706067085266e-02 5.803171545267105103e-02 -3.979083150625228882e-02 3.636282682418823242e-02 5.485631152987480164e-02 1.173786297440528870e-01 7.110256701707839966e-02 -1.071655824780464172e-01 -4.967489093542098999e-02 -7.814712822437286377e-02 1.546385437250137329e-01 1.656836271286010742e-01 1.045173257589340210e-01 1.973261982202529907e-01 -1.668034344911575317e-01 -1.016322225332260132e-01 -4.446543008089065552e-02 -2.931348234415054321e-02 -5.442818254232406616e-02 -2.533498592674732208e-02 -6.219028308987617493e-02 5.624331533908843994e-02 2.328576706349849701e-02 1.388840563595294952e-02 -3.407502919435501099e-02 -4.539310932159423828e-02 3.044002316892147064e-02 -6.216840073466300964e-02 -5.054473131895065308e-02 4.404352232813835144e-02 -8.715412020683288574e-02 3.423298150300979614e-02 -1.048246473073959351e-01 1.030435785651206970e-01 3.465431928634643555e-02 -4.534878535196185112e-04 -5.966408923268318176e-02 1.320650875568389893e-01 -1.016504466533660889e-01 1.456247270107269287e-01 9.105414152145385742e-02 -5.093732103705406189e-02 2.369988411664962769e-01 -1.944243907928466797e-02 2.179268375039100647e-02 7.735835015773773193e-02 2.954868250526487827e-04 1.101503670215606689e-01 -4.153133928775787354e-02 -1.331826578825712204e-02 -9.120007604360580444e-02 5.180546268820762634e-02 -8.428924530744552612e-02 1.088424548506736755e-01 -3.033881448209285736e-02 1.604918390512466431e-02 5.279796943068504333e-02 -2.721148310229182243e-03 -9.530035406351089478e-02 -9.360948577523231506e-03 -1.184299439191818237e-01 2.073159627616405487e-02 7.666181772947311401e-02 2.524698153138160706e-03 -2.915204875171184540e-02 1.635446697473526001e-01 -4.378196597099304199e-02 -1.228738427162170410e-01 -3.880136832594871521e-02 1.512484550476074219e-01 1.947009190917015076e-02 5.067061260342597961e-02 -8.430242538452148438e-02 9.883492439985275269e-02 3.681312873959541321e-02 9.544183313846588135e-02 -4.786175116896629333e-02 1.361639797687530518e-01 -4.533441364765167236e-02 6.645724177360534668e-02 6.074779853224754333e-02 -6.426582485437393188e-02 -1.833416335284709930e-02 2.100868821144104004e-01 -3.856497257947921753e-02 -1.348245441913604736e-01 -1.417691167443990707e-02 -7.432227581739425659e-02 1.035262271761894226e-02 -7.108338922262191772e-02 -2.372838743031024933e-02 -2.348376251757144928e-02 7.292360533028841019e-04 9.686253964900970459e-03 -2.460945630446076393e-03 8.295720815658569336e-02 5.058317258954048157e-02 -1.157881133258342743e-02 -9.287673234939575195e-02 -6.913611292839050293e-02 -1.317026615142822266e-01 2.506636083126068115e-03 1.691612005233764648e-01 -6.841492652893066406e-02 6.674042344093322754e-02 9.465940296649932861e-03 1.688979715108871460e-01 1.330189555883407593e-01 -4.833440482616424561e-02 1.609507948160171509e-01 2.007509171962738037e-01 1.854433566331863403e-01 -1.652152687311172485e-01 1.652020402252674103e-02 -1.626930758357048035e-02 -1.822182983160018921e-01 -6.203057989478111267e-02 3.338355943560600281e-02 -4.855059459805488586e-02 -8.779961615800857544e-02 7.781719416379928589e-02 9.985330514609813690e-03 -6.852216320112347603e-04 2.087083272635936737e-02 5.551411584019660950e-02 7.038862258195877075e-02 1.305307894945144653e-01 4.294373840093612671e-02 1.238485984504222870e-02
4.155035689473152161e-02 -1.285073906183242798e-02 -4.257424548268318176e-02 1.024661213159561157e-02 -1.343461801297962666e-03 -1.019715517759323120e-01 -8.151452988386154175e-02 -8.254341781139373779e-02 -2.843738347291946411e-02 7.817486673593521118e-02 1.096343807876110077e-02 -1.557351499795913696e-01 -2.240395359694957733e-02 -5.372586194425821304e-03 9.456274658441543579e-02 1.255841553211212158e-01 -7.474190741777420044e-02 7.533657550811767578e-02 5.976900830864906311e-02 5.473852157592773438e-02 2.007317095994949341e-01 -4.894229024648666382e-02 1.013416796922683716e-01 -1.341342867817729712e-04 -3.164807101711630821e-03 2.139295265078544617e-02 -7.245551049709320068e-02 6.207833439111709595e-02 -1.156538203358650208e-01 -1.984649337828159332e-02 -3.718525171279907227e-02 -4.049249365925788879e-02 1.110049486160278320e-01 -8.168106526136398315e-02 7.182487100362777710e-02 7.855219393968582153e-02 -5.170524865388870239e-02 -1.299307048320770264e-01 5.816299095749855042e-02 -7.985509186983108521e-02 1.549670100212097168e-01 -1.192376390099525452e-02 -6.454311311244964600e-02 1.128122955560684204e-01 2.757196500897407532e-02 3.068397566676139832e-02 -9.999176859855651855e-02 1.343065500259399414e-01 5.965530127286911011e-02 -9.880546480417251587e-02 2.192341908812522888e-02 4.754686728119850159e-02 1.618881821632385254e-01 -2.964418008923530579e-02 -1.046380549669265747e-01 3.064273111522197723e-02 7.534118741750717163e-02 -1.204955130815505981e-01 -7.703197188675403595e-03 2.774726599454879761e-02 -8.672643452882766724e-03 1.047121807932853699e-01 7.541621476411819458e-02 1.133643742650747299e-02 1.502134185284376144e-02 3.810361493378877640e-03 5.929037928581237793e-02 3.131557255983352661e-02 4.207072034478187561e-02 1.224723644554615021e-02 4.520523175597190857e-02 5.019150674343109131e-02 1.634339392185211182e-01 8.260584622621536255e-02 -2.177711017429828644e-02 -4.856600239872932434e-02 -2.112664841115474701e-02 5.958281457424163818e-02 -9.580963104963302612e-02 -1.212592720985412598e-01 -1.402206569910049438e-01 2.704686776269227266e-04 1.093315109610557556e-01 5.923893675208091736e-02 7.731299102306365967e-02 -2.850139513611793518e-02 3.951200749725103378e-03 5.116176605224609375e-02 5.502140149474143982e-02 -1.122661679983139038e-01 -4.726890008896589279e-03 -5.982331931591033936e-02 1.328829769045114517e-02 1.247113104909658432e-02 -1.319904625415802002e-01 7.465495914220809937e-02 -5.539860948920249939e-02 -5.576775968074798584e-02 4.484625905752182007e-02 -1.557016465812921524e-02 2.239266596734523773e-02 -1.682231202721595764e-02 -3.553768247365951538e-02 3.289694711565971375e-02 1.270526349544525146e-01 -2.214949950575828552e-02 -3.684798628091812134e-02 1.488719731569290161e-01 6.904256530106067657e-03 8.061809837818145752e-02 -2.299168333411216736e-02 3.191144391894340515e-02 -2.970721200108528137e-02 -1.002839431166648865e-01 -2.396708726882934570e-02 1.638941913843154907e-01 3.691024333238601685e-02 1.705714017152786255e-01 5.797140300273895264e-02 -1.950961500406265259e-01 -2.064085192978382111e-02 -1.496492028236389160e-01 1.019000709056854248e-01 2.148336768150329590e-01 4.443560540676116943e-02 5.992814525961875916e-02 9.104865789413452148e-02 1.017838902771472931e-02 1.633926928043365479e-01 -2.376883476972579956e-02 -1.690690964460372925e-02 8.822932839393615723e-03 1.060521155595779419e-01 2.116176113486289978e-02 -6.887046247720718384e-02 5.391427502036094666e-02 -1.508975774049758911e-01 -1.715278625488281250e-01 -8.870964869856834412e-03 1.813056506216526031e-02 -2.450685203075408936e-02 -6.653752177953720093e-02 7.841327786445617676e-02 -3.881920501589775085e-02 7.423684000968933105e-03 -1.050990819931030273e-01 -3.305406135041266680e-04 -1.883793622255325317e-01 7.641960680484771729e-02 8.215899765491485596e-02 -3.827297687530517578e-02 -6.583549827337265015e-02 -4.367338493466377258e-03 -9.130029380321502686e-02 -4.099191352725028992e-02 -9.464548528194427490e-02 -1.520878449082374573e-02 -1.157602369785308838e-01 3.231797367334365845e-02 5.940734595060348511e-02 7.329400628805160522e-02 -3.238191083073616028e-02 4.167429730296134949e-02 4.202413372695446014e-03 -9.347387403249740601e-02 1.359172165393829346e-02 -5.105845630168914795e-02 3.555490449070930481e-02 1.808388978242874146e-01 3.191101551055908203e-02 -7.919953763484954834e-02 9.990694001317024231e-03 8.488113433122634888e-02 1.292782127857208252e-01 -4.269472789019346237e-03 2.614070847630500793e-02 7.124389708042144775e-02 4.666156694293022156e-02 1.077379211783409119e-01 8.479624986648559570e-02 -1.331009864807128906e-01 1.180203538388013840e-02 -2.213966287672519684e-02 2.034543305635452271e-01 1.434156000614166260e-01 -1.366260051727294922e-01 1.305994093418121338e-01 -3.244592994451522827e-02 7.606174051761627197e-02 -1.385416463017463684e-02 8.673266321420669556e-02 5.717307701706886292e-02 1.526690423488616943e-01 1.383914053440093994e-01 7.279073446989059448e-02 2.380828186869621277e-02 -7.509485632181167603e-02 1.568520963191986084e-01 -2.403469569981098175e-02 8.212183415889739990e-02
1.170899439603090286e-02 -9.924063459038734436e-03 -4.264630749821662903e-02 -1.135724410414695740e-01 1.853199452161788940e-01 5.008605495095252991e-02 -1.117744073271751404e-01 -1.466222014278173447e-02 -2.600048482418060303e-02 -4.666424915194511414e-02 -9.077441692352294922e-02 -1.157628521323204041e-01 2.084874920547008514e-02 -3.424355387687683105e-02 -7.635832298547029495e-03 3.182894215569831431e-05 7.453380152583122253e-03 -1.144161298871040344e-01 1.083367168903350830e-01 -9.701099246740341187e-02 -6.076946109533309937e-02 -2.507637813687324524e-02 -1.299875080585479736e-01 -2.749066948890686035e-01 1.079790145158767700e-01 -1.733032241463661194e-02 -8.320414274930953979e-02 -2.804069966077804565e-02 -3.281036913394927979e-01 -2.815473824739456177e-02 -1.066352650523185730e-01 4.240832850337028503e-02 5.598501116037368774e-02 6.582727283239364624e-02 -7.184220850467681885e-02 -1.565198153257369995e-01 -2.001115679740905762e-01 -5.950297042727470398e-02 -2.149523980915546417e-02 1.208960786461830139e-01 -1.345144212245941162e-01 -3.690958395600318909e-02 -6.713648885488510132e-02 -2.752454876899719238e-01 -1.550026088953018188e-01 -1.421140413731336594e-02 -8.302453160285949707e-02 -1.917748153209686279e-01 -6.565853208303451538e-02 -2.672558650374412537e-03 8.709774911403656006e-02 4.168356209993362427e-02 -3.692369163036346436e-02 -8.169119060039520264e-02 6.623023003339767456e-02 8.941512554883956909e-02 2.439254662021994591e-03 9.459079802036285400e-02 -6.869509071111679077e-02 -9.227143973112106323e-02 8.973997831344604492e-02 -1.109946817159652710e-01 -1.170522049069404602e-01 4.086857661604881287e-02 -4.557166248559951782e-02 -2.766548283398151398e-02 3.207895671948790550e-03 -8.796627074480056763e-02 -1.981825381517410278e-02 -2.588615566492080688e-02 -8.986647427082061768e-02 4.235669225454330444e-02 7.093245163559913635e-03 -2.550413645803928375e-02 3.220722824335098267e-02 1.293624043464660645e-01 -1.378515213727951050e-01 2.182414531707763672e-01 -1.430442184209823608e-01 3.010530257597565651e-03 -2.243761904537677765e-03 5.208303034305572510e-02 -1.035329699516296387e-01 -6.930168718099594116e-02 -9.612271189689636230e-02 -6.770058721303939819e-02 1.437467634677886963e-01 -4.036084748804569244e-03 -7.189236581325531006e-02 -5.571765452623367310e-02 1.549680978059768677e-01 -7.923782616853713989e-02 -2.103495597839355469e-02 -7.647430151700973511e-02 -9.486684203147888184e-02 -1.166776288300752640e-02 -2.230599522590637207e-02 6.093433499336242676e-02 7.629086822271347046e-02 -1.338611096143722534e-01 -5.755604058504104614e-02 -1.072424724698066711e-01 3.744868934154510498e-02 1.304000765085220337e-01 -9.918073192238807678e-03 1.935015548951923847e-03 5.162935703992843628e-02 6.271063536405563354e-02 2.404383718967437744e-01 -1.275703608989715576e-01 -8.153383433818817139e-02 4.469895362854003906e-02 -1.303742378950119019e-01 9.414947032928466797e-02 5.385836586356163025e-02 -4.345137625932693481e-02 5.955085903406143188e-02 4.985908418893814087e-02 2.580271661281585693e-02 -7.507020607590675354e-03 -4.485976696014404297e-02 -7.212168723344802856e-02 1.110773906111717224e-01 -8.162514120340347290e-02 3.284289268776774406e-04 2.149681560695171356e-02 -1.624887138605117798e-01 -1.297783106565475464e-01 -1.201378181576728821e-01 6.768790632486343384e-02 5.742268636822700500e-03 -8.086816221475601196e-02 5.560012161731719971e-02 4.633536934852600098e-02 -1.168080121278762817e-01 1.158758997917175293e-02 -5.243017338216304779e-03 -2.045099437236785889e-02 -9.822642430663108826e-03 1.019338965415954590e-01 1.917070448398590088e-01 1.523519903421401978e-01 1.527113318443298340e-01 -3.933198750019073486e-03 2.718100324273109436e-02 1.117130508646368980e-03 -4.990334436297416687e-02 2.719857543706893921e-02 3.673055768013000488e-02 1.514379400759935379e-02 7.786697149276733398e-02 7.751197367906570435e-02 -1.449257284402847290e-01 2.197571657598018646e-02 4.887163639068603516e-02 -5.416168645024299622e-02 -9.511980414390563965e-02 1.022842247039079666e-02 7.735703885555267334e-02 1.610006392002105713e-02 -4.220055788755416870e-02 -7.439304888248443604e-02 9.753508865833282471e-02 6.510937213897705078e-02 2.877516113221645355e-02 3.741592541337013245e-02 1.507921665906906128e-01 -2.797593921422958374e-02 1.637550294399261475e-01 -6.170312687754631042e-02 9.266664832830429077e-02 -4.052658006548881531e-02 -2.129253447055816650e-01 -3.205866515636444092e-01 1.298602670431137085e-01 6.448050588369369507e-02 1.014639660716056824e-01 -1.316625475883483887e-01 -2.410693317651748657e-01 1.137445718050003052e-01 -7.547746598720550537e-02 -1.475781351327896118e-01 3.308004140853881836e-02 7.689225021749734879e-03 8.309583179652690887e-03 -1.185313239693641663e-01 1.145576685667037964e-02 5.523229949176311493e-03 -8.391516655683517456e-02 1.198476087301969528e-02 4.277250543236732483e-02 4.494781047105789185e-02 -1.052938252687454224e-01 -4.295491799712181091e-02 7.963606156408786774e-03 -1.144063696265220642e-01 7.709927856922149658e-02 -1.721748709678649902e-01 -7.902736216783523560e-02 8.524934947490692139e-02
