-8.598752319812774658e-02 -2.924523316323757172e-02 -1.124133635312318802e-02 -8.659677952527999878e-02 -6.502378266304731369e-03 2.945035509765148163e-02 -7.231611758470535278e-02 -1.200030557811260223e-02 -3.743620589375495911e-02 -9.199585765600204468e-02 -2.557729929685592651e-02 -3.747059032320976257e-02 -5.100254341959953308e-02 -2.716756612062454224e-02 -8.681260794401168823e-02 -4.246595874428749084e-02 -4.772310145199298859e-03 -3.477254137396812439e-02 -4.261620342731475830e-02 -1.515264343470335007e-02 3.830999881029129028e-02 -4.002544656395912170e-02 3.007169440388679504e-02 -5.685418471693992615e-02 -4.430739954113960266e-02 -7.450993638485670090e-03 -2.566429227590560913e-02 -7.325978484004735947e-03 -1.108458340167999268e-01 -4.324401542544364929e-02 -9.801654517650604248e-02 1.286155357956886292e-02 -1.685913652181625366e-01 -5.535094067454338074e-02 7.563026994466781616e-02 1.265497691929340363e-02 -2.382661029696464539e-02 6.013341620564460754e-02 -5.389871075749397278e-02 9.186174720525741577e-03 -9.311932139098644257e-03 -8.095804601907730103e-02 -3.693816438317298889e-02 -5.268045887351036072e-02 -1.849741116166114807e-02 -2.972357720136642456e-02 -5.782528314739465714e-04 -1.290502548217773438e-01 4.151856899261474609e-02 -2.239775210618972778e-01 -1.374609023332595825e-01 -1.328217387199401855e-01 -7.500316947698593140e-02 2.517829649150371552e-02 -4.571944475173950195e-02 4.662904422730207443e-03 -3.041975572705268860e-02 -7.090974599123001099e-02 -1.341682970523834229e-01 5.632223561406135559e-03 -5.275058746337890625e-02 -2.202500998973846436e-01 -4.339324310421943665e-02 -1.010791398584842682e-02 -7.903218269348144531e-02 -1.059805005788803101e-01 6.175702437758445740e-02 2.261069044470787048e-02 -1.167932450771331787e-01 1.016762480139732361e-02 -4.608661681413650513e-02 -3.248163685202598572e-02 -1.339089572429656982e-01 -4.413207620382308960e-02 3.345118090510368347e-02 4.090109840035438538e-03 1.548759639263153076e-02 5.484143737703561783e-03 2.456423826515674591e-02 4.514469951391220093e-02 -1.616244763135910034e-01 -2.201052196323871613e-02 -1.094806417822837830e-01 -8.475776761770248413e-02 -3.984984010457992554e-03 -6.820978969335556030e-02 2.610439248383045197e-02 -4.160800576210021973e-02 -1.017187163233757019e-01 -4.651768878102302551e-02 3.341786935925483704e-02 -7.633527368307113647e-02 -1.471796780824661255e-01 -1.090471968054771423e-01 -4.002047330141067505e-02 5.870989710092544556e-02 4.710597859229892492e-04 -2.424056828022003174e-02 2.515247650444507599e-02 -8.814194053411483765e-02 -4.437398910522460938e-02 -2.111327834427356720e-02 1.167917624115943909e-02 6.620005704462528229e-03 -2.018704079091548920e-02 2.426986023783683777e-02 2.166898362338542938e-02 -4.339776933193206787e-02 -8.636201918125152588e-02 4.967097658663988113e-03 -2.276718616485595703e-02 -7.990288734436035156e-02 -9.360353648662567139e-02 3.142860531806945801e-02 6.404353678226470947e-02 9.259211272001266479e-02 1.008762419223785400e-01 5.515522137284278870e-02 -1.000066399574279785e-01 1.014059688895940781e-02 -3.413491696119308472e-02 -4.424046725034713745e-02 5.768010392785072327e-02 -1.505728927440941334e-03 -4.523282498121261597e-02 1.147390529513359070e-02 -5.321833118796348572e-02 6.589950621128082275e-02 -6.179643794894218445e-02 -6.044858321547508240e-02 6.113423500210046768e-03 8.206321299076080322e-02 -2.027066238224506378e-02 -2.864511916413903236e-03 3.262370824813842773e-02 -5.546946078538894653e-02 -6.463618576526641846e-02 -8.085961453616619110e-04 3.042474854737520218e-03 -1.114639565348625183e-01 -2.048609778285026550e-02 -5.146419629454612732e-02 4.942587763071060181e-02 1.853907667100429535e-02 -3.725882247090339661e-02 -1.040603443980216980e-01 2.474234998226165771e-02 6.031399127095937729e-03 6.011307612061500549e-02 -5.601102858781814575e-02 -1.555996481329202652e-02 -8.999461680650711060e-02 -1.117345243692398071e-01 3.237137198448181152e-02 -1.072433814406394958e-01 -3.284779936075210571e-02 -6.999670714139938354e-02 2.749229967594146729e-02 1.321796327829360962e-02 -2.453677356243133545e-02 -2.326948335394263268e-03 -4.904780536890029907e-02 3.204353153705596924e-02 -1.607220154255628586e-03 3.539870679378509521e-02 -1.232389956712722778e-01 -2.309269830584526062e-02 4.128855839371681213e-02 -2.853870391845703125e-02 -5.137140676379203796e-02 -3.752854466438293457e-02 1.343732774257659912e-01 -1.567419618368148804e-02 -4.682970046997070312e-02 2.966936444863677025e-03 -3.446253761649131775e-02 3.878846764564514160e-02 -7.277173455804586411e-03 3.905544430017471313e-02 5.557593703269958496e-02 -3.525760769844055176e-02 -3.078593127429485321e-02 -1.881173253059387207e-02 3.737967088818550110e-02 4.357675462961196899e-02 -7.728043198585510254e-02 -6.130543351173400879e-02 1.431765314191579819e-02 -1.603721529245376587e-01 -2.929763868451118469e-02 2.121501602232456207e-02 -3.623492782935500145e-03 -2.206462062895298004e-02 -9.716609120368957520e-02 -4.469890147447586060e-02 3.972986713051795959e-02 -3.725490346550941467e-02 1.745218597352504730e-02 -1.064151246100664139e-02 -3.417171165347099304e-02 4.929745569825172424e-02 -2.592993713915348053e-02 1.117531955242156982e-02 6.034162268042564392e-02 5.399457737803459167e-02 7.675293087959289551e-02 -6.921485066413879395e-02 -1.045144796371459961e-01 -8.067534118890762329e-02 -5.514119192957878113e-02 -2.089475095272064209e-02 5.628065392374992371e-02 -8.256811648607254028e-03 7.161071151494979858e-02 1.702757179737091064e-02 3.366658464074134827e-02 1.213390380144119263e-02 -8.596964180469512939e-02 1.680834591388702393e-02 -1.496507506817579269e-02 -3.865333646535873413e-02 1.827829517424106598e-02 1.135168820619583130e-01 3.306742757558822632e-02 -1.547453179955482483e-02 4.491199925541877747e-02 2.016397006809711456e-02 -3.059214912354946136e-02 -3.741667419672012329e-02 3.280624514445662498e-03 -8.471917361021041870e-02 -3.313854336738586426e-02 -4.275295883417129517e-02 8.510169573128223419e-03 -9.068925678730010986e-02 -1.023792475461959839e-01 8.183605968952178955e-02 -3.913136199116706848e-02 8.744886517524719238e-02 -1.794697903096675873e-02 -1.145658940076828003e-01 1.446209615096449852e-03 1.125444322824478149e-01 2.140324376523494720e-02 -1.303917262703180313e-02 -4.281999543309211731e-02 3.677755221724510193e-02 -5.279109627008438110e-02 -1.675784774124622345e-02 -9.460180997848510742e-02 -2.744986303150653839e-02 7.810343801975250244e-02 1.122009009122848511e-02 -1.420566886663436890e-01 -3.305307403206825256e-02 -1.547276601195335388e-02 -6.821628659963607788e-02 -1.410265546292066574e-02 4.946554079651832581e-02 -6.434256583452224731e-02 4.706270992755889893e-02 2.033030241727828979e-02 -5.274700373411178589e-02 -9.593951515853404999e-03 -4.209527000784873962e-02 2.577863447368144989e-02 3.989274054765701294e-02 2.978560514748096466e-02 -2.723697200417518616e-02 1.653010956943035126e-02 -4.709850531071424484e-03 4.187655448913574219e-02 -8.397288620471954346e-02 1.921731280162930489e-03 7.449411600828170776e-02 -9.457812458276748657e-02 -8.146633207798004150e-02 1.539167854934930801e-02 -6.119684129953384399e-02 -1.782305166125297546e-02 6.164116784930229187e-02 -1.282463595271110535e-02 1.337113231420516968e-01 4.401784762740135193e-02 -4.663809016346931458e-02 -1.190323978662490845e-01 8.355180732905864716e-03 -4.907904658466577530e-03 7.157414802350103855e-04 2.156467409804463387e-03 -4.314297065138816833e-02 5.087503790855407715e-02 2.031896263360977173e-02 3.573758527636528015e-02 1.076773628592491150e-01 -5.451773852109909058e-02 5.584208667278289795e-02 1.170787867158651352e-02 2.659949101507663727e-02 -1.078783571720123291e-01 -1.531599555164575577e-02 -3.509087115526199341e-02 -2.708533965051174164e-02 -4.544076696038246155e-02 4.295000061392784119e-02 -4.268575087189674377e-02 1.055784802883863449e-02 -1.000981125980615616e-02 -7.676269393414258957e-03 -3.507161512970924377e-02 -1.441691815853118896e-01 -5.275198817253112793e-02 -5.205808952450752258e-02 -8.824418485164642334e-02 -1.076227426528930664e-01 -1.335437148809432983e-01 -3.955806791782379150e-02 4.185565561056137085e-02 -1.018796414136886597e-01 -1.371787935495376587e-01 -3.490428626537322998e-02 1.182731706649065018e-02 -9.325879067182540894e-02 -4.922212101519107819e-03 -1.913412474095821381e-02 7.552806753665208817e-03 -4.442839324474334717e-02 -7.294531166553497314e-02 -1.353486031293869019e-01 -2.878269925713539124e-02 6.943151354789733887e-02 -7.961381226778030396e-03 -1.313439905643463135e-01 -6.575361639261245728e-02 -2.659303136169910431e-03 -5.100997909903526306e-02 -8.517806977033615112e-02 -6.081679463386535645e-02 9.549953043460845947e-02 -6.591722369194030762e-03 7.855511270463466644e-03 -1.251403428614139557e-02 5.010885372757911682e-02 4.974400252103805542e-02 -1.147621870040893555e-01 -7.815200835466384888e-02 -1.647778088226914406e-03 -1.284964382648468018e-01 -9.874767623841762543e-03 -8.760331571102142334e-02 -8.135632425546646118e-02 -1.228758618235588074e-01 -3.843019530177116394e-02 -7.464201003313064575e-02 -8.816011250019073486e-03 7.866560667753219604e-02 3.470969572663307190e-02 -8.712435141205787659e-03 -5.246490985155105591e-02 -6.798788160085678101e-02 -2.949728444218635559e-02 -3.337434493005275726e-03 -4.965635389089584351e-02 9.253261238336563110e-02 -9.483364969491958618e-02 -3.964513912796974182e-02 1.869781315326690674e-02 8.583159185945987701e-03 -2.251774445176124573e-02 -1.469099372625350952e-01 -8.637680439278483391e-04 -4.646530747413635254e-02 -8.368222415447235107e-02 -7.247083634138107300e-02 -1.457384228706359863e-02 -9.283860772848129272e-02 1.721693016588687897e-02 -2.447097795084118843e-03 -6.777253746986389160e-02 4.293966412660665810e-06 -1.305475682020187378e-01 -1.643294841051101685e-01 2.687415294349193573e-02 -4.071597475558519363e-03 4.771743714809417725e-02 2.657703496515750885e-02 8.461232646368443966e-04 -1.390493363142013550e-01 -1.141760647296905518e-01 -7.363150268793106079e-02 -4.606624320149421692e-02 7.455639541149139404e-03 3.930708020925521851e-02 -1.123755201697349548e-01 6.457100808620452881e-02 4.663668945431709290e-02 -1.449069678783416748e-01 -1.413127630949020386e-01 -4.327660426497459412e-02 -4.248485714197158813e-02
2.129832096397876740e-02 5.911181867122650146e-02 1.825610101222991943e-01 -5.509249400347471237e-03 5.743308365345001221e-02 -4.746085032820701599e-02 -3.469862509518861771e-03 1.219412386417388916e-01 5.555671453475952148e-02 6.697579473257064819e-02 2.124408446252346039e-02 1.783590205013751984e-02 4.358037561178207397e-02 1.631926186382770538e-02 -1.059340015053749084e-01 8.028679341077804565e-02 1.274318844079971313e-01 1.294048875570297241e-02 1.087814420461654663e-01 -2.525789849460124969e-02 1.138693615794181824e-01 8.484410494565963745e-02 1.275994479656219482e-01 1.393978018313646317e-02 5.752361193299293518e-02 8.406584709882736206e-02 -2.630056068301200867e-02 1.249622181057929993e-02 1.115790158510208130e-01 -1.526483055204153061e-02 -4.024437442421913147e-02 -8.907816559076309204e-02 6.696040928363800049e-02 3.039909899234771729e-02 9.453160315752029419e-02 2.433413639664649963e-02 1.219359710812568665e-01 7.430681493133306503e-03 1.530508249998092651e-01 -4.476607590913772583e-02 -5.997982993721961975e-02 3.591287136077880859e-02 1.327261924743652344e-01 -2.435048110783100128e-02 2.316687256097793579e-01 5.071713030338287354e-02 7.152753323316574097e-02 1.198736652731895447e-01 3.897172212600708008e-02 1.574241816997528076e-01 3.330515028210356832e-05 4.598699510097503662e-02 6.586179137229919434e-02 7.371230423450469971e-02 -5.183871835470199585e-02 1.230837181210517883e-01 -1.621680520474910736e-02 6.420133262872695923e-02 3.272070363163948059e-02 -5.434247106313705444e-02 6.750419735908508301e-02 -2.336631156504154205e-02 -1.847274228930473328e-02 1.487380918115377426e-02 6.314585357904434204e-02 8.906494826078414917e-03 5.276006832718849182e-02 3.638207912445068359e-02 5.033882707357406616e-02 9.824407845735549927e-02 8.881832659244537354e-02 7.124340534210205078e-02 2.694761194288730621e-02 -9.581149369478225708e-02 1.460789293050765991e-01 -1.390574313700199127e-02 4.490507021546363831e-02 4.498814046382904053e-02 -1.656519621610641479e-02 -3.214543685317039490e-02 9.056749194860458374e-02 3.223787620663642883e-02 1.376965641975402832e-01 -2.302333526313304901e-02 3.658346086740493774e-02 -7.170782238245010376e-02 4.277666658163070679e-02 5.233823880553245544e-02 3.705124557018280029e-02 7.870806753635406494e-02 5.999204888939857483e-02 2.156320661306381226e-01 1.169848591089248657e-01 1.169688776135444641e-01 2.940115146338939667e-02 1.077820509672164917e-01 6.974846590310335159e-03 3.799194470047950745e-02 1.200044155120849609e-02 4.692700132727622986e-02 -6.027058884501457214e-02 1.075507402420043945e-01 6.298370659351348877e-02 1.458880491554737091e-02 1.405991762876510620e-01 -1.412142962217330933e-01 2.212228439748287201e-02 4.541718214750289917e-02 -4.734801873564720154e-02 3.897342458367347717e-02 7.646324485540390015e-02 4.079342354089021683e-03 -2.350216545164585114e-02 -2.239399356767535210e-03 3.416057676076889038e-02 1.455593761056661606e-02 3.421717509627342224e-02 -2.390908077359199524e-02 3.899454697966575623e-02 3.976840898394584656e-02 3.759156540036201477e-02 1.655779592692852020e-02 -6.511684507131576538e-02 -6.976948678493499756e-02 7.742568105459213257e-02 -5.636850371956825256e-02 -2.498813718557357788e-02 4.078608378767967224e-02 4.401568695902824402e-02 -4.825219511985778809e-02 2.563593164086341858e-02 -1.131799370050430298e-01 1.420129835605621338e-01 -3.469667956233024597e-02 -4.079583659768104553e-02 3.766249492764472961e-02 -3.102969191968441010e-02 -9.155844151973724365e-02 8.235641568899154663e-02 -1.065221503376960754e-01 -2.093843556940555573e-02 -9.871777147054672241e-02 8.232576772570610046e-03 2.968642488121986389e-02 5.872776731848716736e-02 7.714161276817321777e-02 3.064756095409393311e-02 4.235276579856872559e-02 -2.224171534180641174e-02 6.318888813257217407e-02 -4.125647619366645813e-02 1.382646262645721436e-01 1.308705098927021027e-02 5.561717972159385681e-02 9.832695126533508301e-02 5.194342881441116333e-02 2.991450391709804535e-02 -8.619336038827896118e-02 9.205826371908187866e-02 3.624485433101654053e-02 7.217325270175933838e-02 9.357100725173950195e-02 8.928953111171722412e-02 6.071252748370170593e-02 2.617767825722694397e-02 -1.182134822010993958e-02 5.331451445817947388e-02 6.165791675448417664e-02 -5.853225663304328918e-02 9.131919592618942261e-02 -1.333658350631594658e-03 -3.281227126717567444e-02 -5.711839720606803894e-02 -1.532176043838262558e-02 6.503123044967651367e-02 2.902568876743316650e-02 -7.873632945120334625e-03 -1.090435683727264404e-01 -7.387685030698776245e-02 3.082586266100406647e-02 4.945682827383279800e-03 4.230745881795883179e-02 3.107205592095851898e-02 4.453524947166442871e-02 -1.421136595308780670e-02 -1.790113560855388641e-02 8.361648023128509521e-02 3.276774287223815918e-02 3.628824651241302490e-02 7.792945206165313721e-02 -2.685268782079219818e-02 1.343252658843994141e-01 1.285855323076248169e-01 5.699469149112701416e-02 9.741307049989700317e-02 8.319526165723800659e-02 7.265254110097885132e-02 -3.777092695236206055e-02 -5.758494883775711060e-02 -4.488839302211999893e-03 8.489093929529190063e-02 9.412852674722671509e-02 -2.530505135655403137e-02 -1.030958145856857300e-01 -1.871461793780326843e-02 -1.135470196604728699e-01 7.034294307231903076e-03 -2.979827485978603363e-02 -9.301700443029403687e-02 -1.312844734638929367e-02 -4.361132159829139709e-02 3.089289925992488861e-02 -6.477132439613342285e-02 6.951614748686552048e-03 8.219471573829650879e-02 7.650253921747207642e-02 4.088462889194488525e-02 6.489145755767822266e-02 2.274345047771930695e-02 -1.005883440375328064e-01 9.738515131175518036e-03 1.601433381438255310e-02 -2.174108661711215973e-02 1.600707173347473145e-01 5.091968551278114319e-02 1.474629528820514679e-02 1.437634578905999660e-03 3.366072848439216614e-02 -6.188990175724029541e-02 -9.370990097522735596e-02 -5.602848529815673828e-02 -7.429829984903335571e-02 -2.061889739707112312e-03 -1.969895139336585999e-02 -5.207727476954460144e-02 2.888901904225349426e-02 1.528140436857938766e-02 -7.910925894975662231e-02 -1.231143102049827576e-01 -1.263458002358675003e-02 -4.468373581767082214e-02 -1.725150458514690399e-02 9.693428128957748413e-02 -1.526139583438634872e-02 -1.176041830331087112e-02 -4.372990503907203674e-02 8.289895206689834595e-02 -6.934785842895507812e-02 -5.435483530163764954e-03 4.991927370429039001e-02 5.835168436169624329e-02 -5.091187357902526855e-02 1.780432090163230896e-02 -6.045826524496078491e-02 -2.125404961407184601e-02 -6.785556208342313766e-03 8.989878930151462555e-03 1.295375637710094452e-02 1.284728292375802994e-02 -6.403394974768161774e-03 4.336890578269958496e-02 5.273627862334251404e-02 -1.905078440904617310e-02 -6.322532147169113159e-02 -3.941997885704040527e-02 -8.896969258785247803e-02 9.805655479431152344e-02 -1.252025272697210312e-02 -6.899031251668930054e-02 -7.654902525246143341e-03 3.718132525682449341e-02 5.797841772437095642e-02 9.593687951564788818e-02 1.609437353909015656e-02 -3.092275373637676239e-02 3.776735439896583557e-02 9.329006820917129517e-02 -3.333450853824615479e-02 -6.078076362609863281e-02 -4.801827296614646912e-02 -2.212479338049888611e-02 4.841032903641462326e-03 -3.955527208745479584e-03 -4.712822288274765015e-02 -2.372162230312824249e-02 -4.416059330105781555e-02 -1.711664721369743347e-02 1.537679582834243774e-01 -3.235229104757308960e-02 -1.597375422716140747e-02 -6.165500730276107788e-02 -4.602446779608726501e-02 1.874171756207942963e-02 1.202639415860176086e-01 2.789490111172199249e-02 -2.503672614693641663e-02 5.498619750142097473e-03 -8.983673155307769775e-02 -9.104859828948974609e-02 -4.849278484471142292e-04 6.042010337114334106e-02 2.582021616399288177e-02 8.086887001991271973e-02 -3.594540804624557495e-02 1.118188276886940002e-01 -4.063823446631431580e-02 2.470756322145462036e-02 7.688598334789276123e-02 7.367429882287979126e-02 5.822151526808738708e-02 3.403236716985702515e-02 6.207590922713279724e-02 -4.803324583917856216e-03 -1.172165479511022568e-02 4.448112472891807556e-02 5.358828976750373840e-02 7.356479763984680176e-02 8.578303968533873558e-04 1.270992606878280640e-01 1.078099943697452545e-02 7.017062604427337646e-02 7.247986644506454468e-02 -6.110637914389371872e-03 5.023211613297462463e-02 1.252120453864336014e-02 5.409402400255203247e-02 5.614170432090759277e-02 6.082587316632270813e-02 4.644071683287620544e-02 6.899208296090364456e-03 -3.545807301998138428e-02 -1.841312497854232788e-01 -1.874188147485256195e-02 4.745282605290412903e-02 -4.144713748246431351e-03 -3.378319740295410156e-02 1.052643582224845886e-01 -6.938450783491134644e-02 1.487803086638450623e-02 -1.169833540916442871e-01 1.861998025560751557e-04 -6.600393354892730713e-02 -6.240566261112689972e-03 1.614585965871810913e-01 2.681564353406429291e-02 6.964370608329772949e-02 -1.495898421853780746e-02 2.109799161553382874e-02 1.614055223762989044e-02 8.798608928918838501e-02 1.676124148070812225e-02 -1.106846611946821213e-03 2.113377302885055542e-02 8.430264145135879517e-02 -8.194563910365104675e-03 1.478763762861490250e-02 -5.268475413322448730e-02 3.492868691682815552e-02 1.047780513763427734e-01 -4.120666068047285080e-03 7.304634898900985718e-02 2.738325111567974091e-02 1.004028916358947754e-01 7.575404830276966095e-03 -3.320950199849903584e-04 1.371588557958602905e-01 9.404025971889495850e-02 -5.165542010217905045e-03 1.347852032631635666e-02 -8.263034746050834656e-03 8.964916691184043884e-03 5.458005145192146301e-02 5.507688224315643311e-02 3.623894602060317993e-02 8.880145847797393799e-02 3.033585287630558014e-02 -9.752885252237319946e-02 5.729386582970619202e-02 -8.269336819648742676e-02 2.435620315372943878e-02 -3.942585363984107971e-02 -1.125703454017639160e-01 2.058644033968448639e-02 3.765501081943511963e-02 -4.559729620814323425e-02 -3.260352835059165955e-02 8.652672916650772095e-02 8.974442631006240845e-02 3.262558579444885254e-02 4.379308223724365234e-02 -4.271177574992179871e-03 1.293872599489986897e-03 7.565707713365554810e-02 6.170934531837701797e-03 -3.116654045879840851e-02 2.837947197258472443e-02 6.326963752508163452e-02 6.048996001482009888e-02 5.091655254364013672e-02 5.572675913572311401e-02
-1.750127412378787994e-02 8.686205744743347168e-02 7.964659482240676880e-02 9.242694824934005737e-02 -2.307561598718166351e-02 -5.479273200035095215e-02 -2.356625907123088837e-02 7.114423811435699463e-02 -9.649244695901870728e-02 -9.932121261954307556e-03 1.683168113231658936e-01 6.912890821695327759e-02 2.833553217351436615e-02 6.316357851028442383e-02 -7.473336905241012573e-02 6.656837463378906250e-02 5.916870385408401489e-02 1.583354547619819641e-02 1.986481994390487671e-01 7.569441944360733032e-02 5.244561284780502319e-02 1.021497473120689392e-01 7.059482485055923462e-02 -1.061987131834030151e-01 4.744724184274673462e-02 -1.069624442607164383e-03 1.003165915608406067e-01 3.158785030245780945e-02 -5.354677140712738037e-02 3.100236877799034119e-02 6.444334983825683594e-02 3.381022810935974121e-02 9.089137427508831024e-03 7.289654016494750977e-02 5.217527225613594055e-02 5.753137171268463135e-02 6.261844933032989502e-02 -4.567065741866827011e-03 -1.364597119390964508e-02 2.372335270047187805e-02 9.106691926717758179e-02 3.799445182085037231e-02 1.127621717751026154e-02 1.795925386250019073e-02 1.243401542305946350e-01 4.671834781765937805e-02 1.407679263502359390e-02 9.174643456935882568e-02 -1.281967293471097946e-02 1.249759122729301453e-01 1.159598976373672485e-01 -1.052144821733236313e-02 2.720639295876026154e-02 -1.045590266585350037e-03 -4.123004898428916931e-02 1.329569332301616669e-02 1.105805300176143646e-02 -5.448858812451362610e-02 1.906052348203957081e-03 3.551776334643363953e-02 1.074900329113006592e-01 6.476695835590362549e-02 5.259338393807411194e-02 -1.159676350653171539e-02 1.115868687629699707e-01 -9.580076485872268677e-02 9.598924219608306885e-02 9.161069244146347046e-02 2.647618390619754791e-02 6.006233021616935730e-02 1.392787545919418335e-01 6.376913934946060181e-02 1.561728864908218384e-01 -2.024554461240768433e-02 2.569054439663887024e-02 1.750315539538860321e-02 7.183468341827392578e-02 7.581460475921630859e-02 1.320672333240509033e-01 4.743205755949020386e-02 6.865433603525161743e-02 1.777140796184539795e-02 1.200552359223365784e-01 -5.452605336904525757e-02 1.965967006981372833e-02 4.409803077578544617e-02 7.242260873317718506e-02 1.281607002019882202e-01 1.440435051918029785e-01 1.585919037461280823e-02 9.429308027029037476e-02 2.318113893270492554e-01 6.228062510490417480e-02 1.307157129049301147e-01 1.928656995296478271e-01 1.377619802951812744e-01 3.005192056298255920e-02 5.369475856423377991e-02 -6.494285166263580322e-02 3.784745559096336365e-02 9.055639803409576416e-02 1.127034127712249756e-01 1.368952393531799316e-01 7.296929508447647095e-02 4.070291295647621155e-03 -5.847145803272724152e-05 6.639453768730163574e-02 7.373452931642532349e-02 -1.177130825817584991e-02 8.619712293148040771e-02 9.382099658250808716e-02 -5.972088873386383057e-02 -1.075627282261848450e-01 7.712419331073760986e-02 -1.034283824265003204e-02 4.515630006790161133e-02 3.851050138473510742e-02 5.582715570926666260e-02 -3.255453775636851788e-04 4.667059704661369324e-02 6.149641796946525574e-02 4.431365430355072021e-02 -3.049278259277343750e-02 -3.132499009370803833e-02 2.269772626459598541e-02 -1.242864783853292465e-02 1.230143457651138306e-01 3.821768239140510559e-02 -1.372576355934143066e-01 -1.328278630971908569e-01 8.854923397302627563e-02 1.060870513319969177e-01 -3.465657681226730347e-02 8.255108445882797241e-02 2.678447403013706207e-03 4.632948338985443115e-02 5.286088958382606506e-02 2.933857403695583344e-02 -3.903776174411177635e-03 -6.071281805634498596e-02 2.942579798400402069e-02 7.934043556451797485e-02 7.110781222581863403e-02 -2.350634522736072540e-02 6.190984696149826050e-02 1.995751634240150452e-02 1.081010103225708008e-01 -6.973376031965017319e-03 1.452740002423524857e-02 8.247235417366027832e-02 4.318433254957199097e-02 6.949151307344436646e-02 1.077427715063095093e-01 1.325321849435567856e-02 1.548151019960641861e-02 -1.142819151282310486e-01 3.571382164955139160e-02 -6.370375305414199829e-02 -1.142834965139627457e-02 4.205868579447269440e-03 5.829416215419769287e-02 -8.970449678599834442e-03 -9.769796580076217651e-02 3.733416646718978882e-02 3.659437224268913269e-02 9.026451967656612396e-03 5.913155898451805115e-02 7.578403502702713013e-02 1.152834272943437099e-03 2.149028517305850983e-02 4.953965917229652405e-02 -3.911611810326576233e-02 8.529442548751831055e-02 1.737870462238788605e-02 8.379065245389938354e-02 1.168197989463806152e-01 6.914706528186798096e-02 4.977421090006828308e-02 -3.713079961016774178e-03 3.921892121434211731e-02 1.430332809686660767e-01 -6.408026814460754395e-02 1.184296980500221252e-01 -2.711613895371556282e-03 3.958653286099433899e-02 8.153491467237472534e-02 1.015777438879013062e-01 8.603171259164810181e-02 3.899145498871803284e-02 1.759727112948894501e-02 2.890515327453613281e-02 -1.986349374055862427e-02 -2.047046832740306854e-02 3.422508016228675842e-02 1.146053150296211243e-02 8.997292816638946533e-02 -2.720743417739868164e-02 3.075951710343360901e-02 -3.073189593851566315e-02 2.598060853779315948e-02 3.258847817778587341e-02 6.476056575775146484e-02 7.477521151304244995e-02 -2.393100410699844360e-02 3.326353058218955994e-02 -2.315337769687175751e-02 5.338202416896820068e-02 -4.546828940510749817e-02 2.894720248878002167e-02 2.468622289597988129e-02 8.494627475738525391e-02 1.227024644613265991e-01 -9.166133590042591095e-03 8.607146143913269043e-02 5.106030497699975967e-03 -8.190978318452835083e-02 8.354102820158004761e-02 4.043160006403923035e-02 -3.106889687478542328e-02 4.570659250020980835e-02 -7.305243611335754395e-02 9.171824902296066284e-02 5.062144622206687927e-02 2.332864329218864441e-02 2.301016449928283691e-02 5.371021106839179993e-02 1.141038257628679276e-02 -2.529173530638217926e-02 1.453697085380554199e-01 -6.091498583555221558e-02 3.969239071011543274e-02 1.236249320209026337e-02 7.212519645690917969e-02 -1.746079325675964355e-01 1.896613650023937225e-02 -3.378454595804214478e-02 -3.357023000717163086e-02 4.493976011872291565e-02 -1.618263125419616699e-01 -1.011683717370033264e-01 -8.590575307607650757e-02 -2.864664420485496521e-03 2.108900109305977821e-03 -5.948988255113363266e-04 -6.314378976821899414e-02 -1.099389046430587769e-01 -2.476559579372406006e-02 4.396803211420774460e-03 3.972607851028442383e-02 4.893295094370841980e-02 1.824324391782283783e-02 -1.829887367784976959e-02 2.646273933351039886e-02 6.959468126296997070e-02 7.233089301735162735e-03 2.137760631740093231e-02 4.082033038139343262e-02 -3.333162143826484680e-02 1.315777301788330078e-01 7.179999724030494690e-03 1.259629428386688232e-02 4.172402899712324142e-03 -7.772371172904968262e-02 -1.056945603340864182e-02 -8.966182172298431396e-02 -2.478878945112228394e-02 -1.862468197941780090e-02 -1.518944278359413147e-02 -1.051877625286579132e-02 1.842907071113586426e-01 5.391617864370346069e-02 -2.604988217353820801e-02 9.012584388256072998e-02 3.071404993534088135e-02 -1.634406112134456635e-02 -5.428715050220489502e-02 1.189736649394035339e-03 -1.697935722768306732e-02 -4.556615371257066727e-03 4.380225669592618942e-03 6.077791377902030945e-02 -1.121610216796398163e-02 -5.202165991067886353e-02 3.549223020672798157e-02 2.110899426043033600e-03 -4.378878697752952576e-02 3.986118733882904053e-02 -2.550869248807430267e-02 -3.693080693483352661e-02 -5.546989291906356812e-02 -7.845994830131530762e-02 8.266411721706390381e-02 -1.672517857514321804e-03 7.496449351310729980e-02 3.725178167223930359e-02 -1.466532889753580093e-02 7.646603137254714966e-02 3.741930052638053894e-02 -1.731686480343341827e-02 -6.646828725934028625e-03 3.609854355454444885e-02 -1.411933451890945435e-02 2.067349851131439209e-03 5.422861315310001373e-03 -3.999289125204086304e-02 3.925732523202896118e-02 6.454158574342727661e-02 1.724458485841751099e-01 7.491027563810348511e-02 7.187671959400177002e-02 1.147375181317329407e-01 1.231555175036191940e-02 -4.493571817874908447e-02 2.594159217551350594e-03 1.822146028280258179e-02 9.425147436559200287e-03 1.242101043462753296e-01 -5.227425694465637207e-02 1.002366617321968079e-01 1.963578909635543823e-02 -1.374124642461538315e-02 -6.134907901287078857e-02 3.770878538489341736e-02 2.116554602980613708e-02 1.628943234682083130e-01 5.522381141781806946e-02 -1.873422972857952118e-02 1.073930319398641586e-02 8.559935539960861206e-02 -2.879714779555797577e-02 6.054334342479705811e-02 1.282481700181961060e-01 5.016668140888214111e-02 2.790975756943225861e-02 1.091153323650360107e-01 2.625411935150623322e-02 1.304348260164260864e-01 1.630672439932823181e-02 -1.466264203190803528e-02 4.356199502944946289e-02 3.771770745515823364e-02 1.344476491212844849e-01 -1.506353169679641724e-02 5.737663712352514267e-03 1.766147091984748840e-02 -4.790613893419504166e-03 -2.802527137100696564e-02 3.755105286836624146e-02 -2.265002019703388214e-02 -9.873498231172561646e-03 1.186434738337993622e-02 1.928865909576416016e-02 1.001560389995574951e-01 4.701029881834983826e-02 -1.239247061312198639e-02 4.447991773486137390e-02 2.753129974007606506e-02 3.282241150736808777e-02 1.064897794276475906e-02 3.295620903372764587e-02 2.023028768599033356e-02 -1.888156495988368988e-02 1.144800800830125809e-02 -2.779196249321103096e-03 8.779563009738922119e-02 4.213946685194969177e-02 5.831498652696609497e-02 -5.188471451401710510e-02 -9.278905577957630157e-03 2.546242438256740570e-02 1.151504740118980408e-01 5.290573462843894958e-02 9.028921276330947876e-02 4.226266965270042419e-02 3.464192524552345276e-02 6.354688853025436401e-02 -1.649653911590576172e-02 2.895030193030834198e-02 1.276623755693435669e-01 7.588746398687362671e-02 -9.364644438028335571e-02 -4.132081195712089539e-02 5.069503933191299438e-02 -4.732807725667953491e-02 2.146006561815738678e-02 -1.045980118215084076e-02 4.863674193620681763e-02 4.401330277323722839e-02 -5.027543008327484131e-02 1.338569372892379761e-01 -3.098228573799133301e-02 9.453706443309783936e-02 4.657256975769996643e-02 6.564377993345260620e-02 -2.161908894777297974e-02 6.178591772913932800e-02 1.039596498012542725e-01 1.595961116254329681e-02 -2.725219726562500000e-02 2.212366834282875061e-02
-3.515218943357467651e-02 -2.734859101474285126e-02 -9.451557695865631104e-02 -3.778287395834922791e-02 -3.873305395245552063e-03 3.955643251538276672e-02 -6.725669652223587036e-02 6.653925031423568726e-02 6.434135884046554565e-02 -2.010390721261501312e-02 -1.238052826374769211e-02 -5.422882735729217529e-02 -2.531498856842517853e-02 -8.445803076028823853e-02 4.485636577010154724e-02 2.298894710838794708e-02 -6.031248718500137329e-02 1.581218652427196503e-02 -9.615047276020050049e-02 -4.290486127138137817e-02 -6.736666709184646606e-02 -3.207460045814514160e-02 -3.610400483012199402e-02 -7.691279798746109009e-02 -1.508956402540206909e-01 -1.050195004791021347e-02 -4.712449014186859131e-02 2.056664787232875824e-02 -6.635644286870956421e-02 -7.418026030063629150e-02 -8.618350257165730000e-04 5.524328723549842834e-02 -4.017557203769683838e-02 -1.893340051174163818e-02 -1.232138201594352722e-01 -1.261803358793258667e-01 -4.768704622983932495e-02 -8.424619585275650024e-02 -9.551010280847549438e-02 -1.119735930114984512e-02 -1.352945156395435333e-02 6.237875297665596008e-02 1.924142614006996155e-02 -4.399748146533966064e-02 1.473297458142042160e-02 -4.089992120862007141e-02 -1.304957270622253418e-01 -8.735979348421096802e-02 -5.174461379647254944e-02 -9.019513428211212158e-02 2.535053715109825134e-02 -1.616081409156322479e-02 -7.716119755059480667e-03 -5.628088861703872681e-02 -1.868737116456031799e-02 -1.589162647724151611e-02 1.481415145099163055e-02 -6.926846504211425781e-02 3.251238539814949036e-02 -2.586796320974826813e-02 -7.774766534566879272e-02 -1.767904125154018402e-02 -6.781708449125289917e-02 6.312825530767440796e-02 -2.372689917683601379e-02 9.514560922980308533e-03 -1.864061504602432251e-02 -2.300490438938140869e-02 -6.252421438694000244e-02 -3.031140007078647614e-02 -6.074610352516174316e-02 -3.657868131995201111e-02 -4.882590845227241516e-02 7.211843878030776978e-02 6.936159729957580566e-02 -2.535887062549591064e-02 -1.699433922767639160e-01 -9.494917467236518860e-03 -2.302453666925430298e-02 -8.549924194812774658e-02 -4.723170399665832520e-02 -2.982783503830432892e-02 -9.317939728498458862e-02 -7.819547504186630249e-02 -7.133092731237411499e-03 -5.752313300035893917e-04 -1.383732445538043976e-02 -6.321732699871063232e-02 -1.362284272909164429e-01 3.038602694869041443e-02 -5.243613570928573608e-02 -8.098590373992919922e-02 -1.129081100225448608e-01 5.048052221536636353e-02 4.576312750577926636e-02 -1.894414611160755157e-02 -7.187600433826446533e-02 -4.297023266553878784e-02 5.205214023590087891e-03 4.596308618783950806e-02 -3.501452133059501648e-02 -2.073697373270988464e-02 -1.679327040910720825e-01 -3.721405193209648132e-02 -6.006496399641036987e-02 1.729444600641727448e-02 -9.978198446333408356e-03 -3.412434458732604980e-02 2.487940248101949692e-03 -5.546303000301122665e-03 -9.738935530185699463e-02 -4.154577478766441345e-02 6.701929867267608643e-02 -5.569936335086822510e-02 -1.442990638315677643e-02 8.960317820310592651e-03 2.132793702185153961e-02 -1.680811494588851929e-02 -1.252214312553405762e-01 -1.301980018615722656e-01 -1.694266870617866516e-02 -4.046747833490371704e-02 2.223832905292510986e-02 4.698372632265090942e-02 -7.896589487791061401e-02 -2.345114387571811676e-02 -3.517268598079681396e-02 -6.516493111848831177e-02 -3.742504119873046875e-02 -6.100262328982353210e-02 4.059508070349693298e-02 8.270301669836044312e-02 3.571385145187377930e-02 -6.987217813730239868e-02 -1.535487771034240723e-01 -8.307687938213348389e-02 -1.670196652412414551e-02 -1.072245910763740540e-01 -9.413052350282669067e-02 7.113607972860336304e-02 9.710689634084701538e-02 2.385255135595798492e-02 -2.996754646301269531e-02 1.017070468515157700e-02 5.006702244281768799e-02 6.142116035334765911e-04 -7.072371244430541992e-02 -1.105239018797874451e-01 3.024722076952457428e-02 -1.129226833581924438e-01 -3.663964197039604187e-02 -1.559651196002960205e-01 -3.919015079736709595e-02 2.414268068969249725e-02 -2.013155072927474976e-02 -1.573827676475048065e-02 -1.392519846558570862e-02 8.399305865168571472e-03 -2.715161256492137909e-02 1.738027110695838928e-02 -1.529462262988090515e-02 -5.605706200003623962e-02 -1.050151512026786804e-01 1.661931164562702179e-02 8.999235183000564575e-02 -7.811117917299270630e-02 -3.357454668730497360e-03 -9.152040630578994751e-02 -9.365818463265895844e-03 -3.105690516531467438e-02 -1.787403784692287445e-02 -7.203929871320724487e-02 -9.499804675579071045e-02 1.147398278117179871e-01 5.194461904466152191e-03 4.304154589772224426e-02 7.456784695386886597e-02 -3.027190454304218292e-02 4.723224788904190063e-02 -2.588696405291557312e-02 4.488367214798927307e-02 5.868608877062797546e-02 -5.734424293041229248e-02 3.194526955485343933e-02 -3.102898038923740387e-02 1.757037453353404999e-02 -8.021820336580276489e-02 8.736563846468925476e-03 -8.067998290061950684e-02 -1.310805678367614746e-01 -7.163108140230178833e-02 -2.184287607669830322e-01 -1.648544669151306152e-01 5.296227708458900452e-02 -4.329895228147506714e-02 -2.346540801227092743e-02 -4.149319976568222046e-02 7.837498188018798828e-02 1.208557863719761372e-03 3.818612173199653625e-02 -7.405181229114532471e-02 -5.345993489027023315e-02 -5.067390203475952148e-02 1.429720968008041382e-01 -1.446838229894638062e-01 3.304981160908937454e-03 6.476272642612457275e-02 9.111934155225753784e-02 -9.763978421688079834e-02 -7.425399962812662125e-03 7.393659651279449463e-02 -4.240727424621582031e-02 6.183564290404319763e-02 -5.225196108222007751e-02 -9.909098595380783081e-02 1.894128881394863129e-02 -4.603685811161994934e-02 8.848460763692855835e-02 -5.387046560645103455e-02 -1.632721722126007080e-02 1.622748933732509613e-02 -1.395867206156253815e-02 -7.818358391523361206e-02 -4.564657062292098999e-02 5.135453119874000549e-02 1.110909506678581238e-01 -1.847741194069385529e-02 6.148828193545341492e-03 -6.724427640438079834e-02 -3.895589709281921387e-02 5.963778868317604065e-02 -6.765342317521572113e-03 -2.055881358683109283e-02 4.755616933107376099e-02 1.669422723352909088e-02 -8.104835450649261475e-02 -1.317878365516662598e-01 2.471161819994449615e-02 2.700308151543140411e-02 1.056656707078218460e-02 7.398938387632369995e-02 5.860498547554016113e-02 -1.665189117193222046e-01 3.656596690416336060e-02 -4.055607132613658905e-03 -3.775565698742866516e-02 -2.955203317105770111e-02 -2.813171595335006714e-02 2.476747892796993256e-02 -5.237255245447158813e-02 -7.727378048002719879e-03 7.551114261150360107e-02 1.087123826146125793e-01 -1.479387655854225159e-02 1.366869062185287476e-01 2.185051701962947845e-02 -1.221063658595085144e-01 3.391103073954582214e-02 7.730504870414733887e-02 -3.687252476811408997e-02 1.727146655321121216e-02 3.319673240184783936e-02 3.600472956895828247e-02 8.025512844324111938e-02 -1.094419881701469421e-02 -1.401219703257083893e-02 8.663431741297245026e-03 -8.315327018499374390e-02 -1.219894737005233765e-02 6.842468865215778351e-03 -1.802700571715831757e-02 -1.596583575010299683e-01 -6.871391087770462036e-02 -8.277130313217639923e-03 1.135019399225711823e-02 -9.240805520676076412e-04 7.252097129821777344e-02 -1.907525770366191864e-02 -2.213366702198982239e-02 4.072437807917594910e-02 7.772290706634521484e-02 1.891412958502769470e-02 1.144062727689743042e-02 -9.974900633096694946e-02 3.273697942495346069e-02 -7.385741174221038818e-02 1.548414118587970734e-02 5.908017233014106750e-02 3.782857442274689674e-03 -3.771126270294189453e-02 -2.336196042597293854e-02 -3.752508386969566345e-02 -1.613203883171081543e-01 2.469249814748764038e-02 7.970615476369857788e-02 -3.811873868107795715e-02 3.807296603918075562e-02 -4.097412154078483582e-02 -9.662046283483505249e-02 3.000654093921184540e-02 2.715027332305908203e-02 2.552721649408340454e-02 -6.398092955350875854e-02 1.054250821471214294e-01 -1.570515483617782593e-01 1.148439664393663406e-02 1.007871143519878387e-02 -3.105906769633293152e-02 5.318480730056762695e-02 8.106204681098461151e-03 4.844390973448753357e-02 -5.950219929218292236e-02 5.815185606479644775e-02 -2.015371993184089661e-02 9.009497612714767456e-02 -6.720229238271713257e-02 -7.866135239601135254e-02 1.031591221690177917e-01 -9.999518096446990967e-02 -7.940443605184555054e-02 -5.469962209463119507e-02 -5.284313485026359558e-02 -1.100771650671958923e-01 -5.016279220581054688e-02 -9.865308552980422974e-02 -3.717336058616638184e-02 -4.225175827741622925e-02 -2.313562855124473572e-02 6.295248121023178101e-02 2.743691019713878632e-02 5.309798289090394974e-03 1.801151409745216370e-02 -1.455585658550262451e-02 -3.668458014726638794e-02 -1.053277701139450073e-01 -6.978051364421844482e-02 -5.494910478591918945e-02 -7.236516475677490234e-02 -2.222730079665780067e-03 4.002908989787101746e-02 2.765912376344203949e-02 2.734889043495059013e-03 -1.622165553271770477e-02 6.441463530063629150e-02 -7.393394410610198975e-02 3.126738592982292175e-02 2.357962541282176971e-02 -1.067894473671913147e-01 2.373871020972728729e-02 -7.358923554420471191e-02 -1.867634952068328857e-01 2.636202983558177948e-02 -4.559210315346717834e-02 7.986430078744888306e-02 4.617951065301895142e-02 -7.570425420999526978e-02 2.320904657244682312e-02 -8.421610109508037567e-03 5.544064939022064209e-02 -1.294706889893859625e-04 4.584532231092453003e-02 -9.111538529396057129e-02 -8.617371320724487305e-02 -2.294255793094635010e-02 5.130157992243766785e-02 -1.919415080919861794e-03 5.622179433703422546e-02 -6.781714502722024918e-03 -9.224312007427215576e-02 -4.228257108479738235e-03 7.534889876842498779e-02 -4.158667474985122681e-02 -9.661132842302322388e-02 8.957393467426300049e-02 -1.012516766786575317e-01 -8.423944003880023956e-03 -8.633927255868911743e-02 9.155441075563430786e-03 -6.529688835144042969e-02 -8.907324075698852539e-02 6.821320205926895142e-02 1.844045706093311310e-02 6.851017475128173828e-02 3.028954565525054932e-02 -5.962007120251655579e-02 -6.077229976654052734e-02 7.899447530508041382e-02 -2.194620296359062195e-02 -5.223383381962776184e-02 -1.600320488214492798e-01 -6.179619207978248596e-02 1.643947511911392212e-02 -1.183835864067077637e-01 -3.916118294000625610e-02 -5.208956450223922729e-02 2.683985233306884766e-02 -1.009781956672668457e-01 5.712735652923583984e-02 -6.214681267738342285e-02 1.249176263809204102e-02
-5.010875873267650604e-03 -3.221723064780235291e-02 -1.250090748071670532e-01 4.155419394373893738e-02 -3.163898736238479614e-02 -5.600929260253906250e-02 2.603517845273017883e-02 -6.305586546659469604e-02 -5.988401174545288086e-02 6.509222090244293213e-02 -3.448825329542160034e-02 1.162319332361221313e-01 -1.266357582062482834e-02 -8.894822001457214355e-02 2.772787399590015411e-02 -7.739660888910293579e-02 -1.284575015306472778e-01 -2.458964847028255463e-02 6.025853008031845093e-02 5.400288105010986328e-02 1.422937121242284775e-02 -1.309600286185741425e-02 -1.499857306480407715e-01 3.815413266420364380e-02 -2.262912876904010773e-02 -3.411814942955970764e-02 -8.661491796374320984e-03 -1.388645172119140625e-02 -2.511679753661155701e-02 -1.058527380228042603e-01 -1.827072165906429291e-02 -1.712485775351524353e-02 3.690430149435997009e-02 -1.398667879402637482e-02 -1.162084098905324936e-02 -5.285759922116994858e-03 -1.057603508234024048e-01 -2.675226330757141113e-02 -9.455666691064834595e-02 -4.471504688262939453e-02 -1.394814103841781616e-01 -1.356148999184370041e-02 -8.411104232072830200e-02 5.215220898389816284e-02 -1.066219583153724670e-01 -6.327219307422637939e-02 -8.249256014823913574e-02 -2.653249353170394897e-02 -2.653886191546916962e-02 -2.885672152042388916e-01 1.348326541483402252e-02 -8.576064556837081909e-02 8.897187188267707825e-03 1.404157932847738266e-02 -1.332045532763004303e-02 -3.612978756427764893e-02 -8.427970856428146362e-02 -8.392117172479629517e-02 -1.998599432408809662e-02 2.614013291895389557e-02 3.684154152870178223e-02 -1.548862159252166748e-01 -5.523424223065376282e-02 -6.898762285709381104e-02 -6.700702756643295288e-02 -7.261309027671813965e-02 -3.528246283531188965e-02 -8.561977744102478027e-02 -4.074215516448020935e-02 -8.634335827082395554e-04 -1.870747655630111694e-01 2.836193889379501343e-02 -5.851746350526809692e-02 -1.973445992916822433e-03 -9.213049709796905518e-02 -8.970890939235687256e-02 -5.923699121922254562e-03 3.037680685520172119e-02 -9.863960742950439453e-02 -6.370408833026885986e-02 -4.434880986809730530e-02 -8.625462651252746582e-02 -1.489575803279876709e-01 9.308877401053905487e-03 -1.061092987656593323e-01 -6.249953806400299072e-02 -3.916709870100021362e-02 -1.551662087440490723e-01 4.179939255118370056e-02 -1.491348594427108765e-01 -8.370423316955566406e-02 -9.225983172655105591e-02 -1.447405070066452026e-01 8.372684009373188019e-03 -5.580111965537071228e-02 -1.004207879304885864e-01 8.426265418529510498e-02 7.425317913293838501e-02 8.576699532568454742e-03 1.889685727655887604e-02 -5.238205194473266602e-02 -3.450828837230801582e-03 2.675275877118110657e-02 -4.932028800249099731e-02 -1.159967202693223953e-02 -1.101557686924934387e-01 5.535804107785224915e-02 -6.632461678236722946e-03 -7.393404096364974976e-02 3.219179436564445496e-02 2.773940376937389374e-02 2.230735495686531067e-02 -1.103223413228988647e-01 -7.535325735807418823e-02 -6.747449282556772232e-03 -2.630887366831302643e-02 6.680007558315992355e-03 1.654857071116566658e-03 8.590517193078994751e-02 -2.051333524286746979e-02 -3.239930421113967896e-02 -1.301940977573394775e-01 -2.435865066945552826e-02 -1.736677251756191254e-02 4.777852073311805725e-02 7.321659475564956665e-02 2.914870902895927429e-02 -2.270534262061119080e-02 -5.856008082628250122e-02 -3.668400645256042480e-02 -3.771426528692245483e-02 -2.071893215179443359e-02 -8.128004265017807484e-04 5.201824009418487549e-03 -5.546813830733299255e-02 -6.105880811810493469e-02 -1.349023822695016861e-02 -6.128573324531316757e-03 -3.461759909987449646e-02 3.339191898703575134e-02 -1.465049944818019867e-02 -3.743207454681396484e-02 -6.684444844722747803e-02 6.397598236799240112e-02 3.110431507229804993e-02 -4.766695946455001831e-02 -9.598936885595321655e-02 4.516636580228805542e-02 4.071814939379692078e-02 -6.413877755403518677e-02 3.503850847482681274e-02 -2.784375473856925964e-02 -7.304159551858901978e-02 7.553597446531057358e-03 -1.019077934324741364e-02 -8.247325569391250610e-02 -1.157136410474777222e-01 -3.973780199885368347e-02 -7.369705289602279663e-02 -5.104081705212593079e-02 6.324103567749261856e-03 -1.559887528419494629e-01 1.601997576653957367e-02 -5.332227423787117004e-02 -6.014638766646385193e-02 -4.522199183702468872e-02 4.201341792941093445e-02 -3.796512633562088013e-02 -2.448874711990356445e-02 -1.408574823290109634e-02 -2.031925320625305176e-02 1.121884956955909729e-01 1.604986004531383514e-02 1.392791420221328735e-01 -5.430454015731811523e-02 -3.861808404326438904e-02 -9.690070524811744690e-03 -9.800004959106445312e-02 1.743162050843238831e-02 -4.319754242897033691e-02 -1.337365210056304932e-01 -2.006027288734912872e-02 3.386439383029937744e-02 -3.589574247598648071e-02 -6.603612005710601807e-02 3.323547169566154480e-02 -7.341022789478302002e-02 -4.152849782258272171e-03 -2.996585331857204437e-02 -8.952195756137371063e-03 -2.529489248991012573e-02 4.467252176254987717e-03 -9.184546023607254028e-02 5.531661212444305420e-02 5.919941514730453491e-02 4.110517725348472595e-02 7.839204370975494385e-02 -5.122965201735496521e-02 -1.338224709033966064e-01 -6.453977525234222412e-02 1.435093861073255539e-02 5.354508757591247559e-02 1.982149295508861542e-02 3.400778025388717651e-02 3.404942154884338379e-02 -2.776720561087131500e-02 -3.025772981345653534e-02 -2.958904020488262177e-02 2.570749726146459579e-03 -8.508822880685329437e-03 2.149356715381145477e-02 1.247438117861747742e-01 -1.599711477756500244e-01 1.304154694080352783e-01 8.569496870040893555e-02 -3.496780246496200562e-02 2.932292176410555840e-03 4.457156173884868622e-04 -3.720874083228409290e-04 7.902018725872039795e-02 -2.149119600653648376e-02 7.058652117848396301e-03 -1.178824827075004578e-01 -4.086938500404357910e-02 1.034592688083648682e-01 3.970127180218696594e-02 -6.019529327750205994e-02 -7.422137260437011719e-02 2.767072431743144989e-02 7.039971649646759033e-02 -1.473191939294338226e-02 2.188758365809917450e-02 -2.591393655166029930e-03 -8.872465044260025024e-02 1.159238740801811218e-01 -3.311721980571746826e-02 -1.075974330306053162e-01 -6.408767402172088623e-02 -6.312000099569559097e-03 -7.253313064575195312e-02 3.104575350880622864e-02 -3.774682432413101196e-02 -2.285539917647838593e-02 5.632692482322454453e-03 2.011435106396675110e-03 1.035264041274785995e-02 -6.023828405886888504e-03 4.294066131114959717e-02 1.356576848775148392e-02 -8.310617879033088684e-03 -4.463340714573860168e-02 1.182902380824089050e-01 -1.025001984089612961e-02 6.178652867674827576e-02 6.501422077417373657e-02 -6.025255192071199417e-03 2.317893086001276970e-03 3.919166699051856995e-02 -6.350127607583999634e-02 -5.035530775785446167e-02 8.701013028621673584e-02 -7.407249510288238525e-02 -7.341756671667098999e-02 -2.390358597040176392e-02 -8.178708702325820923e-02 -1.746698655188083649e-02 4.344240203499794006e-02 9.146357327699661255e-02 -5.948311090469360352e-02 -7.911314815282821655e-02 4.742655158042907715e-02 6.732803583145141602e-02 -8.155994117259979248e-02 -5.099473148584365845e-02 -8.641964942216873169e-02 -5.652116611599922180e-02 1.243247743695974350e-02 2.827551215887069702e-02 2.683782204985618591e-02 2.409546636044979095e-02 -3.119881264865398407e-02 -5.205459892749786377e-03 -5.778183415532112122e-02 -5.788774788379669189e-02 6.745404005050659180e-02 1.684802025556564331e-02 5.756279081106185913e-02 -1.077332794666290283e-01 -2.284949086606502533e-02 1.177987828850746155e-02 4.098783433437347412e-02 -1.696156710386276245e-02 2.370424568653106689e-03 -2.671847306191921234e-02 -4.517545923590660095e-03 -1.185835972428321838e-01 5.426953732967376709e-02 -5.149232968688011169e-02 2.591786533594131470e-02 -4.153434559702873230e-02 4.235559329390525818e-02 -1.575411856174468994e-01 -7.653390616178512573e-02 -8.599677681922912598e-02 -9.457106888294219971e-02 -5.337830260396003723e-02 3.194870054721832275e-02 -4.439448937773704529e-02 -1.030146982520818710e-02 -4.719075933098793030e-02 -1.511038839817047119e-01 1.522283349186182022e-02 -4.976051300764083862e-02 -9.607922285795211792e-02 2.012984827160835266e-03 -1.039993390440940857e-01 -1.743551343679428101e-02 -1.273449789732694626e-02 5.744610354304313660e-02 5.824637785553932190e-02 -7.106140255928039551e-02 3.143926337361335754e-02 -9.811631590127944946e-02 -7.512852549552917480e-02 -6.308939307928085327e-02 -7.877441495656967163e-02 -1.048214640468358994e-02 -3.474156558513641357e-02 -3.547501191496849060e-02 -2.820784971117973328e-02 -6.182171031832695007e-02 -5.366055294871330261e-02 3.992787003517150879e-02 -6.563091278076171875e-02 -1.546231657266616821e-01 -3.045736439526081085e-02 -1.295521557331085205e-01 -3.448564186692237854e-02 -2.177855744957923889e-02 3.614291548728942871e-02 -7.371865957975387573e-02 -8.318046480417251587e-02 -9.549111127853393555e-02 3.739099577069282532e-02 -9.151160717010498047e-02 -7.498365640640258789e-02 -9.667538851499557495e-02 5.760630592703819275e-03 3.265973553061485291e-02 -2.068093046545982361e-02 -2.304948493838310242e-02 2.426531352102756500e-02 -3.211248293519020081e-02 8.178836107254028320e-02 -4.284290596842765808e-02 -9.681422263383865356e-03 2.277352474629878998e-02 1.999362744390964508e-02 -7.554242014884948730e-02 -1.348211914300918579e-01 3.705019503831863403e-02 -1.421712785959243774e-01 -2.204052545130252838e-02 8.727193810045719147e-03 4.119118303060531616e-02 -5.255322158336639404e-02 4.614758945535868406e-04 -8.945726603269577026e-02 -7.922913879156112671e-02 4.667977616190910339e-02 -6.294154375791549683e-02 1.420253068208694458e-01 -1.348351221531629562e-02 -2.432619920000433922e-03 -4.861942306160926819e-02 -7.213938981294631958e-02 -2.501700632274150848e-02 -7.212222367525100708e-02 -1.434103306382894516e-02 -1.417795941233634949e-02 -1.726440899074077606e-02 -1.068576984107494354e-02 -4.997602477669715881e-02 -1.374990586191415787e-02 -1.106080971658229828e-02 5.497213080525398254e-02 -1.103247031569480896e-01 -1.840358227491378784e-01 -7.204835861921310425e-02 -1.498907059431076050e-01 -3.525270149111747742e-02 7.100576907396316528e-02 -6.309770047664642334e-02 -7.948620617389678955e-02 -9.524441510438919067e-02 -1.409072130918502808e-01 -8.883274346590042114e-02 -2.051752433180809021e-02 -1.121276468038558960e-01 -1.490668393671512604e-02
-1.365185976028442383e-01 -1.121797487139701843e-01 -1.094579175114631653e-01 -2.076617181301116943e-01 -8.701054751873016357e-02 -8.769375085830688477e-02 5.253360792994499207e-02 -5.415210500359535217e-02 -6.796458363533020020e-02 -4.391316790133714676e-03 -4.229272902011871338e-02 -2.895588241517543793e-02 -4.531561583280563354e-02 -6.209139525890350342e-02 -5.950065702199935913e-02 -3.197125345468521118e-02 -1.654006689786911011e-01 1.979615353047847748e-02 -1.572616398334503174e-01 -6.430370360612869263e-02 -6.082349270582199097e-02 -1.443288028240203857e-01 -8.298325538635253906e-02 -7.043880224227905273e-02 -1.330866478383541107e-02 3.871608898043632507e-02 -2.280214801430702209e-02 -1.076458692550659180e-01 -7.358546555042266846e-02 -5.291740223765373230e-02 -3.746406361460685730e-02 -1.570669561624526978e-01 -2.183007076382637024e-02 2.408540248870849609e-02 -7.757353037595748901e-02 -4.801636189222335815e-02 -4.714831337332725525e-02 1.203367020934820175e-02 -4.287295509129762650e-03 3.830087929964065552e-02 -1.238789707422256470e-01 -5.394417420029640198e-02 -2.610369119793176651e-03 -1.911770552396774292e-02 -9.419125318527221680e-02 -1.157735809683799744e-01 -3.361237421631813049e-02 -1.031656786799430847e-01 -2.964822947978973389e-02 -5.229713022708892822e-02 -2.271188236773014069e-02 -1.337508205324411392e-02 -5.887661874294281006e-02 4.147342219948768616e-02 -2.324147336184978485e-02 -5.991301685571670532e-02 -5.476150661706924438e-02 -1.653167605400085449e-02 9.217818267643451691e-03 5.770812556147575378e-02 -9.318899363279342651e-02 1.369556318968534470e-02 5.765318498015403748e-02 -1.419314648956060410e-02 -8.811911940574645996e-02 -3.877592086791992188e-02 -1.030806005001068115e-01 -2.366964891552925110e-02 1.961471885442733765e-02 4.975624382495880127e-03 -8.366961777210235596e-02 -2.551784738898277283e-02 -1.154691502451896667e-01 -1.086891815066337585e-01 1.346927881240844727e-02 -1.328579038381576538e-01 -2.598589658737182617e-02 -8.515173569321632385e-03 -5.451106280088424683e-02 -6.353829801082611084e-02 -1.218172982335090637e-01 -1.450644731521606445e-01 -4.461141303181648254e-02 5.609084293246269226e-02 -8.997438102960586548e-02 -3.672700002789497375e-02 -1.476203650236129761e-01 -1.070462241768836975e-01 -1.500277314335107803e-02 -5.139089748263359070e-02 1.457763463258743286e-02 -5.971314013004302979e-02 -1.275892257690429688e-01 -4.035485908389091492e-02 -2.230354771018028259e-02 -7.652013748884201050e-02 -3.584148734807968140e-02 -5.462619662284851074e-02 -4.248707741498947144e-02 -9.978481568396091461e-03 -2.900026179850101471e-02 -6.732106208801269531e-02 8.150452747941017151e-03 -1.152068525552749634e-01 1.253311801701784134e-02 -1.141015905886888504e-02 -7.768239825963973999e-03 1.158547960221767426e-02 -3.199784085154533386e-02 -5.016064271330833435e-02 3.602880612015724182e-02 -1.029410511255264282e-01 -1.147113181650638580e-02 -8.798012137413024902e-02 -8.648680523037910461e-03 -1.211243588477373123e-02 -6.591872777789831161e-03 -1.774729229509830475e-02 -1.436646431684494019e-01 -8.979003876447677612e-02 6.412038952112197876e-02 -9.809777885675430298e-02 -3.401680290699005127e-02 -1.453624013811349869e-02 -8.139993250370025635e-02 -6.815415620803833008e-02 -1.049923598766326904e-01 -2.805976569652557373e-02 2.861516550183296204e-02 -1.200683228671550751e-02 -1.023351475596427917e-01 5.173714086413383484e-02 -4.062019288539886475e-02 -1.121884584426879883e-01 8.790118992328643799e-02 -7.749257981777191162e-02 -6.153584644198417664e-02 -7.769196480512619019e-02 6.231488659977912903e-02 -3.131596371531486511e-02 5.858873203396797180e-02 -3.711344674229621887e-02 -1.310267746448516846e-01 6.299914326518774033e-03 2.502301707863807678e-03 -2.177122980356216431e-01 -8.352284878492355347e-02 -2.542496658861637115e-02 5.210606008768081665e-02 -5.613534897565841675e-02 5.964472517371177673e-02 -5.317899864166975021e-03 -4.802574217319488525e-02 -3.161872178316116333e-02 7.734645903110504150e-02 -4.149176925420761108e-02 -8.801211416721343994e-02 3.648216649889945984e-02 -8.685221523046493530e-02 -1.638310402631759644e-02 -1.418356969952583313e-02 -2.015702426433563232e-02 -4.563928768038749695e-02 -1.401622742414474487e-01 -8.756255358457565308e-02 2.341177314519882202e-02 -5.227023735642433167e-02 -1.341989450156688690e-02 1.137820817530155182e-02 -5.977268889546394348e-02 2.979437820613384247e-02 -5.579542741179466248e-02 5.632923543453216553e-02 -1.133845187723636627e-02 -6.861872971057891846e-02 -2.459367038682103157e-03 7.810444384813308716e-02 -2.958950959146022797e-02 -3.735857456922531128e-02 -1.636122465133666992e-01 5.313605442643165588e-02 -3.331969305872917175e-02 1.372838113456964493e-02 7.574155926704406738e-02 -4.230672959238290787e-03 1.324373781681060791e-01 -1.164774298667907715e-01 7.866939529776573181e-03 4.276606068015098572e-02 2.020776271820068359e-02 -5.839341506361961365e-02 -1.064004227519035339e-01 -9.179753251373767853e-03 -3.175144642591476440e-02 -3.143603727221488953e-02 -4.709284752607345581e-03 9.104293712880462408e-05 -4.444669559597969055e-02 -4.623429267667233944e-04 -7.889979332685470581e-02 -6.985730677843093872e-02 -3.349532559514045715e-02 -5.763052776455879211e-02 1.414779224433004856e-03 4.879790544509887695e-02 4.758349806070327759e-02 4.005039110779762268e-02 2.856189385056495667e-02 -1.552115567028522491e-02 -3.890367969870567322e-02 -5.920721590518951416e-02 -4.198793321847915649e-02 1.397269070148468018e-01 6.918809562921524048e-02 -2.443585172295570374e-02 1.930022425949573517e-02 5.109721422195434570e-02 2.239229902625083923e-02 -4.567272961139678955e-02 -2.697994746267795563e-02 -1.630626432597637177e-02 -6.298051774501800537e-02 5.238836631178855896e-02 -5.906516686081886292e-03 -8.158606290817260742e-02 9.528883732855319977e-03 -4.293129313737154007e-03 -7.890593260526657104e-02 -4.906081035733222961e-02 1.022635959088802338e-02 -3.854431957006454468e-02 -2.371086366474628448e-02 1.711692847311496735e-02 1.199299469590187073e-01 -2.301868610084056854e-02 -7.949844002723693848e-02 -2.866705693304538727e-02 1.714546605944633484e-02 -4.549926891922950745e-02 -6.276744604110717773e-02 -1.615061797201633453e-02 -1.416341960430145264e-01 -1.941269636154174805e-02 -1.606870559044182301e-03 -3.942174091935157776e-02 -9.908239543437957764e-02 -3.007315099239349365e-02 3.614556044340133667e-02 2.695686928927898407e-02 -1.469921916723251343e-01 5.110596865415573120e-02 3.987490385770797729e-02 5.346347391605377197e-02 -1.119945049285888672e-01 -1.711109280586242676e-02 6.393823772668838501e-02 3.474871627986431122e-04 -1.304556131362915039e-01 4.418144002556800842e-02 -9.822839498519897461e-02 7.483664900064468384e-02 9.555244445800781250e-02 1.546866446733474731e-02 1.678041415289044380e-03 -2.968638762831687927e-02 -2.013775706291198730e-02 6.115344818681478500e-03 3.911221399903297424e-02 6.533550098538398743e-03 -6.902600824832916260e-02 4.984268173575401306e-02 -5.682949908077716827e-03 4.094756022095680237e-02 -2.362653799355030060e-02 -4.710863810032606125e-03 4.676309973001480103e-02 -4.680129140615463257e-02 -3.700878471136093140e-03 1.122498437762260437e-01 4.165509715676307678e-02 -3.036115784198045731e-03 -3.561383113265037537e-02 -5.149598419666290283e-02 -2.300492674112319946e-02 -4.022048413753509521e-02 8.405117690563201904e-02 -9.562447667121887207e-02 8.500103652477264404e-02 6.906295195221900940e-03 -3.059782460331916809e-02 1.207504421472549438e-03 1.009279768913984299e-02 -1.621062494814395905e-02 -1.228107605129480362e-02 6.647392641752958298e-03 4.280838649719953537e-03 8.857749053277075291e-04 1.461428124457597733e-02 -5.725758522748947144e-02 -1.376776844263076782e-01 5.246841814368963242e-03 -4.777398705482482910e-02 -1.942456699907779694e-03 -7.064820826053619385e-02 -2.782048657536506653e-02 -5.658737942576408386e-02 -8.496181666851043701e-02 5.033871857449412346e-04 -1.070031076669692993e-01 -3.361846134066581726e-02 -1.372413784265518188e-01 -2.955100312829017639e-02 3.727317973971366882e-02 1.282030809670686722e-02 5.860041081905364990e-02 -1.725489459931850433e-02 -3.423484042286872864e-02 3.393072634935379028e-02 -1.271566450595855713e-01 -1.115094032138586044e-02 1.833210885524749756e-02 -1.683162450790405273e-01 -4.058765992522239685e-02 5.322751402854919434e-02 -7.895858585834503174e-02 1.606815261766314507e-03 -1.056863293051719666e-01 3.833945095539093018e-02 -1.702846139669418335e-01 2.763048745691776276e-03 -3.924419358372688293e-02 1.308553386479616165e-02 1.867144368588924408e-02 -2.884330973029136658e-02 -6.298601161688566208e-03 1.047094538807868958e-01 -2.005592919886112213e-02 -1.394091825932264328e-02 -2.448833175003528595e-02 -3.346553072333335876e-02 -1.271207034587860107e-01 -3.417514730244874954e-03 2.450870350003242493e-03 -3.041043318808078766e-02 -1.295132637023925781e-01 -6.757172197103500366e-02 1.828602515161037445e-02 2.844765409827232361e-02 6.223840266466140747e-02 1.130106076598167419e-01 -3.999700024724006653e-02 -9.987609088420867920e-02 -7.158956676721572876e-02 -4.197112098336219788e-02 4.177300631999969482e-02 -3.478633612394332886e-02 -1.576428860425949097e-02 4.571340233087539673e-02 -1.846850477159023285e-02 -1.198652684688568115e-01 -1.305273454636335373e-02 -1.475619937991723418e-04 -3.207987174391746521e-03 4.368233028799295425e-03 1.446257680654525757e-01 7.518346607685089111e-02 -4.065985232591629028e-02 4.901803657412528992e-02 -4.968995228409767151e-02 -1.651121862232685089e-02 -7.093913108110427856e-02 1.192406099289655685e-02 -1.546972543001174927e-01 -1.280673891305923462e-01 -7.348939776420593262e-02 9.283073246479034424e-03 -1.558409444987773895e-02 -4.161196202039718628e-02 -1.085560843348503113e-01 1.657934300601482391e-02 3.121377713978290558e-02 -1.058072075247764587e-01 -3.434914723038673401e-02 3.317674621939659119e-02 -2.308933995664119720e-02 -4.119736328721046448e-02 6.230295449495315552e-02 -1.442236006259918213e-01 2.390560321509838104e-02 2.208451740443706512e-02 -8.487408608198165894e-02 -1.218199580907821655e-01 -1.530184447765350342e-01 1.117633506655693054e-01 -1.928715035319328308e-02 -1.128021348267793655e-02 -1.696431636810302734e-01 -8.400298655033111572e-02 -6.060462445020675659e-02 -6.115439347922801971e-03
2.484214864671230316e-02 -1.401864644140005112e-02 1.031774803996086121e-01 1.560730636119842529e-01 4.643524065613746643e-02 -7.729404419660568237e-02 7.957509160041809082e-02 6.644622981548309326e-02 8.957727998495101929e-02 4.800139367580413818e-02 5.117859691381454468e-02 3.728187829256057739e-02 8.312804624438285828e-03 9.387998282909393311e-02 -1.108328253030776978e-01 5.027255043387413025e-02 1.254736781120300293e-01 3.316123783588409424e-02 2.530547231435775757e-02 1.196626275777816772e-01 1.930183023214340210e-01 -1.834179088473320007e-02 5.332527309656143188e-02 2.100863754749298096e-01 3.393575921654701233e-02 3.079054318368434906e-02 1.552049908787012100e-02 -1.234381180256605148e-02 5.705100670456886292e-02 -5.364142707549035549e-04 -1.934632845222949982e-02 -1.438019424676895142e-02 1.060816720128059387e-01 2.428956329822540283e-02 -1.870889216661453247e-02 7.382654398679733276e-02 -8.660468301968649030e-05 1.051854528486728668e-02 5.743368342518806458e-02 -6.040342617779970169e-03 1.116608008742332458e-01 9.779406338930130005e-02 2.722734026610851288e-02 5.333967134356498718e-02 2.813832759857177734e-01 2.266164869070053101e-02 1.154161617159843445e-02 1.898964643478393555e-01 4.621508717536926270e-02 1.693321615457534790e-01 -1.564310118556022644e-02 -1.748168724589049816e-03 5.185503140091896057e-02 7.664629071950912476e-02 9.105072170495986938e-02 1.779975183308124542e-02 3.166362643241882324e-02 5.586418136954307556e-02 1.127122491598129272e-01 2.372043393552303314e-02 4.132466018199920654e-02 1.082870736718177795e-01 2.735435776412487030e-02 -3.447921574115753174e-02 1.638872027397155762e-01 1.128424331545829773e-01 4.273900017142295837e-02 1.224015280604362488e-01 5.351262167096138000e-03 1.554233115166425705e-02 -2.496947720646858215e-02 1.172672677785158157e-02 1.477246284484863281e-01 9.239995479583740234e-02 9.724841266870498657e-02 2.148680388927459717e-01 8.770262449979782104e-02 1.947181373834609985e-01 6.702039390802383423e-02 -2.040774933993816376e-02 9.228514134883880615e-02 5.757314711809158325e-02 1.338691711425781250e-01 4.836422950029373169e-02 4.318790137767791748e-02 7.784415036439895630e-02 7.364808768033981323e-02 2.404952794313430786e-01 6.767825037240982056e-02 2.017611414194107056e-01 7.006921619176864624e-02 2.029182165861129761e-01 1.703931540250778198e-01 -4.128070548176765442e-02 3.868477419018745422e-02 -2.260844036936759949e-02 1.095664501190185547e-01 7.398765534162521362e-02 6.612322479486465454e-02 -6.954175978899002075e-02 1.520100235939025879e-02 9.025200456380844116e-02 1.325859725475311279e-01 3.238527849316596985e-02 -1.400810759514570236e-02 7.444156706333160400e-02 1.876542903482913971e-02 -1.032765885611297563e-05 -3.279967233538627625e-02 5.248975381255149841e-02 -2.506289817392826080e-02 6.805754452943801880e-02 1.753159239888191223e-02 2.484008669853210449e-02 -1.285141916014254093e-03 3.653983399271965027e-02 1.563492789864540100e-02 6.800659745931625366e-02 -4.288532957434654236e-02 4.142564162611961365e-02 6.751354783773422241e-02 5.712494254112243652e-02 3.352699801325798035e-02 -2.849105559289455414e-02 -5.553483217954635620e-02 7.363603264093399048e-02 1.352619472891092300e-02 5.702021531760692596e-03 -3.796102944761514664e-03 1.034228056669235229e-01 9.919172525405883789e-02 -4.260924458503723145e-02 1.012810021638870239e-01 8.209190517663955688e-02 -3.243499249219894409e-02 3.089146874845027924e-02 1.430587917566299438e-01 2.894555032253265381e-02 -1.772856712341308594e-02 5.796893686056137085e-02 3.286137431859970093e-02 -3.213138133287429810e-02 7.883369177579879761e-02 4.732138291001319885e-02 6.241887435317039490e-02 5.259783938527107239e-04 -4.986325278878211975e-02 -7.502909749746322632e-02 5.226050689816474915e-02 6.591875851154327393e-02 3.558704396709799767e-03 1.016342267394065857e-01 9.927664697170257568e-02 2.960684150457382202e-02 9.424311667680740356e-02 -3.692565113306045532e-02 8.462233096361160278e-02 1.313935369253158569e-01 8.725798875093460083e-02 -2.254792489111423492e-02 7.837393134832382202e-02 7.267940044403076172e-02 1.333400607109069824e-02 8.437613397836685181e-02 6.950666010379791260e-02 8.472728729248046875e-02 5.360870435833930969e-02 3.799216449260711670e-02 4.373950883746147156e-02 7.506818324327468872e-02 1.823521568439900875e-03 6.171753630042076111e-02 4.147142916917800903e-02 6.287996657192707062e-03 -4.715839400887489319e-02 -1.844721660017967224e-02 -5.625986307859420776e-02 3.697853535413742065e-02 8.863651193678379059e-03 7.028757780790328979e-02 5.202000960707664490e-02 -1.270508766174316406e-01 3.358829021453857422e-02 6.707288324832916260e-02 1.195046603679656982e-01 1.232033446431159973e-01 1.207463219761848450e-01 9.590257704257965088e-02 -2.159515209496021271e-02 1.044665053486824036e-01 4.179085418581962585e-02 6.017128005623817444e-02 1.290144175291061401e-01 7.898563519120216370e-03 -3.286125883460044861e-02 1.424673050642013550e-01 6.865260004997253418e-02 8.916391432285308838e-02 7.809386402368545532e-02 3.663986176252365112e-02 -5.064527690410614014e-02 7.462106645107269287e-02 8.907208591699600220e-02 -4.401435330510139465e-02 -5.738552287220954895e-02 -1.482834815979003906e-01 3.357098624110221863e-02 -4.937954246997833252e-02 -2.818709239363670349e-02 1.134591102600097656e-01 3.877100721001625061e-02 2.025299891829490662e-02 -4.048900213092565536e-03 2.113596908748149872e-02 1.011637747287750244e-01 4.835502058267593384e-02 -3.469776734709739685e-02 5.858005210757255554e-02 -5.148713290691375732e-02 -9.614232927560806274e-02 -3.553142398595809937e-02 8.295341581106185913e-02 2.657495625317096710e-02 5.009477213025093079e-02 2.259240113198757172e-02 8.184853009879589081e-03 1.055157091468572617e-02 -1.019636690616607666e-01 1.254926249384880066e-02 -1.061716675758361816e-01 -4.696293175220489502e-02 -3.069988451898097992e-02 1.378672104328870773e-02 -1.261353045701980591e-01 -1.261441111564636230e-01 2.141888253390789032e-02 -4.689057543873786926e-02 3.435340151190757751e-02 -6.235625129193067551e-03 8.927495218813419342e-03 -1.071694586426019669e-02 -1.815214008092880249e-02 2.899639657698571682e-04 -4.578740149736404419e-02 -1.859941519796848297e-02 -4.327767528593540192e-03 -3.093814663589000702e-02 -6.532661616802215576e-02 3.201599046587944031e-02 -6.086202338337898254e-03 -1.992948353290557861e-02 -2.385232411324977875e-02 -2.788157761096954346e-02 6.666087359189987183e-02 -1.840737834572792053e-02 -6.538391578942537308e-03 -6.546426564455032349e-02 1.141700055450201035e-02 -2.074655331671237946e-02 2.332825027406215668e-02 -8.896514773368835449e-03 6.294864416122436523e-02 -3.583642840385437012e-02 1.566169410943984985e-02 -6.812634319067001343e-02 -3.314689174294471741e-02 7.413853704929351807e-02 2.338395267724990845e-02 4.454793781042098999e-02 -8.163374662399291992e-02 -8.801215142011642456e-02 1.589036360383033752e-02 -6.893707811832427979e-02 -3.268818370997905731e-03 -5.338096991181373596e-03 7.073729485273361206e-02 3.306730091571807861e-02 -3.389810770750045776e-02 3.058703057467937469e-02 -2.931643649935722351e-02 9.690340608358383179e-02 5.108240991830825806e-02 -5.757614225149154663e-02 -2.590855583548545837e-02 4.160870984196662903e-02 7.458795607089996338e-02 -3.661240637302398682e-02 -4.578011482954025269e-02 -6.771150231361389160e-02 8.612292818725109100e-03 -1.629202626645565033e-02 -2.400316484272480011e-02 9.717012196779251099e-02 4.964932054281234741e-02 4.691281169652938843e-02 4.009841475635766983e-03 1.701115258038043976e-02 -4.669095575809478760e-02 -1.250016242265701294e-01 -1.083806995302438736e-02 9.725176542997360229e-02 7.704450935125350952e-02 2.578463405370712280e-03 2.766313217580318451e-02 -1.121934782713651657e-02 8.070632070302963257e-02 1.500279307365417480e-01 5.842688307166099548e-02 2.998821670189499855e-03 4.896940663456916809e-02 1.165171563625335693e-01 1.151822581887245178e-01 -6.097098812460899353e-02 3.687014803290367126e-02 2.757747657597064972e-02 5.319042503833770752e-02 5.021305009722709656e-02 -8.392361924052238464e-03 2.025470370426774025e-03 8.651369065046310425e-02 6.893889605998992920e-02 7.186163216829299927e-02 1.353200376033782959e-01 5.303022637963294983e-02 1.255575865507125854e-01 -9.038566052913665771e-02 -1.465503685176372528e-02 9.135863929986953735e-02 5.959946196526288986e-03 -3.946830332279205322e-02 -1.639565825462341309e-02 -1.673290133476257324e-02 8.476076275110244751e-02 -7.592079229652881622e-03 1.557798832654953003e-01 9.192875027656555176e-02 5.160348117351531982e-02 9.484115988016128540e-02 1.979594118893146515e-02 1.389569044113159180e-02 -2.312162145972251892e-02 -1.844499143771827221e-03 2.954977564513683319e-02 -4.734096582978963852e-03 5.740710068494081497e-03 1.691900007426738739e-02 2.313531376421451569e-02 4.229252040386199951e-02 -4.923650994896888733e-02 1.069081276655197144e-01 3.921163827180862427e-02 2.902400121092796326e-02 5.504065752029418945e-02 4.573816806077957153e-02 -3.283992409706115723e-02 8.695272356271743774e-02 7.476712763309478760e-02 1.604058407247066498e-02 -5.449573509395122528e-03 6.198775023221969604e-02 1.090884506702423096e-01 1.995607279241085052e-02 -3.462423756718635559e-02 -3.142103180289268494e-02 2.749191224575042725e-02 -3.242145106196403503e-02 -3.261489793658256531e-02 4.636286199092864990e-02 9.983455762267112732e-03 7.818891108036041260e-02 8.094181120395660400e-02 2.871254645287990570e-02 1.358360350131988525e-01 -2.287597022950649261e-02 -5.159207433462142944e-02 5.323750898241996765e-02 -1.110425405204296112e-02 3.610369190573692322e-02 6.918425858020782471e-02 -7.259907573461532593e-02 1.013753488659858704e-01 4.952694848179817200e-02 3.315322101116180420e-02 1.919861882925033569e-02 -1.188177913427352905e-01 6.822367012500762939e-02 -3.437712090089917183e-03 6.132521480321884155e-02 6.094700098037719727e-02 1.003208607435226440e-01 8.123252540826797485e-02 2.150619775056838989e-02 1.181939467787742615e-01 8.552188426256179810e-02 -2.047580201178789139e-03 1.022992432117462158e-01 1.202704012393951416e-01 3.541610017418861389e-02 1.273813396692276001e-01 2.321305498480796814e-02
8.126528561115264893e-02 3.774164011701941490e-03 -3.437703102827072144e-02 6.109212711453437805e-02 5.705124512314796448e-02 6.066761165857315063e-02 -2.042813412845134735e-02 7.036972790956497192e-02 4.903525859117507935e-02 -9.053102135658264160e-02 1.023717001080513000e-01 2.554738521575927734e-02 5.837324261665344238e-02 4.946167021989822388e-02 8.486198633909225464e-02 -1.205130964517593384e-01 1.006125286221504211e-02 6.504972279071807861e-02 1.043740585446357727e-01 8.186123520135879517e-02 1.022733449935913086e-01 1.301448643207550049e-01 -3.288014978170394897e-02 1.218845024704933167e-01 1.417536884546279907e-01 3.375172242522239685e-02 6.957978755235671997e-02 1.186771243810653687e-01 8.430300652980804443e-02 7.644925266504287720e-02 7.792574167251586914e-02 4.145499784499406815e-03 1.894851215183734894e-02 -7.080730050802230835e-02 -4.640794917941093445e-02 2.416203916072845459e-02 4.727879166603088379e-02 9.646495431661605835e-02 1.752756237983703613e-01 2.009351551532745361e-02 -2.106673829257488251e-02 1.598316282033920288e-01 -1.035088524222373962e-01 -7.092423737049102783e-02 1.357100009918212891e-01 1.446433216333389282e-01 -5.254830233752727509e-03 1.806485652923583984e-01 1.379511207342147827e-01 1.795903742313385010e-01 8.909778296947479248e-02 7.611732929944992065e-02 1.059970259666442871e-01 1.066287308931350708e-01 1.620880216360092163e-01 -4.712377861142158508e-02 1.423680484294891357e-01 9.585682302713394165e-03 4.285966232419013977e-02 3.736819326877593994e-02 4.958450794219970703e-02 7.092300057411193848e-02 1.601233333349227905e-02 5.122764036059379578e-02 3.380923718214035034e-02 7.286301255226135254e-02 3.186378255486488342e-02 -7.725901901721954346e-02 1.195453181862831116e-01 -3.776469454169273376e-02 1.244562119245529175e-01 1.217344701290130615e-01 1.359606534242630005e-01 3.665659949183464050e-02 -3.842041362076997757e-03 2.474598586559295654e-02 -1.840815134346485138e-02 1.381898950785398483e-02 5.533682927489280701e-02 1.536990795284509659e-02 5.215499550104141235e-02 8.547931909561157227e-03 2.118553221225738525e-01 8.144322782754898071e-03 -1.355656888335943222e-02 1.338020414113998413e-01 7.989712059497833252e-02 6.817510724067687988e-02 1.492958664894104004e-01 4.449737444519996643e-02 3.524442017078399658e-02 1.045975759625434875e-01 1.220552250742912292e-01 6.614159792661666870e-02 5.869081616401672363e-02 4.563945904374122620e-02 1.783024892210960388e-02 1.109443139284849167e-02 1.099918857216835022e-01 4.059349000453948975e-02 1.127621456980705261e-01 -6.235028803348541260e-02 4.475736618041992188e-02 -3.162901103496551514e-02 8.467357605695724487e-02 6.117549538612365723e-02 1.314387191087007523e-02 1.071465164422988892e-01 1.292060874402523041e-02 3.535633906722068787e-02 6.477092951536178589e-02 -7.188851386308670044e-02 3.120194375514984131e-02 4.239262640476226807e-02 7.155405730009078979e-02 -5.734283849596977234e-02 -1.458877697587013245e-02 1.725691743195056915e-02 2.059327671304345131e-03 3.125613555312156677e-02 7.536199688911437988e-02 8.955293148756027222e-02 -6.527361273765563965e-02 2.849863097071647644e-02 -1.472327411174774170e-01 3.724649548530578613e-02 3.993019089102745056e-02 1.060166880488395691e-01 2.934897318482398987e-02 5.400015786290168762e-02 3.805211186408996582e-02 -9.616176784038543701e-02 5.038112029433250427e-02 -3.071359358727931976e-02 -1.855910383164882660e-02 -3.633138537406921387e-02 -2.264232560992240906e-02 -4.944103211164474487e-02 -1.486586127430200577e-02 -6.562352925539016724e-02 8.569859899580478668e-03 9.296976774930953979e-02 -7.833765819668769836e-03 1.053033117204904556e-02 1.883487775921821594e-02 1.912182271480560303e-01 5.333291739225387573e-02 3.795354813337326050e-02 7.499396335333585739e-03 1.960325986146926880e-02 9.260027855634689331e-02 3.852455690503120422e-02 -3.926604241132736206e-02 9.340871870517730713e-02 9.658475965261459351e-02 1.044745072722434998e-01 1.867843419313430786e-02 6.832950562238693237e-02 -3.233521059155464172e-02 1.955353654921054840e-02 8.151556551456451416e-02 -4.256028681993484497e-02 9.887309279292821884e-04 9.249319136142730713e-02 5.331353098154067993e-02 7.707290351390838623e-02 7.292813807725906372e-02 1.598408222198486328e-01 7.205072790384292603e-02 6.490393728017807007e-02 -3.786381101235747337e-03 -2.079416625201702118e-02 6.973552517592906952e-03 2.003025636076927185e-02 -7.004833966493606567e-02 9.430155903100967407e-02 4.911818727850914001e-02 -1.120590493083000183e-01 2.811333350837230682e-02 -4.148756340146064758e-02 9.755734354257583618e-02 -1.442014705389738083e-02 9.834378212690353394e-02 1.059233471751213074e-01 -2.483996795490384102e-03 8.175487816333770752e-02 -7.288137823343276978e-02 5.209786817431449890e-02 1.393048912286758423e-01 4.696675390005111694e-02 -6.025682762265205383e-02 -3.334166482090950012e-02 3.679919987916946411e-02 6.734643876552581787e-02 3.029881045222282410e-02 2.142161689698696136e-02 3.567376360297203064e-02 3.548857197165489197e-02 -1.327449362725019455e-02 4.324983805418014526e-02 2.979703433811664581e-02 -7.200211286544799805e-02 -2.652075514197349548e-02 -9.134747833013534546e-02 -4.024089127779006958e-02 4.335962235927581787e-02 -2.585051208734512329e-02 1.403460092842578888e-02 -2.981043420732021332e-02 -5.582377687096595764e-02 4.465908184647560120e-02 -2.465980872511863708e-02 -7.452468387782573700e-03 -4.914506524801254272e-02 -8.323101699352264404e-02 5.512456968426704407e-02 -7.384324818849563599e-02 5.823944136500358582e-02 1.697166264057159424e-02 3.327704593539237976e-02 3.448121249675750732e-02 1.275934725999832153e-01 -7.565903663635253906e-02 5.736522842198610306e-03 3.457438945770263672e-02 3.273052722215652466e-02 -6.105008348822593689e-02 2.916637342423200607e-03 9.456058964133262634e-03 2.832170017063617706e-02 -4.319746419787406921e-02 -3.381959348917007446e-02 -1.595579087734222412e-01 -1.244447287172079086e-02 -4.587868228554725647e-02 -1.070126425474882126e-02 -1.026455014944076538e-01 -5.325749889016151428e-02 -2.692161127924919128e-02 5.904456600546836853e-02 3.220349922776222229e-02 -4.725285246968269348e-02 5.825464800000190735e-02 1.075099483132362366e-01 -1.207784041762351990e-01 2.245807833969593048e-02 -5.507826432585716248e-02 -1.518240291625261307e-02 -3.355559706687927246e-02 6.275568902492523193e-02 9.898524731397628784e-02 -4.418952763080596924e-02 -6.801642477512359619e-02 -4.786538332700729370e-02 1.367322634905576706e-02 -7.270622253417968750e-02 1.347582191228866577e-01 2.392492443323135376e-02 -1.154243582277558744e-04 5.116860941052436829e-02 -1.376629620790481567e-02 -5.281169712543487549e-02 1.381407119333744049e-02 4.656884074211120605e-02 7.265140302479267120e-03 -5.620427546091377735e-04 3.029469773173332214e-02 -8.842530846595764160e-02 2.954541333019733429e-02 5.924563109874725342e-02 -7.371649146080017090e-02 1.575030945241451263e-02 1.202056743204593658e-02 -7.828979752957820892e-03 -1.073224693536758423e-01 -6.188515946269035339e-02 1.039625927805900574e-01 -1.074701398611068726e-01 -3.024632483720779419e-02 2.776568522676825523e-03 1.442664563655853271e-01 -2.998140640556812286e-02 -2.115254104137420654e-02 4.160031303763389587e-02 4.506428167223930359e-02 9.743516892194747925e-02 -4.959316924214363098e-02 1.201900281012058258e-02 -1.206739768385887146e-01 6.047188490629196167e-02 1.581465266644954681e-02 3.407950326800346375e-02 -5.408015102148056030e-02 4.703061655163764954e-02 -1.297501754015684128e-02 -3.460739552974700928e-02 -1.684696972370147705e-02 -5.251025781035423279e-02 6.783001869916915894e-02 8.090911060571670532e-02 4.988829046487808228e-02 5.153401941061019897e-02 -3.630036115646362305e-02 1.184288635849952698e-01 -5.370609089732170105e-02 5.918435379862785339e-02 -3.845754265785217285e-02 1.229188516736030579e-01 -1.119373366236686707e-03 -1.483580004423856735e-02 5.703851580619812012e-02 -3.139739483594894409e-02 -1.290911342948675156e-02 1.145015098154544830e-02 -2.431325428187847137e-02 1.268485337495803833e-01 5.567214637994766235e-02 9.278329461812973022e-02 1.092415023595094681e-02 2.776111476123332977e-02 3.594405949115753174e-02 1.276797056198120117e-01 -2.841744199395179749e-02 1.372181773185729980e-01 -4.757272079586982727e-02 2.619975060224533081e-02 3.325235843658447266e-02 6.151827517896890640e-03 6.541647948324680328e-03 -9.011359885334968567e-03 1.483244239352643490e-03 -7.536397129297256470e-02 6.337352842092514038e-02 -1.217676233500242233e-02 4.413791745901107788e-02 -1.892683655023574829e-02 3.504157811403274536e-02 1.462127715349197388e-01 1.941416040062904358e-02 -1.195279508829116821e-01 -2.708668634295463562e-02 6.572937965393066406e-02 -2.183002419769763947e-02 4.019179940223693848e-02 1.838617175817489624e-01 -3.795628994703292847e-02 1.053475439548492432e-01 -2.040401101112365723e-02 2.680671401321887970e-02 -2.276442386209964752e-02 -3.892619907855987549e-02 5.056512542068958282e-03 3.403656184673309326e-02 7.468965649604797363e-02 8.350910618901252747e-03 6.083079148083925247e-03 -5.181539803743362427e-03 1.081529036164283752e-01 -3.479966148734092712e-02 1.147413440048694611e-02 2.405139058828353882e-02 1.248838454484939575e-01 1.363342977128922939e-03 9.614387527108192444e-03 1.522398274391889572e-02 5.554037913680076599e-02 2.341686189174652100e-02 -1.814669743180274963e-02 4.329245910048484802e-02 3.733810409903526306e-02 7.396496832370758057e-02 6.343520432710647583e-02 1.493743713945150375e-02 5.466369539499282837e-02 4.159335047006607056e-02 1.325071207247674465e-03 4.239006340503692627e-02 -2.048718929290771484e-02 7.319907844066619873e-02 8.944991976022720337e-02 -7.351974491029977798e-03 8.698973059654235840e-02 1.046818494796752930e-01 -1.852433569729328156e-02 -5.360885336995124817e-02 6.455771625041961670e-02 1.121753919869661331e-02 3.457868471741676331e-02 9.561513364315032959e-02 4.874428361654281616e-02 5.197859928011894226e-02 -2.075075730681419373e-02 1.494734454900026321e-02 9.649066627025604248e-02 -2.788588777184486389e-02 9.137410670518875122e-02 1.067095249891281128e-01 -1.333432924002408981e-02 3.559854999184608459e-02 9.079776704311370850e-02
9.169919043779373169e-02 1.538008451461791992e-01 9.203215688467025757e-02 9.169550985097885132e-02 1.554844230413436890e-01 2.540182135999202728e-02 2.016896195709705353e-02 7.139477878808975220e-02 1.909896032884716988e-03 9.407106786966323853e-02 1.032207999378442764e-02 8.350724726915359497e-02 8.914029598236083984e-02 1.213214825838804245e-02 -2.469974569976329803e-02 7.919727265834808350e-02 1.643418222665786743e-01 1.483133435249328613e-01 1.165702119469642639e-01 5.310074239969253540e-02 1.278043817728757858e-02 1.500343084335327148e-01 8.679465949535369873e-02 7.800992578268051147e-02 4.937726631760597229e-02 7.295100018382072449e-03 6.881569325923919678e-02 1.178796514868736267e-01 1.593493372201919556e-01 2.954034693539142609e-02 2.071881443262100220e-01 3.118996880948543549e-02 1.136433854699134827e-01 1.742494478821754456e-02 -2.418589033186435699e-02 -4.588544741272926331e-02 1.681710220873355865e-02 3.386210277676582336e-02 5.748537182807922363e-02 1.205063425004482269e-02 6.364980340003967285e-02 1.596154831349849701e-02 1.178264245390892029e-01 -5.230861250311136246e-03 2.892647311091423035e-02 1.696661263704299927e-01 -9.245195984840393066e-02 5.841984972357749939e-02 1.414200384169816971e-02 1.765381544828414917e-01 -7.176513224840164185e-02 1.254871934652328491e-01 5.159512907266616821e-02 3.344079852104187012e-02 -5.085863545536994934e-02 3.878218308091163635e-02 9.181050211191177368e-02 -4.978047683835029602e-02 1.792952232062816620e-02 5.305588990449905396e-02 9.220228344202041626e-02 9.488936513662338257e-02 1.848745509050786495e-03 3.580878302454948425e-02 -1.602553762495517731e-03 8.997005410492420197e-03 7.384286820888519287e-02 1.236469671130180359e-01 8.017060160636901855e-02 5.043689534068107605e-02 1.271916329860687256e-01 1.660352647304534912e-01 1.068803071975708008e-01 7.235463708639144897e-02 7.035867869853973389e-02 1.718975603580474854e-01 4.676009994000196457e-03 -8.401258289813995361e-02 9.602233767509460449e-02 6.930623948574066162e-02 1.769358217716217041e-01 9.709174185991287231e-02 1.369424164295196533e-01 7.740881294012069702e-02 -2.420978620648384094e-02 1.187002509832382202e-01 5.058581009507179260e-02 1.107366904616355896e-01 1.724058985710144043e-01 5.999129731208086014e-03 1.266719251871109009e-01 1.405438333749771118e-01 -1.618625223636627197e-02 1.234869565814733505e-02 1.046438068151473999e-01 4.911477118730545044e-02 2.690611034631729126e-02 1.578197032213211060e-01 1.694733835756778717e-02 5.341726914048194885e-02 1.356353703886270523e-02 1.233291998505592346e-01 1.651121228933334351e-01 -8.104326575994491577e-02 -9.307686239480972290e-03 1.151715815067291260e-01 -6.173279508948326111e-02 -3.219641745090484619e-02 5.040587484836578369e-02 -4.962215572595596313e-02 1.085412804968655109e-03 5.595759302377700806e-02 6.926722824573516846e-02 6.022856384515762329e-02 -4.994820803403854370e-02 -4.242995381355285645e-02 1.327587962150573730e-01 -5.183574557304382324e-02 -3.430687589570879936e-03 4.784868285059928894e-02 6.859374046325683594e-02 -8.459245413541793823e-02 -9.524837881326675415e-02 -9.019912779331207275e-02 -1.394376717507839203e-02 -2.391168102622032166e-02 1.046993210911750793e-01 -2.798807434737682343e-02 7.751745171844959259e-03 -2.621875517070293427e-02 9.644141048192977905e-02 -4.915138706564903259e-03 1.148660760372877121e-02 -1.385407522320747375e-02 6.680909544229507446e-03 9.318505972623825073e-02 -7.024641148746013641e-03 -3.476994112133979797e-02 6.641084700822830200e-02 -7.537192106246948242e-02 7.221952080726623535e-02 6.479129195213317871e-02 3.820719569921493530e-02 -6.772650033235549927e-02 1.352590881288051605e-02 1.477890312671661377e-01 -1.146990507841110229e-01 -2.889450453221797943e-02 3.818864747881889343e-02 1.793748512864112854e-02 -4.113845992833375931e-03 3.316296637058258057e-02 3.785836324095726013e-02 9.408131986856460571e-02 -4.253048822283744812e-02 7.229445874691009521e-02 2.956144139170646667e-02 9.673446416854858398e-02 7.283116690814495087e-03 6.468734890222549438e-02 1.052633151412010193e-01 1.944704353809356689e-02 7.282052189111709595e-02 -2.998166345059871674e-02 8.029995486140251160e-03 1.002402827143669128e-01 -1.168313995003700256e-02 1.016433164477348328e-02 7.874505221843719482e-02 -6.642561405897140503e-02 -2.159024775028228760e-02 -7.084073033183813095e-03 3.142636269330978394e-02 4.732657223939895630e-02 7.357051223516464233e-02 4.616796597838401794e-02 8.861939609050750732e-02 -6.153136491775512695e-02 1.157252416014671326e-01 -7.508636452257633209e-03 4.798426479101181030e-02 -1.048444509506225586e-01 7.820308208465576172e-03 -1.363768894225358963e-02 -4.056484624743461609e-02 2.461106283590197563e-03 6.351971626281738281e-02 -6.840144749730825424e-03 1.490089595317840576e-01 6.475026905536651611e-02 -2.710050344467163086e-02 1.180859357118606567e-01 7.089842110872268677e-02 5.628906562924385071e-02 7.456371188163757324e-02 1.141812875866889954e-01 -2.049793675541877747e-02 6.404214352369308472e-02 -2.548529999330639839e-03 -2.392015047371387482e-02 -7.978911697864532471e-02 -7.391708903014659882e-03 7.144591212272644043e-02 -1.198786683380603790e-02 3.187235817313194275e-02 2.016742946580052376e-03 -5.080760270357131958e-02 -2.099241502583026886e-02 2.800201065838336945e-02 6.932807713747024536e-02 6.214597448706626892e-02 2.257199026644229889e-03 -7.860283553600311279e-02 -8.745167404413223267e-03 -3.812066838145256042e-02 1.780181005597114563e-02 2.766996435821056366e-02 5.830960720777511597e-02 1.648638024926185608e-02 8.138656616210937500e-02 -3.816052526235580444e-02 6.861423701047897339e-02 -2.404560521245002747e-02 -6.834942847490310669e-02 -5.297851748764514923e-04 4.189354926347732544e-02 1.474338024854660034e-02 -5.728071182966232300e-02 8.644446730613708496e-02 3.806939721107482910e-02 4.222499579191207886e-02 5.331333726644515991e-02 -3.954827040433883667e-02 -1.458451244980096817e-02 7.109476719051599503e-03 -5.412760004401206970e-02 -1.286182180047035217e-02 4.002893343567848206e-02 -1.818555593490600586e-02 -3.198136761784553528e-02 8.170944452285766602e-02 -4.460730415303260088e-04 -8.609303273260593414e-03 1.734194345772266388e-02 -3.133027628064155579e-02 1.875879825092852116e-03 4.539484158158302307e-02 -5.689029768109321594e-02 3.462602943181991577e-02 -2.062791213393211365e-02 2.724137343466281891e-02 -1.812956854701042175e-02 3.467789851129055023e-03 -1.215092372149229050e-02 -8.118191361427307129e-02 8.618178963661193848e-02 -2.759690210223197937e-02 -3.412575274705886841e-02 6.023111566901206970e-02 -1.234524510800838470e-02 8.149406639859080315e-04 -6.933595240116119385e-02 6.769740581512451172e-02 5.355272814631462097e-02 9.051146358251571655e-02 -3.100117109715938568e-02 -7.170233130455017090e-02 1.754988357424736023e-02 5.873451009392738342e-03 4.707868024706840515e-02 1.750253885984420776e-02 8.959060162305831909e-02 -3.095695562660694122e-02 3.390339389443397522e-02 7.007616758346557617e-02 -2.796674892306327820e-02 4.165073484182357788e-02 -3.328600898385047913e-02 -2.076498791575431824e-02 -9.160441905260086060e-02 2.157690934836864471e-02 3.757037688046693802e-03 -6.545944511890411377e-02 3.974119946360588074e-02 -8.998529613018035889e-02 -3.062720596790313721e-02 -3.350918367505073547e-02 -4.923397675156593323e-02 -2.757511101663112640e-02 3.692289814352989197e-02 2.794342814013361931e-03 2.646568231284618378e-02 -2.024275995790958405e-02 1.634271591901779175e-01 9.635892510414123535e-02 -7.029515225440263748e-03 -1.085043046623468399e-02 -7.471397519111633301e-02 -4.420147091150283813e-02 -2.667969837784767151e-02 6.075870618224143982e-02 1.084966734051704407e-01 -8.814786560833454132e-03 7.169666886329650879e-02 9.368681162595748901e-02 -1.263779122382402420e-02 1.442938596010208130e-01 9.363519400358200073e-02 -1.467571035027503967e-02 3.789086267352104187e-02 -3.507169336080551147e-02 7.942986488342285156e-02 7.364056259393692017e-02 8.696577697992324829e-02 -8.861725032329559326e-02 9.995917975902557373e-02 3.344380483031272888e-02 2.622635103762149811e-02 8.719576150178909302e-02 3.761645779013633728e-02 1.346281170845031738e-02 1.226409077644348145e-01 1.461256146430969238e-01 3.532040119171142578e-02 1.171319186687469482e-01 -4.086761549115180969e-02 1.059164628386497498e-01 8.695779740810394287e-02 1.181923896074295044e-01 4.165954142808914185e-02 1.182773113250732422e-01 -7.018403150141239166e-03 6.693234201520681381e-03 1.100636832416057587e-02 -4.994384571909904480e-02 -5.111986398696899414e-02 2.627449296414852142e-02 -5.101192370057106018e-02 -2.589752525091171265e-02 4.199209809303283691e-02 9.737015701830387115e-03 9.296753443777561188e-03 -1.214516311883926392e-01 2.624043449759483337e-02 4.836807772517204285e-02 1.525477319955825806e-01 2.425722591578960419e-02 2.211249247193336487e-02 -8.833792991936206818e-03 1.745966821908950806e-01 6.130900979042053223e-02 -1.424371730536222458e-02 -1.712992787361145020e-02 9.415324777364730835e-03 6.439670920372009277e-02 7.332281023263931274e-02 -3.842949867248535156e-02 -4.665770381689071655e-02 -6.092240568250417709e-03 4.045409336686134338e-02 8.262222260236740112e-02 4.598579183220863342e-02 -6.702534109354019165e-02 5.736842378973960876e-02 3.266096115112304688e-03 4.875182360410690308e-02 1.353480387479066849e-02 5.357605963945388794e-02 8.989198505878448486e-02 -2.316074818372726440e-02 1.245143823325634003e-02 1.476921373978257179e-03 8.806469291448593140e-02 8.934216201305389404e-02 6.242026388645172119e-02 1.140598729252815247e-01 5.994296446442604065e-02 9.811065159738063812e-03 4.448243230581283569e-02 1.380696613341569901e-02 2.181369997560977936e-02 9.251055121421813965e-02 -3.268688172101974487e-02 -5.987313389778137207e-02 6.531982868909835815e-02 5.462444946169853210e-02 3.266348736360669136e-03 6.356022506952285767e-02 3.693244233727455139e-02 2.271353639662265778e-02 8.599658310413360596e-02 1.514330878853797913e-02 1.446322202682495117e-01 9.767855703830718994e-02 -1.553445123136043549e-02 3.163012489676475525e-02 9.264165908098220825e-02 2.966263704001903534e-02 1.707076095044612885e-02 2.291060797870159149e-02
